{"learner":{"attributes":{"best_iteration":"35","best_score":"6041130.691090315"},"feature_names":["FP","Age","Min","FTA","TOV","PTS_per_gp","log1p_PF","log1p_3PM","PTS_per_min","OREB_per_min"],"feature_types":["float","int","float","float","float","float","float","float","float","float"],"gradient_booster":{"model":{"gbtree_model_param":{"num_parallel_tree":"1","num_trees":"66"},"iteration_indptr":[0,1,2,3,4,5,6,7,8,9,10,11,12,13,14,15,16,17,18,19,20,21,22,23,24,25,26,27,28,29,30,31,32,33,34,35,36,37,38,39,40,41,42,43,44,45,46,47,48,49,50,51,52,53,54,55,56,57,58,59,60,61,62,63,64,65,66],"tree_info":[0,0,0,0,0,0,0,0,0,0,0,0,0,0,0,0,0,0,0,0,0,0,0,0,0,0,0,0,0,0,0,0,0,0,0,0,0,0,0,0,0,0,0,0,0,0,0,0,0,0,0,0,0,0,0,0,0,0,0,0,0,0,0,0,0,0],"trees":[{"base_weights":[1.070759E5,-4.2124125E6,1.4594714E7,-6.7069E6,-6.582764E5,-1.427802E6,1.9462348E7,-7.514125E6,-5.1902745E6,-4.1484322E6,3.0383852E6,-2.3049282E6,1.4059577E7,1.3786973E7,2.7062234E7,-7.610163E6,1.4028174E6,-5.9569295E6,-1.5230402E6,1.1613548E7,-4.348143E6,1.1778367E5,8.3578675E6,-2.680984E6,6.8619575E6,2.940175E4,1.855009E6,6.8421465E6,1.703404E7,1.1743498E7,2.8463624E7,-8.057671E6,-6.677551E6,-1.8526915E6,7.212427E5,-6.852895E6,-4.6111575E6,-2.7330135E6,2.6794305E6,2.6871422E5,1.473318E6,-5.314204E6,-2.1673902E6,-2.2155545E6,2.415076E6,5.4826565E6,1.0861808E7,-4.6602735E6,-1.676085E6,-7.440215E4,1.1036959E6,4.3004775E6,1.6530991E7,1.401194E7,2.4166604E7,3.7479534E5,1.3273891E6,2.3301136E7,3.269098E6,-5.8853156E5,-8.1684594E5,-6.8383794E5,2.4639123E5,9.0887805E4,-3.076174E5,-6.986129E5,3.3684675E5,-8.339003E4,-6.120552E5,-3.2622812E5,3.117824E5,5.2912406E5,4.9165227E4,-5.768217E5,-2.2722103E5,-3.277227E5,1.6444055E5,-2.9835838E5,1.2042268E5,4.269444E5,-2.591949E5,1.6533469E6,3.977023E5,2.0464128E5,1.1838725E6,-5.9644094E5,-2.4988695E5,-2.3493092E5,9.824537E4,2.881786E5,1.280375E6,1.9881452E6,-5.1363475E5,1.5074864E6,6.9307555E4,1.1936282E6,2.584774E6,5.0983884E5,2.360589E6],"categories":[],"categories_nodes":[],"categories_segments":[],"categories_sizes":[],"default_left":[0,0,0,0,0,0,0,0,0,0,0,0,0,0,0,0,0,0,0,0,0,0,0,0,0,0,0,0,0,0,0,0,0,0,0,0,0,0,0,0,0,0,0,0,0,0,0,0,0,0,0,0,0,0,0,0,0,0,0,0,0,0,0,0,0,0,0,0,0,0,0,0,0,0,0,0,0,0,0,0,0,0,0,0,0,0,0,0,0,0,0,0,0,0,0,0,0,0,0],"id":0,"left_children":[1,3,5,7,9,11,13,15,17,19,21,23,25,27,29,31,33,35,37,39,41,43,45,47,49,-1,-1,51,53,55,57,59,61,63,-1,65,67,69,71,-1,-1,73,75,77,79,81,83,85,87,-1,-1,89,91,93,95,-1,-1,97,-1,-1,-1,-1,-1,-1,-1,-1,-1,-1,-1,-1,-1,-1,-1,-1,-1,-1,-1,-1,-1,-1,-1,-1,-1,-1,-1,-1,-1,-1,-1,-1,-1,-1,-1,-1,-1,-1,-1,-1,-1],"loss_changes":[8.310405E16,9.065248E15,2.3815276E16,6.9677684E14,5.470119E15,1.0104822E15,9.719829E15,3.4465824E14,5.8696634E14,7.367257E14,3.19945E15,2.5625771E14,2.418037E14,2.9502925E15,1.7910185E15,1.0729258E14,1.0792857E14,1.7940937E14,2.0054826E14,4.395114E13,4.4353778E14,7.2363904E14,4.660018E14,1.2545103E14,1.0347662E14,0E0,0E0,1.0370711E15,1.64447E15,7.261313E13,1.2023933E15,1.3537737E13,2.0944623E14,1.6310795E13,0E0,1.6380039E14,4.1109588E14,1.03071045E14,4.88251E13,0E0,0E0,1.9267787E14,2.9306105E14,1.7956785E14,6.4243705E14,5.3323106E14,3.0302524E14,4.7108543E13,8.463858E13,0E0,0E0,4.0945272E14,7.554783E14,9.38067E14,2.2605487E14,0E0,0E0,1.2372942E14,0E0,0E0,0E0,0E0,0E0,0E0,0E0,0E0,0E0,0E0,0E0,0E0,0E0,0E0,0E0,0E0,0E0,0E0,0E0,0E0,0E0,0E0,0E0,0E0,0E0,0E0,0E0,0E0,0E0,0E0,0E0,0E0,0E0,0E0,0E0,0E0,0E0,0E0,0E0,0E0,0E0],"parents":[2147483647,0,0,1,1,2,2,3,3,4,4,5,5,6,6,7,7,8,8,9,9,10,10,11,11,12,12,13,13,14,14,15,15,16,16,17,17,18,18,19,19,20,20,21,21,22,22,23,23,24,24,27,27,28,28,29,29,30,30,31,31,32,32,33,33,35,35,36,36,37,37,38,38,41,41,42,42,43,43,44,44,45,45,46,46,47,47,48,48,51,51,52,52,53,53,54,54,57,57],"right_children":[2,4,6,8,10,12,14,16,18,20,22,24,26,28,30,32,34,36,38,40,42,44,46,48,50,-1,-1,52,54,56,58,60,62,64,-1,66,68,70,72,-1,-1,74,76,78,80,82,84,86,88,-1,-1,90,92,94,96,-1,-1,98,-1,-1,-1,-1,-1,-1,-1,-1,-1,-1,-1,-1,-1,-1,-1,-1,-1,-1,-1,-1,-1,-1,-1,-1,-1,-1,-1,-1,-1,-1,-1,-1,-1,-1,-1,-1,-1,-1,-1,-1,-1],"split_conditions":[2.94E1,1.84E1,2.4E1,2.8E1,2.7E1,1.4350846E0,4.6E0,2.66E1,2.05E1,2.6341462E-1,2.41E1,1.5040774E0,3.52E1,3.03E1,3.54E1,1.45E1,2.5E1,1.62E1,1.0647107E0,2.29E1,2.5E1,1.6333333E-1,3E1,3.16E1,2.97E1,2.940175E4,1.855009E6,3.2E1,3E1,2.83E1,2.8E1,5.3062826E-1,3.516129E-1,1.59E1,7.212427E5,1.0296195E0,1.72E1,1.2237754E0,2.9E1,2.6871422E5,1.473318E6,3.1E0,2.59E1,2.84E1,4.911032E-1,2.7567568E-1,5.3062826E-1,3.32E1,7.27003E-1,-7.440215E4,1.1036959E6,6.117647E-1,3.22E1,4.3E0,1.8E0,3.7479534E5,1.3273891E6,2.4342105E-1,3.269098E6,-5.8853156E5,-8.1684594E5,-6.8383794E5,2.4639123E5,9.0887805E4,-3.076174E5,-6.986129E5,3.3684675E5,-8.339003E4,-6.120552E5,-3.2622812E5,3.117824E5,5.2912406E5,4.9165227E4,-5.768217E5,-2.2722103E5,-3.277227E5,1.6444055E5,-2.9835838E5,1.2042268E5,4.269444E5,-2.591949E5,1.6533469E6,3.977023E5,2.0464128E5,1.1838725E6,-5.9644094E5,-2.4988695E5,-2.3493092E5,9.824537E4,2.881786E5,1.280375E6,1.9881452E6,-5.1363475E5,1.5074864E6,6.9307555E4,1.1936282E6,2.584774E6,5.0983884E5,2.360589E6],"split_indices":[0,0,1,1,1,7,3,2,2,8,0,6,0,2,0,0,1,2,7,0,1,5,1,2,0,0,0,1,1,2,1,6,5,0,0,7,2,6,1,0,0,3,0,2,8,8,7,0,8,0,0,8,0,3,3,0,0,5,0,0,0,0,0,0,0,0,0,0,0,0,0,0,0,0,0,0,0,0,0,0,0,0,0,0,0,0,0,0,0,0,0,0,0,0,0,0,0,0,0],"split_type":[0,0,0,0,0,0,0,0,0,0,0,0,0,0,0,0,0,0,0,0,0,0,0,0,0,0,0,0,0,0,0,0,0,0,0,0,0,0,0,0,0,0,0,0,0,0,0,0,0,0,0,0,0,0,0,0,0,0,0,0,0,0,0,0,0,0,0,0,0,0,0,0,0,0,0,0,0,0,0,0,0,0,0,0,0,0,0,0,0,0,0,0,0,0,0,0,0,0,0],"sum_hessian":[1.326E3,1.022E3,3.04E2,6E2,4.22E2,7.1E1,2.33E2,3.89E2,2.11E2,2.17E2,2.05E2,6.8E1,3E0,1.35E2,9.8E1,3.85E2,4E0,1.74E2,3.7E1,2E0,2.15E2,1.33E2,7.2E1,6.6E1,2E0,1E0,2E0,4.4E1,9.1E1,9E0,8.9E1,2.55E2,1.3E2,3E0,1E0,1.02E2,7.2E1,2.9E1,8E0,1E0,1E0,1.48E2,6.7E1,6.6E1,6.7E1,3.5E1,3.7E1,2.1E1,4.5E1,1E0,1E0,3.6E1,8E0,6.6E1,2.5E1,2E0,7E0,4.3E1,4.6E1,1.5E1,2.4E2,1.28E2,2E0,1E0,2E0,1.01E2,1E0,2.1E1,5.1E1,2.7E1,2E0,3E0,5E0,1.28E2,2E1,5.2E1,1.5E1,5.4E1,1.2E1,4.9E1,1.8E1,3E0,3.2E1,4E0,3.3E1,1.2E1,9E0,3.6E1,9E0,3.2E1,4E0,7E0,1E0,6.1E1,5E0,4E0,2.1E1,1E0,4.2E1],"tree_param":{"num_deleted":"0","num_feature":"10","num_nodes":"99","size_leaf_vector":"1"}},{"base_weights":[-3.5725844E4,-3.5492528E6,1.4606387E7,-5.6257485E6,6.546812E5,-5.1897022E5,1.921573E7,-6.665384E6,-4.2393065E6,-3.5802628E6,3.7708855E6,-2.0522722E6,3.9217088E6,1.372992E7,2.4961232E7,-7.084495E6,-5.169636E6,-6.3091785E6,-2.787605E6,-4.7792295E6,-1.6296841E6,5.663519E5,6.8174285E6,-2.5638832E6,1.048511E6,-4.4294522E5,6.189627E6,3.133468E6,1.593701E7,1.855999E7,3.0119952E7,-2.7774178E5,-7.130812E5,3.55773E5,-5.400542E6,-6.5171165E6,-1.02957694E6,-3.1747615E6,4.2663955E6,-5.316195E6,-2.553494E6,-3.0785365E6,2.456515E6,-4.9366366E5,3.9878042E6,1.5727502E7,6.11856E6,-2.9842578E6,6.65928E5,1.8016859E6,2.4013248E6,4.7459485E6,-4.0998205E6,1.2666472E7,2.1815756E7,1.1862548E7,2.3443442E6,2.9100197E5,3.060595E6,-6.187129E5,-3.5055253E5,-1.2147804E5,-6.5953656E5,5.544985E5,-5.7031044E5,-5.637013E5,-2.6674144E5,1.2517184E6,6.390509E4,-5.4543794E5,-1.5343758E5,3.670645E4,-3.0904788E5,4.245579E5,-3.3475994E5,-3.762908E5,4.8432322E5,-2.2174238E5,1.924113E5,5.1221366E5,-5.6599006E5,1.774617E6,1.807747E5,1.8247875E5,7.468237E5,-3.5260272E5,-3.7642652E4,-8.98059E4,1.1583373E5,3.959147E4,1.1227714E6,2.4065423E5,1.1162531E6,1.730523E5,-6.6201094E5,1.3407286E6,-5.0113574E4,1.0602375E6,2.3710112E6,1.9536979E6,7.490311E5],"categories":[],"categories_nodes":[],"categories_segments":[],"categories_sizes":[],"default_left":[0,0,0,0,0,0,0,0,0,0,0,0,0,0,0,0,0,0,0,0,0,0,0,0,0,0,0,0,0,0,0,0,0,0,0,0,0,0,0,0,0,0,0,0,0,0,0,0,0,0,0,0,0,0,0,0,0,0,0,0,0,0,0,0,0,0,0,0,0,0,0,0,0,0,0,0,0,0,0,0,0,0,0,0,0,0,0,0,0,0,0,0,0,0,0,0,0,0,0,0,0],"id":1,"left_children":[1,3,5,7,9,11,13,15,17,19,21,23,25,27,29,31,33,35,37,39,41,43,45,47,-1,-1,49,51,53,55,57,-1,-1,-1,59,61,63,65,67,69,71,73,75,77,79,81,83,85,87,-1,89,91,93,95,97,99,-1,-1,-1,-1,-1,-1,-1,-1,-1,-1,-1,-1,-1,-1,-1,-1,-1,-1,-1,-1,-1,-1,-1,-1,-1,-1,-1,-1,-1,-1,-1,-1,-1,-1,-1,-1,-1,-1,-1,-1,-1,-1,-1,-1,-1],"loss_changes":[6.8319967E16,9.352924E15,1.792749E16,1.0052242E15,4.6984183E15,4.2339143E14,5.86647E15,2.1914426E14,9.139121E14,3.4535188E14,1.9975029E15,3.2193867E14,3.3045264E14,2.358955E15,2.5780842E15,4.3234215E13,2.0662739E14,1.3271395E14,5.1604918E14,9.75736E13,3.5686014E14,3.6827472E14,5.5760218E14,6.3085184E13,0E0,0E0,5.3920227E14,2.4106472E14,1.3579377E15,1.1937003E15,5.853568E14,0E0,0E0,0E0,1.1395515E14,4.2606612E13,2.15982E14,2.0357675E14,2.9128535E14,3.0302202E13,3.250032E13,1.0092089E14,2.5572866E14,3.2934464E14,2.9163965E14,1.6461482E14,5.600973E14,5.518647E13,5.6609845E12,0E0,1.902606E14,2.1331274E14,7.023284E13,5.6274057E14,3.646395E14,5.583052E14,0E0,0E0,0E0,0E0,0E0,0E0,0E0,0E0,0E0,0E0,0E0,0E0,0E0,0E0,0E0,0E0,0E0,0E0,0E0,0E0,0E0,0E0,0E0,0E0,0E0,0E0,0E0,0E0,0E0,0E0,0E0,0E0,0E0,0E0,0E0,0E0,0E0,0E0,0E0,0E0,0E0,0E0,0E0,0E0,0E0],"parents":[2147483647,0,0,1,1,2,2,3,3,4,4,5,5,6,6,7,7,8,8,9,9,10,10,11,11,12,12,13,13,14,14,15,15,16,16,17,17,18,18,19,19,20,20,21,21,22,22,23,23,26,26,27,27,28,28,29,29,30,30,34,34,35,35,36,36,37,37,38,38,39,39,40,40,41,41,42,42,43,43,44,44,45,45,46,46,47,47,48,48,50,50,51,51,52,52,53,53,54,54,55,55],"right_children":[2,4,6,8,10,12,14,16,18,20,22,24,26,28,30,32,34,36,38,40,42,44,46,48,-1,-1,50,52,54,56,58,-1,-1,-1,60,62,64,66,68,70,72,74,76,78,80,82,84,86,88,-1,90,92,94,96,98,100,-1,-1,-1,-1,-1,-1,-1,-1,-1,-1,-1,-1,-1,-1,-1,-1,-1,-1,-1,-1,-1,-1,-1,-1,-1,-1,-1,-1,-1,-1,-1,-1,-1,-1,-1,-1,-1,-1,-1,-1,-1,-1,-1,-1,-1],"split_conditions":[3.09E1,2.39E1,2.4E1,2.7E1,2.6E1,7.165605E-1,6.438356E-1,1.76E1,1.62E1,2.4E1,2.38E1,1.5040774E0,2.6E0,3.01E1,2.8E1,2E1,6E-1,1.61E1,2.4E1,5E-1,2.175E-1,4.3404254E-1,2.7567568E-1,3.3E0,1.048511E6,-4.4294522E5,3.516129E-1,2.7E0,4.4E0,4.11E1,3.14E1,-2.7774178E5,-7.130812E5,3.55773E5,2.5E1,4.054651E-1,1.71E1,6E-1,9.1629076E-1,2.6E0,2.1E1,2.4E1,1.9E0,2.75E1,3.6E1,3.16E1,2.7E1,5.7E0,1.0296195E0,1.8016859E6,5.297297E-1,2.6865673E-1,3.37E1,4.3E0,3.26E1,3.1E1,2.3443442E6,2.9100197E5,3.060595E6,-6.187129E5,-3.5055253E5,-1.2147804E5,-6.5953656E5,5.544985E5,-5.7031044E5,-5.637013E5,-2.6674144E5,1.2517184E6,6.390509E4,-5.4543794E5,-1.5343758E5,3.670645E4,-3.0904788E5,4.245579E5,-3.3475994E5,-3.762908E5,4.8432322E5,-2.2174238E5,1.924113E5,5.1221366E5,-5.6599006E5,1.774617E6,1.807747E5,1.8247875E5,7.468237E5,-3.5260272E5,-3.7642652E4,-8.98059E4,1.1583373E5,3.959147E4,1.1227714E6,2.4065423E5,1.1162531E6,1.730523E5,-6.6201094E5,1.3407286E6,-5.0113574E4,1.0602375E6,2.3710112E6,1.9536979E6,7.490311E5],"split_indices":[0,2,1,1,1,8,8,0,2,1,0,6,4,2,1,1,4,0,0,8,5,8,8,4,0,0,5,4,3,0,0,0,0,0,1,6,0,4,6,4,1,2,3,2,1,2,2,3,6,0,5,5,0,3,0,2,0,0,0,0,0,0,0,0,0,0,0,0,0,0,0,0,0,0,0,0,0,0,0,0,0,0,0,0,0,0,0,0,0,0,0,0,0,0,0,0,0,0,0,0,0],"split_type":[0,0,0,0,0,0,0,0,0,0,0,0,0,0,0,0,0,0,0,0,0,0,0,0,0,0,0,0,0,0,0,0,0,0,0,0,0,0,0,0,0,0,0,0,0,0,0,0,0,0,0,0,0,0,0,0,0,0,0,0,0,0,0,0,0,0,0,0,0,0,0,0,0,0,0,0,0,0,0,0,0,0,0,0,0,0,0,0,0,0,0,0,0,0,0,0,0,0,0,0,0],"sum_hessian":[1.326E3,1.07E3,2.56E2,7.16E2,3.54E2,6E1,1.96E2,4.07E2,3.09E2,1.5E2,2.04E2,4.5E1,1.5E1,1.02E2,9.4E1,3.15E2,9.2E1,1.26E2,1.83E2,9.2E1,5.8E1,1E2,1.04E2,4.4E1,1E0,3E0,1.2E1,1.8E1,8.4E1,4.4E1,5E1,4E0,3.11E2,2E0,9E1,1.21E2,5E0,1.74E2,9E0,7.3E1,1.9E1,4.3E1,1.5E1,7.7E1,2.3E1,6E0,9.8E1,3.9E1,5E0,2E0,1E1,1.5E1,3E0,5.6E1,2.8E1,2E1,2.4E1,1E0,4.9E1,6.2E1,2.8E1,2E0,1.19E2,2E0,3E0,2.8E1,1.46E2,2E0,7E0,7E1,3E0,3E0,1.6E1,1E0,4.2E1,4E0,1.1E1,4.5E1,3.2E1,2.1E1,2E0,5E0,1E0,2.4E1,7.4E1,3.2E1,7E0,1E0,4E0,9E0,1E0,1.2E1,3E0,1E0,2E0,5.3E1,3E0,5E0,2.3E1,6E0,1.4E1],"tree_param":{"num_deleted":"0","num_feature":"10","num_nodes":"101","size_leaf_vector":"1"}},{"base_weights":[-2.1102814E5,-3.2631768E6,1.3036398E7,-5.20729E6,4.701471E5,-9.6179456E5,1.7240918E7,-5.982685E6,-3.8069528E6,-3.0464498E6,3.219995E6,-1.9220202E6,1.2481758E7,1.3840099E7,2.4038738E7,-6.413336E6,-5.054771E6,-4.9213985E6,-9.215292E5,-4.2729875E6,-1.0512082E6,5.463004E5,5.6658235E6,-2.6084662E6,4.9637934E5,4.55618E4,1.6338599E6,9.448482E6,1.8152702E7,7.815897E6,2.5324672E7,-6.458845E6,-3.068991E6,-5.450866E6,-1.8912591E6,-4.2391805E6,-6.0946675E6,-2.6107742E6,1.5304396E6,-4.4625235E6,3.3428508E6,-2.423863E6,2.805614E6,-1.9839776E6,2.920095E6,1.4761169E7,4.889303E6,-1.6302076E6,-4.008732E6,-1.2051878E6,1.7105073E5,-1.3660495E5,1.0964313E7,1.2285185E7,2.0540548E7,1.3896939E6,-2.897457E6,2.0486588E7,3.1123432E6,-3.257149E5,-6.4911075E5,-5.565357E5,4.7064184E5,-5.6667894E5,-2.2715205E5,5.9120406E5,-3.846055E5,-4.6000156E5,-1.958941E5,5.211155E4,-6.206182E5,-5.2680875E5,-1.28366875E5,6.2956363E4,4.400523E5,-2.2794145E5,-4.7406384E5,4.858724E5,1.55552E4,-3.272864E5,1.5244592E5,8.103252E4,9.087722E5,-2.6678916E5,3.3620528E5,1.1313949E6,2.1752888E5,1.6379234E6,1.7173595E5,1.5062641E4,6.7048144E5,-2.722238E5,2.056762E4,-4.612105E5,-8.947433E4,-1.6535139E5,-2.0569033E4,2.647228E5,-1.7078517E5,1.6135664E6,8.7332194E5,1.7642379E6,4.6280356E5,1.099396E6,2.1482572E6,2.02339E4,-4.5485247E5,2.08414E6,4.3888756E5],"categories":[],"categories_nodes":[],"categories_segments":[],"categories_sizes":[],"default_left":[0,0,0,0,0,0,0,0,0,0,0,0,0,0,0,0,0,0,0,0,0,0,0,0,0,0,0,0,0,0,0,0,0,0,0,0,0,0,0,0,0,0,0,0,0,0,0,0,0,0,0,0,0,0,0,0,0,0,0,0,0,0,0,0,0,0,0,0,0,0,0,0,0,0,0,0,0,0,0,0,0,0,0,0,0,0,0,0,0,0,0,0,0,0,0,0,0,0,0,0,0,0,0,0,0,0,0,0,0],"id":2,"left_children":[1,3,5,7,9,11,13,15,17,19,21,23,25,27,29,31,33,35,37,39,41,43,45,47,49,-1,-1,51,53,55,57,59,61,63,65,67,69,71,73,75,77,79,81,83,85,87,89,91,93,95,-1,97,99,101,103,-1,105,107,-1,-1,-1,-1,-1,-1,-1,-1,-1,-1,-1,-1,-1,-1,-1,-1,-1,-1,-1,-1,-1,-1,-1,-1,-1,-1,-1,-1,-1,-1,-1,-1,-1,-1,-1,-1,-1,-1,-1,-1,-1,-1,-1,-1,-1,-1,-1,-1,-1,-1,-1],"loss_changes":[5.3333383E16,7.7830294E15,1.4553935E16,7.427244E14,3.568409E15,7.727033E14,4.0597534E15,1.4820429E14,8.12239E14,3.9196086E14,1.3505603E15,9.260035E13,1.7808753E14,2.2716554E15,1.09547436E15,2.6597659E13,1.7514286E14,1.2064107E14,3.0221786E14,1.5926504E14,3.4032784E14,6.064295E14,6.906023E14,5.236726E13,2.8918443E13,0E0,0E0,9.604368E14,6.443417E14,4.3115583E14,9.615186E14,9.846213E12,1.4265449E14,7.705842E13,2.9730747E14,8.890086E13,5.1187957E13,1.448785E14,7.479726E13,4.86954E13,1.3738843E13,1.6253945E14,2.057245E14,1.8812457E14,3.0048222E14,1.40716685E14,8.67905E14,5.4690604E13,2.7814577E13,2.348494E12,0E0,4.8261956E13,5.1673664E14,7.797878E14,1.5951723E14,0E0,1.627426E13,1.0272703E14,0E0,0E0,0E0,0E0,0E0,0E0,0E0,0E0,0E0,0E0,0E0,0E0,0E0,0E0,0E0,0E0,0E0,0E0,0E0,0E0,0E0,0E0,0E0,0E0,0E0,0E0,0E0,0E0,0E0,0E0,0E0,0E0,0E0,0E0,0E0,0E0,0E0,0E0,0E0,0E0,0E0,0E0,0E0,0E0,0E0,0E0,0E0,0E0,0E0,0E0,0E0],"parents":[2147483647,0,0,1,1,2,2,3,3,4,4,5,5,6,6,7,7,8,8,9,9,10,10,11,11,12,12,13,13,14,14,15,15,16,16,17,17,18,18,19,19,20,20,21,21,22,22,23,23,24,24,27,27,28,28,29,29,30,30,31,31,32,32,33,33,34,34,35,35,36,36,37,37,38,38,39,39,40,40,41,41,42,42,43,43,44,44,45,45,46,46,47,47,48,48,49,49,51,51,52,52,53,53,54,54,56,56,57,57],"right_children":[2,4,6,8,10,12,14,16,18,20,22,24,26,28,30,32,34,36,38,40,42,44,46,48,50,-1,-1,52,54,56,58,60,62,64,66,68,70,72,74,76,78,80,82,84,86,88,90,92,94,96,-1,98,100,102,104,-1,106,108,-1,-1,-1,-1,-1,-1,-1,-1,-1,-1,-1,-1,-1,-1,-1,-1,-1,-1,-1,-1,-1,-1,-1,-1,-1,-1,-1,-1,-1,-1,-1,-1,-1,-1,-1,-1,-1,-1,-1,-1,-1,-1,-1,-1,-1,-1,-1,-1,-1,-1,-1],"split_conditions":[3.1E1,2.02E1,2.4E1,2.8E1,2.6E1,1.4350846E0,2.8E0,1.58E1,2.05E1,2.4E1,2.41E1,3.2E0,3.52E1,2.8E1,3.52E1,4.2586207E-1,2.7E1,3.3E1,9.5551145E-1,3.37E1,2.3974359E-1,1.6463415E-1,2.7567568E-1,3.328767E-1,1.0647107E0,4.55618E4,1.6338599E6,2.3561645E-1,2.547619E-1,3.1E1,3E1,2E1,1.43E1,2.66E1,1.72E1,8.7546873E-1,1.6666667E-1,2.7302632E-1,1.6774194E-1,2.1E1,2.97E1,1.3862944E0,3.04E1,1.1939225E0,2.05E1,3.16E1,7.8845733E-1,5.797101E-1,4.32E1,4.32E1,1.7105073E5,2.81E1,1.9E0,4.9491525E-1,3.2E1,1.3896939E6,3.17E1,3.75E1,3.1123432E6,-3.257149E5,-6.4911075E5,-5.565357E5,4.7064184E5,-5.6667894E5,-2.2715205E5,5.9120406E5,-3.846055E5,-4.6000156E5,-1.958941E5,5.211155E4,-6.206182E5,-5.2680875E5,-1.28366875E5,6.2956363E4,4.400523E5,-2.2794145E5,-4.7406384E5,4.858724E5,1.55552E4,-3.272864E5,1.5244592E5,8.103252E4,9.087722E5,-2.6678916E5,3.3620528E5,1.1313949E6,2.1752888E5,1.6379234E6,1.7173595E5,1.5062641E4,6.7048144E5,-2.722238E5,2.056762E4,-4.612105E5,-8.947433E4,-1.6535139E5,-2.0569033E4,2.647228E5,-1.7078517E5,1.6135664E6,8.7332194E5,1.7642379E6,4.6280356E5,1.099396E6,2.1482572E6,2.02339E4,-4.5485247E5,2.08414E6,4.3888756E5],"split_indices":[0,0,1,1,1,7,4,0,2,1,0,4,0,1,0,5,1,1,7,2,5,5,8,5,6,0,0,5,5,1,1,1,0,2,2,7,8,8,5,1,0,6,2,7,0,2,7,8,0,0,0,2,4,8,0,0,0,2,0,0,0,0,0,0,0,0,0,0,0,0,0,0,0,0,0,0,0,0,0,0,0,0,0,0,0,0,0,0,0,0,0,0,0,0,0,0,0,0,0,0,0,0,0,0,0,0,0,0,0],"split_type":[0,0,0,0,0,0,0,0,0,0,0,0,0,0,0,0,0,0,0,0,0,0,0,0,0,0,0,0,0,0,0,0,0,0,0,0,0,0,0,0,0,0,0,0,0,0,0,0,0,0,0,0,0,0,0,0,0,0,0,0,0,0,0,0,0,0,0,0,0,0,0,0,0,0,0,0,0,0,0,0,0,0,0,0,0,0,0,0,0,0,0,0,0,0,0,0,0,0,0,0,0,0,0,0,0,0,0,0,0],"sum_hessian":[1.317E3,1.071E3,2.46E2,7.04E2,3.67E2,5.7E1,1.89E2,4.51E2,2.53E2,1.61E2,2.06E2,5.4E1,3E0,1.28E2,6.1E1,3.04E2,1.47E2,1.82E2,7.1E1,9.9E1,6.2E1,9.9E1,1.07E2,4.2E1,1.2E1,1E0,2E0,6.5E1,6.3E1,5E0,5.6E1,2.99E2,5E0,1.3E2,1.7E1,1.18E2,6.4E1,4.2E1,2.9E1,9.7E1,2E0,4.6E1,1.6E1,4.8E1,5.1E1,7E0,1E2,2.6E1,1.6E1,5E0,7E0,9E0,5.6E1,2E1,4.3E1,3E0,2E0,3.3E1,2.3E1,4E0,2.95E2,4E0,1E0,1.21E2,9E0,3E0,1.4E1,1.01E2,1.7E1,1E0,6.3E1,1.3E1,2.9E1,2.3E1,6E0,1.2E1,8.5E1,1E0,1E0,3.8E1,8E0,1.3E1,3E0,4.3E1,5E0,3E0,4.8E1,6E0,1E0,2.8E1,7.2E1,1.6E1,1E1,1.3E1,3E0,3E0,2E0,3E0,6E0,1.5E1,4.1E1,1.1E1,9E0,5E0,3.8E1,1E0,1E0,3.2E1,1E0],"tree_param":{"num_deleted":"0","num_feature":"10","num_nodes":"109","size_leaf_vector":"1"}},{"base_weights":[9.701438E4,-2.8925825E6,1.2066484E7,-4.1082165E6,2.2323095E6,-7.147865E5,1.5482429E7,-4.9843035E6,-2.150547E6,-2.0175301E6,5.4933055E6,-1.2014059E6,1.302464E6,1.1603304E7,1.9806394E7,-5.500721E6,-3.6313792E6,-4.645506E6,-5.66372E5,-3.093602E6,-2.9966116E5,7.2772965E6,2.6978998E6,-1.9180778E6,2.215425E6,8.500279E6,1.6135176E7,1.6685379E7,2.5006908E7,-5.5543495E6,3.80508E5,-4.280102E6,-4.638726E5,-4.766598E6,3.792384E5,-2.1456032E6,1.4879329E6,-3.863877E6,-1.4713129E6,-1.8727146E6,2.1936842E6,5.673674E6,1.3748772E7,1.3002078E7,1.4069761E6,4.778046E4,-2.6133152E6,1.1371749E6,-6.5471723E4,1.2583283E7,5.833805E6,6.333087E6,1.9210628E7,6.7724595E6,1.7803556E7,7.0966244E5,2.5334598E6,-5.911102E5,-4.83448E5,-5.229635E5,-3.3890034E5,1.827075E5,-3.0489647E5,-2.7855772E5,-5.0533647E5,-3.3103788E5,-2.4177494E4,3.0030997E5,-2.5258978E5,-5.1708E5,-2.7971622E5,4.615788E5,-2.0659178E5,4.5203272E5,-2.3923988E5,-5.1493722E5,3.8466412E5,2.3463053E5,7.408838E5,7.4358925E5,1.6764836E6,1.6314916E5,1.5436852E6,2.252341E4,1.0106821E6,-1.73338E5,1.3776783E5,3.247371E5,-3.0810884E5,-1.1721195E5,1.0542704E5,1.3428764E6,-4.276859E5,-5.6801387E4,7.5451106E5,8.405275E5,-2.685236E5,2.8847572E5,2.0170852E6,7.356784E5,1.341095E5,7.482464E5,1.8047256E6],"categories":[],"categories_nodes":[],"categories_segments":[],"categories_sizes":[],"default_left":[0,0,0,0,0,0,0,0,0,0,0,0,0,0,0,0,0,0,0,0,0,0,0,0,0,0,0,0,0,0,0,0,0,0,0,0,0,0,0,0,0,0,0,0,0,0,0,0,0,0,0,0,0,0,0,0,0,0,0,0,0,0,0,0,0,0,0,0,0,0,0,0,0,0,0,0,0,0,0,0,0,0,0,0,0,0,0,0,0,0,0,0,0,0,0,0,0,0,0,0,0,0,0],"id":3,"left_children":[1,3,5,7,9,11,13,15,17,19,21,23,-1,25,27,29,31,33,35,37,39,41,43,45,47,49,51,53,55,57,-1,59,61,63,-1,65,67,69,71,73,75,77,79,81,83,85,87,-1,89,91,93,95,97,99,101,-1,-1,-1,-1,-1,-1,-1,-1,-1,-1,-1,-1,-1,-1,-1,-1,-1,-1,-1,-1,-1,-1,-1,-1,-1,-1,-1,-1,-1,-1,-1,-1,-1,-1,-1,-1,-1,-1,-1,-1,-1,-1,-1,-1,-1,-1,-1,-1],"loss_changes":[4.6732878E16,6.5195134E15,1.1406359E16,1.4385306E15,2.7966835E15,3.9005668E14,3.2254603E15,3.873513E14,1.03686376E15,1.6174538E14,5.4888232E14,1.3893042E14,0E0,1.423786E15,1.1409108E15,2.3073853E14,3.350073E14,1.2229624E14,5.2875654E14,6.1793943E13,1.4138395E14,6.380622E14,5.9359414E14,6.299484E13,2.0959078E14,6.6692306E14,1.2047544E15,5.77744E14,1.9754702E13,7.877185E13,0E0,9.7350266E13,1.7731769E14,4.330052E13,0E0,2.0321262E14,4.393808E14,3.572453E13,7.830483E13,8.3906406E13,1.8973637E14,3.1170792E14,1.2285915E14,1.1323896E14,4.295244E14,3.3181936E13,1.032155E14,0E0,1.2388173E13,4.2806006E14,4.75371E14,2.468221E14,4.5913737E14,1.5523253E13,5.8164595E12,0E0,0E0,0E0,0E0,0E0,0E0,0E0,0E0,0E0,0E0,0E0,0E0,0E0,0E0,0E0,0E0,0E0,0E0,0E0,0E0,0E0,0E0,0E0,0E0,0E0,0E0,0E0,0E0,0E0,0E0,0E0,0E0,0E0,0E0,0E0,0E0,0E0,0E0,0E0,0E0,0E0,0E0,0E0,0E0,0E0,0E0,0E0,0E0],"parents":[2147483647,0,0,1,1,2,2,3,3,4,4,5,5,6,6,7,7,8,8,9,9,10,10,11,11,13,13,14,14,15,15,16,16,17,17,18,18,19,19,20,20,21,21,22,22,23,23,24,24,25,25,26,26,27,27,28,28,29,29,31,31,32,32,33,33,35,35,36,36,37,37,38,38,39,39,40,40,41,41,42,42,43,43,44,44,45,45,46,46,48,48,49,49,50,50,51,51,52,52,53,53,54,54],"right_children":[2,4,6,8,10,12,14,16,18,20,22,24,-1,26,28,30,32,34,36,38,40,42,44,46,48,50,52,54,56,58,-1,60,62,64,-1,66,68,70,72,74,76,78,80,82,84,86,88,-1,90,92,94,96,98,100,102,-1,-1,-1,-1,-1,-1,-1,-1,-1,-1,-1,-1,-1,-1,-1,-1,-1,-1,-1,-1,-1,-1,-1,-1,-1,-1,-1,-1,-1,-1,-1,-1,-1,-1,-1,-1,-1,-1,-1,-1,-1,-1,-1,-1,-1,-1,-1,-1],"split_conditions":[3.09E1,2.4E1,2.4E1,1.79E1,2.6E1,1.4350846E0,4.6E0,2.9E1,2.5E1,2.4E1,1.2237754E0,6.6E0,1.302464E6,2.9E1,3E1,1.2237754E0,8.329091E-1,3.9E0,1.6774194E-1,5.0222224E-1,2.175E-1,2.952381E-1,2.7160493E-1,2.2E1,1.8232156E-1,1.1314021E0,2.1929824E-1,3.54E1,3.18E1,1.4E1,3.80508E5,1.24E1,3.918919E-1,2.1E1,3.792384E5,1.4E0,4.8913044E-1,1.1631508E0,1.1494253E-2,2.7567568E-1,1.3636364E-2,2.1978023E-2,1.4084507E-2,2.61E1,3.4E1,7.4193734E-1,2.5E0,1.1371749E6,2.020202E-2,4.15E1,9.531018E-2,3.4E1,6.4185387E-1,1.2527629E0,2.4342105E-1,7.0966244E5,2.5334598E6,-5.911102E5,-4.83448E5,-5.229635E5,-3.3890034E5,1.827075E5,-3.0489647E5,-2.7855772E5,-5.0533647E5,-3.3103788E5,-2.4177494E4,3.0030997E5,-2.5258978E5,-5.1708E5,-2.7971622E5,4.615788E5,-2.0659178E5,4.5203272E5,-2.3923988E5,-5.1493722E5,3.8466412E5,2.3463053E5,7.408838E5,7.4358925E5,1.6764836E6,1.6314916E5,1.5436852E6,2.252341E4,1.0106821E6,-1.73338E5,1.3776783E5,3.247371E5,-3.0810884E5,-1.1721195E5,1.0542704E5,1.3428764E6,-4.276859E5,-5.6801387E4,7.5451106E5,8.405275E5,-2.685236E5,2.8847572E5,2.0170852E6,7.356784E5,1.341095E5,7.482464E5,1.8047256E6],"split_indices":[0,0,1,0,1,7,3,1,1,1,6,3,0,1,1,7,7,3,5,8,5,5,8,1,7,6,5,0,0,0,0,0,8,1,0,3,8,6,9,8,9,9,9,0,1,7,3,0,9,0,7,1,7,6,5,0,0,0,0,0,0,0,0,0,0,0,0,0,0,0,0,0,0,0,0,0,0,0,0,0,0,0,0,0,0,0,0,0,0,0,0,0,0,0,0,0,0,0,0,0,0,0,0],"split_type":[0,0,0,0,0,0,0,0,0,0,0,0,0,0,0,0,0,0,0,0,0,0,0,0,0,0,0,0,0,0,0,0,0,0,0,0,0,0,0,0,0,0,0,0,0,0,0,0,0,0,0,0,0,0,0,0,0,0,0,0,0,0,0,0,0,0,0,0,0,0,0,0,0,0,0,0,0,0,0,0,0,0,0,0,0,0,0,0,0,0,0,0,0,0,0,0,0,0,0,0,0,0,0],"sum_hessian":[1.304E3,1.044E3,2.6E2,8.44E2,2E2,5.5E1,2.05E2,5.82E2,2.62E2,8.7E1,1.13E2,5.4E1,1E0,1.1E2,9.5E1,4.19E2,1.63E2,1.01E2,1.61E2,5.3E1,3.4E1,6.8E1,4.5E1,4.5E1,9E0,6.7E1,4.3E1,6.2E1,3.3E1,4.17E2,2E0,1.35E2,2.8E1,1E2,1E0,9.1E1,7E1,3.5E1,1.8E1,2.1E1,1.3E1,5.6E1,1.2E1,4E0,4.1E1,1.2E1,3.3E1,1E0,8E0,2.5E1,4.2E1,1.1E1,3.2E1,7E0,5.5E1,1E0,3.2E1,2.74E2,1.43E2,6.3E1,7.2E1,1.5E1,1.3E1,1.4E1,8.6E1,5.6E1,3.5E1,5.1E1,1.9E1,1.4E1,2.1E1,1E0,1.7E1,1E0,2E1,2E0,1.1E1,2E1,3.6E1,5E0,7E0,1E0,3E0,3.7E1,4E0,5E0,7E0,2E0,3.1E1,4E0,4E0,2.4E1,1E0,9E0,3.3E1,9E0,2E0,2E0,3E1,6E0,1E0,2E0,5.3E1],"tree_param":{"num_deleted":"0","num_feature":"10","num_nodes":"103","size_leaf_vector":"1"}},{"base_weights":[1.8890303E5,-2.5428102E6,1.0736216E7,-4.5519355E6,-1.1400514E5,1.821807E6,1.5457149E7,-5.005802E6,-3.5097435E6,-2.7259562E6,1.7774935E6,-3.6317753E5,7.141169E6,9.941661E6,1.782336E7,-5.2806535E6,-4.211245E6,-3.882388E6,3.9041082E4,-3.265094E6,-1.4923473E5,-1.2047416E6,3.7847692E6,-1.0267516E6,1.067659E7,3.8980247E5,1.2180331E7,3.5427728E6,1.2196308E7,1.4617297E7,2.1219616E7,-5.444225E6,-4.488257E6,-3.181432E6,-5.342199E6,-5.078376E6,-3.0495145E6,-1.9010675E6,5.463537E6,-3.906683E6,-1.7710669E6,2.870954E6,-1.5929559E6,-2.3070878E6,1.7855639E6,2.574209E6,8.444485E6,-1.3534594E6,1.01046244E6,-2.18395E4,1.4381049E6,-3.0849382E6,1.3000585E6,1.3999842E7,-3.70831E5,4.3372025E6,-4.1868366E5,1.3177026E7,-1.69588E5,1.3669555E5,1.4797348E7,1.5912968E7,2.5033988E6,-2.0704127E5,-5.46396E5,6.540775E3,-4.747246E5,-3.4447222E5,1.2999912E5,-6.1988744E5,-3.1343353E5,-5.4671925E5,-3.7593988E5,5.4109855E4,-3.3316616E5,2.5274686E5,-3.9252288E5,-7.8799305E4,7.223418E5,-4.0175906E5,4.4238397E5,-3.144276E5,1.8257998E5,6.9620394E5,-4.4843564E3,-3.5889E5,1.2736002E5,-2.7078E5,6.283926E5,1.1276744E6,7.421466E4,2.177087E5,9.468122E5,5.1416284E5,1.1838846E6,-2.1337755E5,1.9319417E5,7.179326E4,-6.373653E5,4.0004594E5,1.5333034E6,5.0150025E5,-5.5712494E5,5.718527E5,1.3121289E5,6.8814494E5,1.4893535E6,-1.2059E5,1.469674E5,1.5100724E6,6.319866E5,1.619663E5,1.7632146E6],"categories":[],"categories_nodes":[],"categories_segments":[],"categories_sizes":[],"default_left":[0,0,0,0,0,0,0,0,0,0,0,0,0,0,0,0,0,0,0,0,0,0,0,0,0,0,0,0,0,0,0,0,0,0,0,0,0,0,0,0,0,0,0,0,0,0,0,0,0,0,0,0,0,0,0,0,0,0,0,0,0,0,0,0,0,0,0,0,0,0,0,0,0,0,0,0,0,0,0,0,0,0,0,0,0,0,0,0,0,0,0,0,0,0,0,0,0,0,0,0,0,0,0,0,0,0,0,0,0,0,0,0,0],"id":4,"left_children":[1,3,5,7,9,11,13,15,17,19,21,23,25,27,29,31,33,35,37,39,41,43,45,47,49,51,53,55,57,59,61,63,65,67,69,71,73,75,77,79,81,83,85,87,89,91,93,95,-1,-1,-1,97,-1,99,101,103,-1,105,107,-1,109,111,-1,-1,-1,-1,-1,-1,-1,-1,-1,-1,-1,-1,-1,-1,-1,-1,-1,-1,-1,-1,-1,-1,-1,-1,-1,-1,-1,-1,-1,-1,-1,-1,-1,-1,-1,-1,-1,-1,-1,-1,-1,-1,-1,-1,-1,-1,-1,-1,-1,-1,-1],"loss_changes":[3.8376383E16,5.162281E15,1.1502945E16,2.5630754E14,2.376286E15,1.118375E15,2.158904E15,6.5335043E13,2.3686731E14,2.8013307E14,1.6747008E15,5.1643573E14,9.478467E14,7.647168E14,1.04001345E15,1.3671418E13,1.087887E14,1.4588286E14,1.9982057E14,1.5315894E14,1.6154449E14,3.7660716E14,9.202867E14,2.5369879E14,1.6458083E14,6.097556E14,3.705832E14,1.1640928E14,4.9946014E14,1.396165E14,7.756432E14,4.600447E12,6.6354023E13,7.4093085E13,7.514166E13,1.2781152E13,1.0108467E14,1.3541789E14,6.070173E13,1.2494758E14,2.6258178E14,1.4345751E14,1.4760796E14,3.0274506E14,2.986321E14,3.4624194E14,3.2030604E14,1.7075965E14,0E0,0E0,0E0,1.4214798E14,0E0,1.25296276E14,1.11965595E14,5.5175666E13,0E0,3.0815424E14,8.5674274E12,0E0,7.43083E13,6.349057E14,0E0,0E0,0E0,0E0,0E0,0E0,0E0,0E0,0E0,0E0,0E0,0E0,0E0,0E0,0E0,0E0,0E0,0E0,0E0,0E0,0E0,0E0,0E0,0E0,0E0,0E0,0E0,0E0,0E0,0E0,0E0,0E0,0E0,0E0,0E0,0E0,0E0,0E0,0E0,0E0,0E0,0E0,0E0,0E0,0E0,0E0,0E0,0E0,0E0,0E0,0E0],"parents":[2147483647,0,0,1,1,2,2,3,3,4,4,5,5,6,6,7,7,8,8,9,9,10,10,11,11,12,12,13,13,14,14,15,15,16,16,17,17,18,18,19,19,20,20,21,21,22,22,23,23,24,24,25,25,26,26,27,27,28,28,29,29,30,30,31,31,32,32,33,33,34,34,35,35,36,36,37,37,38,38,39,39,40,40,41,41,42,42,43,43,44,44,45,45,46,46,47,47,51,51,53,53,54,54,55,55,57,57,58,58,60,60,61,61],"right_children":[2,4,6,8,10,12,14,16,18,20,22,24,26,28,30,32,34,36,38,40,42,44,46,48,50,52,54,56,58,60,62,64,66,68,70,72,74,76,78,80,82,84,86,88,90,92,94,96,-1,-1,-1,98,-1,100,102,104,-1,106,108,-1,110,112,-1,-1,-1,-1,-1,-1,-1,-1,-1,-1,-1,-1,-1,-1,-1,-1,-1,-1,-1,-1,-1,-1,-1,-1,-1,-1,-1,-1,-1,-1,-1,-1,-1,-1,-1,-1,-1,-1,-1,-1,-1,-1,-1,-1,-1,-1,-1,-1,-1,-1,-1],"split_conditions":[3.09E1,2.12E1,2.5E1,1.49E1,2.6E1,2.4E1,2.7826086E-1,2.9E1,2.4583334E-1,5.0498337E-1,1.5581395E-1,1.4350846E0,3.1451613E-1,3.04E1,2.9E1,1.63E1,3.3E1,2.5E1,1.94E1,2.46E1,2.7E0,2.77E1,3.04E1,1.5040774E0,3.52E1,1.3083328E0,1.4350846E0,3.3E1,2.7567568E-1,2.39E1,6.809816E-1,2E1,9.3E0,2.15625E-1,1.62E1,1.99E1,7.8845733E-1,1E0,2.4E1,1.3609766E0,2.5E1,2.547619E-1,2.521739E-1,1.2809339E0,4.7000363E-1,5.934718E-1,3E1,6.6E0,1.01046244E6,-2.18395E4,1.4381049E6,1.0296195E0,1.3000585E6,2.6E0,3.1E1,1.4350846E0,-4.1868366E5,2.8E0,3.28E1,1.3669555E5,5.588235E-1,3.17E1,2.5033988E6,-2.0704127E5,-5.46396E5,6.540775E3,-4.747246E5,-3.4447222E5,1.2999912E5,-6.1988744E5,-3.1343353E5,-5.4671925E5,-3.7593988E5,5.4109855E4,-3.3316616E5,2.5274686E5,-3.9252288E5,-7.8799305E4,7.223418E5,-4.0175906E5,4.4238397E5,-3.144276E5,1.8257998E5,6.9620394E5,-4.4843564E3,-3.5889E5,1.2736002E5,-2.7078E5,6.283926E5,1.1276744E6,7.421466E4,2.177087E5,9.468122E5,5.1416284E5,1.1838846E6,-2.1337755E5,1.9319417E5,7.179326E4,-6.373653E5,4.0004594E5,1.5333034E6,5.0150025E5,-5.5712494E5,5.718527E5,1.3121289E5,6.8814494E5,1.4893535E6,-1.2059E5,1.469674E5,1.5100724E6,6.319866E5,1.619663E5,1.7632146E6],"split_indices":[0,2,1,0,1,1,5,1,5,8,5,7,5,2,1,2,1,1,2,0,3,2,2,6,0,6,7,1,5,2,8,1,0,5,2,2,6,3,1,7,1,5,5,7,7,8,1,3,0,0,0,7,0,3,0,6,0,3,0,0,5,0,0,0,0,0,0,0,0,0,0,0,0,0,0,0,0,0,0,0,0,0,0,0,0,0,0,0,0,0,0,0,0,0,0,0,0,0,0,0,0,0,0,0,0,0,0,0,0,0,0,0,0],"split_type":[0,0,0,0,0,0,0,0,0,0,0,0,0,0,0,0,0,0,0,0,0,0,0,0,0,0,0,0,0,0,0,0,0,0,0,0,0,0,0,0,0,0,0,0,0,0,0,0,0,0,0,0,0,0,0,0,0,0,0,0,0,0,0,0,0,0,0,0,0,0,0,0,0,0,0,0,0,0,0,0,0,0,0,0,0,0,0,0,0,0,0,0,0,0,0,0,0,0,0,0,0,0,0,0,0,0,0,0,0,0,0,0,0],"sum_hessian":[1.33E3,1.057E3,2.73E2,5.78E2,4.79E2,9.5E1,1.78E2,4E2,1.78E2,2.01E2,2.78E2,6.8E1,2.7E1,5.5E1,1.23E2,2.93E2,1.07E2,1.61E2,1.7E1,1.66E2,3.5E1,1.12E2,1.66E2,6.5E1,3E0,1.2E1,1.5E1,1.5E1,4E1,6.6E1,5.7E1,2.38E2,5.5E1,5.8E1,4.9E1,6.4E1,9.7E1,1.3E1,4E0,1.15E2,5.1E1,1.1E1,2.4E1,8.2E1,3E1,1.33E2,3.3E1,6.4E1,1E0,1E0,2E0,1E1,2E0,1.3E1,2E0,1.4E1,1E0,3.7E1,3E0,1E0,6.5E1,2.6E1,3.1E1,2E0,2.36E2,3E0,5.2E1,5.5E1,3E0,3.4E1,1.5E1,4.7E1,1.7E1,7E0,9E1,4E0,9E0,1E0,3E0,1.14E2,1E0,3.7E1,1.4E1,4E0,7E0,1.4E1,1E1,7.9E1,3E0,2E0,2.8E1,1.27E2,6E0,1.8E1,1.5E1,5.2E1,1.2E1,5E0,5E0,2E0,1.1E1,1E0,1E0,9E0,5E0,9E0,2.8E1,2E0,1E0,6.2E1,3E0,3E0,2.3E1],"tree_param":{"num_deleted":"0","num_feature":"10","num_nodes":"113","size_leaf_vector":"1"}},{"base_weights":[-4.9108695E4,-2.5383592E6,8.757209E6,-3.2776335E6,1.638699E6,7.1506855E6,1.6774735E7,-4.1793015E6,-1.9183812E6,1.1583846E7,1.1636675E6,4.7277255E6,9.594646E6,1.3457483E7,1.9531259E6,-4.7805025E6,-3.697629E6,-2.1834298E6,3.7841015E6,4.102819E5,1.6168912E6,2.2494928E6,-2.7542425E6,1.0666374E6,5.9237585E6,8.855793E6,2.0362284E6,-4.6979137E4,1.4688976E7,-3.128887E6,-4.922225E6,-3.4440825E6,-4.6031025E6,-2.6635968E6,1.24197375E5,5.203195E6,-1.773978E6,6.601406E6,1.6945458E6,-3.431523E6,-2.0880081E5,3.3578632E6,-3.0318945E6,8.3634665E6,3.609546E6,4.9861605E6,1.0556054E7,1.7094652E7,8.0415E6,-4.1911153E5,4.6415206E5,-4.424493E5,-5.7141975E5,-3.672241E5,-1.2756719E5,-4.822424E5,1.3176961E5,-2.9020794E5,1.182552E5,3.439776E5,-8.8759164E4,-1.794669E5,5.935906E5,2.300392E5,-3.8988988E5,7.534166E5,-2.295857E5,1.1793244E5,7.8585925E5,1.0185045E5,-3.6502644E5,-2.5140058E5,9.786018E4,3.8033875E4,8.148799E5,1.6714536E5,-3.611422E5,9.066823E5,-1.1126394E5,9.6575844E5,1.8560969E5,5.9180225E5,-7.5476156E5,1.6966586E6,7.620182E5,1.7899359E6,2.512033E5,2.4355916E5,1.0917926E6],"categories":[],"categories_nodes":[],"categories_segments":[],"categories_sizes":[],"default_left":[0,0,0,0,0,0,0,0,0,0,0,0,0,0,0,0,0,0,0,0,0,0,0,0,0,0,0,0,0,0,0,0,0,0,0,0,0,0,0,0,0,0,0,0,0,0,0,0,0,0,0,0,0,0,0,0,0,0,0,0,0,0,0,0,0,0,0,0,0,0,0,0,0,0,0,0,0,0,0,0,0,0,0,0,0,0,0,0,0],"id":5,"left_children":[1,3,5,7,9,11,13,15,17,19,21,23,25,27,-1,29,31,33,35,-1,-1,37,39,41,43,45,-1,-1,47,49,51,53,55,57,59,61,63,65,67,69,71,73,75,77,79,81,83,85,87,-1,-1,-1,-1,-1,-1,-1,-1,-1,-1,-1,-1,-1,-1,-1,-1,-1,-1,-1,-1,-1,-1,-1,-1,-1,-1,-1,-1,-1,-1,-1,-1,-1,-1,-1,-1,-1,-1,-1,-1],"loss_changes":[2.9045807E16,3.1952662E15,3.6411122E15,1.06805314E15,7.2350456E14,1.4054357E15,1.7607326E14,1.3493391E14,5.402873E14,1.7376887E14,6.443204E14,5.4102898E14,7.823165E14,4.356847E14,0E0,3.866974E13,5.233176E13,3.7374228E14,1.3542933E14,0E0,0E0,2.737931E14,5.6174783E13,3.106819E14,5.0053603E14,7.039945E14,0E0,0E0,2.3034124E14,1.9278602E14,5.7891327E13,1.1207395E14,8.686531E13,2.593418E14,2.0097838E14,7.7309344E13,4.3599845E13,1.2518454E14,3.2737217E14,2.9026329E13,2.4357865E13,2.9646837E14,3.874496E13,3.1001638E14,5.1232095E14,4.7681754E14,1.3575318E15,1.427921E14,1.0240823E14,0E0,0E0,0E0,0E0,0E0,0E0,0E0,0E0,0E0,0E0,0E0,0E0,0E0,0E0,0E0,0E0,0E0,0E0,0E0,0E0,0E0,0E0,0E0,0E0,0E0,0E0,0E0,0E0,0E0,0E0,0E0,0E0,0E0,0E0,0E0,0E0,0E0,0E0,0E0,0E0],"parents":[2147483647,0,0,1,1,2,2,3,3,4,4,5,5,6,6,7,7,8,8,9,9,10,10,11,11,12,12,13,13,15,15,16,16,17,17,18,18,21,21,22,22,23,23,24,24,25,25,28,28,29,29,30,30,31,31,32,32,33,33,34,34,35,35,36,36,37,37,38,38,39,39,40,40,41,41,42,42,43,43,44,44,45,45,46,46,47,47,48,48],"right_children":[2,4,6,8,10,12,14,16,18,20,22,24,26,28,-1,30,32,34,36,-1,-1,38,40,42,44,46,-1,-1,48,50,52,54,56,58,60,62,64,66,68,70,72,74,76,78,80,82,84,86,88,-1,-1,-1,-1,-1,-1,-1,-1,-1,-1,-1,-1,-1,-1,-1,-1,-1,-1,-1,-1,-1,-1,-1,-1,-1,-1,-1,-1,-1,-1,-1,-1,-1,-1,-1,-1,-1,-1,-1,-1],"split_conditions":[2.94E1,2.41E1,4.46E1,1.99E1,2.7567568E-1,5.858896E-1,4.413793E-1,1.39E1,1.2809339E0,1.254902E-1,5.940594E-2,2.93E1,1.5260563E0,3.44E1,1.9531259E6,5.3062826E-1,4.5614034E-1,2.77E1,2.32E1,4.102819E5,1.6168912E6,1.24223605E-2,4.591195E-1,3.2E1,1.9E0,3.64E1,2.0362284E6,-4.6979137E4,1.3862944E0,7.255521E-2,1.1492537E-1,2.15625E-1,1.96E1,5.170068E-1,1.89E1,3.939394E-1,2.74E1,3.25E1,4.9586777E-2,1.0986123E0,2.44E1,2E0,1.4375E-1,1.1570248E-1,1.5625E-2,3.6E1,3.88E1,3.75E1,3.55E1,-4.1911153E5,4.6415206E5,-4.424493E5,-5.7141975E5,-3.672241E5,-1.2756719E5,-4.822424E5,1.3176961E5,-2.9020794E5,1.182552E5,3.439776E5,-8.8759164E4,-1.794669E5,5.935906E5,2.300392E5,-3.8988988E5,7.534166E5,-2.295857E5,1.1793244E5,7.8585925E5,1.0185045E5,-3.6502644E5,-2.5140058E5,9.786018E4,3.8033875E4,8.148799E5,1.6714536E5,-3.611422E5,9.066823E5,-1.1126394E5,9.6575844E5,1.8560969E5,5.9180225E5,-7.5476156E5,1.6966586E6,7.620182E5,1.7899359E6,2.512033E5,2.4355916E5,1.0917926E6],"split_indices":[0,0,0,2,8,8,5,2,7,5,9,2,7,2,0,6,8,2,0,0,0,9,8,0,4,0,0,0,7,9,5,5,2,8,0,8,2,2,9,6,0,4,5,9,9,0,0,2,2,0,0,0,0,0,0,0,0,0,0,0,0,0,0,0,0,0,0,0,0,0,0,0,0,0,0,0,0,0,0,0,0,0,0,0,0,0,0,0,0],"split_type":[0,0,0,0,0,0,0,0,0,0,0,0,0,0,0,0,0,0,0,0,0,0,0,0,0,0,0,0,0,0,0,0,0,0,0,0,0,0,0,0,0,0,0,0,0,0,0,0,0,0,0,0,0,0,0,0,0,0,0,0,0,0,0,0,0,0,0,0,0,0,0,0,0,0,0,0,0,0,0,0,0,0,0,0,0,0,0,0,0],"sum_hessian":[1.323E3,1.032E3,2.91E2,8.77E2,1.55E2,2.44E2,4.7E1,5.26E2,3.51E2,6E0,1.49E2,1.24E2,1.2E2,2.4E1,2.3E1,2.3E2,2.96E2,3.36E2,1.5E1,3E0,3E0,1.17E2,3.2E1,3.1E1,9.3E1,1.14E2,6E0,2E0,2.2E1,2E1,2.1E2,2.35E2,6.1E1,2.78E2,5.8E1,1.2E1,3E0,1.2E1,1.05E2,2.5E1,7E0,2E1,1.1E1,4.4E1,4.9E1,3.6E1,7.8E1,1.5E1,7E0,1.8E1,2E0,1.33E2,7.7E1,2.12E2,2.3E1,5.9E1,2E0,2.62E2,1.6E1,1.3E1,4.5E1,1E0,1.1E1,1E0,2E0,1.1E1,1E0,9.8E1,7E0,1E0,2.4E1,2E0,5E0,1.3E1,7E0,1E0,1E1,4.1E1,3E0,1E1,3.9E1,3.4E1,2E0,2.3E1,5.5E1,1.4E1,1E0,3E0,4E0],"tree_param":{"num_deleted":"0","num_feature":"10","num_nodes":"89","size_leaf_vector":"1"}},{"base_weights":[5.5588812E4,-2.1961248E6,7.839474E6,-3.3132782E6,3.417892E5,-1.4359614E6,1.0856221E7,-4.2989405E6,-2.6192582E6,-5.328662E5,5.309271E6,-1.96445E6,8.435826E6,7.7133655E6,1.5097299E7,-4.3456375E6,2.1971225E5,-3.2997832E6,-1.0850128E6,-2.1790618E6,1.4049894E6,2.8660185E6,1.2400193E7,3.878107E6,-2.458344E6,-1.225589E5,1.2064828E6,5.0667635E6,1.1491417E7,1.2185761E7,1.8868808E7,-4.380748E6,5.320437E5,4.3543722E5,-2.609965E5,-2.0142111E6,-3.8339955E6,-2.2348215E6,1.1382088E6,-2.8115702E6,8.9700025E5,-2.3767711E5,3.159268E6,-6.608329E5,8.707334E6,8.760365E4,1.3368204E6,1.03255544E6,5.235069E5,-4.5882755E6,-1.7557046E6,4.460034E5,6.9234565E6,5.789921E6,1.4944189E7,1.0466639E7,1.6301528E6,2.692471E5,1.9214549E6,-4.1096078E5,-4.7822375E5,-1.9320986E5,2.730164E5,4.042152E5,-2.2724812E5,-4.389898E5,-2.8896784E5,-8.670005E4,-3.2101622E5,6.595861E4,1.1338116E6,-2.96447E5,4.2925772E5,-2.4395895E5,4.9929875E5,-1.7054016E5,1.3750738E5,1.6310966E5,5.9924E5,7.8546394E5,-2.2513592E5,1.027072E5,9.901788E5,1.417244E5,-1.5257208E5,-5.0214097E5,-2.6310984E5,-2.1437566E5,3.3651652E4,4.5104372E5,-2.2933528E5,4.5971072E5,1.1708484E6,7.91882E5,9.67355E3,5.3084856E5,1.5394606E6,6.1484656E5,1.2132899E6],"categories":[],"categories_nodes":[],"categories_segments":[],"categories_sizes":[],"default_left":[0,0,0,0,0,0,0,0,0,0,0,0,0,0,0,0,0,0,0,0,0,0,0,0,0,0,0,0,0,0,0,0,0,0,0,0,0,0,0,0,0,0,0,0,0,0,0,0,0,0,0,0,0,0,0,0,0,0,0,0,0,0,0,0,0,0,0,0,0,0,0,0,0,0,0,0,0,0,0,0,0,0,0,0,0,0,0,0,0,0,0,0,0,0,0,0,0,0,0],"id":6,"left_children":[1,3,5,7,9,11,13,15,17,19,21,23,25,27,29,31,33,35,37,39,41,43,45,47,49,-1,-1,51,53,55,57,59,61,-1,-1,63,65,67,69,71,73,75,77,79,81,-1,-1,-1,83,85,87,89,91,93,95,97,-1,-1,-1,-1,-1,-1,-1,-1,-1,-1,-1,-1,-1,-1,-1,-1,-1,-1,-1,-1,-1,-1,-1,-1,-1,-1,-1,-1,-1,-1,-1,-1,-1,-1,-1,-1,-1,-1,-1,-1,-1,-1,-1],"loss_changes":[2.359114E16,2.9611223E15,8.466044E15,4.8469082E14,1.3931761E15,4.078564E14,2.9225814E15,6.3835025E13,4.432911E14,8.7395585E14,7.960566E14,2.1729718E14,1.5503168E14,1.2716426E15,8.2423644E14,5.2852257E13,5.816377E13,1.9556087E14,3.4252888E14,2.9047602E14,3.638444E14,7.680078E14,1.2215518E14,1.2436615E14,9.221479E13,0E0,0E0,6.832587E14,9.7651665E14,2.32682E14,1.71978E14,1.2242804E13,2.1524388E13,0E0,0E0,1.483976E14,9.650416E13,1.1461687E14,2.1708929E14,1.4633054E14,3.6751317E14,1.5857192E14,2.5432609E14,3.4274165E14,1.1826226E14,0E0,0E0,0E0,1.1319673E13,3.51684E11,4.2939707E13,2.7755837E14,5.806788E14,2.6587868E14,6.150071E13,2.3479459E14,0E0,0E0,0E0,0E0,0E0,0E0,0E0,0E0,0E0,0E0,0E0,0E0,0E0,0E0,0E0,0E0,0E0,0E0,0E0,0E0,0E0,0E0,0E0,0E0,0E0,0E0,0E0,0E0,0E0,0E0,0E0,0E0,0E0,0E0,0E0,0E0,0E0,0E0,0E0,0E0,0E0,0E0,0E0],"parents":[2147483647,0,0,1,1,2,2,3,3,4,4,5,5,6,6,7,7,8,8,9,9,10,10,11,11,12,12,13,13,14,14,15,15,16,16,17,17,18,18,19,19,20,20,21,21,22,22,23,23,24,24,27,27,28,28,29,29,30,30,31,31,32,32,35,35,36,36,37,37,38,38,39,39,40,40,41,41,42,42,43,43,44,44,48,48,49,49,50,50,51,51,52,52,53,53,54,54,55,55],"right_children":[2,4,6,8,10,12,14,16,18,20,22,24,26,28,30,32,34,36,38,40,42,44,46,48,50,-1,-1,52,54,56,58,60,62,-1,-1,64,66,68,70,72,74,76,78,80,82,-1,-1,-1,84,86,88,90,92,94,96,98,-1,-1,-1,-1,-1,-1,-1,-1,-1,-1,-1,-1,-1,-1,-1,-1,-1,-1,-1,-1,-1,-1,-1,-1,-1,-1,-1,-1,-1,-1,-1,-1,-1,-1,-1,-1,-1,-1,-1,-1,-1,-1,-1],"split_conditions":[3.04E1,2.39E1,2.4E1,1.53E1,2.7125E-1,1.4350846E0,4.4E0,4.4705883E-1,2.9E1,2.7E1,6.117647E-1,2.6236427E-1,2.3E1,2.9E1,3E1,9.1629076E-1,1.15E1,4.7000363E-1,2.05E1,1.3350011E0,1.9E0,3E1,2.78E1,5.4054055E-2,3.16E1,-1.225589E5,1.2064828E6,2.3043478E-1,2.3E0,6.7E0,1.8354431E-1,1.15686275E-1,3.1E1,4.3543722E5,-2.609965E5,1.55E1,4.1968912E-1,1.73E1,5.822785E-1,1.6049382E-1,2.5E1,3.1E1,1.0296195E0,1.6E0,4.539007E-1,8.760365E4,1.3368204E6,1.03255544E6,2.3E1,1.3083328E0,1.3862944E0,3.18E1,3.4013607E-2,3.3E1,3.1E1,1.1939225E0,1.6301528E6,2.692471E5,1.9214549E6,-4.1096078E5,-4.7822375E5,-1.9320986E5,2.730164E5,4.042152E5,-2.2724812E5,-4.389898E5,-2.8896784E5,-8.670005E4,-3.2101622E5,6.595861E4,1.1338116E6,-2.96447E5,4.2925772E5,-2.4395895E5,4.9929875E5,-1.7054016E5,1.3750738E5,1.6310966E5,5.9924E5,7.8546394E5,-2.2513592E5,1.027072E5,9.901788E5,1.417244E5,-1.5257208E5,-5.0214097E5,-2.6310984E5,-2.1437566E5,3.3651652E4,4.5104372E5,-2.2933528E5,4.5971072E5,1.1708484E6,7.91882E5,9.67355E3,5.3084856E5,1.5394606E6,6.1484656E5,1.2132899E6],"split_indices":[2,2,1,2,5,7,3,5,1,1,8,7,1,1,1,7,2,7,2,6,3,1,2,9,2,0,0,5,3,3,5,5,1,0,0,2,8,2,8,9,1,1,7,3,8,0,0,0,1,6,7,2,9,2,2,6,0,0,0,0,0,0,0,0,0,0,0,0,0,0,0,0,0,0,0,0,0,0,0,0,0,0,0,0,0,0,0,0,0,0,0,0,0,0,0,0,0,0,0],"split_type":[0,0,0,0,0,0,0,0,0,0,0,0,0,0,0,0,0,0,0,0,0,0,0,0,0,0,0,0,0,0,0,0,0,0,0,0,0,0,0,0,0,0,0,0,0,0,0,0,0,0,0,0,0,0,0,0,0,0,0,0,0,0,0,0,0,0,0,0,0,0,0,0,0,0,0,0,0,0,0,0,0,0,0,0,0,0,0,0,0,0,0,0,0,0,0,0,0,0,0],"sum_hessian":[1.344E3,1.043E3,3.01E2,7.24E2,3.19E2,7.4E1,2.27E2,2.97E2,4.27E2,2.72E2,4.7E1,7.1E1,3E0,1.32E2,9.5E1,2.94E2,3E0,2.95E2,1.32E2,1.47E2,1.25E2,3.6E1,1.1E1,5E0,6.6E1,1E0,2E0,7.9E1,5.3E1,5.6E1,3.9E1,2.92E2,2E0,1E0,2E0,8.8E1,2.07E2,8.7E1,4.5E1,1.22E2,2.5E1,6.5E1,6E1,2.3E1,1.3E1,1E0,1E1,1E0,4E0,1.5E1,5.1E1,2.3E1,5.6E1,2.1E1,3.2E1,4.2E1,1.4E1,1E0,3.8E1,1.81E2,1.11E2,1E0,1E0,3E0,8.5E1,1.28E2,7.9E1,3.7E1,5E1,4.4E1,1E0,1.2E2,2E0,1.4E1,1.1E1,3.4E1,3.1E1,4E1,2E1,3E0,2E1,2E0,1.1E1,3E0,1E0,1.1E1,4E0,4.3E1,8E0,9E0,1.4E1,3.9E1,1.7E1,1.5E1,6E0,2E0,3E1,1.3E1,2.9E1],"tree_param":{"num_deleted":"0","num_feature":"10","num_nodes":"99","size_leaf_vector":"1"}},{"base_weights":[6.069313E4,-1.863323E6,8.063466E6,-3.3703968E6,1.16497875E5,-1.2779929E6,1.0915067E7,-3.414648E6,4.154141E5,-1.976509E6,2.2824325E6,-1.5687146E6,8.0826544E5,8.786197E6,1.6389924E7,-3.7649605E6,-2.475417E6,-2.483351E6,1.1448041E5,6.198721E5,4.733393E6,-1.9906576E6,2.5605488E6,5.256905E6,1.1788868E7,1.1669741E7,1.8618888E7,-4.0780162E6,-3.247449E6,-2.8947148E6,7.5115594E5,-2.8646748E6,-9.8177025E5,-1.6231535E6,1.9982356E6,-1.0848112E6,2.4170758E6,2.0985198E6,6.632667E6,-2.3346725E6,2.7049E4,5.860847E5,-5.5481175E5,7.0450185E6,1.4521166E6,3.4402538E6,1.2706964E7,9.986964E5,1.3494119E7,5.407865E6,1.9688426E7,-1.4528398E5,-4.152915E5,-3.751771E5,-2.2089005E5,-3.9928397E5,-2.1630008E5,3.9814766E5,-1.2945148E5,3.0364425E5,-2.9642634E5,-2.5984375E5,1.138514E5,2.2760595E5,-2.2583217E5,3.515642E4,5.7118325E5,3.1517228E5,-1.5243639E5,4.1134484E5,-1.775073E5,4.080703E5,-2.3322225E5,4.7701084E5,9.2437044E5,-8.153742E4,-3.0925244E5,-2.4314466E5,6.3829176E4,-1.074111E5,5.01543E4,8.260572E5,-9.074274E4,3.4955634E5,-3.717986E5,1.0022228E6,1.2794286E4,6.233823E5,1.3115275E6,6.511202E5,-3.0092062E5,1.5847212E6,6.538914E5,1.2909999E6,-1.3961786E5,4.5966772E5,2.0026979E6],"categories":[],"categories_nodes":[],"categories_segments":[],"categories_sizes":[],"default_left":[0,0,0,0,0,0,0,0,0,0,0,0,0,0,0,0,0,0,0,0,0,0,0,0,0,0,0,0,0,0,0,0,0,0,0,0,0,0,0,0,0,0,0,0,0,0,0,0,0,0,0,0,0,0,0,0,0,0,0,0,0,0,0,0,0,0,0,0,0,0,0,0,0,0,0,0,0,0,0,0,0,0,0,0,0,0,0,0,0,0,0,0,0,0,0,0,0],"id":7,"left_children":[1,3,5,7,9,11,13,15,-1,17,19,21,-1,23,25,27,29,31,33,35,37,39,41,43,45,47,49,51,53,55,57,59,61,63,65,67,69,71,73,75,77,-1,79,81,83,85,87,89,91,93,95,-1,-1,-1,-1,-1,-1,-1,-1,-1,-1,-1,-1,-1,-1,-1,-1,-1,-1,-1,-1,-1,-1,-1,-1,-1,-1,-1,-1,-1,-1,-1,-1,-1,-1,-1,-1,-1,-1,-1,-1,-1,-1,-1,-1,-1,-1],"loss_changes":[2.0416664E16,3.1900064E15,6.8599454E15,2.1629777E14,2.1034367E15,1.7868131E14,2.1520814E15,1.8941074E14,0E0,2.5039726E14,9.2613615E14,1.09636E14,0E0,1.4640384E15,3.5086232E14,5.771738E13,2.2810786E14,1.0597926E14,1.5708746E14,4.2234393E14,4.4648104E14,3.823982E13,6.4941374E13,4.5240045E14,5.4647768E14,3.75884E14,3.880664E14,4.6857825E13,8.07525E13,1.1028335E14,1.3731752E14,9.774097E13,1.40070124E14,6.7056473E13,1.38638625E14,1.3701916E14,4.837686E14,3.608188E14,2.1365664E14,5.159437E13,1.507661E13,0E0,2.7329697E12,4.521602E14,2.5598757E14,1.9493162E14,1.0061176E14,1.0796789E14,1.746025E14,2.2220403E14,7.144141E13,0E0,0E0,0E0,0E0,0E0,0E0,0E0,0E0,0E0,0E0,0E0,0E0,0E0,0E0,0E0,0E0,0E0,0E0,0E0,0E0,0E0,0E0,0E0,0E0,0E0,0E0,0E0,0E0,0E0,0E0,0E0,0E0,0E0,0E0,0E0,0E0,0E0,0E0,0E0,0E0,0E0,0E0,0E0,0E0,0E0,0E0],"parents":[2147483647,0,0,1,1,2,2,3,3,4,4,5,5,6,6,7,7,9,9,10,10,11,11,13,13,14,14,15,15,16,16,17,17,18,18,19,19,20,20,21,21,22,22,23,23,24,24,25,25,26,26,27,27,28,28,29,29,30,30,31,31,32,32,33,33,34,34,35,35,36,36,37,37,38,38,39,39,40,40,42,42,43,43,44,44,45,45,46,46,47,47,48,48,49,49,50,50],"right_children":[2,4,6,8,10,12,14,16,-1,18,20,22,-1,24,26,28,30,32,34,36,38,40,42,44,46,48,50,52,54,56,58,60,62,64,66,68,70,72,74,76,78,-1,80,82,84,86,88,90,92,94,96,-1,-1,-1,-1,-1,-1,-1,-1,-1,-1,-1,-1,-1,-1,-1,-1,-1,-1,-1,-1,-1,-1,-1,-1,-1,-1,-1,-1,-1,-1,-1,-1,-1,-1,-1,-1,-1,-1,-1,-1,-1,-1,-1,-1,-1,-1],"split_conditions":[3.09E1,1.81E1,2.4E1,1.2527629E0,2.7E1,1.5040774E0,3.1E1,2.9E1,4.154141E5,5.224719E-1,2.41E1,1.410987E0,8.0826544E5,4.4E0,3.0454546E-1,1.1E0,8.7546873E-1,1.3083328E0,2.521739E-1,1.6463415E-1,3E1,7.27003E-1,3.21E1,1.2527629E0,5.6764704E-1,3.05E1,3.17E1,4.7000363E-1,2.5E1,1.15E1,1.47E1,1.59E1,2.4E1,9.5551145E-1,1.2237754E0,1.85E1,4.8913044E-1,1.2527629E0,2.94E1,2.2E1,3.32E1,5.860847E5,4.68E1,4.2E0,5.934718E-1,4.65E-1,3.54E1,3.1E1,3.85E1,3.1E1,3.3647224E-1,-1.4528398E5,-4.152915E5,-3.751771E5,-2.2089005E5,-3.9928397E5,-2.1630008E5,3.9814766E5,-1.2945148E5,3.0364425E5,-2.9642634E5,-2.5984375E5,1.138514E5,2.2760595E5,-2.2583217E5,3.515642E4,5.7118325E5,3.1517228E5,-1.5243639E5,4.1134484E5,-1.775073E5,4.080703E5,-2.3322225E5,4.7701084E5,9.2437044E5,-8.153742E4,-3.0925244E5,-2.4314466E5,6.3829176E4,-1.074111E5,5.01543E4,8.260572E5,-9.074274E4,3.4955634E5,-3.717986E5,1.0022228E6,1.2794286E4,6.233823E5,1.3115275E6,6.511202E5,-3.0092062E5,1.5847212E6,6.538914E5,1.2909999E6,-1.3961786E5,4.5966772E5,2.0026979E6],"split_indices":[0,0,1,7,1,6,1,1,0,8,0,7,0,3,5,3,7,6,5,5,1,8,2,6,8,2,0,6,1,0,0,2,1,6,7,0,8,6,2,1,0,0,0,3,8,8,0,0,0,0,7,0,0,0,0,0,0,0,0,0,0,0,0,0,0,0,0,0,0,0,0,0,0,0,0,0,0,0,0,0,0,0,0,0,0,0,0,0,0,0,0,0,0,0,0,0,0],"split_type":[0,0,0,0,0,0,0,0,0,0,0,0,0,0,0,0,0,0,0,0,0,0,0,0,0,0,0,0,0,0,0,0,0,0,0,0,0,0,0,0,0,0,0,0,0,0,0,0,0,0,0,0,0,0,0,0,0,0,0,0,0,0,0,0,0,0,0,0,0,0,0,0,0,0,0,0,0,0,0,0,0,0,0,0,0,0,0,0,0,0,0,0,0,0,0,0,0],"sum_hessian":[1.324E3,1.068E3,2.56E2,6.06E2,4.62E2,6E1,1.96E2,6.03E2,3E0,2.35E2,2.27E2,5.9E1,1E0,1.43E2,5.3E1,4.37E2,1.66E2,1.89E2,4.6E1,1.36E2,9.1E1,5.4E1,5E0,6.7E1,7.6E1,1.9E1,3.4E1,2.68E2,1.69E2,1.47E2,1.9E1,1.5E2,3.9E1,2.4E1,2.2E1,7E1,6.6E1,3.9E1,5.2E1,4.6E1,8E0,2E0,3E0,4.5E1,2.2E1,8E0,6.8E1,3E0,1.6E1,3E0,3.1E1,8E0,2.6E2,1.12E2,5.7E1,5.7E1,9E1,7E0,1.2E1,2E0,1.48E2,2.2E1,1.7E1,3E0,2.1E1,1.6E1,6E0,6E0,6.4E1,4.7E1,1.9E1,2.7E1,1.2E1,3.2E1,2E1,1.6E1,3E1,1E0,7E0,2E0,1E0,3.9E1,6E0,1.6E1,6E0,2E0,6E0,5E0,6.3E1,1E0,2E0,1.1E1,5E0,1E0,2E0,1E0,3E1],"tree_param":{"num_deleted":"0","num_feature":"10","num_nodes":"97","size_leaf_vector":"1"}},{"base_weights":[1.1117703E5,-1.7373105E6,7.307637E6,-2.422921E6,1.1834379E6,3.6641532E6,1.3537787E7,-2.5434155E6,3.6876185E6,-1.2194236E6,4.127801E6,-4.835312E5,6.044041E6,1.1077951E7,1.7603108E7,-3.1149482E6,-1.6648118E6,4.860648E6,-1.3398891E6,-1.8908625E6,1.0742154E6,2.609768E6,6.1763795E6,-1.0362716E6,1.1100949E6,2.238543E6,9.064219E6,6.9080425E6,1.2911134E7,1.8011602E6,1.65293E5,-3.464851E6,-2.5877235E6,-2.1549232E6,2.4873147E5,5.4956935E6,-1.6974711E5,-3.2567672E5,2.2053725E5,-2.4687042E6,-4.4020697E5,2.7726012E6,-1.9204619E6,5.514682E6,2.7661622E5,7.4469405E6,-1.8411034E6,-1.4819742E6,1.1648924E6,3.013286E6,-1.6256521E6,9.681543E6,-2.1530232E6,1.1584933E7,4.43015E6,-9.92802E4,1.325757E7,1.0049483E4,-3.488875E5,-3.113323E5,-1.3915938E5,-2.2994162E5,1.7740411E5,-1.086097E5,2.3653573E5,6.211067E5,1.0407582E5,-3.9199434E5,-1.5123338E5,-4.1386875E5,1.1402169E5,1.0109319E5,8.245293E5,-3.3851262E5,2.2122791E4,-2.29421E4,6.346193E5,-2.7727472E5,5.335837E5,3.8089262E5,9.927113E5,2.4161533E5,-4.57377E5,1.20889625E5,-1.9274184E5,9.963903E5,-7.11399E4,-5.0546168E4,4.7907122E5,-6.443486E5,3.5173122E5,8.63056E5,1.444461E6,-5.596183E5,8.60091E4,2.801788E5,1.4537834E6,1.13909086E5,6.8632975E5,3.30393E5,1.3662529E6],"categories":[],"categories_nodes":[],"categories_segments":[],"categories_sizes":[],"default_left":[0,0,0,0,0,0,0,0,0,0,0,0,0,0,0,0,0,0,0,0,0,0,0,0,0,0,0,0,0,0,0,0,0,0,0,0,0,0,0,0,0,0,0,0,0,0,0,0,0,0,0,0,0,0,0,0,0,0,0,0,0,0,0,0,0,0,0,0,0,0,0,0,0,0,0,0,0,0,0,0,0,0,0,0,0,0,0,0,0,0,0,0,0,0,0,0,0,0,0,0,0],"id":8,"left_children":[1,3,5,7,9,11,13,15,17,19,21,23,25,27,29,31,33,35,37,39,41,43,45,47,-1,49,51,53,55,-1,-1,57,59,61,63,65,-1,-1,-1,67,69,71,73,75,77,79,81,83,85,87,89,91,93,95,97,-1,99,-1,-1,-1,-1,-1,-1,-1,-1,-1,-1,-1,-1,-1,-1,-1,-1,-1,-1,-1,-1,-1,-1,-1,-1,-1,-1,-1,-1,-1,-1,-1,-1,-1,-1,-1,-1,-1,-1,-1,-1,-1,-1,-1,-1],"loss_changes":[1.7705109E16,2.1235108E15,6.124646E15,6.4111245E14,1.4341626E15,1.7106098E15,8.04995E14,4.176249E14,1.0676879E14,1.7451553E14,2.668737E14,4.2130905E14,1.2439707E15,4.0768313E14,2.0478726E14,8.493298E13,3.137777E14,6.763463E13,3.4365724E13,7.1840945E13,1.3756371E14,3.644653E14,4.008054E14,6.2552344E13,0E0,1.5458648E14,4.432492E14,2.0363118E14,2.2510192E14,0E0,0E0,2.6303722E13,1.2580536E14,1.5508966E14,1.9751694E14,3.4966067E13,0E0,0E0,0E0,8.012292E13,1.5669334E14,1.5556284E14,3.211745E13,1.1608679E14,4.930444E14,2.5994417E14,8.085291E13,6.4658937E13,1.8869288E14,2.651027E14,2.4566527E14,1.6567675E14,4.631176E13,1.4081829E14,1.20304215E14,0E0,1.2818491E14,0E0,0E0,0E0,0E0,0E0,0E0,0E0,0E0,0E0,0E0,0E0,0E0,0E0,0E0,0E0,0E0,0E0,0E0,0E0,0E0,0E0,0E0,0E0,0E0,0E0,0E0,0E0,0E0,0E0,0E0,0E0,0E0,0E0,0E0,0E0,0E0,0E0,0E0,0E0,0E0,0E0,0E0,0E0,0E0],"parents":[2147483647,0,0,1,1,2,2,3,3,4,4,5,5,6,6,7,7,8,8,9,9,10,10,11,11,12,12,13,13,14,14,15,15,16,16,17,17,18,18,19,19,20,20,21,21,22,22,23,23,25,25,26,26,27,27,28,28,31,31,32,32,33,33,34,34,35,35,39,39,40,40,41,41,42,42,43,43,44,44,45,45,46,46,47,47,48,48,49,49,50,50,51,51,52,52,53,53,54,54,56,56],"right_children":[2,4,6,8,10,12,14,16,18,20,22,24,26,28,30,32,34,36,38,40,42,44,46,48,-1,50,52,54,56,-1,-1,58,60,62,64,66,-1,-1,-1,68,70,72,74,76,78,80,82,84,86,88,90,92,94,96,98,-1,100,-1,-1,-1,-1,-1,-1,-1,-1,-1,-1,-1,-1,-1,-1,-1,-1,-1,-1,-1,-1,-1,-1,-1,-1,-1,-1,-1,-1,-1,-1,-1,-1,-1,-1,-1,-1,-1,-1,-1,-1,-1,-1,-1,-1],"split_conditions":[3.09E1,2.41E1,2.8E1,1.2809339E0,2.7E1,2.4E1,3.2E1,1.95E1,2.32E1,5.368098E-1,2.94E1,1.4350846E0,2.3E0,3.6E1,3.75E1,2.7E1,3.1E1,3.3E1,2.9E1,2.5E1,2.81E1,2.61E1,3.3E1,6.5E0,1.1100949E6,1.3350011E0,8.813559E-2,4.9491525E-1,3.6220473E-1,1.8011602E6,1.65293E5,2E1,6.4185387E-1,5.224719E-1,1.5E0,2.7272727E-2,-1.6974711E5,-3.2567672E5,2.2053725E5,1.3E0,2.631579E-2,2.97E1,3.14E1,1.4E0,1.7E0,2.5E-2,1.5E0,2.96E1,3.16E1,4.86631E-1,1.410987E0,3.6E0,2.71E1,2.74E1,4.1E0,-9.92802E4,3.04E1,1.0049483E4,-3.488875E5,-3.113323E5,-1.3915938E5,-2.2994162E5,1.7740411E5,-1.086097E5,2.3653573E5,6.211067E5,1.0407582E5,-3.9199434E5,-1.5123338E5,-4.1386875E5,1.1402169E5,1.0109319E5,8.245293E5,-3.3851262E5,2.2122791E4,-2.29421E4,6.346193E5,-2.7727472E5,5.335837E5,3.8089262E5,9.927113E5,2.4161533E5,-4.57377E5,1.20889625E5,-1.9274184E5,9.963903E5,-7.11399E4,-5.0546168E4,4.7907122E5,-6.443486E5,3.5173122E5,8.63056E5,1.444461E6,-5.596183E5,8.60091E4,2.801788E5,1.4537834E6,1.13909086E5,6.8632975E5,3.30393E5,1.3662529E6],"split_indices":[0,0,1,7,1,1,1,2,0,8,2,7,4,0,2,1,1,1,1,1,2,0,2,3,0,7,9,8,8,0,0,1,7,8,3,9,0,0,0,4,9,0,2,3,4,9,3,2,2,8,7,4,2,2,3,0,2,0,0,0,0,0,0,0,0,0,0,0,0,0,0,0,0,0,0,0,0,0,0,0,0,0,0,0,0,0,0,0,0,0,0,0,0,0,0,0,0,0,0,0,0],"split_type":[0,0,0,0,0,0,0,0,0,0,0,0,0,0,0,0,0,0,0,0,0,0,0,0,0,0,0,0,0,0,0,0,0,0,0,0,0,0,0,0,0,0,0,0,0,0,0,0,0,0,0,0,0,0,0,0,0,0,0,0,0,0,0,0,0,0,0,0,0,0,0,0,0,0,0,0,0,0,0,0,0,0,0,0,0,0,0,0,0,0,0,0,0,0,0,0,0,0,0,0,0],"sum_hessian":[1.329E3,1.058E3,2.71E2,8.57E2,2.01E2,1.72E2,9.9E1,8.41E2,1.6E1,1.11E2,9E1,6.3E1,1.09E2,6.4E1,3.5E1,5.08E2,3.33E2,1.3E1,3E0,8.6E1,2.5E1,5.3E1,3.7E1,6.1E1,2E0,4.9E1,6E1,2.1E1,4.3E1,3.4E1,1E0,3.02E2,2.06E2,2.65E2,6.8E1,1.2E1,1E0,2E0,1E0,6.1E1,2.5E1,1.6E1,9E0,2.3E1,3E1,3.2E1,5E0,5.1E1,1E1,4.1E1,8E0,5.7E1,3E0,6E0,1.5E1,1E0,4.2E1,2E0,3E2,1.42E2,6.4E1,2.56E2,9E0,4.2E1,2.6E1,1E1,2E0,2.3E1,3.8E1,7E0,1.8E1,1.3E1,3E0,5E0,4E0,3E0,2E1,1.9E1,1.1E1,1.4E1,1.8E1,2E0,3E0,7E0,4.4E1,1E0,9E0,1.4E1,2.7E1,4E0,4E0,4.9E1,8E0,1E0,2E0,2E0,4E0,7E0,8E0,2E0,4E1],"tree_param":{"num_deleted":"0","num_feature":"10","num_nodes":"101","size_leaf_vector":"1"}},{"base_weights":[5.3210582E4,-1.6095395E6,6.015993E6,-2.7369602E6,-3.5307684E5,-9.7672225E5,8.287498E6,-3.3215015E6,-2.3069245E6,-1.957043E6,9.680948E5,-1.421382E6,6.937839E6,5.5615935E6,1.0616392E7,-2.88072E6,-3.5373802E6,-3.0687212E6,-1.7936855E6,-2.185108E6,8.423616E6,-1.1423424E6,2.6032185E6,5.5115135E6,-1.7105955E6,-1.6656516E5,1.0360886E6,2.7163665E6,8.893856E6,7.550669E6,1.2870956E7,-8.997132E5,-3.0272045E6,-3.8199268E6,-3.0625185E6,-3.1378858E6,2.823001E5,-2.3336158E6,-1.0652809E6,-2.5635418E6,2.5565137E4,1.02558344E6,5.4737402E4,-1.5254598E6,3.709699E6,2.120367E6,1.0093248E7,9.465708E5,-1.1984377E5,-2.0581122E6,1.1096048E6,1.0793338E6,5.933625E6,5.914878E6,1.20102E7,5.860253E6,1.1720352E6,1.1610115E7,1.757723E6,-2.972428E5,5.2385832E4,-2.696916E5,-3.7003134E5,-3.6297994E5,-4.9779672E5,2.318255E4,-3.2977675E5,-1.4402916E5,-3.3204384E5,-6.8918256E2,-2.5408792E5,1.23642336E5,-1.8038825E5,1.9353511E5,-2.672454E5,2.4579916E5,-2.138012E5,-3.2916356E5,-7.028415E4,5.327587E5,-1.301939E5,-4.401056E5,2.5333045E5,4.183137E5,1.2351114E6,1.8712578E4,-2.407132E5,3.6655984E5,-3.5332617E4,5.223691E5,-1.5868388E4,9.217545E5,2.6604275E4,7.4030744E5,8.179053E4,1.4173876E6,5.3489125E5,8.2466525E5,1.914388E5,8.071582E5,1.2980734E6],"categories":[],"categories_nodes":[],"categories_segments":[],"categories_sizes":[],"default_left":[0,0,0,0,0,0,0,0,0,0,0,0,0,0,0,0,0,0,0,0,0,0,0,0,0,0,0,0,0,0,0,0,0,0,0,0,0,0,0,0,0,0,0,0,0,0,0,0,0,0,0,0,0,0,0,0,0,0,0,0,0,0,0,0,0,0,0,0,0,0,0,0,0,0,0,0,0,0,0,0,0,0,0,0,0,0,0,0,0,0,0,0,0,0,0,0,0,0,0,0,0],"id":9,"left_children":[1,3,5,7,9,11,13,15,17,19,21,23,25,27,29,31,33,35,37,39,41,43,45,47,49,-1,-1,51,53,55,57,59,61,63,65,67,-1,69,71,73,75,-1,-1,77,79,81,83,-1,-1,85,87,89,91,93,95,97,-1,99,-1,-1,-1,-1,-1,-1,-1,-1,-1,-1,-1,-1,-1,-1,-1,-1,-1,-1,-1,-1,-1,-1,-1,-1,-1,-1,-1,-1,-1,-1,-1,-1,-1,-1,-1,-1,-1,-1,-1,-1,-1,-1,-1],"loss_changes":[1.3186211E16,1.4722587E15,4.6144495E15,1.30090264E14,1.046618E15,2.6324997E14,1.3312434E15,1.1695464E13,1.1921943E14,5.4635145E14,9.3814756E14,1.4777895E14,1.3505823E14,9.523886E14,7.115043E14,2.0781468E13,8.4271285E12,6.0610444E13,7.341851E13,1.8327947E14,6.6541157E13,2.2686826E14,5.3193425E14,9.094143E13,6.7948178E13,0E0,0E0,2.938009E14,3.6528643E14,2.9783773E14,1.8756122E14,2.2211736E13,6.694579E12,1.7465753E12,4.803894E13,3.426498E13,0E0,5.302949E13,1.4503395E14,9.679917E13,1.7892569E14,0E0,0E0,1.5895714E14,7.99106E13,4.016256E14,6.8431714E13,0E0,0E0,4.746838E13,3.1209086E13,2.0092961E14,3.511735E14,1.9116269E14,2.4126818E14,3.5145274E14,0E0,1.6197395E14,0E0,0E0,0E0,0E0,0E0,0E0,0E0,0E0,0E0,0E0,0E0,0E0,0E0,0E0,0E0,0E0,0E0,0E0,0E0,0E0,0E0,0E0,0E0,0E0,0E0,0E0,0E0,0E0,0E0,0E0,0E0,0E0,0E0,0E0,0E0,0E0,0E0,0E0,0E0,0E0,0E0,0E0,0E0],"parents":[2147483647,0,0,1,1,2,2,3,3,4,4,5,5,6,6,7,7,8,8,9,9,10,10,11,11,12,12,13,13,14,14,15,15,16,16,17,17,18,18,19,19,20,20,21,21,22,22,23,23,24,24,27,27,28,28,29,29,30,30,31,31,32,32,33,33,34,34,35,35,37,37,38,38,39,39,40,40,43,43,44,44,45,45,46,46,49,49,50,50,51,51,52,52,53,53,54,54,55,55,57,57],"right_children":[2,4,6,8,10,12,14,16,18,20,22,24,26,28,30,32,34,36,38,40,42,44,46,48,50,-1,-1,52,54,56,58,60,62,64,66,68,-1,70,72,74,76,-1,-1,78,80,82,84,-1,-1,86,88,90,92,94,96,98,-1,100,-1,-1,-1,-1,-1,-1,-1,-1,-1,-1,-1,-1,-1,-1,-1,-1,-1,-1,-1,-1,-1,-1,-1,-1,-1,-1,-1,-1,-1,-1,-1,-1,-1,-1,-1,-1,-1,-1,-1,-1,-1,-1,-1],"split_conditions":[3.04E1,1.99E1,2.4E1,2.5E1,2.6E1,1.4350846E0,3.1451613E-1,3.4013607E-2,1.39E1,6.30303E-1,1.5581395E-1,1.8232156E-1,2.3E1,2.9E1,2.8E1,2.7567568E-1,3.8317758E-1,1.8128654E-1,1.2463768E-1,5.081967E-1,2.88E1,2.88E1,5.913978E-1,3.16E1,1.3862944E0,-1.6656516E5,1.0360886E6,1.2237754E0,2.8E0,6.6E0,3.4E1,7.4193734E-1,7.8845733E-1,1.8043478E-1,3.855932E-1,5.3062826E-1,2.823001E5,6.612903E-2,1.3670886E-1,8.461539E-2,2.7E0,1.02558344E6,5.4737402E4,2.8E1,2.98E1,1.010101E-2,5.120482E-2,9.465708E5,-1.1984377E5,2.1E1,2.6666668E-1,4.054651E-1,1.1314021E0,4.4444446E-2,1.1939225E0,1.3609766E0,1.1720352E6,3.35E1,1.757723E6,-2.972428E5,5.2385832E4,-2.696916E5,-3.7003134E5,-3.6297994E5,-4.9779672E5,2.318255E4,-3.2977675E5,-1.4402916E5,-3.3204384E5,-6.8918256E2,-2.5408792E5,1.23642336E5,-1.8038825E5,1.9353511E5,-2.672454E5,2.4579916E5,-2.138012E5,-3.2916356E5,-7.028415E4,5.327587E5,-1.301939E5,-4.401056E5,2.5333045E5,4.183137E5,1.2351114E6,1.8712578E4,-2.407132E5,3.6655984E5,-3.5332617E4,5.223691E5,-1.5868388E4,9.217545E5,2.6604275E4,7.4030744E5,8.179053E4,1.4173876E6,5.3489125E5,8.2466525E5,1.914388E5,8.071582E5,1.2980734E6],"split_indices":[2,2,1,1,1,7,5,9,2,8,5,7,1,1,1,8,8,9,5,8,2,2,8,2,7,0,0,7,3,3,1,6,7,5,8,6,0,5,5,5,3,0,0,1,2,9,9,0,0,1,5,7,6,9,7,7,0,2,0,0,0,0,0,0,0,0,0,0,0,0,0,0,0,0,0,0,0,0,0,0,0,0,0,0,0,0,0,0,0,0,0,0,0,0,0,0,0,0,0,0,0],"split_type":[0,0,0,0,0,0,0,0,0,0,0,0,0,0,0,0,0,0,0,0,0,0,0,0,0,0,0,0,0,0,0,0,0,0,0,0,0,0,0,0,0,0,0,0,0,0,0,0,0,0,0,0,0,0,0,0,0,0,0,0,0,0,0,0,0,0,0,0,0,0,0,0,0,0,0,0,0,0,0,0,0,0,0,0,0,0,0,0,0,0,0,0,0,0,0,0,0,0,0,0,0],"sum_hessian":[1.328E3,1.039E3,2.89E2,5.47E2,4.92E2,7.1E1,2.18E2,2.29E2,3.18E2,2.22E2,2.7E2,6.8E1,3E0,1.02E2,1.16E2,8E1,1.49E2,1.26E2,1.92E2,2.18E2,4E0,1.18E2,1.52E2,2E0,6.6E1,1E0,2E0,5.6E1,4.6E1,5.1E1,6.5E1,6E0,7.4E1,8.9E1,6E1,1.25E2,1E0,1.09E2,8.3E1,1.86E2,3.2E1,3E0,1E0,1.1E2,8E0,1.44E2,8E0,1E0,1E0,5.9E1,7E0,3.8E1,1.8E1,2.5E1,2.1E1,3.8E1,1.3E1,5.4E1,1.1E1,2E0,4E0,5.3E1,2.1E1,8E1,9E0,4E0,5.6E1,1.3E1,1.12E2,9E0,1E2,2E1,6.3E1,4E0,1.82E2,1.5E1,1.7E1,3.4E1,7.6E1,6E0,2E0,8E0,1.36E2,3E0,5E0,8E0,5.1E1,2E0,5E0,8E0,3E1,1.1E1,7E0,1.9E1,6E0,1.5E1,6E0,2.3E1,1.5E1,1.7E1,3.7E1],"tree_param":{"num_deleted":"0","num_feature":"10","num_nodes":"101","size_leaf_vector":"1"}},{"base_weights":[7.997443E4,-1.5068014E6,4.639386E6,-2.358668E6,-2.510107E5,-1.5432101E6,7.008115E6,-2.9063435E6,-1.9461836E6,-1.2882672E6,2.0616666E6,-1.6764702E6,5.491625E5,3.4841932E6,9.054519E6,-9.0744844E5,-3.0041372E6,-2.7557795E6,-1.432251E6,-1.64228E6,5.945549E6,1.213545E6,5.900155E6,-2.6779282E6,-1.0369965E6,1.6503991E6,8.0757325E6,7.24354E6,1.1584147E7,-1.7256948E6,4.4557534E5,-3.5232158E6,-2.7500515E6,-2.8538532E6,4.8988316E5,-8.643762E5,-2.360347E6,3.0729345E6,-1.9208524E6,1.4473902E6,9.594343E6,8.831279E4,2.528427E6,6.6161795E6,-4.5681816E5,-1.5351211E6,-3.4211178E6,1.7354269E5,-1.8152171E6,8.168751E5,8.678193E6,-2.789551E5,8.621926E6,1.0832835E7,6.2376715E6,8.2701705E6,1.4738246E6,-2.1382062E5,1.4059661E5,-3.6095875E5,-2.7588416E4,-2.7988228E5,7.840213E4,-1.2836006E5,-2.9905128E5,-4.4343895E4,-2.8033697E5,-2.8191653E5,-6.7433266E4,9.02443E5,-1.8974439E5,-2.8504934E5,-1.29448375E5,3.1208844E5,-5.8795125E4,1.117339E5,1.0820954E6,3.7173788E5,-5.9397695E4,4.1395656E5,-2.9727197E4,-1.32635E4,7.333562E5,-7.235963E4,-2.7670634E5,-8.22782E4,-3.8084638E5,-1.1181975E5,1.17608555E5,-3.6222303E5,-7.607844E4,1.3963581E5,-5.9526056E5,1.552323E5,9.607118E5,9.240087E5,1.008714E5,1.1671539E6,-2.13192E5,-6.8859625E4,7.074966E5,-2.6291501E3,9.100693E5],"categories":[],"categories_nodes":[],"categories_segments":[],"categories_sizes":[],"default_left":[0,0,0,0,0,0,0,0,0,0,0,0,0,0,0,0,0,0,0,0,0,0,0,0,0,0,0,0,0,0,0,0,0,0,0,0,0,0,0,0,0,0,0,0,0,0,0,0,0,0,0,0,0,0,0,0,0,0,0,0,0,0,0,0,0,0,0,0,0,0,0,0,0,0,0,0,0,0,0,0,0,0,0,0,0,0,0,0,0,0,0,0,0,0,0,0,0,0,0,0,0,0,0],"id":10,"left_children":[1,3,5,7,9,11,13,15,17,19,21,23,-1,25,27,29,31,33,35,37,39,41,43,45,47,49,51,53,55,57,-1,59,61,63,-1,65,67,69,71,73,75,77,79,81,-1,83,85,87,89,91,93,-1,95,97,99,101,-1,-1,-1,-1,-1,-1,-1,-1,-1,-1,-1,-1,-1,-1,-1,-1,-1,-1,-1,-1,-1,-1,-1,-1,-1,-1,-1,-1,-1,-1,-1,-1,-1,-1,-1,-1,-1,-1,-1,-1,-1,-1,-1,-1,-1,-1,-1],"loss_changes":[9.52794E15,1.0445692E15,4.990079E15,1.2582214E14,9.525965E14,9.82656E13,1.74245E15,4.575281E13,1.3543911E14,7.114408E14,3.9326707E14,5.7421146E13,0E0,7.6130604E14,6.2616113E14,6.473874E13,2.1437121E13,1.1082297E14,1.0705753E14,3.5004708E14,1.9948033E14,1.5069055E14,1.9512674E14,2.5323798E13,5.5896953E13,3.853859E14,1.7834959E14,2.6819172E14,5.3662664E14,1.8508398E13,0E0,1.9759534E13,3.0289183E13,2.3628897E13,0E0,1.0486217E14,5.8437728E13,4.6084117E14,1.4071997E14,2.5677848E13,6.069527E13,1.4086822E14,2.1520242E14,1.02643746E14,0E0,1.3993788E13,1.8002003E13,3.2395693E13,6.5837713E13,2.4760268E14,3.142245E13,0E0,1.0833411E14,2.3148115E14,4.3982156E14,2.2762226E14,0E0,0E0,0E0,0E0,0E0,0E0,0E0,0E0,0E0,0E0,0E0,0E0,0E0,0E0,0E0,0E0,0E0,0E0,0E0,0E0,0E0,0E0,0E0,0E0,0E0,0E0,0E0,0E0,0E0,0E0,0E0,0E0,0E0,0E0,0E0,0E0,0E0,0E0,0E0,0E0,0E0,0E0,0E0,0E0,0E0,0E0,0E0],"parents":[2147483647,0,0,1,1,2,2,3,3,4,4,5,5,6,6,7,7,8,8,9,9,10,10,11,11,13,13,14,14,15,15,16,16,17,17,18,18,19,19,20,20,21,21,22,22,23,23,24,24,25,25,26,26,27,27,28,28,29,29,31,31,32,32,33,33,35,35,36,36,37,37,38,38,39,39,40,40,41,41,42,42,43,43,45,45,46,46,47,47,48,48,49,49,50,50,52,52,53,53,54,54,55,55],"right_children":[2,4,6,8,10,12,14,16,18,20,22,24,-1,26,28,30,32,34,36,38,40,42,44,46,48,50,52,54,56,58,-1,60,62,64,-1,66,68,70,72,74,76,78,80,82,-1,84,86,88,90,92,94,-1,96,98,100,102,-1,-1,-1,-1,-1,-1,-1,-1,-1,-1,-1,-1,-1,-1,-1,-1,-1,-1,-1,-1,-1,-1,-1,-1,-1,-1,-1,-1,-1,-1,-1,-1,-1,-1,-1,-1,-1,-1,-1,-1,-1,-1,-1,-1,-1,-1,-1],"split_conditions":[2.93E1,2.12E1,2.4E1,1.47E1,2.9E1,1.4350846E0,5.2567977E-1,4.7000363E-1,2.5E1,5.934718E-1,4.966443E-1,5E-1,5.491625E5,3.1E1,2.9E1,2.090909E-1,1.09E1,2E0,9E-1,2.7567568E-1,2.78E1,1.2E0,3.6E1,8.329091E-1,3E-1,9.090909E-2,9.063444E-3,1.9E0,2.6E0,1.16E1,4.4557534E5,9E-1,1.8128654E-1,8.3333336E-2,4.8988316E5,3.3E1,8.214286E-2,9.531018E-2,1.5316455E-1,3.4013607E-2,2.9310346E-1,2.2E1,1.2237754E0,7.8845733E-1,-4.5681816E5,2.3E1,2.99E1,2.5789472E-1,2.7E0,5.081967E-1,2.98E1,-2.789551E5,5E-1,1.410987E0,2.1E0,2.4177215E-1,1.4738246E6,-2.1382062E5,1.4059661E5,-3.6095875E5,-2.7588416E4,-2.7988228E5,7.840213E4,-1.2836006E5,-2.9905128E5,-4.4343895E4,-2.8033697E5,-2.8191653E5,-6.7433266E4,9.02443E5,-1.8974439E5,-2.8504934E5,-1.29448375E5,3.1208844E5,-5.8795125E4,1.117339E5,1.0820954E6,3.7173788E5,-5.9397695E4,4.1395656E5,-2.9727197E4,-1.32635E4,7.333562E5,-7.235963E4,-2.7670634E5,-8.22782E4,-3.8084638E5,-1.1181975E5,1.17608555E5,-3.6222303E5,-7.607844E4,1.3963581E5,-5.9526056E5,1.552323E5,9.607118E5,9.240087E5,1.008714E5,1.1671539E6,-2.13192E5,-6.8859625E4,7.074966E5,-2.6291501E3,9.100693E5],"split_indices":[2,2,1,2,1,7,8,6,1,8,8,8,0,1,1,5,2,4,4,8,2,4,1,7,5,9,9,4,4,2,0,4,9,5,0,1,9,7,5,9,5,2,6,6,0,1,2,5,4,8,2,0,8,7,4,5,0,0,0,0,0,0,0,0,0,0,0,0,0,0,0,0,0,0,0,0,0,0,0,0,0,0,0,0,0,0,0,0,0,0,0,0,0,0,0,0,0,0,0,0,0,0,0],"split_type":[0,0,0,0,0,0,0,0,0,0,0,0,0,0,0,0,0,0,0,0,0,0,0,0,0,0,0,0,0,0,0,0,0,0,0,0,0,0,0,0,0,0,0,0,0,0,0,0,0,0,0,0,0,0,0,0,0,0,0,0,0,0,0,0,0,0,0,0,0,0,0,0,0,0,0,0,0,0,0,0,0,0,0,0,0,0,0,0,0,0,0,0,0,0,0,0,0,0,0,0,0,0,0],"sum_hessian":[1.315E3,9.76E2,3.39E2,5.81E2,3.95E2,9.4E1,2.45E2,2.47E2,3.34E2,2.73E2,1.22E2,9.3E1,1E0,9.1E1,1.54E2,1.2E1,2.35E2,1.28E2,2.06E2,2.61E2,1.2E1,1.01E2,2.1E1,3.5E1,5.8E1,6.6E1,2.5E1,9.2E1,6.2E1,1.1E1,1E0,7.3E1,1.62E2,1.27E2,1E0,1.29E2,7.7E1,1.4E1,2.47E2,6E0,6E0,5.5E1,4.6E1,2E1,1E0,1.5E1,2E1,2.3E1,3.5E1,6E1,6E0,1E0,2.4E1,1.8E1,7.4E1,3.2E1,3E1,1E1,1E0,7.1E1,2E0,1.6E2,2E0,1.1E1,1.16E2,1.07E2,2.2E1,6E1,1.7E1,6E0,8E0,9.8E1,1.49E2,3E0,3E0,1E0,5E0,8E0,4.7E1,2.9E1,1.7E1,2E0,1.8E1,1E1,5E0,3E0,1.7E1,1E1,1.3E1,1.2E1,2.3E1,5.6E1,4E0,1E0,5E0,2.2E1,2E0,1.7E1,1E0,8E0,6.6E1,3E0,2.9E1],"tree_param":{"num_deleted":"0","num_feature":"10","num_nodes":"103","size_leaf_vector":"1"}},{"base_weights":[1.7201622E5,-1.6085178E6,3.7694438E6,-1.7019974E6,3.5516005E6,4.7975816E5,6.037212E6,-2.155444E6,-9.0594944E5,2.3412878E6,8.01586E5,-7.593992E5,4.0790478E6,3.3919748E6,9.348811E6,-2.2220372E6,2.1018315E6,-1.653026E6,2.3371388E5,-4.302253E5,3.4929155E6,-1.7085211E6,6.783466E5,-1.260297E6,5.793136E6,2.433951E6,5.3377705E6,7.755832E6,1.2868883E7,-2.4633148E6,-1.4039732E6,9.659636E5,-5.0348688E4,-2.1395562E6,-5.8108375E5,-1.3987388E6,1.5179904E6,-2.6092153E5,7.66826E5,4.384606E5,-4.923E4,-2.1616115E4,-2.0015826E6,-1.4169311E6,3.1655462E6,-3.4266034E5,-1.5746128E5,9.42296E6,3.964288E6,3.1200358E6,-6.190403E5,6.6733335E6,8.862677E5,6.590957E6,1.0101513E7,6.8372035E6,1.4179422E7,-2.696396E5,-1.9141744E5,-2.3098767E5,2.2172607E4,-9.774552E4,1.8206473E5,-2.3036086E5,1.6621367E5,4.918531E4,-2.3751467E5,-3.3625194E5,-2.1434627E4,5.92926E5,6.1043664E4,1.792432E5,-1.7252E4,7.016395E4,-7.754845E4,6.6773914E4,-1.7396003E5,2.0555217E4,-2.1772267E5,4.2701715E4,-3.861096E5,5.1196625E5,-2.5907042E5,9.51005E4,-1.2344352E5,1.1487E6,4.648713E5,2.2921768E4,6.882614E5,8.266142E5,2.2788078E5,-5.6463506E5,1.09799914E5,3.519893E5,8.520073E5,4.5596975E5,-2.3889962E5,7.6510125E5,1.4624511E5,1.0691188E6,-2.025324E5,1.174386E5,1.0000017E6,1.297506E5,1.4624976E6],"categories":[],"categories_nodes":[],"categories_segments":[],"categories_sizes":[],"default_left":[0,0,0,0,0,0,0,0,0,0,0,0,0,0,0,0,0,0,0,0,0,0,0,0,0,0,0,0,0,0,0,0,0,0,0,0,0,0,0,0,0,0,0,0,0,0,0,0,0,0,0,0,0,0,0,0,0,0,0,0,0,0,0,0,0,0,0,0,0,0,0,0,0,0,0,0,0,0,0,0,0,0,0,0,0,0,0,0,0,0,0,0,0,0,0,0,0,0,0,0,0,0,0,0,0],"id":11,"left_children":[1,3,5,7,9,11,13,15,17,19,-1,21,23,25,27,29,31,33,35,37,39,41,43,45,47,49,51,53,55,57,59,-1,61,63,65,67,69,-1,71,-1,73,75,77,79,81,-1,83,85,87,89,91,93,95,97,99,101,103,-1,-1,-1,-1,-1,-1,-1,-1,-1,-1,-1,-1,-1,-1,-1,-1,-1,-1,-1,-1,-1,-1,-1,-1,-1,-1,-1,-1,-1,-1,-1,-1,-1,-1,-1,-1,-1,-1,-1,-1,-1,-1,-1,-1,-1,-1,-1,-1],"loss_changes":[8.4354935E15,4.310091E14,3.2497714E15,3.1064317E14,6.7682964E13,8.0145304E14,2.228359E15,1.6088169E14,2.6943375E14,4.6187273E13,0E0,1.8401485E14,4.2829796E14,2.5730532E14,5.39435E14,1.03719165E14,1.4687815E14,9.836945E13,2.6628487E14,1.5042628E13,3.180081E13,4.0000456E13,2.8589956E14,2.8129402E13,1.9498856E14,2.0929792E14,2.7351305E14,1.5474767E14,1.7181372E14,4.8340394E13,1.8607572E14,0E0,1.5656503E13,8.553058E13,1.1858812E14,1.2952894E14,2.8062659E14,0E0,4.162826E12,0E0,2.1800776E12,1.6557517E13,2.7196773E13,1.36856155E14,2.944731E14,0E0,1.1918059E13,5.4996788E13,2.709262E14,3.3181602E14,1.7020939E14,1.7965929E14,1.5527053E14,2.9869135E14,2.0042492E14,1.3153958E14,1.3599316E14,0E0,0E0,0E0,0E0,0E0,0E0,0E0,0E0,0E0,0E0,0E0,0E0,0E0,0E0,0E0,0E0,0E0,0E0,0E0,0E0,0E0,0E0,0E0,0E0,0E0,0E0,0E0,0E0,0E0,0E0,0E0,0E0,0E0,0E0,0E0,0E0,0E0,0E0,0E0,0E0,0E0,0E0,0E0,0E0,0E0,0E0,0E0,0E0],"parents":[2147483647,0,0,1,1,2,2,3,3,4,4,5,5,6,6,7,7,8,8,9,9,11,11,12,12,13,13,14,14,15,15,16,16,17,17,18,18,19,19,20,20,21,21,22,22,23,23,24,24,25,25,26,26,27,27,28,28,29,29,30,30,32,32,33,33,34,34,35,35,36,36,38,38,40,40,41,41,42,42,43,43,44,44,46,46,47,47,48,48,49,49,50,50,51,51,52,52,53,53,54,54,55,55,56,56],"right_children":[2,4,6,8,10,12,14,16,18,20,-1,22,24,26,28,30,32,34,36,38,40,42,44,46,48,50,52,54,56,58,60,-1,62,64,66,68,70,-1,72,-1,74,76,78,80,82,-1,84,86,88,90,92,94,96,98,100,102,104,-1,-1,-1,-1,-1,-1,-1,-1,-1,-1,-1,-1,-1,-1,-1,-1,-1,-1,-1,-1,-1,-1,-1,-1,-1,-1,-1,-1,-1,-1,-1,-1,-1,-1,-1,-1,-1,-1,-1,-1,-1,-1,-1,-1,-1,-1,-1,-1],"split_conditions":[2.77E1,1.2527629E0,2.6E1,2.8E1,5.706522E-1,6.472303E-1,3.0454546E-1,2E0,2.05E1,1.2809339E0,8.01586E5,2.4E1,2.3E1,2.3448277E-1,3.2E1,7.692308E-2,1.6463415E-1,6.931472E-1,1.509434E-1,8E-1,1.3E0,2.1E1,2.4342105E-1,3.4133333E-1,3.5945946E-1,4.8351648E-1,3.42E1,4.6296295E-2,1.0296195E0,1.5833333E-1,2.5E1,9.659636E5,2.1707317E-1,1.96E1,4.296875E-1,2.6022306E-2,9.932518E-1,-2.6092153E5,2.7E1,4.384606E5,2.58E1,4.2105265E-2,1.1E0,1.4E0,5.975976E-1,-3.4266034E5,3.36E1,1.2237754E0,2.4E1,6.4185387E-1,1.4E0,5.3333336E-1,2.4342105E-1,1.3083328E0,1.3862944E0,3.215434E-2,1.0526316E-2,-2.696396E5,-1.9141744E5,-2.3098767E5,2.2172607E4,-9.774552E4,1.8206473E5,-2.3036086E5,1.6621367E5,4.918531E4,-2.3751467E5,-3.3625194E5,-2.1434627E4,5.92926E5,6.1043664E4,1.792432E5,-1.7252E4,7.016395E4,-7.754845E4,6.6773914E4,-1.7396003E5,2.0555217E4,-2.1772267E5,4.2701715E4,-3.861096E5,5.1196625E5,-2.5907042E5,9.51005E4,-1.2344352E5,1.1487E6,4.648713E5,2.2921768E4,6.882614E5,8.266142E5,2.2788078E5,-5.6463506E5,1.09799914E5,3.519893E5,8.520073E5,4.5596975E5,-2.3889962E5,7.6510125E5,1.4624511E5,1.0691188E6,-2.025324E5,1.174386E5,1.0000017E6,1.297506E5,1.4624976E6],"split_indices":[2,7,1,1,8,8,5,4,2,7,0,1,1,5,1,9,5,7,5,4,4,1,5,5,5,8,2,9,7,5,1,0,5,2,8,9,6,0,1,0,2,9,4,4,8,0,2,6,1,7,4,8,5,6,7,9,9,0,0,0,0,0,0,0,0,0,0,0,0,0,0,0,0,0,0,0,0,0,0,0,0,0,0,0,0,0,0,0,0,0,0,0,0,0,0,0,0,0,0,0,0,0,0,0,0],"split_type":[0,0,0,0,0,0,0,0,0,0,0,0,0,0,0,0,0,0,0,0,0,0,0,0,0,0,0,0,0,0,0,0,0,0,0,0,0,0,0,0,0,0,0,0,0,0,0,0,0,0,0,0,0,0,0,0,0,0,0,0,0,0,0,0,0,0,0,0,0,0,0,0,0,0,0,0,0,0,0,0,0,0,0,0,0,0,0,0,0,0,0,0,0,0,0,0,0,0,0,0,0,0,0,0,0],"sum_hessian":[1.315E3,8.8E2,4.35E2,8.65E2,1.5E1,1.78E2,2.57E2,5.5E2,3.15E2,1.3E1,2E0,1.33E2,4.5E1,1.44E2,1.13E2,5.42E2,8E0,1.9E2,1.25E2,4E0,9E0,8E1,5.3E1,1.1E1,3.4E1,9.8E1,4.6E1,8E1,3.3E1,4.17E2,1.25E2,1E0,7E0,1.3E2,6E1,5.5E1,7E1,1E0,3E0,7E0,2E0,1.2E1,6.8E1,2.9E1,2.4E1,3E0,8E0,1E1,2.4E1,8E1,1.8E1,3.5E1,1.1E1,5.6E1,2.4E1,7E0,2.6E1,2.9E2,1.27E2,8E1,4.5E1,5E0,2E0,1.25E2,5E0,3.8E1,2.2E1,2E1,3.5E1,1.1E1,5.9E1,1E0,2E0,1E0,1E0,9E0,3E0,5E0,6.3E1,1.7E1,1.2E1,1.8E1,6E0,4E0,4E0,6E0,4E0,1.1E1,1.3E1,1E1,7E1,4E0,1.4E1,1.4E1,2.1E1,5E0,6E0,4.6E1,1E1,2.3E1,1E0,3E0,4E0,1E0,2.5E1],"tree_param":{"num_deleted":"0","num_feature":"10","num_nodes":"105","size_leaf_vector":"1"}},{"base_weights":[1.053541E5,-1.0986364E6,5.123137E6,-1.610092E6,9.839049E5,6.2047644E5,7.3185035E6,-2.0835625E6,-8.9450206E5,-1.02234575E6,3.2639292E6,-1.4289042E5,3.2796925E6,5.3404125E6,9.474872E6,-2.6491822E6,-1.710066E6,-1.5425654E6,4.3821584E5,8.344855E5,-1.266303E6,2.0510398E6,6.5904635E6,-5.737492E5,2.3703792E6,-1.6296665E6,6.998287E6,5.8138605E6,-4.0603615E6,7.239027E6,1.2206582E7,-2.718282E6,1.4680975E6,-1.1819369E6,-2.775359E6,-2.3008815E6,-5.7785344E5,-4.739601E5,1.639302E6,-3.2378182E6,-7.9742256E5,8.286092E6,1.5763784E6,8.1534455E6,2.1616666E4,1.3681631E5,-3.6222395E6,8.193803E5,8.164685E5,4.277268E5,-3.3611266E5,-1.825364E5,8.0631885E6,-2.8268962E5,6.344213E6,-6.938653E5,-6.0734044E5,7.4350535E6,-8.89104E4,1.3491087E7,8.995029E6,-2.763831E5,2.0458307E4,1.1890967E4,2.7578306E5,-1.9636661E5,-5.1228777E4,-2.8838097E5,1.8009289E5,2.2193545E5,-2.42612E5,-1.2293262E5,1.1269158E5,3.6519314E3,-4.7088634E5,1.0780835E4,3.8545775E5,-4.1275E5,-3.256976E4,-2.3916203E5,-2.5446646E4,1.0657979E6,-6.00725E4,3.4754022E5,-2.1127535E4,8.7767844E5,-2.156659E5,-5.6543465E4,1.4784366E5,-2.2010725E4,8.456112E5,-1.4222911E5,-9.014672E5,-1.20218E5,2.0305239E5,7.2310125E4,-3.768855E4,8.718663E5,1.0819575E5,2.4635875E5,-1.026956E5,-2.3127028E5,6.5926506E5,-1.07717E5,3.6372E3,4.4289575E5,8.1470544E5,5.1244134E5,1.4043894E6,9.922391E5,-1.06666E5],"categories":[],"categories_nodes":[],"categories_segments":[],"categories_sizes":[],"default_left":[0,0,0,0,0,0,0,0,0,0,0,0,0,0,0,0,0,0,0,0,0,0,0,0,0,0,0,0,0,0,0,0,0,0,0,0,0,0,0,0,0,0,0,0,0,0,0,0,0,0,0,0,0,0,0,0,0,0,0,0,0,0,0,0,0,0,0,0,0,0,0,0,0,0,0,0,0,0,0,0,0,0,0,0,0,0,0,0,0,0,0,0,0,0,0,0,0,0,0,0,0,0,0,0,0,0,0,0,0,0,0],"id":12,"left_children":[1,3,5,7,9,11,13,15,17,19,21,23,25,27,29,31,33,35,37,-1,39,41,43,45,47,49,51,53,55,57,59,61,63,65,67,69,71,73,75,77,79,81,83,85,87,89,91,93,-1,95,-1,-1,97,99,101,103,-1,105,-1,107,109,-1,-1,-1,-1,-1,-1,-1,-1,-1,-1,-1,-1,-1,-1,-1,-1,-1,-1,-1,-1,-1,-1,-1,-1,-1,-1,-1,-1,-1,-1,-1,-1,-1,-1,-1,-1,-1,-1,-1,-1,-1,-1,-1,-1,-1,-1,-1,-1,-1,-1],"loss_changes":[7.992309E15,1.1380753E15,2.5260163E15,2.8849685E14,9.6851425E14,1.73015E14,6.8306516E14,1.0426718E14,2.969201E14,2.6879432E14,3.8591986E14,7.391191E13,3.5826725E14,4.3307846E14,4.0635813E14,6.174472E13,1.7281734E14,1.6766002E14,1.2457998E14,0E0,1.0002705E14,2.0594385E14,2.6676552E14,1.261324E14,8.317964E13,3.3498293E13,1.1807771E14,2.863256E14,2.967038E13,8.149727E13,2.3031762E13,2.7192243E13,6.632435E12,1.0944919E14,5.6312524E13,7.8412346E13,1.1577823E14,1.4069098E14,1.6582575E14,5.306375E13,7.815913E13,1.1179508E14,2.3837003E14,1.5388881E14,5.9673265E12,1.4439017E14,1.1767232E14,2.4476652E13,0E0,1.4608358E12,0E0,0E0,3.63271E13,1.888169E13,1.8945342E14,8.78889E11,0E0,6.237259E13,0E0,3.4411546E13,1.3188455E14,0E0,0E0,0E0,0E0,0E0,0E0,0E0,0E0,0E0,0E0,0E0,0E0,0E0,0E0,0E0,0E0,0E0,0E0,0E0,0E0,0E0,0E0,0E0,0E0,0E0,0E0,0E0,0E0,0E0,0E0,0E0,0E0,0E0,0E0,0E0,0E0,0E0,0E0,0E0,0E0,0E0,0E0,0E0,0E0,0E0,0E0,0E0,0E0,0E0,0E0],"parents":[2147483647,0,0,1,1,2,2,3,3,4,4,5,5,6,6,7,7,8,8,9,9,10,10,11,11,12,12,13,13,14,14,15,15,16,16,17,17,18,18,20,20,21,21,22,22,23,23,24,24,25,25,26,26,27,27,28,28,29,29,30,30,31,31,32,32,33,33,34,34,35,35,36,36,37,37,38,38,39,39,40,40,41,41,42,42,43,43,44,44,45,45,46,46,47,47,49,49,52,52,53,53,54,54,55,55,57,57,59,59,60,60],"right_children":[2,4,6,8,10,12,14,16,18,20,22,24,26,28,30,32,34,36,38,-1,40,42,44,46,48,50,52,54,56,58,60,62,64,66,68,70,72,74,76,78,80,82,84,86,88,90,92,94,-1,96,-1,-1,98,100,102,104,-1,106,-1,108,110,-1,-1,-1,-1,-1,-1,-1,-1,-1,-1,-1,-1,-1,-1,-1,-1,-1,-1,-1,-1,-1,-1,-1,-1,-1,-1,-1,-1,-1,-1,-1,-1,-1,-1,-1,-1,-1,-1,-1,-1,-1,-1,-1,-1,-1,-1,-1,-1,-1,-1],"split_conditions":[3.17E1,2.41E1,2.5E1,1.99E1,2.7E1,1.3350011E0,2.9E1,3.472222E-1,2.9E1,2.7567568E-1,3.3E1,4.32E1,2.3E1,9.917355E-2,2.6E0,1.452514E-1,4.5614034E-1,1.5581395E-1,1.1E0,8.344855E5,1.0296195E0,2.7567568E-1,5.357143E-2,4.04E1,3.6E1,7.017544E-2,1.4E0,4.86631E-1,3.7E1,1.4586151E0,3.53E1,2.8055555E-1,6E-1,2.5E1,1.96E1,1.2084592E-2,2.7E1,3.6E1,2.4691358E-2,5.368098E-1,4.0860215E-1,2.9E1,2.7027028E-2,4E1,2.84E1,7.165605E-1,2.4E1,3.8181818E-1,8.164685E5,3.76E1,-3.3611266E5,-1.825364E5,3.7E0,2.81E1,9.803922E-3,3.47E1,-6.0734044E5,2.1929824E-1,-8.89104E4,2.3170732E-1,1.2527629E0,-2.763831E5,2.0458307E4,1.1890967E4,2.7578306E5,-1.9636661E5,-5.1228777E4,-2.8838097E5,1.8009289E5,2.2193545E5,-2.42612E5,-1.2293262E5,1.1269158E5,3.6519314E3,-4.7088634E5,1.0780835E4,3.8545775E5,-4.1275E5,-3.256976E4,-2.3916203E5,-2.5446646E4,1.0657979E6,-6.00725E4,3.4754022E5,-2.1127535E4,8.7767844E5,-2.156659E5,-5.6543465E4,1.4784366E5,-2.2010725E4,8.456112E5,-1.4222911E5,-9.014672E5,-1.20218E5,2.0305239E5,7.2310125E4,-3.768855E4,8.718663E5,1.0819575E5,2.4635875E5,-1.026956E5,-2.3127028E5,6.5926506E5,-1.07717E5,3.6372E3,4.4289575E5,8.1470544E5,5.1244134E5,1.4043894E6,9.922391E5,-1.06666E5],"split_indices":[0,0,1,2,1,6,1,8,1,8,1,0,1,9,4,9,8,5,4,0,6,8,9,0,2,9,4,8,0,6,2,5,4,1,2,9,1,1,9,8,8,2,9,1,0,8,1,5,0,0,0,0,4,2,9,0,0,5,0,5,6,0,0,0,0,0,0,0,0,0,0,0,0,0,0,0,0,0,0,0,0,0,0,0,0,0,0,0,0,0,0,0,0,0,0,0,0,0,0,0,0,0,0,0,0,0,0,0,0,0,0],"split_type":[0,0,0,0,0,0,0,0,0,0,0,0,0,0,0,0,0,0,0,0,0,0,0,0,0,0,0,0,0,0,0,0,0,0,0,0,0,0,0,0,0,0,0,0,0,0,0,0,0,0,0,0,0,0,0,0,0,0,0,0,0,0,0,0,0,0,0,0,0,0,0,0,0,0,0,0,0,0,0,0,0,0,0,0,0,0,0,0,0,0,0,0,0,0,0,0,0,0,0,0,0,0,0,0,0,0,0,0,0,0,0],"sum_hessian":[1.321E3,1.066E3,2.55E2,8.56E2,2.1E2,8.4E1,1.71E2,5.14E2,3.42E2,1.12E2,9.8E1,6.6E1,1.8E1,9.1E1,8E1,2.02E2,3.12E2,2.3E2,1.12E2,2E0,1.1E2,7.3E1,2.5E1,5.7E1,9E0,8E0,1E1,8.7E1,4E0,4.6E1,3.4E1,1.99E2,3E0,2.1E2,1.02E2,1.28E2,1.02E2,6.4E1,4.8E1,2E1,9E1,4E0,6.9E1,2E1,5E0,4.7E1,1E1,8E0,1E0,4E0,4E0,1E0,9E0,7E0,8E1,2E0,2E0,4.5E1,1E0,2.2E1,1.2E1,1.96E2,3E0,2E0,1E0,9.6E1,1.14E2,1E2,2E0,3E0,1.25E2,7.4E1,2.8E1,5.8E1,6E0,2.9E1,1.9E1,1.5E1,5E0,2.2E1,6.8E1,3E0,1E0,3.3E1,3.6E1,1.9E1,1E0,4E0,1E0,4.6E1,1E0,8E0,2E0,3E0,5E0,3E0,1E0,8E0,1E0,1E0,6E0,2E0,7.8E1,1E0,1E0,1E1,3.5E1,2E0,2E1,1.1E1,1E0],"tree_param":{"num_deleted":"0","num_feature":"10","num_nodes":"111","size_leaf_vector":"1"}},{"base_weights":[7.972787E4,-1.2159685E6,4.4874135E6,-1.9858215E6,-1.8144877E5,6.615516E5,6.387536E6,-2.0154926E6,1.8709972E6,-1.4961725E6,5.8810606E5,-3.6561884E5,2.992763E6,5.23694E6,9.068005E6,-2.1922818E6,-1.5504504E6,2.1754433E5,3.2660676E4,-1.8263424E6,1.7453025E4,-5.3335756E5,1.583505E6,-5.924549E5,7.756451E5,-2.6477918E6,4.7482495E6,-1.2744524E6,5.581456E6,6.776274E6,1.1913709E6,-1.6321269E6,-2.3233485E6,-1.7973318E6,2.1628088E5,4.2149325E5,-1.9040409E6,1.2819546E6,-3.07549E5,-6.416508E5,4.3010375E5,2.6379588E6,-2.8134988E5,2.9311397E5,-1.9312765E6,-7.319636E5,-4.380629E5,-5.420237E5,5.42602E6,1.7542714E5,-5.7118044E5,2.6354018E6,6.3552895E6,3.4001988E6,8.616673E5,-1.0527595E5,-2.199948E5,-1.0553375E4,-2.369932E5,-2.1472123E5,-6.4635477E4,5.6909094E5,-6.595174E4,-2.2211366E5,-6.4693094E4,2.2861303E4,3.506456E5,-5.276585E4,-5.253443E5,1.6528136E5,5.7869425E5,9.809643E4,-3.0864434E5,-4.2932645E4,7.4442394E5,-2.7453288E5,-1.9144951E4,1.22656664E5,-2.4465061E5,6.593077E5,-1.765768E5,-5.264524E4,1.2867506E5,5.181658E5,-1.615788E5,3.1720147E5,7.337921E5,1.5317572E5,6.457042E5],"categories":[],"categories_nodes":[],"categories_segments":[],"categories_sizes":[],"default_left":[0,0,0,0,0,0,0,0,0,0,0,0,0,0,0,0,0,0,0,0,0,0,0,0,0,0,0,0,0,0,0,0,0,0,0,0,0,0,0,0,0,0,0,0,0,0,0,0,0,0,0,0,0,0,0,0,0,0,0,0,0,0,0,0,0,0,0,0,0,0,0,0,0,0,0,0,0,0,0,0,0,0,0,0,0,0,0,0,0],"id":13,"left_children":[1,3,5,7,9,11,13,15,17,19,21,23,25,27,29,31,33,-1,-1,35,37,39,41,43,-1,45,47,49,51,53,-1,55,57,59,61,-1,63,65,-1,67,-1,69,71,73,75,77,-1,-1,79,81,-1,83,85,87,-1,-1,-1,-1,-1,-1,-1,-1,-1,-1,-1,-1,-1,-1,-1,-1,-1,-1,-1,-1,-1,-1,-1,-1,-1,-1,-1,-1,-1,-1,-1,-1,-1,-1,-1],"loss_changes":[7.56685E15,8.1518184E14,2.1839254E15,7.0945075E13,4.440273E14,2.4294392E14,5.7242304E14,4.45321E13,1.6404017E12,8.099194E13,3.100607E14,1.3540417E14,3.195318E14,3.2790223E14,3.0404342E14,2.7043396E13,7.192111E13,0E0,0E0,7.045538E13,1.2127358E14,7.1342485E13,2.8980346E14,8.355939E13,0E0,2.3352085E13,1.9481592E14,5.247101E13,2.932982E14,1.8816802E14,0E0,2.4989076E13,3.467005E13,5.660156E13,1.0444134E14,0E0,5.118148E13,5.0747895E13,0E0,6.5044444E13,0E0,2.8204265E14,1.942368E14,2.2534527E14,3.9131103E13,1.9790716E13,0E0,0E0,2.04686E14,6.13752E12,0E0,3.3311102E14,3.114184E14,7.007085E13,0E0,0E0,0E0,0E0,0E0,0E0,0E0,0E0,0E0,0E0,0E0,0E0,0E0,0E0,0E0,0E0,0E0,0E0,0E0,0E0,0E0,0E0,0E0,0E0,0E0,0E0,0E0,0E0,0E0,0E0,0E0,0E0,0E0,0E0,0E0],"parents":[2147483647,0,0,1,1,2,2,3,3,4,4,5,5,6,6,7,7,8,8,9,9,10,10,11,11,12,12,13,13,14,14,15,15,16,16,19,19,20,20,21,21,22,22,23,23,25,25,26,26,27,27,28,28,29,29,31,31,32,32,33,33,34,34,36,36,37,37,39,39,41,41,42,42,43,43,44,44,45,45,48,48,49,49,51,51,52,52,53,53],"right_children":[2,4,6,8,10,12,14,16,18,20,22,24,26,28,30,32,34,-1,-1,36,38,40,42,44,-1,46,48,50,52,54,-1,56,58,60,62,-1,64,66,-1,68,-1,70,72,74,76,78,-1,-1,80,82,-1,84,86,88,-1,-1,-1,-1,-1,-1,-1,-1,-1,-1,-1,-1,-1,-1,-1,-1,-1,-1,-1,-1,-1,-1,-1,-1,-1,-1,-1,-1,-1,-1,-1,-1,-1,-1,-1],"split_conditions":[2.96E1,1.81E1,2.5E1,2.66E1,2.5E1,2.4E1,6.909621E-1,2.9E1,1.74E1,5.0498337E-1,1.6333333E-1,1.4350846E0,2.6153848E-1,2.66E1,3E1,2.2E1,2.05E1,2.1754433E5,3.2660676E4,8.412699E-2,5.5925924E-1,1.3609766E0,4.8913044E-1,3.2741934E-1,7.756451E5,1.0296195E0,7.8845733E-1,3.1304348E-1,2.1929824E-1,3.9411765E-1,1.1913709E6,1.1E-1,4.7000363E-1,8.3333336E-2,2.07E1,4.2149325E5,1.3083328E0,2.521739E-1,-3.07549E5,1.4350846E0,4.3010375E5,2.59E1,2.59E1,6.472303E-1,4.32E1,3.37E1,-4.380629E5,-5.420237E5,1.4350846E0,1.3609766E0,-5.7118044E5,4.8351648E-1,2.7E1,4.41E1,8.616673E5,-1.0527595E5,-2.199948E5,-1.0553375E4,-2.369932E5,-2.1472123E5,-6.4635477E4,5.6909094E5,-6.595174E4,-2.2211366E5,-6.4693094E4,2.2861303E4,3.506456E5,-5.276585E4,-5.253443E5,1.6528136E5,5.7869425E5,9.809643E4,-3.0864434E5,-4.2932645E4,7.4442394E5,-2.7453288E5,-1.9144951E4,1.22656664E5,-2.4465061E5,6.593077E5,-1.765768E5,-5.264524E4,1.2867506E5,5.181658E5,-1.615788E5,3.1720147E5,7.337921E5,1.5317572E5,6.457042E5],"split_indices":[0,0,1,2,1,1,8,1,0,8,5,7,5,2,1,1,2,0,0,5,8,7,8,5,0,7,6,5,5,5,0,5,6,9,2,0,6,5,0,6,0,0,0,8,0,0,0,0,7,6,0,8,1,0,0,0,0,0,0,0,0,0,0,0,0,0,0,0,0,0,0,0,0,0,0,0,0,0,0,0,0,0,0,0,0,0,0,0,0],"split_type":[0,0,0,0,0,0,0,0,0,0,0,0,0,0,0,0,0,0,0,0,0,0,0,0,0,0,0,0,0,0,0,0,0,0,0,0,0,0,0,0,0,0,0,0,0,0,0,0,0,0,0,0,0,0,0,0,0,0,0,0,0,0,0,0,0,0,0,0,0,0,0,0,0,0,0,0,0,0,0,0,0,0,0,0,0,0,0,0,0],"sum_hessian":[1.323E3,1.023E3,3E2,5.86E2,4.37E2,1E2,2E2,5.82E2,4E0,1.61E2,2.76E2,7E1,3E1,1.42E2,5.8E1,4.19E2,1.63E2,3E0,1E0,1.32E2,2.9E1,1.3E2,1.46E2,6.9E1,1E0,7E0,2.3E1,7E0,1.35E2,3.4E1,2.4E1,8.2E1,3.37E2,1.43E2,2E1,1E0,1.31E2,2.1E1,8E0,1.28E2,2E0,9.3E1,5.3E1,4.2E1,2.7E1,4E0,3E0,1E0,2.2E1,6E0,1E0,2.9E1,1.06E2,1.3E1,2.1E1,4.2E1,4E1,7E0,3.3E2,1.09E2,3.4E1,2E0,1.8E1,1.04E2,2.7E1,1.5E1,6E0,1.26E2,2E0,7.2E1,2.1E1,3.7E1,1.6E1,3.9E1,3E0,1.8E1,9E0,2E0,2E0,1.9E1,3E0,4E0,2E0,1.8E1,1.1E1,2.6E1,8E1,9E0,4E0],"tree_param":{"num_deleted":"0","num_feature":"10","num_nodes":"89","size_leaf_vector":"1"}},{"base_weights":[-5.7981605E4,-1.0613551E6,3.356329E6,-1.6315061E6,1.228308E5,-3.7597056E5,4.6296165E6,-1.662022E6,4.0632384E5,-2.9339272E5,3.9534102E6,-5.7224625E5,7.368628E5,3.3889838E6,7.717016E6,-1.9268479E6,-1.2024292E6,-1.1366761E6,2.7039944E5,6.242891E6,-2.8455262E6,-7.35914E5,3.710196E6,7.338079E6,2.6543335E6,8.375305E6,3.3247235E6,-1.8318958E6,-2.7153872E6,-7.6398356E5,-2.091104E6,-1.5511845E6,5.3366375E5,-4.6735822E5,1.3884911E6,1.2050025E6,4.1886062E6,-1.1392606E6,-5.8783044E5,-1.0709714E6,1.1123851E6,4.1639E3,5.523655E5,3.3633308E6,1.2963869E7,3.288405E6,-1.0651351E6,7.252603E6,1.0120815E7,5.0394084E5,7.4299125E6,-1.4366314E5,-2.16445E5,-2.8416553E5,1.4202025E5,-1.3708048E5,3.726525E4,-3.3965775E5,-8.84214E4,-1.949339E5,-8.713508E3,1.8320322E5,-2.454373E5,-1.6929048E5,7.233859E4,1.7042842E5,-3.2471516E5,1.6928467E5,7.050885E5,1.5957375E4,-2.1532798E5,-7.9566086E4,-3.1991203E5,7.6610944E5,-1.7941514E4,5.959416E5,-8.258384E4,3.485053E5,1.3629842E6,1.9139328E5,5.506117E5,-4.8653872E5,2.8319475E5,9.175336E5,5.9626775E5,7.8784E3,1.0674329E6,5.107528E5,-1.11457836E5,9.142046E5,1.146756E5],"categories":[],"categories_nodes":[],"categories_segments":[],"categories_sizes":[],"default_left":[0,0,0,0,0,0,0,0,0,0,0,0,0,0,0,0,0,0,0,0,0,0,0,0,0,0,0,0,0,0,0,0,0,0,0,0,0,0,0,0,0,0,0,0,0,0,0,0,0,0,0,0,0,0,0,0,0,0,0,0,0,0,0,0,0,0,0,0,0,0,0,0,0,0,0,0,0,0,0,0,0,0,0,0,0,0,0,0,0,0,0],"id":14,"left_children":[1,3,5,7,9,11,13,15,-1,17,19,21,-1,23,25,27,29,31,33,35,37,39,41,43,45,47,49,51,53,55,57,59,61,63,65,-1,67,69,-1,71,73,-1,-1,75,77,79,81,83,85,87,89,-1,-1,-1,-1,-1,-1,-1,-1,-1,-1,-1,-1,-1,-1,-1,-1,-1,-1,-1,-1,-1,-1,-1,-1,-1,-1,-1,-1,-1,-1,-1,-1,-1,-1,-1,-1,-1,-1,-1,-1],"loss_changes":[4.5701926E15,6.962954E14,1.4416847E15,1.2770401E14,5.3687068E14,1.2278262E14,8.395018E14,8.202945E13,0E0,1.4484005E14,5.314434E14,5.6699507E13,0E0,4.5341836E14,1.5720386E14,2.7820248E13,9.814913E13,8.529693E13,1.516021E14,2.4776472E14,3.987559E13,4.763781E13,1.9728332E13,5.1542574E14,3.313215E14,3.4380676E13,1.1205423E14,4.8680636E13,2.7534431E13,1.19835015E14,1.2934405E14,5.6956115E13,1.0148581E14,1.632083E14,1.1239906E14,0E0,1.3093513E14,9.562907E12,0E0,3.4952318E13,1.0289E14,0E0,0E0,1.7892856E14,1.5625628E13,3.5219537E14,3.2478633E14,3.7057246E13,1.0476848E14,5.7849703E13,3.2546709E13,0E0,0E0,0E0,0E0,0E0,0E0,0E0,0E0,0E0,0E0,0E0,0E0,0E0,0E0,0E0,0E0,0E0,0E0,0E0,0E0,0E0,0E0,0E0,0E0,0E0,0E0,0E0,0E0,0E0,0E0,0E0,0E0,0E0,0E0,0E0,0E0,0E0,0E0,0E0,0E0],"parents":[2147483647,0,0,1,1,2,2,3,3,4,4,5,5,6,6,7,7,9,9,10,10,11,11,13,13,14,14,15,15,16,16,17,17,18,18,19,19,20,20,21,21,22,22,23,23,24,24,25,25,26,26,27,27,28,28,29,29,30,30,31,31,32,32,33,33,34,34,36,36,37,37,39,39,40,40,43,43,44,44,45,45,46,46,47,47,48,48,49,49,50,50],"right_children":[2,4,6,8,10,12,14,16,-1,18,20,22,-1,24,26,28,30,32,34,36,38,40,42,44,46,48,50,52,54,56,58,60,62,64,66,-1,68,70,-1,72,74,-1,-1,76,78,80,82,84,86,88,90,-1,-1,-1,-1,-1,-1,-1,-1,-1,-1,-1,-1,-1,-1,-1,-1,-1,-1,-1,-1,-1,-1,-1,-1,-1,-1,-1,-1,-1,-1,-1,-1,-1,-1,-1,-1,-1,-1,-1,-1],"split_conditions":[2.94E1,2.02E1,2.4E1,1.3609766E0,3.3E1,1.6292405E0,4.11E1,2.8E1,4.0632384E5,2.5E1,5.357143E-2,1.5040774E0,7.368628E5,1.0296195E0,1.3862944E0,9.5551145E-1,3.3E1,5.0498337E-1,9.932518E-1,8.7546873E-1,3.5E1,6.6E0,2.97E1,5.975976E-1,1.3609766E0,3.2E0,7.165605E-1,3.846154E-2,1.2809339E0,7.8845733E-1,2.631579E-2,1.3083328E0,5.5925924E-1,4.587156E-2,4.4982698E-2,1.2050025E6,2.45E1,4.3617022E-1,-5.8783044E5,1.0793651E-1,1.8232156E-1,4.1639E3,5.523655E5,5.535714E-1,2.5E1,2.3E0,2.8E1,7.27003E-1,5.755102E-1,2.8E0,2.8E1,-1.4366314E5,-2.16445E5,-2.8416553E5,1.4202025E5,-1.3708048E5,3.726525E4,-3.3965775E5,-8.84214E4,-1.949339E5,-8.713508E3,1.8320322E5,-2.454373E5,-1.6929048E5,7.233859E4,1.7042842E5,-3.2471516E5,1.6928467E5,7.050885E5,1.5957375E4,-2.1532798E5,-7.9566086E4,-3.1991203E5,7.6610944E5,-1.7941514E4,5.959416E5,-8.258384E4,3.485053E5,1.3629842E6,1.9139328E5,5.506117E5,-4.8653872E5,2.8319475E5,9.175336E5,5.9626775E5,7.8784E3,1.0674329E6,5.107528E5,-1.11457836E5,9.142046E5,1.146756E5],"split_indices":[0,0,1,7,1,7,0,1,0,1,9,6,0,6,6,7,1,8,7,7,1,3,0,8,7,4,8,9,7,7,9,6,8,9,9,0,0,8,0,9,7,0,0,8,1,4,1,8,8,4,1,0,0,0,0,0,0,0,0,0,0,0,0,0,0,0,0,0,0,0,0,0,0,0,0,0,0,0,0,0,0,0,0,0,0,0,0,0,0,0,0],"split_type":[0,0,0,0,0,0,0,0,0,0,0,0,0,0,0,0,0,0,0,0,0,0,0,0,0,0,0,0,0,0,0,0,0,0,0,0,0,0,0,0,0,0,0,0,0,0,0,0,0,0,0,0,0,0,0,0,0,0,0,0,0,0,0,0,0,0,0,0,0,0,0,0,0,0,0,0,0,0,0,0,0,0,0,0,0,0,0,0,0,0,0],"sum_hessian":[1.332E3,1.03E3,3.02E2,6.95E2,3.35E2,7.7E1,2.25E2,6.92E2,3E0,3.03E2,3.2E1,7.6E1,1E0,1.62E2,6.3E1,4.37E2,2.55E2,1.21E2,1.82E2,2.4E1,8E0,7.4E1,2E0,2.4E1,1.38E2,5.4E1,9E0,3.93E2,4.4E1,1.72E2,8.3E1,9.7E1,2.4E1,1.1E2,7.2E1,5E0,1.9E1,6E0,2E0,6.3E1,1.1E1,1E0,1E0,1.5E1,9E0,1.18E2,2E1,3.6E1,1.8E1,6E0,3E0,1.82E2,2.11E2,4.3E1,1E0,1.12E2,6E1,3.9E1,4.4E1,7.6E1,2.1E1,1.7E1,7E0,5.4E1,5.6E1,6.8E1,4E0,1.1E1,8E0,3E0,3E0,5.7E1,6E0,1E0,1E1,9E0,6E0,1E0,8E0,7.4E1,4.4E1,1E1,1E1,1.2E1,2.4E1,1E0,1.7E1,1E0,5E0,2E0,1E0],"tree_param":{"num_deleted":"0","num_feature":"10","num_nodes":"91","size_leaf_vector":"1"}},{"base_weights":[-5.866031E3,-1.0188484E6,3.616973E6,-1.3211661E6,6.706075E5,4.3282266E5,5.2825715E6,-1.3922002E6,2.8395342E6,-2.6030577E5,2.6105508E6,-1.9819577E5,3.318473E6,3.628999E6,6.9151285E6,-1.505595E6,-2.7607557E4,3.3554788E6,-2.1918455E5,8.777423E5,-1.3935334E6,-3.6279506E5,3.6372952E6,-7.094689E5,2.8859595E6,1.8739444E6,7.905837E5,-9.223462E5,4.16895E6,2.6818792E6,7.882452E6,-1.3963925E6,-3.6414048E6,3.1069158E6,-7.6799294E5,-1.7688325E5,3.8857205E6,3.432404E5,6.047213E6,-3.5146512E6,-4.079403E5,2.8358832E6,-3.116289E6,6.613956E6,1.1718168E6,-1.0338579E4,-3.155779E6,-1.1578134E6,5.9397705E6,1.2865055E5,5.338802E5,-4.5983775E6,4.0548044E5,-1.1243782E6,4.802253E6,5.7935637E4,5.590935E6,9.24831E5,5.6014225E6,-1.4289925E5,2.922205E5,-2.999692E5,-6.5639256E5,1.1726065E5,9.163745E5,-2.8016469E4,-3.5989634E5,4.1247075E5,5.089385E4,1.0735103E2,8.5547094E5,8.40715E5,1.671539E5,-2.306234E5,-6.8654494E5,9.883582E4,-2.1909183E5,4.592735E5,3.700605E4,-3.8256447E5,9.24599E4,1.0199217E6,4.726244E5,-2.1341505E5,2.544939E5,-2.9974941E4,5.298973E5,-1.137681E5,-4.5990016E5,-2.779531E5,3.4792824E4,6.975613E5,-1.376425E4,-1.9259011E5,5.2669582E4,-1.375655E5,-5.521911E5,2.821186E5,-6.877476E4,5.242195E5,-6.2424594E5,5.2868806E5,-7.992889E4,-1.7346772E5,2.5560066E5,6.649378E5,-1.4383061E5,-2.6255441E4,6.4798844E5],"categories":[],"categories_nodes":[],"categories_segments":[],"categories_sizes":[],"default_left":[0,0,0,0,0,0,0,0,0,0,0,0,0,0,0,0,0,0,0,0,0,0,0,0,0,0,0,0,0,0,0,0,0,0,0,0,0,0,0,0,0,0,0,0,0,0,0,0,0,0,0,0,0,0,0,0,0,0,0,0,0,0,0,0,0,0,0,0,0,0,0,0,0,0,0,0,0,0,0,0,0,0,0,0,0,0,0,0,0,0,0,0,0,0,0,0,0,0,0,0,0,0,0,0,0,0,0,0,0],"id":15,"left_children":[1,3,5,7,9,11,13,15,17,19,21,23,25,27,29,31,33,35,-1,37,39,41,43,45,47,49,-1,51,53,55,57,59,61,63,65,-1,67,69,71,73,75,77,79,81,83,85,87,89,91,93,-1,95,97,99,101,103,105,-1,107,-1,-1,-1,-1,-1,-1,-1,-1,-1,-1,-1,-1,-1,-1,-1,-1,-1,-1,-1,-1,-1,-1,-1,-1,-1,-1,-1,-1,-1,-1,-1,-1,-1,-1,-1,-1,-1,-1,-1,-1,-1,-1,-1,-1,-1,-1,-1,-1,-1,-1],"loss_changes":[4.836907E15,5.26961E14,1.525126E15,2.6226533E14,2.842088E14,1.8274755E14,4.851203E14,1.3303272E14,4.6293397E13,1.3921759E14,1.5701575E14,1.3292569E14,1.04463335E14,2.3976561E14,3.6378346E14,1.8010449E14,1.5787669E14,4.4912926E13,0E0,1.4713134E14,1.1145643E14,1.32143016E14,2.7112763E14,1.23108225E14,1.5506416E14,9.002108E13,0E0,5.5557004E13,2.9369564E14,1.4470684E14,1.8497941E14,1.10751235E14,5.157618E13,1.4155969E14,7.49482E13,0E0,8.391846E12,1.40475445E14,3.75787E13,5.3002396E13,9.676905E13,2.8625005E13,2.6468592E13,6.685103E13,1.05300225E14,8.917299E13,4.1368823E13,1.5618403E13,4.5026843E13,1.0010213E13,0E0,1.332631E12,2.5708515E13,3.5857055E14,2.1325452E14,5.3692653E13,7.652432E13,0E0,1.6139098E14,0E0,0E0,0E0,0E0,0E0,0E0,0E0,0E0,0E0,0E0,0E0,0E0,0E0,0E0,0E0,0E0,0E0,0E0,0E0,0E0,0E0,0E0,0E0,0E0,0E0,0E0,0E0,0E0,0E0,0E0,0E0,0E0,0E0,0E0,0E0,0E0,0E0,0E0,0E0,0E0,0E0,0E0,0E0,0E0,0E0,0E0,0E0,0E0,0E0,0E0],"parents":[2147483647,0,0,1,1,2,2,3,3,4,4,5,5,6,6,7,7,8,8,9,9,10,10,11,11,12,12,13,13,14,14,15,15,16,16,17,17,19,19,20,20,21,21,22,22,23,23,24,24,25,25,27,27,28,28,29,29,30,30,31,31,32,32,33,33,34,34,36,36,37,37,38,38,39,39,40,40,41,41,42,42,43,43,44,44,45,45,46,46,47,47,48,48,49,49,51,51,52,52,53,53,54,54,55,55,56,56,58,58],"right_children":[2,4,6,8,10,12,14,16,18,20,22,24,26,28,30,32,34,36,-1,38,40,42,44,46,48,50,-1,52,54,56,58,60,62,64,66,-1,68,70,72,74,76,78,80,82,84,86,88,90,92,94,-1,96,98,100,102,104,106,-1,108,-1,-1,-1,-1,-1,-1,-1,-1,-1,-1,-1,-1,-1,-1,-1,-1,-1,-1,-1,-1,-1,-1,-1,-1,-1,-1,-1,-1,-1,-1,-1,-1,-1,-1,-1,-1,-1,-1,-1,-1,-1,-1,-1,-1,-1,-1,-1,-1,-1,-1],"split_conditions":[2.94E1,2.41E1,2.5E1,1.2809339E0,2.9E1,4.32E1,3.73E1,2.72E1,2.33E1,2.8E1,1.6393442E-2,1.3609766E0,3.6E1,2.69E1,3.9E0,2.56E1,1.91E1,7.142857E-3,-2.1918455E5,2.77E1,1.1314021E0,3.1E1,2.7522936E-2,3.7272727E-1,2.2E1,2.4E1,7.905837E5,2.5E0,2.6E1,3.1304348E-1,3.53E1,3.4E0,3.2E1,1.509434E-1,2.8E0,-1.7688325E5,2.031746E-1,1.4350846E0,2.78E1,2.5964913E-1,3.4013607E-2,2.6E1,3E0,1.0296195E0,3.1E1,7.1E0,1.0296195E0,4.7000363E-1,6.2E0,3.7E0,5.338802E5,2.98E1,1.1939225E0,3.5E0,3.69E1,3.1E1,3.8E0,9.24831E5,6.931472E-1,-1.4289925E5,2.922205E5,-2.999692E5,-6.5639256E5,1.1726065E5,9.163745E5,-2.8016469E4,-3.5989634E5,4.1247075E5,5.089385E4,1.0735103E2,8.5547094E5,8.40715E5,1.671539E5,-2.306234E5,-6.8654494E5,9.883582E4,-2.1909183E5,4.592735E5,3.700605E4,-3.8256447E5,9.24599E4,1.0199217E6,4.726244E5,-2.1341505E5,2.544939E5,-2.9974941E4,5.298973E5,-1.137681E5,-4.5990016E5,-2.779531E5,3.4792824E4,6.975613E5,-1.376425E4,-1.9259011E5,5.2669582E4,-1.375655E5,-5.521911E5,2.821186E5,-6.877476E4,5.242195E5,-6.2424594E5,5.2868806E5,-7.992889E4,-1.7346772E5,2.5560066E5,6.649378E5,-1.4383061E5,-2.6255441E4,6.4798844E5],"split_indices":[0,0,1,7,1,0,0,2,0,2,9,6,2,2,3,2,0,9,0,2,6,1,9,5,1,1,0,3,1,5,2,3,1,5,3,0,5,6,2,5,9,0,3,7,1,3,7,7,3,3,0,0,6,3,0,1,3,0,7,0,0,0,0,0,0,0,0,0,0,0,0,0,0,0,0,0,0,0,0,0,0,0,0,0,0,0,0,0,0,0,0,0,0,0,0,0,0,0,0,0,0,0,0,0,0,0,0,0,0],"split_type":[0,0,0,0,0,0,0,0,0,0,0,0,0,0,0,0,0,0,0,0,0,0,0,0,0,0,0,0,0,0,0,0,0,0,0,0,0,0,0,0,0,0,0,0,0,0,0,0,0,0,0,0,0,0,0,0,0,0,0,0,0,0,0,0,0,0,0,0,0,0,0,0,0,0,0,0,0,0,0,0,0,0,0,0,0,0,0,0,0,0,0,0,0,0,0,0,0,0,0,0,0,0,0,0,0,0,0,0,0],"sum_hessian":[1.316E3,1.029E3,2.87E2,8.73E2,1.56E2,9.9E1,1.88E2,8.59E2,1.4E1,1.06E2,5E1,8.2E1,1.7E1,9.5E1,9.3E1,7.93E2,6.6E1,1.3E1,1E0,5.3E1,5.3E1,1.3E1,3.7E1,7.1E1,1.1E1,1.4E1,3E0,1E1,8.5E1,1.8E1,7.5E1,7.56E2,3.7E1,1.2E1,5.4E1,1E0,1.2E1,4.9E1,4E0,1.6E1,3.7E1,6E0,7E0,1.6E1,2.1E1,5.6E1,1.5E1,5E0,6E0,1E1,4E0,2E0,8E0,9E0,7.6E1,1E1,8E0,4.5E1,3E1,7.51E2,5E0,3.2E1,5E0,1E1,2E0,4.7E1,7E0,1.1E1,1E0,4.8E1,1E0,2E0,2E0,1.3E1,3E0,2.1E1,1.6E1,3E0,3E0,6E0,1E0,4E0,1.2E1,6E0,1.5E1,5.4E1,2E0,7E0,8E0,2E0,3E0,5E0,1E0,1E0,9E0,1E0,1E0,2E0,6E0,4E0,5E0,7E1,6E0,6E0,4E0,7E0,1E0,4E0,2.6E1],"tree_param":{"num_deleted":"0","num_feature":"10","num_nodes":"109","size_leaf_vector":"1"}},{"base_weights":[1.2574622E5,-6.551474E5,3.2902552E6,-1.0304525E6,8.867233E5,1.2666358E6,5.273921E6,-1.1062351E6,2.7970045E6,3.7853082E4,3.058614E6,3.0214455E6,8.824136E4,3.1698418E6,6.386966E6,-1.4366732E6,-6.635137E5,3.232099E6,-2.082253E5,9.62043E6,-2.8613838E5,3.9331675E6,-6.944838E5,-2.4823495E5,5.1749305E6,-3.7518898E6,8.8933975E5,2.0941248E6,8.2866615E6,7.3680605E6,3.8395155E6,-4.3759375E4,-1.4873939E6,-1.1159449E6,1.1799907E5,-1.6803911E5,3.6716242E6,1.1430732E6,1.189612E5,-1.5501099E6,1.4915039E5,1.06606086E5,5.0679125E6,-2.662481E6,1.7172601E6,-1.2339516E6,4.495978E6,-2.4428828E6,5.7642145E6,-5.265182E6,3.5519098E6,1.3150755E6,-2.9476916E5,6.3427435E6,1.0328579E6,9.858803E6,-1.359164E5,7.678532E6,-1.1939006E6,-2.093312E6,4.704376E6,-8.2005766E4,4.1110844E5,-1.5271189E5,2.9460719E4,-7.749849E4,-2.2128705E5,-2.7895847E5,4.534385E4,4.8349152E4,3.864813E5,-1.884163E5,1.760382E5,1.1786058E5,-7.4553016E4,7.5234844E5,-1.2516087E5,6.6999594E5,2.7537428E5,-2.0008934E4,-3.6074197E5,3.9840116E5,4.671076E4,-3.4632575E5,-5.9950312E4,5.696662E5,4.46963E4,2.210608E5,-5.874932E5,9.161495E5,2.9903888E5,-6.5212355E4,-9.769553E5,9.356945E4,4.39217E5,4.0440472E5,2.549067E4,7.106592E5,4.979035E4,-7.2348766E4,3.3057947E5,-2.8376E3,1.1511395E6,4.782629E5,8.242538E5,-3.265263E5,1.474412E5,-2.6578994E5,-1.99775E4,-6.66601E4,5.5433525E5],"categories":[],"categories_nodes":[],"categories_segments":[],"categories_sizes":[],"default_left":[0,0,0,0,0,0,0,0,0,0,0,0,0,0,0,0,0,0,0,0,0,0,0,0,0,0,0,0,0,0,0,0,0,0,0,0,0,0,0,0,0,0,0,0,0,0,0,0,0,0,0,0,0,0,0,0,0,0,0,0,0,0,0,0,0,0,0,0,0,0,0,0,0,0,0,0,0,0,0,0,0,0,0,0,0,0,0,0,0,0,0,0,0,0,0,0,0,0,0,0,0,0,0,0,0,0,0,0,0,0,0],"id":16,"left_children":[1,3,5,7,9,11,13,15,17,19,21,23,25,27,29,31,33,35,-1,37,39,41,43,45,47,49,51,53,55,57,59,61,63,65,67,-1,69,-1,-1,71,73,75,77,79,81,83,85,87,89,91,93,95,-1,97,99,101,-1,103,105,107,109,-1,-1,-1,-1,-1,-1,-1,-1,-1,-1,-1,-1,-1,-1,-1,-1,-1,-1,-1,-1,-1,-1,-1,-1,-1,-1,-1,-1,-1,-1,-1,-1,-1,-1,-1,-1,-1,-1,-1,-1,-1,-1,-1,-1,-1,-1,-1,-1,-1,-1],"loss_changes":[3.2961917E15,6.200927E14,1.0530645E15,2.528313E14,3.8705145E14,2.7269066E14,2.9123153E14,1.22663595E14,4.2819985E13,4.7466304E14,1.9638624E14,3.7446864E14,2.4944252E14,2.468507E14,1.8664908E14,3.4058554E13,1.284815E14,4.071639E13,0E0,6.27135E13,8.16597E13,2.07884E14,6.152784E13,1.0842971E14,1.57731E14,1.7344044E14,1.1332505E14,1.783145E14,1.34716615E14,1.7132034E14,1.4325551E14,6.142849E13,3.3438132E13,8.430685E13,1.3195753E14,0E0,7.37008E12,0E0,0E0,4.5340284E13,1.0311342E14,1.30301E14,1.2129283E14,1.5565859E13,1.5141746E13,2.479698E13,1.6900143E13,6.0900204E13,2.5530749E14,2.429762E14,2.4851755E12,1.7545255E14,0E0,3.217813E13,1.3812181E14,1.1470294E14,0E0,5.694402E13,2.1395472E13,3.745287E12,1.07336065E14,0E0,0E0,0E0,0E0,0E0,0E0,0E0,0E0,0E0,0E0,0E0,0E0,0E0,0E0,0E0,0E0,0E0,0E0,0E0,0E0,0E0,0E0,0E0,0E0,0E0,0E0,0E0,0E0,0E0,0E0,0E0,0E0,0E0,0E0,0E0,0E0,0E0,0E0,0E0,0E0,0E0,0E0,0E0,0E0,0E0,0E0,0E0,0E0,0E0,0E0],"parents":[2147483647,0,0,1,1,2,2,3,3,4,4,5,5,6,6,7,7,8,8,9,9,10,10,11,11,12,12,13,13,14,14,15,15,16,16,17,17,19,19,20,20,21,21,22,22,23,23,24,24,25,25,26,26,27,27,28,28,29,29,30,30,31,31,32,32,33,33,34,34,36,36,39,39,40,40,41,41,42,42,43,43,44,44,45,45,46,46,47,47,48,48,49,49,50,50,51,51,53,53,54,54,55,55,57,57,58,58,59,59,60,60],"right_children":[2,4,6,8,10,12,14,16,18,20,22,24,26,28,30,32,34,36,-1,38,40,42,44,46,48,50,52,54,56,58,60,62,64,66,68,-1,70,-1,-1,72,74,76,78,80,82,84,86,88,90,92,94,96,-1,98,100,102,-1,104,106,108,110,-1,-1,-1,-1,-1,-1,-1,-1,-1,-1,-1,-1,-1,-1,-1,-1,-1,-1,-1,-1,-1,-1,-1,-1,-1,-1,-1,-1,-1,-1,-1,-1,-1,-1,-1,-1,-1,-1,-1,-1,-1,-1,-1,-1,-1,-1,-1,-1,-1,-1],"split_conditions":[3.09E1,2.41E1,2.7E1,1.2809339E0,3E1,2.5531914E-2,3.58E1,2.7E1,2.33E1,2.7567568E-1,5.357143E-2,2.4E1,2.7972028E-2,3.46E1,3.51E1,5.3062826E-1,7.8845733E-1,7.142857E-3,-2.082253E5,2.69E1,4.0860215E-1,1.6393442E-2,9.917355E-2,1.410987E0,7.8845733E-1,1.3862944E0,1.0793651E-1,4.4594595E-1,1.2237754E0,1.1570248E-1,3.55E1,1.35E1,1.8E0,3.9542484E-1,1.0989011E-2,-1.6803911E5,7.4193734E-1,1.1430732E6,1.189612E5,2.8E1,2.69E1,1.4E0,1.1314021E0,2.49E1,1E0,3.15E1,4.41E1,3.97E1,1.1314021E0,2.4E1,3.47E1,2.6236427E-1,-2.9476916E5,3.41E1,1.2237754E0,9.1629076E-1,-1.359164E5,6.4185387E-1,3.99E1,4.15E1,5.755102E-1,-8.2005766E4,4.1110844E5,-1.5271189E5,2.9460719E4,-7.749849E4,-2.2128705E5,-2.7895847E5,4.534385E4,4.8349152E4,3.864813E5,-1.884163E5,1.760382E5,1.1786058E5,-7.4553016E4,7.5234844E5,-1.2516087E5,6.6999594E5,2.7537428E5,-2.0008934E4,-3.6074197E5,3.9840116E5,4.671076E4,-3.4632575E5,-5.9950312E4,5.696662E5,4.46963E4,2.210608E5,-5.874932E5,9.161495E5,2.9903888E5,-6.5212355E4,-9.769553E5,9.356945E4,4.39217E5,4.0440472E5,2.549067E4,7.106592E5,4.979035E4,-7.2348766E4,3.3057947E5,-2.8376E3,1.1511395E6,4.782629E5,8.242538E5,-3.265263E5,1.474412E5,-2.6578994E5,-1.99775E4,-6.66601E4,5.5433525E5],"split_indices":[0,0,1,7,1,9,0,1,0,8,9,1,9,2,2,6,7,9,0,0,8,9,9,7,6,6,9,8,6,9,2,0,4,8,9,0,6,0,0,0,0,4,6,0,4,2,0,0,6,1,0,7,0,0,7,6,0,7,0,0,8,0,0,0,0,0,0,0,0,0,0,0,0,0,0,0,0,0,0,0,0,0,0,0,0,0,0,0,0,0,0,0,0,0,0,0,0,0,0,0,0,0,0,0,0,0,0,0,0,0,0],"split_type":[0,0,0,0,0,0,0,0,0,0,0,0,0,0,0,0,0,0,0,0,0,0,0,0,0,0,0,0,0,0,0,0,0,0,0,0,0,0,0,0,0,0,0,0,0,0,0,0,0,0,0,0,0,0,0,0,0,0,0,0,0,0,0,0,0,0,0,0,0,0,0,0,0,0,0,0,0,0,0,0,0,0,0,0,0,0,0,0,0,0,0,0,0,0,0,0,0,0,0,0,0,0,0,0,0,0,0,0,0,0,0],"sum_hessian":[1.332E3,1.069E3,2.63E2,8.6E2,2.09E2,1.31E2,1.32E2,8.44E2,1.6E1,1.51E2,5.8E1,5.2E1,7.9E1,4.7E1,8.5E1,4.82E2,3.62E2,1.5E1,1E0,4E0,1.47E2,4.7E1,1.1E1,2.1E1,3.1E1,1.3E1,6.6E1,4E1,7E0,6E1,2.5E1,1.7E1,4.65E2,2.29E2,1.33E2,1E0,1.4E1,3E0,1E0,3.7E1,1.1E2,1.1E1,3.6E1,6E0,5E0,1.8E1,3E0,2E0,2.9E1,1.1E1,2E0,6E1,6E0,7E0,3.3E1,6E0,1E0,5.8E1,2E0,3E0,2.2E1,1.5E1,2E0,4.55E2,1E1,1.76E2,5.3E1,1.3E1,1.2E2,1E0,1.3E1,3.4E1,3E0,5.1E1,5.9E1,1E0,1E1,2E1,1.6E1,2E0,4E0,1E0,4E0,3E0,1.5E1,2E0,1E0,1E0,1E0,1.2E1,1.7E1,6E0,5E0,1E0,1E0,1.6E1,4.4E1,6E0,1E0,1.9E1,1.4E1,1E0,5E0,1.1E1,4.7E1,1E0,1E0,2E0,1E0,3E0,1.9E1],"tree_param":{"num_deleted":"0","num_feature":"10","num_nodes":"111","size_leaf_vector":"1"}},{"base_weights":[1.1931479E5,-6.8358275E5,2.9580168E6,-1.152543E6,-4.5649203E4,6.8713475E5,4.6165365E6,-1.1767761E6,2.7099928E5,-1.03603275E6,4.7558275E5,-1.5472364E6,1.2957152E6,2.4299482E6,6.191978E6,-1.5522986E6,-9.5253906E5,-1.3058016E6,3.758346E5,-2.0674072E6,6.841173E5,-3.1762942E6,-2.2874075E5,4.0075288E6,4.106587E5,-9.889236E5,3.062678E6,-5.604652E5,6.3732415E6,-1.5857466E6,2.869674E5,3.7306747E5,-1.0869879E6,-2.0403118E6,-9.188636E5,5.1610575E5,-2.6466553E5,-1.5612674E6,-3.9547197E5,4.6657075E6,5.5849244E5,-1.0419543E6,-4.5519722E5,-2.1877978E6,6.0659475E5,-2.443998E5,7.6241145E6,-2.23611E6,1.8607014E6,-4.4318885E6,4.717605E6,5.222527E6,1.0718205E6,5.4946375E6,9.437205E5,-9.26283E4,-1.8246275E5,-2.6119297E4,7.225577E5,1.8183595E5,-1.1360723E5,-1.5259331E5,-2.8987566E5,-6.48742E4,-2.2424273E5,1.6498636E5,-1.3957386E5,-3.330261E5,-8.6751836E4,6.5102094E5,-5.7853156E4,-4.5113074E4,1.0717969E5,1.0529435E5,-1.6715227E5,-2.896775E4,-2.5899086E5,-1.438555E5,1.1594802E5,2.5975695E5,-1.4803417E5,1.5724961E5,8.581455E5,8.573455E4,-5.169843E5,-6.5654453E3,4.6572E5,-5.388202E5,-2.1285253E5,2.5021161E5,6.789781E5,1.4764928E5,8.620393E5,4.7542225E5,7.7426636E3,3.587786E5,6.290424E5],"categories":[],"categories_nodes":[],"categories_segments":[],"categories_sizes":[],"default_left":[0,0,0,0,0,0,0,0,0,0,0,0,0,0,0,0,0,0,0,0,0,0,0,0,0,0,0,0,0,0,0,0,0,0,0,0,0,0,0,0,0,0,0,0,0,0,0,0,0,0,0,0,0,0,0,0,0,0,0,0,0,0,0,0,0,0,0,0,0,0,0,0,0,0,0,0,0,0,0,0,0,0,0,0,0,0,0,0,0,0,0,0,0,0,0,0,0],"id":17,"left_children":[1,3,5,7,9,11,13,15,-1,17,19,21,23,25,27,29,31,33,35,37,39,41,43,45,47,49,51,-1,53,55,-1,57,59,61,63,-1,65,67,-1,69,71,73,-1,75,77,79,81,83,85,87,89,91,93,95,-1,-1,-1,-1,-1,-1,-1,-1,-1,-1,-1,-1,-1,-1,-1,-1,-1,-1,-1,-1,-1,-1,-1,-1,-1,-1,-1,-1,-1,-1,-1,-1,-1,-1,-1,-1,-1,-1,-1,-1,-1,-1,-1],"loss_changes":[3.0082695E15,3.0778863E14,1.0928222E15,5.869489E13,2.2608065E14,1.7061932E14,5.636868E14,4.8202888E13,0E0,5.800333E13,1.5361081E14,5.726691E13,2.3356487E14,1.5878075E14,2.4313515E14,3.6941953E13,6.670564E13,3.42199E13,7.798934E13,1.4840999E13,1.3044389E14,3.0491021E13,2.7510624E13,3.709225E14,2.920053E14,2.5667646E14,2.5669946E14,0E0,2.065788E14,3.2652086E13,0E0,1.540069E14,5.0267022E13,1.4564016E13,2.8934708E13,0E0,5.2108645E13,2.0428454E13,0E0,8.115042E13,1.347087E14,9.673307E12,0E0,3.066034E12,1.5236778E13,4.59954E13,6.182062E13,2.494674E14,2.642713E14,6.15296E12,5.965592E12,3.5639914E14,1.20469915E14,9.427453E13,0E0,0E0,0E0,0E0,0E0,0E0,0E0,0E0,0E0,0E0,0E0,0E0,0E0,0E0,0E0,0E0,0E0,0E0,0E0,0E0,0E0,0E0,0E0,0E0,0E0,0E0,0E0,0E0,0E0,0E0,0E0,0E0,0E0,0E0,0E0,0E0,0E0,0E0,0E0,0E0,0E0,0E0,0E0],"parents":[2147483647,0,0,1,1,2,2,3,3,4,4,5,5,6,6,7,7,9,9,10,10,11,11,12,12,13,13,14,14,15,15,16,16,17,17,18,18,19,19,20,20,21,21,22,22,23,23,24,24,25,25,26,26,28,28,29,29,31,31,32,32,33,33,34,34,36,36,37,37,39,39,40,40,41,41,43,43,44,44,45,45,46,46,47,47,48,48,49,49,50,50,51,51,52,52,53,53],"right_children":[2,4,6,8,10,12,14,16,-1,18,20,22,24,26,28,30,32,34,36,38,40,42,44,46,48,50,52,-1,54,56,-1,58,60,62,64,-1,66,68,-1,70,72,74,-1,76,78,80,82,84,86,88,90,92,94,96,-1,-1,-1,-1,-1,-1,-1,-1,-1,-1,-1,-1,-1,-1,-1,-1,-1,-1,-1,-1,-1,-1,-1,-1,-1,-1,-1,-1,-1,-1,-1,-1,-1,-1,-1,-1,-1,-1,-1,-1,-1,-1,-1],"split_conditions":[2.94E1,1.83E1,2.6E1,1.2527629E0,2.5E1,2.3974359E-1,3.0454546E-1,1.11E1,2.7099928E5,5.0498337E-1,1.0909091E-1,2.9E0,3.3E0,1.4E0,9.531018E-2,9.1629076E-1,8E-2,1.1E0,2.0746889E-2,1.3953489E-1,1.85E1,2.3E1,3.17E1,2.4E1,2.5E0,8.928572E-2,1.9E0,-5.604652E5,5.0576925E-1,2.3E1,2.869674E5,1.4E0,7.8125E-3,2.4E1,4.857143E-1,5.1610575E5,7.4193734E-1,2.3417722E-1,-3.9547197E5,4.3049327E-1,2.1621622E-2,1.6E0,-4.5519722E5,1.974026E-1,4.3307087E-1,1.7E0,4.719472E-1,1.0296195E0,2.4E1,5.2E-1,3.1E1,2.1929824E-1,1.5503876E-2,2.8E1,9.437205E5,-9.26283E4,-1.8246275E5,-2.6119297E4,7.225577E5,1.8183595E5,-1.1360723E5,-1.5259331E5,-2.8987566E5,-6.48742E4,-2.2424273E5,1.6498636E5,-1.3957386E5,-3.330261E5,-8.6751836E4,6.5102094E5,-5.7853156E4,-4.5113074E4,1.0717969E5,1.0529435E5,-1.6715227E5,-2.896775E4,-2.5899086E5,-1.438555E5,1.1594802E5,2.5975695E5,-1.4803417E5,1.5724961E5,8.581455E5,8.573455E4,-5.169843E5,-6.5654453E3,4.6572E5,-5.388202E5,-2.1285253E5,2.5021161E5,6.789781E5,1.4764928E5,8.620393E5,4.7542225E5,7.7426636E3,3.587786E5,6.290424E5],"split_indices":[0,0,1,7,1,5,5,0,0,8,5,3,3,4,7,7,5,4,9,9,0,1,0,1,4,9,4,0,5,1,0,3,9,1,8,0,7,8,0,8,9,4,0,5,8,4,8,7,1,8,1,5,9,1,0,0,0,0,0,0,0,0,0,0,0,0,0,0,0,0,0,0,0,0,0,0,0,0,0,0,0,0,0,0,0,0,0,0,0,0,0,0,0,0,0,0,0],"split_type":[0,0,0,0,0,0,0,0,0,0,0,0,0,0,0,0,0,0,0,0,0,0,0,0,0,0,0,0,0,0,0,0,0,0,0,0,0,0,0,0,0,0,0,0,0,0,0,0,0,0,0,0,0,0,0,0,0,0,0,0,0,0,0,0,0,0,0,0,0,0,0,0,0,0,0,0,0,0,0,0,0,0,0,0,0,0,0,0,0,0,0,0,0,0,0,0,0],"sum_hessian":[1.318E3,1.028E3,2.9E2,5.92E2,4.36E2,1.23E2,1.67E2,5.89E2,3E0,1.5E2,2.86E2,