{"learner":{"attributes":{"best_iteration":"39","best_score":"0.03790969429167546"},"feature_names":["FP","Age","Min","FTA","TOV","PTS_per_gp","log1p_PF","log1p_3PM","PTS_per_min","OREB_per_min"],"feature_types":["float","int","float","float","float","float","float","float","float","float"],"gradient_booster":{"model":{"gbtree_model_param":{"num_parallel_tree":"1","num_trees":"70"},"iteration_indptr":[0,1,2,3,4,5,6,7,8,9,10,11,12,13,14,15,16,17,18,19,20,21,22,23,24,25,26,27,28,29,30,31,32,33,34,35,36,37,38,39,40,41,42,43,44,45,46,47,48,49,50,51,52,53,54,55,56,57,58,59,60,61,62,63,64,65,66,67,68,69,70],"tree_info":[0,0,0,0,0,0,0,0,0,0,0,0,0,0,0,0,0,0,0,0,0,0,0,0,0,0,0,0,0,0,0,0,0,0,0,0,0,0,0,0,0,0,0,0,0,0,0,0,0,0,0,0,0,0,0,0,0,0,0,0,0,0,0,0,0,0,0,0,0,0],"trees":[{"base_weights":[6.8542006E-4,-2.6226358E-2,9.0947926E-2,-4.2702332E-2,-2.755229E-3,-7.5301467E-3,1.20860204E-1,-4.8161972E-2,-3.2457236E-2,-2.5459832E-2,2.1285346E-2,-1.2926131E-2,8.74331E-2,8.7261304E-2,1.6579546E-1,-4.879738E-2,1.0524163E-2,-3.7597984E-2,-7.928609E-3,7.2862424E-2,-2.6707549E-2,2.6747815E-3,5.5155627E-2,-1.5283778E-2,4.4036716E-2,3.4140275E-4,1.1430145E-2,4.4826698E-2,1.07068874E-1,7.66327E-2,1.7386025E-1,-5.1830094E-2,-4.249836E-2,3.627667E-2,-1.8736396E-3,-4.3679725E-2,-2.850185E-2,-1.5910188E-2,1.955761E-2,1.8914205E-3,9.037944E-3,-3.3099853E-2,-1.2308128E-2,-1.2387835E-2,1.7476555E-2,3.7015084E-2,7.088994E-2,-2.8698552E-2,-8.53576E-3,-3.4616663E-4,6.9516744E-3,2.9566351E-2,1.02582924E-1,8.913698E-2,1.4915994E-1,2.624258E-3,8.594991E-3,1.4496012E-1,1.9721655E-2,-3.71168E-3,-5.259185E-3,-4.3568E-3,1.766222E-3,7.4425567E-4,4.6972446E-3,-4.456366E-3,2.3240652E-3,-3.271961E-4,-3.8627924E-3,-2.3295518E-3,3.9106407E-4,3.6294758E-3,5.139908E-4,-3.614666E-3,-1.2807548E-3,-1.9526007E-3,1.2370355E-3,-1.7526823E-3,1.0306941E-3,2.9617974E-3,-1.5394368E-3,1.0329834E-2,2.785908E-3,1.4932208E-3,7.703402E-3,-3.7584049E-3,-1.4277551E-3,-1.3056527E-3,9.044651E-4,-2.0290788E-3,3.799062E-3,1.2381816E-2,-3.3649479E-3,9.572185E-3,6.237269E-4,7.7304216E-3,1.587108E-2,3.4060427E-3,1.4674708E-2],"categories":[],"categories_nodes":[],"categories_segments":[],"categories_sizes":[],"default_left":[0,0,0,0,0,0,0,0,0,0,0,0,0,0,0,0,0,0,0,0,0,0,0,0,0,0,0,0,0,0,0,0,0,0,0,0,0,0,0,0,0,0,0,0,0,0,0,0,0,0,0,0,0,0,0,0,0,0,0,0,0,0,0,0,0,0,0,0,0,0,0,0,0,0,0,0,0,0,0,0,0,0,0,0,0,0,0,0,0,0,0,0,0,0,0,0,0,0,0],"id":0,"left_children":[1,3,5,7,9,11,13,15,17,19,21,23,25,27,29,31,33,35,37,39,41,43,45,47,49,-1,-1,51,53,55,57,59,61,63,-1,65,67,69,71,-1,-1,73,75,77,79,81,83,85,87,-1,-1,89,91,93,95,-1,-1,97,-1,-1,-1,-1,-1,-1,-1,-1,-1,-1,-1,-1,-1,-1,-1,-1,-1,-1,-1,-1,-1,-1,-1,-1,-1,-1,-1,-1,-1,-1,-1,-1,-1,-1,-1,-1,-1,-1,-1,-1,-1],"loss_changes":[3.2258337E0,3.9548647E-1,8.993497E-1,3.205347E-2,2.3142874E-1,3.802442E-2,3.3881974E-1,1.5056491E-2,2.6434124E-2,2.8689846E-2,1.2970355E-1,9.939632E-3,8.639591E-3,1.0951197E-1,5.786538E-2,5.17118E-3,4.4473577E-3,8.4361285E-3,8.647735E-3,1.1255778E-3,1.9474432E-2,3.0092256E-2,1.8212318E-2,5.820086E-3,3.8714246E-3,0E0,0E0,3.662909E-2,5.6143403E-2,2.4394058E-3,3.2161474E-2,9.1713667E-4,9.199366E-3,5.756146E-4,0E0,7.128462E-3,1.8523622E-2,4.4826022E-3,1.9852493E-3,0E0,0E0,8.749247E-3,1.2354129E-2,7.994732E-3,2.7594725E-2,1.8970229E-2,1.1914447E-2,2.282422E-3,3.7740304E-3,0E0,0E0,1.631122E-2,3.0202754E-2,3.5977066E-2,5.5743456E-3,0E0,0E0,3.7213564E-3,0E0,0E0,0E0,0E0,0E0,0E0,0E0,0E0,0E0,0E0,0E0,0E0,0E0,0E0,0E0,0E0,0E0,0E0,0E0,0E0,0E0,0E0,0E0,0E0,0E0,0E0,0E0,0E0,0E0,0E0,0E0,0E0,0E0,0E0,0E0,0E0,0E0,0E0,0E0,0E0,0E0],"parents":[2147483647,0,0,1,1,2,2,3,3,4,4,5,5,6,6,7,7,8,8,9,9,10,10,11,11,12,12,13,13,14,14,15,15,16,16,17,17,18,18,19,19,20,20,21,21,22,22,23,23,24,24,27,27,28,28,29,29,30,30,31,31,32,32,33,33,35,35,36,36,37,37,38,38,41,41,42,42,43,43,44,44,45,45,46,46,47,47,48,48,51,51,52,52,53,53,54,54,57,57],"right_children":[2,4,6,8,10,12,14,16,18,20,22,24,26,28,30,32,34,36,38,40,42,44,46,48,50,-1,-1,52,54,56,58,60,62,64,-1,66,68,70,72,-1,-1,74,76,78,80,82,84,86,88,-1,-1,90,92,94,96,-1,-1,98,-1,-1,-1,-1,-1,-1,-1,-1,-1,-1,-1,-1,-1,-1,-1,-1,-1,-1,-1,-1,-1,-1,-1,-1,-1,-1,-1,-1,-1,-1,-1,-1,-1,-1,-1,-1,-1,-1,-1,-1,-1],"split_conditions":[2.94E1,1.84E1,2.4E1,2.8E1,2.7E1,1.4350846E0,4.6E0,2.66E1,2.05E1,2.6341462E-1,2.41E1,1.5040774E0,3.52E1,3.03E1,3.54E1,1.45E1,2.79E1,1.62E1,1.0647107E0,2.29E1,2.5E1,1.6333333E-1,3E1,3.16E1,2.97E1,3.4140275E-4,1.1430145E-2,3.2E1,3E1,2.83E1,2.8E1,5.3062826E-1,3.516129E-1,1.59E1,-1.8736396E-3,1.0296195E0,1.72E1,3.4E-1,2.9E1,1.8914205E-3,9.037944E-3,3.1E0,2.59E1,2.84E1,4.911032E-1,2.7567568E-1,5.3062826E-1,3.32E1,7.27003E-1,-3.4616663E-4,6.9516744E-3,2.5E0,3.22E1,4.3E0,1.8E0,2.624258E-3,8.594991E-3,2.4342105E-1,1.9721655E-2,-3.71168E-3,-5.259185E-3,-4.3568E-3,1.766222E-3,7.4425567E-4,4.6972446E-3,-4.456366E-3,2.3240652E-3,-3.271961E-4,-3.8627924E-3,-2.3295518E-3,3.9106407E-4,3.6294758E-3,5.139908E-4,-3.614666E-3,-1.2807548E-3,-1.9526007E-3,1.2370355E-3,-1.7526823E-3,1.0306941E-3,2.9617974E-3,-1.5394368E-3,1.0329834E-2,2.785908E-3,1.4932208E-3,7.703402E-3,-3.7584049E-3,-1.4277551E-3,-1.3056527E-3,9.044651E-4,-2.0290788E-3,3.799062E-3,1.2381816E-2,-3.3649479E-3,9.572185E-3,6.237269E-4,7.7304216E-3,1.587108E-2,3.4060427E-3,1.4674708E-2],"split_indices":[0,0,1,1,1,7,3,2,2,8,0,6,0,2,0,0,2,2,7,0,1,5,1,2,0,0,0,1,1,2,1,6,5,0,0,7,2,8,1,0,0,3,0,2,8,8,7,0,8,0,0,3,0,3,3,0,0,5,0,0,0,0,0,0,0,0,0,0,0,0,0,0,0,0,0,0,0,0,0,0,0,0,0,0,0,0,0,0,0,0,0,0,0,0,0,0,0,0,0],"split_type":[0,0,0,0,0,0,0,0,0,0,0,0,0,0,0,0,0,0,0,0,0,0,0,0,0,0,0,0,0,0,0,0,0,0,0,0,0,0,0,0,0,0,0,0,0,0,0,0,0,0,0,0,0,0,0,0,0,0,0,0,0,0,0,0,0,0,0,0,0,0,0,0,0,0,0,0,0,0,0,0,0,0,0,0,0,0,0,0,0,0,0,0,0,0,0,0,0,0,0],"sum_hessian":[1.326E3,1.022E3,3.04E2,6E2,4.22E2,7.1E1,2.33E2,3.89E2,2.11E2,2.17E2,2.05E2,6.8E1,3E0,1.35E2,9.8E1,3.85E2,4E0,1.74E2,3.7E1,2E0,2.15E2,1.33E2,7.2E1,6.6E1,2E0,1E0,2E0,4.4E1,9.1E1,9E0,8.9E1,2.55E2,1.3E2,2E0,2E0,1.02E2,7.2E1,2.9E1,8E0,1E0,1E0,1.48E2,6.7E1,6.6E1,6.7E1,3.5E1,3.7E1,2.1E1,4.5E1,1E0,1E0,3.6E1,8E0,6.6E1,2.5E1,2E0,7E0,4.3E1,4.6E1,1.5E1,2.4E2,1.28E2,2E0,1E0,1E0,1.01E2,1E0,2.1E1,5.1E1,2.1E1,8E0,3E0,5E0,1.28E2,2E1,5.2E1,1.5E1,5.4E1,1.2E1,4.9E1,1.8E1,3E0,3.2E1,4E0,3.3E1,1.2E1,9E0,3.6E1,9E0,5E0,3.1E1,7E0,1E0,6.1E1,5E0,4E0,2.1E1,1E0,4.2E1],"tree_param":{"num_deleted":"0","num_feature":"10","num_nodes":"99","size_leaf_vector":"1"}},{"base_weights":[-2.4579995E-4,-2.38632E-2,8.3548285E-2,-3.5726763E-2,2.673166E-3,-3.8799085E-3,1.0909758E-1,-4.273135E-2,-2.6415173E-2,-2.2348778E-2,2.215063E-2,-1.2912762E-2,2.5719361E-2,6.945598E-2,1.4415805E-1,-4.5499265E-2,-3.275969E-2,-4.0332872E-2,-1.6665373E-2,-2.9796073E-2,-9.798579E-3,5.361746E-3,4.2811453E-2,-1.5939366E-2,4.183488E-2,-2.7941542E-3,4.0251996E-2,1.6654784E-2,9.049731E-2,1.0925475E-1,1.7448439E-1,-1.6461918E-2,-4.5818775E-3,-3.9879292E-2,-1.7463718E-2,-4.1693363E-2,-5.9474385E-3,-1.9155333E-2,2.8575454E-2,-3.2851327E-2,-1.5103461E-2,-1.8200537E-2,2.1124983E-2,-1.6145653E-3,2.781135E-2,9.6729405E-2,3.7991464E-2,-3.2968957E-2,-1.0857744E-2,-3.288582E-4,6.6040903E-3,1.1097762E-2,1.7303918E-2,2.4319725E-2,-2.061325E-2,7.55345E-2,1.3534571E-1,6.7198545E-2,1.2650008E-1,4.0291283E-2,1.8062485E-2,-4.5245737E-4,-1.831511E-3,1.6845398E-3,-4.108536E-3,2.4963284E-3,-2.125052E-3,-6.302009E-4,-4.2230706E-3,3.7099745E-3,-3.6745965E-3,-3.5613463E-3,-1.5778182E-3,7.859743E-3,6.2452845E-4,-3.3803997E-3,-8.204978E-4,-7.245626E-4,-3.2513142E-3,2.8706372E-3,-2.0000853E-3,-2.323691E-3,4.6210545E-3,-1.3078363E-3,1.4414199E-3,3.5341743E-3,-3.6681977E-3,1.2354075E-2,2.8737814E-3,4.2607682E-4,4.916028E-3,-3.642463E-3,-1.161229E-3,-1.3542722E-3,6.6142477E-4,4.993143E-4,7.020584E-3,2.9270533E-3,-2.504357E-3,-4.4167466E-3,1.7663451E-3,4.9693165E-3,8.817488E-3,1.4317304E-2,4.8484695E-3,7.812701E-3,6.685054E-4,9.115391E-3,1.4202671E-2,7.638097E-4,4.8629646E-3],"categories":[],"categories_nodes":[],"categories_segments":[],"categories_sizes":[],"default_left":[0,0,0,0,0,0,0,0,0,0,0,0,0,0,0,0,0,0,0,0,0,0,0,0,0,0,0,0,0,0,0,0,0,0,0,0,0,0,0,0,0,0,0,0,0,0,0,0,0,0,0,0,0,0,0,0,0,0,0,0,0,0,0,0,0,0,0,0,0,0,0,0,0,0,0,0,0,0,0,0,0,0,0,0,0,0,0,0,0,0,0,0,0,0,0,0,0,0,0,0,0,0,0,0,0,0,0,0,0,0,0],"id":1,"left_children":[1,3,5,7,9,11,13,15,17,19,21,23,25,27,29,31,33,35,37,39,41,43,45,47,49,-1,51,53,55,57,59,61,-1,63,65,67,69,71,73,75,77,79,81,83,85,87,89,91,93,-1,-1,-1,95,97,99,101,103,105,107,109,-1,-1,-1,-1,-1,-1,-1,-1,-1,-1,-1,-1,-1,-1,-1,-1,-1,-1,-1,-1,-1,-1,-1,-1,-1,-1,-1,-1,-1,-1,-1,-1,-1,-1,-1,-1,-1,-1,-1,-1,-1,-1,-1,-1,-1,-1,-1,-1,-1,-1,-1],"loss_changes":[2.628125E0,3.262447E-1,6.526718E-1,4.5571506E-2,1.569389E-1,1.8245624E-2,3.0409408E-1,9.742975E-3,4.1393235E-2,1.2886614E-2,6.255431E-2,9.283191E-3,1.360205E-2,1.1848158E-1,1.06897116E-1,2.1775365E-3,9.322472E-3,5.693227E-3,2.127457E-2,3.4541115E-3,1.4414683E-2,1.5863061E-2,1.7375708E-2,3.968928E-3,3.4939595E-3,0E0,1.9178877E-2,9.642342E-3,4.1448176E-2,3.3565223E-2,4.3810964E-2,2.7742935E-5,0E0,4.9337447E-3,5.511026E-3,2.0539612E-3,9.318004E-3,9.164862E-3,1.0679128E-2,1.4131889E-3,2.0900627E-3,4.2053834E-3,1.4427904E-2,1.4521055E-2,1.2952244E-2,7.387385E-3,2.842217E-2,3.88843E-4,1.9660508E-3,0E0,0E0,0E0,6.813352E-3,7.3315166E-3,6.1896155E-3,1.5217006E-2,5.2963197E-3,1.2042791E-2,9.005904E-3,7.176581E-4,0E0,0E0,0E0,0E0,0E0,0E0,0E0,0E0,0E0,0E0,0E0,0E0,0E0,0E0,0E0,0E0,0E0,0E0,0E0,0E0,0E0,0E0,0E0,0E0,0E0,0E0,0E0,0E0,0E0,0E0,0E0,0E0,0E0,0E0,0E0,0E0,0E0,0E0,0E0,0E0,0E0,0E0,0E0,0E0,0E0,0E0,0E0,0E0,0E0,0E0,0E0],"parents":[2147483647,0,0,1,1,2,2,3,3,4,4,5,5,6,6,7,7,8,8,9,9,10,10,11,11,12,12,13,13,14,14,15,15,16,16,17,17,18,18,19,19,20,20,21,21,22,22,23,23,24,24,26,26,27,27,28,28,29,29,30,30,31,31,33,33,34,34,35,35,36,36,37,37,38,38,39,39,40,40,41,41,42,42,43,43,44,44,45,45,46,46,47,47,48,48,52,52,53,53,54,54,55,55,56,56,57,57,58,58,59,59],"right_children":[2,4,6,8,10,12,14,16,18,20,22,24,26,28,30,32,34,36,38,40,42,44,46,48,50,-1,52,54,56,58,60,62,-1,64,66,68,70,72,74,76,78,80,82,84,86,88,90,92,94,-1,-1,-1,96,98,100,102,104,106,108,110,-1,-1,-1,-1,-1,-1,-1,-1,-1,-1,-1,-1,-1,-1,-1,-1,-1,-1,-1,-1,-1,-1,-1,-1,-1,-1,-1,-1,-1,-1,-1,-1,-1,-1,-1,-1,-1,-1,-1,-1,-1,-1,-1,-1,-1,-1,-1,-1,-1,-1,-1],"split_conditions":[2.96E1,2.39E1,2.4E1,2.7E1,2.6E1,7.165605E-1,6.0958904E-1,1.76E1,1.62E1,2.4E1,2.38E1,1.5040774E0,2.6E0,3.01E1,2.8E1,2E1,2.5E1,1.61E1,2.4E1,5E-1,2.175E-1,4.3404254E-1,2.7567568E-1,1.8E0,2.97E1,-2.7941542E-3,3.516129E-1,3.5E0,4.7E0,2.4E0,3.18E1,1.28E1,-4.5818775E-3,8.412699E-2,6E-1,4.054651E-1,1.71E1,6E-1,9.1629076E-1,2.6E0,2.89E1,2.4E1,1.9E0,2.75E1,3.6E1,2.8E1,2.8E1,3.58E1,3.3E0,-3.288582E-4,6.6040903E-3,1.1097762E-2,5.297297E-1,3.9411765E-1,4.6E0,2.7E1,1.4350846E0,3.92E1,4.11E1,4.1E0,1.8062485E-2,-4.5245737E-4,-1.831511E-3,1.6845398E-3,-4.108536E-3,2.4963284E-3,-2.125052E-3,-6.302009E-4,-4.2230706E-3,3.7099745E-3,-3.6745965E-3,-3.5613463E-3,-1.5778182E-3,7.859743E-3,6.2452845E-4,-3.3803997E-3,-8.204978E-4,-7.245626E-4,-3.2513142E-3,2.8706372E-3,-2.0000853E-3,-2.323691E-3,4.6210545E-3,-1.3078363E-3,1.4414199E-3,3.5341743E-3,-3.6681977E-3,1.2354075E-2,2.8737814E-3,4.2607682E-4,4.916028E-3,-3.642463E-3,-1.161229E-3,-1.3542722E-3,6.6142477E-4,4.993143E-4,7.020584E-3,2.9270533E-3,-2.504357E-3,-4.4167466E-3,1.7663451E-3,4.9693165E-3,8.817488E-3,1.4317304E-2,4.8484695E-3,7.812701E-3,6.685054E-4,9.115391E-3,1.4202671E-2,7.638097E-4,4.8629646E-3],"split_indices":[0,2,1,1,1,8,8,0,2,1,0,6,4,2,1,1,1,0,0,8,5,8,8,4,0,0,5,3,3,4,0,0,0,5,4,6,0,4,6,4,0,2,3,2,1,1,1,0,4,0,0,0,5,5,3,1,6,0,0,3,0,0,0,0,0,0,0,0,0,0,0,0,0,0,0,0,0,0,0,0,0,0,0,0,0,0,0,0,0,0,0,0,0,0,0,0,0,0,0,0,0,0,0,0,0,0,0,0,0,0,0],"split_type":[0,0,0,0,0,0,0,0,0,0,0,0,0,0,0,0,0,0,0,0,0,0,0,0,0,0,0,0,0,0,0,0,0,0,0,0,0,0,0,0,0,0,0,0,0,0,0,0,0,0,0,0,0,0,0,0,0,0,0,0,0,0,0,0,0,0,0,0,0,0,0,0,0,0,0,0,0,0,0,0,0,0,0,0,0,0,0,0,0,0,0,0,0,0,0,0,0,0,0,0,0,0,0,0,0,0,0,0,0,0,0],"sum_hessian":[1.326E3,1.035E3,2.91E2,7.15E2,3.2E2,6.6E1,2.25E2,4.06E2,3.09E2,1.4E2,1.8E2,5.1E1,1.5E1,1.07E2,1.18E2,3.15E2,9.1E1,1.26E2,1.83E2,8.7E1,5.3E1,1E2,8E1,4.9E1,2E0,3E0,1.2E1,3.1E1,7.6E1,5.7E1,6.1E1,4E0,3.11E2,6.1E1,3E1,1.21E2,5E0,1.74E2,9E0,7.1E1,1.6E1,4.2E1,1.1E1,7.7E1,2.3E1,5E0,7.5E1,1E1,3.9E1,1E0,1E0,2E0,1E1,2.6E1,5E0,5.9E1,1.7E1,1.8E1,3.9E1,3E0,5.8E1,1E0,3E0,1E0,6E1,2E0,2.8E1,2E0,1.19E2,2E0,3E0,2.8E1,1.46E2,2E0,7E0,6.8E1,3E0,1.2E1,4E0,1E0,4.1E1,4E0,7E0,4.5E1,3.2E1,2.1E1,2E0,3E0,2E0,1.9E1,5.6E1,8E0,2E0,3.4E1,5E0,9E0,1E0,2.4E1,2E0,3E0,2E0,2.1E1,3.8E1,1.5E1,2E0,1.5E1,3E0,1.4E1,2.5E1,1E0,2E0],"tree_param":{"num_deleted":"0","num_feature":"10","num_nodes":"111","size_leaf_vector":"1"}},{"base_weights":[-1.303361E-3,-2.0250775E-2,8.0935225E-2,-3.3064324E-2,4.3519507E-3,-4.719829E-3,1.0665658E-1,-3.8291268E-2,-2.3632659E-2,-1.8542856E-2,2.2248602E-2,-1.0609395E-2,7.744166E-2,8.693936E-2,1.4692844E-1,-4.1206766E-2,-3.2024257E-2,-3.1102257E-2,-4.3192017E-3,-2.6525022E-2,-5.5784173E-3,5.0050938E-3,3.8008805E-2,-1.5215746E-2,5.443103E-3,3.920462E-4,1.0064191E-2,6.753696E-2,1.14744164E-1,-1.9860105E-3,1.5003926E-1,-2.8773984E-2,-4.1840736E-2,-3.4658805E-2,-1.1071493E-2,-2.6489155E-2,-3.9069284E-2,-1.5580703E-2,1.1966256E-2,-2.77887E-2,2.3596795E-2,-1.4555272E-2,1.9568088E-2,-1.133108E-2,2.0302545E-2,9.329391E-2,3.325346E-2,-8.780279E-3,-2.4541736E-2,-6.265881E-3,1.3544454E-3,2.8362873E-3,7.7961534E-2,4.0519908E-2,1.2538971E-1,1.2704881E-2,1.6879475E-2,-3.4182358E-3,3.1584192E-3,-3.7724045E-3,-4.392882E-3,-3.6145335E-3,-1.3057244E-3,2.807894E-3,-2.828927E-3,-2.889643E-3,-1.1376321E-3,4.735783E-4,-3.9827735E-3,-3.31744E-3,-6.850955E-4,6.0600473E-4,3.0506651E-3,-1.2824762E-3,-2.9727567E-3,3.335866E-3,2.0365343E-4,-2.011026E-3,1.1133588E-3,6.782677E-4,5.9425007E-3,-1.5850303E-3,2.3698395E-3,7.2204657E-3,1.5651301E-3,1.0325334E-2,1.1788954E-3,3.0421893E-4,4.4799675E-3,-1.6368987E-3,3.74593E-4,-3.2284528E-3,-1.1795532E-3,-9.608382E-4,2.7941414E-5,2.3475294E-3,-1.0417628E-3,8.796142E-3,4.529731E-3,6.2181284E-3,-1.6309478E-3,5.5909823E-3,1.3080458E-2],"categories":[],"categories_nodes":[],"categories_segments":[],"categories_sizes":[],"default_left":[0,0,0,0,0,0,0,0,0,0,0,0,0,0,0,0,0,0,0,0,0,0,0,0,0,0,0,0,0,0,0,0,0,0,0,0,0,0,0,0,0,0,0,0,0,0,0,0,0,0,0,0,0,0,0,0,0,0,0,0,0,0,0,0,0,0,0,0,0,0,0,0,0,0,0,0,0,0,0,0,0,0,0,0,0,0,0,0,0,0,0,0,0,0,0,0,0,0,0,0,0,0,0],"id":2,"left_children":[1,3,5,7,9,11,13,15,17,19,21,23,25,27,29,31,33,35,37,39,41,43,45,47,49,-1,-1,51,53,-1,55,57,59,61,63,65,67,69,71,73,75,77,79,81,83,85,87,89,91,93,-1,95,97,99,101,-1,-1,-1,-1,-1,-1,-1,-1,-1,-1,-1,-1,-1,-1,-1,-1,-1,-1,-1,-1,-1,-1,-1,-1,-1,-1,-1,-1,-1,-1,-1,-1,-1,-1,-1,-1,-1,-1,-1,-1,-1,-1,-1,-1,-1,-1,-1,-1],"loss_changes":[2.055358E0,3.380901E-1,5.446849E-1,3.385067E-2,1.5119702E-1,2.888755E-2,1.3809562E-1,6.9390535E-3,3.650865E-2,1.6616493E-2,5.606433E-2,4.1497094E-3,6.428277E-3,6.2382936E-2,3.4629345E-2,1.2001395E-3,7.7860206E-3,5.690843E-3,1.3391149E-2,6.9895014E-3,1.4506219E-2,2.5220232E-2,2.5290817E-2,2.365252E-3,1.3180294E-3,0E0,0E0,5.306256E-2,3.6007404E-2,0E0,4.4267178E-3,6.955535E-3,8.184314E-4,3.7346184E-3,1.2927835E-2,4.0005744E-3,2.3481697E-3,6.377031E-3,3.1002322E-3,2.462037E-3,5.6346913E-4,6.930859E-3,8.259919E-3,8.13262E-3,1.1423195E-2,5.276695E-3,3.5095118E-2,2.627876E-3,1.2969365E-3,1.3395066E-4,0E0,3.5271281E-3,1.8226981E-2,1.0862165E-2,9.616852E-3,0E0,0E0,0E0,0E0,0E0,0E0,0E0,0E0,0E0,0E0,0E0,0E0,0E0,0E0,0E0,0E0,0E0,0E0,0E0,0E0,0E0,0E0,0E0,0E0,0E0,0E0,0E0,0E0,0E0,0E0,0E0,0E0,0E0,0E0,0E0,0E0,0E0,0E0,0E0,0E0,0E0,0E0,0E0,0E0,0E0,0E0,0E0,0E0],"parents":[2147483647,0,0,1,1,2,2,3,3,4,4,5,5,6,6,7,7,8,8,9,9,10,10,11,11,12,12,13,13,14,14,15,15,16,16,17,17,18,18,19,19,20,20,21,21,22,22,23,23,24,24,27,27,28,28,30,30,31,31,32,32,33,33,34,34,35,35,36,36,37,37,38,38,39,39,40,40,41,41,42,42,43,43,44,44,45,45,46,46,47,47,48,48,49,49,51,51,52,52,53,53,54,54],"right_children":[2,4,6,8,10,12,14,16,18,20,22,24,26,28,30,32,34,36,38,40,42,44,46,48,50,-1,-1,52,54,-1,56,58,60,62,64,66,68,70,72,74,76,78,80,82,84,86,88,90,92,94,-1,96,98,100,102,-1,-1,-1,-1,-1,-1,-1,-1,-1,-1,-1,-1,-1,-1,-1,-1,-1,-1,-1,-1,-1,-1,-1,-1,-1,-1,-1,-1,-1,-1,-1,-1,-1,-1,-1,-1,-1,-1,-1,-1,-1,-1,-1,-1,-1,-1,-1,-1],"split_conditions":[3.1E1,2.02E1,2.4E1,2.8E1,2.6E1,1.4350846E0,4.11E1,1.58E1,2.05E1,2.4E1,2.41E1,3.2E0,3.52E1,2.9E1,7.8845733E-1,5.3062826E-1,2.7E1,3.3E1,9.5551145E-1,3.37E1,2.3974359E-1,1.6463415E-1,2.7567568E-1,3.328767E-1,1.0647107E0,3.920462E-4,1.0064191E-2,2.3561645E-1,3.05E1,-1.9860105E-3,2.9E1,1.35E1,2.3E1,2.66E1,1.97E1,8.7546873E-1,1.6666667E-1,2.7302632E-1,1.6774194E-1,2.1E1,2.97E1,1.3862944E0,3.04E1,1.1939225E0,2.05E1,3.16E1,7.8845733E-1,5.797101E-1,2.7E0,4.32E1,1.3544454E-3,2.81E1,1.3609766E0,3.4E1,3.17E1,1.2704881E-2,1.6879475E-2,-3.4182358E-3,3.1584192E-3,-3.7724045E-3,-4.392882E-3,-3.6145335E-3,-1.3057244E-3,2.807894E-3,-2.828927E-3,-2.889643E-3,-1.1376321E-3,4.735783E-4,-3.9827735E-3,-3.31744E-3,-6.850955E-4,6.0600473E-4,3.0506651E-3,-1.2824762E-3,-2.9727567E-3,3.335866E-3,2.0365343E-4,-2.011026E-3,1.1133588E-3,6.782677E-4,5.9425007E-3,-1.5850303E-3,2.3698395E-3,7.2204657E-3,1.5651301E-3,1.0325334E-2,1.1788954E-3,3.0421893E-4,4.4799675E-3,-1.6368987E-3,3.74593E-4,-3.2284528E-3,-1.1795532E-3,-9.608382E-4,2.7941414E-5,2.3475294E-3,-1.0417628E-3,8.796142E-3,4.529731E-3,6.2181284E-3,-1.6309478E-3,5.5909823E-3,1.3080458E-2],"split_indices":[0,0,1,1,1,7,0,0,2,1,0,4,0,1,6,6,1,1,7,2,5,5,8,5,6,0,0,5,2,0,1,0,1,2,2,7,8,8,5,1,0,6,2,7,0,2,7,8,4,0,0,2,7,1,0,0,0,0,0,0,0,0,0,0,0,0,0,0,0,0,0,0,0,0,0,0,0,0,0,0,0,0,0,0,0,0,0,0,0,0,0,0,0,0,0,0,0,0,0,0,0,0,0],"split_type":[0,0,0,0,0,0,0,0,0,0,0,0,0,0,0,0,0,0,0,0,0,0,0,0,0,0,0,0,0,0,0,0,0,0,0,0,0,0,0,0,0,0,0,0,0,0,0,0,0,0,0,0,0,0,0,0,0,0,0,0,0,0,0,0,0,0,0,0,0,0,0,0,0,0,0,0,0,0,0,0,0,0,0,0,0,0,0,0,0,0,0,0,0,0,0,0,0,0,0,0,0,0,0],"sum_hessian":[1.317E3,1.071E3,2.46E2,7.04E2,3.67E2,5.7E1,1.89E2,4.51E2,2.53E2,1.61E2,2.06E2,5.4E1,3E0,1.29E2,6E1,3.04E2,1.47E2,1.82E2,7.1E1,9.9E1,6.2E1,9.9E1,1.07E2,4.2E1,1.2E1,1E0,2E0,7.8E1,5.1E1,1E0,5.9E1,1.7E1,2.87E2,1.3E2,1.7E1,1.18E2,6.4E1,4.2E1,2.9E1,9.7E1,2E0,4.6E1,1.6E1,4.8E1,5.1E1,7E0,1E2,2.6E1,1.6E1,5E0,7E0,1.1E1,6.7E1,7E0,4.4E1,3E1,2.9E1,1.6E1,1E0,1.03E2,1.84E2,1.21E2,9E0,5E0,1.2E1,1.01E2,1.7E1,1E0,6.3E1,1.3E1,2.9E1,2.3E1,6E0,1.2E1,8.5E1,1E0,1E0,3.8E1,8E0,1.3E1,3E0,4.3E1,5E0,3E0,4.8E1,6E0,1E0,2.8E1,7.2E1,1.6E1,1E1,9E0,7E0,3E0,2E0,4E0,7E0,5E1,1.7E1,5E0,2E0,4E0,4E1],"tree_param":{"num_deleted":"0","num_feature":"10","num_nodes":"103","size_leaf_vector":"1"}},{"base_weights":[5.8675173E-4,-1.9852877E-2,6.82447E-2,-2.9201733E-2,1.7394002E-3,-5.291307E-3,8.83503E-2,-3.0076724E-2,3.4180366E-2,-1.9466178E-2,1.972147E-2,-7.810719E-3,7.923523E-3,5.6670636E-2,1.1129173E-1,-3.4122076E-2,-1.9903682E-2,4.056827E-2,-1.1655374E-3,-2.2627512E-2,-6.0127173E-3,-7.0124445E-3,2.9201558E-2,-1.1843691E-2,1.5554995E-2,7.83917E-2,3.0601284E-2,8.267826E-2,1.2729882E-1,-3.775612E-2,-2.8470132E-2,-2.4458388E-2,-1.7548555E-3,1.1279486E-3,4.281943E-3,-2.7255522E-2,-5.246699E-3,-3.2454815E-2,8.220634E-3,-2.8820693E-2,2.0662956E-3,1.1279909E-2,4.1490484E-2,-1.4756815E-2,1.48918135E-2,7.0914063E-3,1.5246479E-3,2.85452E-2,8.883436E-2,1.7215544E-2,6.531554E-2,8.8486426E-2,-9.141361E-3,1.1072795E-2,1.5312688E-2,-3.4608904E-3,-4.023462E-3,-3.1712458E-3,-1.6474946E-3,-2.7175972E-3,-7.207629E-4,-3.5439585E-3,3.908012E-4,-3.0032597E-3,-1.6172983E-3,-1.7639948E-3,7.5501425E-4,-3.622248E-3,7.2710216E-5,-3.531152E-4,3.4271365E-3,-7.679795E-4,-3.736334E-3,3.823051E-3,-9.588905E-4,2.0272767E-3,-1.3934984E-3,3.141731E-3,7.4783005E-3,-2.6899674E-3,-1.0330816E-3,2.4703236E-3,-1.7082645E-3,-6.402503E-4,9.1468694E-4,4.1949665E-3,-2.1183253E-3,3.314888E-3,9.6551385E-3,2.2006776E-4,3.2108151E-3,7.1391314E-3,-3.7968607E-4,5.034278E-3,1.0545477E-2,-2.6884226E-3,2.2043616E-3],"categories":[],"categories_nodes":[],"categories_segments":[],"categories_sizes":[],"default_left":[0,0,0,0,0,0,0,0,0,0,0,0,0,0,0,0,0,0,0,0,0,0,0,0,0,0,0,0,0,0,0,0,0,0,0,0,0,0,0,0,0,0,0,0,0,0,0,0,0,0,0,0,0,0,0,0,0,0,0,0,0,0,0,0,0,0,0,0,0,0,0,0,0,0,0,0,0,0,0,0,0,0,0,0,0,0,0,0,0,0,0,0,0,0,0,0,0],"id":3,"left_children":[1,3,5,7,9,11,13,15,17,19,21,23,-1,25,27,29,31,33,-1,35,37,39,41,43,45,47,49,51,53,55,57,59,61,-1,-1,63,65,67,69,71,73,75,77,79,81,-1,83,85,87,89,91,93,95,-1,-1,-1,-1,-1,-1,-1,-1,-1,-1,-1,-1,-1,-1,-1,-1,-1,-1,-1,-1,-1,-1,-1,-1,-1,-1,-1,-1,-1,-1,-1,-1,-1,-1,-1,-1,-1,-1,-1,-1,-1,-1,-1,-1],"loss_changes":[1.8060439E0,2.0251948E-1,4.4844854E-1,3.984922E-2,1.1630524E-1,1.4674054E-2,1.6666579E-1,2.7757943E-2,3.4007812E-3,5.81827E-3,4.2022355E-2,6.3093905E-3,0E0,5.5359036E-2,5.2223682E-2,9.050965E-3,1.6406924E-2,1.1042226E-4,0E0,8.946549E-3,1.0804868E-2,8.771175E-3,2.6400998E-2,4.581251E-3,7.65895E-3,2.6093334E-2,2.118E-2,2.85407E-2,1.9852042E-2,9.242594E-4,7.1393102E-3,7.2581023E-3,7.959337E-3,0E0,0E0,2.253443E-3,4.098045E-3,1.2765229E-3,5.9377267E-3,2.0608464E-3,1.3854625E-2,1.1846952E-2,2.179654E-2,2.4630632E-3,2.3042858E-3,0E0,6.023653E-4,8.221045E-3,1.6137123E-2,7.979319E-3,5.7299137E-3,2.6405603E-2,2.8058689E-3,0E0,0E0,0E0,0E0,0E0,0E0,0E0,0E0,0E0,0E0,0E0,0E0,0E0,0E0,0E0,0E0,0E0,0E0,0E0,0E0,0E0,0E0,0E0,0E0,0E0,0E0,0E0,0E0,0E0,0E0,0E0,0E0,0E0,0E0,0E0,0E0,0E0,0E0,0E0,0E0,0E0,0E0,0E0,0E0],"parents":[2147483647,0,0,1,1,2,2,3,3,4,4,5,5,6,6,7,7,8,8,9,9,10,10,11,11,13,13,14,14,15,15,16,16,17,17,19,19,20,20,21,21,22,22,23,23,24,24,25,25,26,26,27,27,28,28,29,29,30,30,31,31,32,32,35,35,36,36,37,37,38,38,39,39,40,40,41,41,42,42,43,43,44,44,46,46,47,47,48,48,49,49,50,50,51,51,52,52],"right_children":[2,4,6,8,10,12,14,16,18,20,22,24,-1,26,28,30,32,34,-1,36,38,40,42,44,46,48,50,52,54,56,58,60,62,-1,-1,64,66,68,70,72,74,76,78,80,82,-1,84,86,88,90,92,94,96,-1,-1,-1,-1,-1,-1,-1,-1,-1,-1,-1,-1,-1,-1,-1,-1,-1,-1,-1,-1,-1,-1,-1,-1,-1,-1,-1,-1,-1,-1,-1,-1,-1,-1,-1,-1,-1,-1,-1,-1,-1,-1,-1,-1],"split_conditions":[2.94E1,2.04E1,2.4E1,1.2809339E0,2.6E1,1.4350846E0,3.54E1,2.9E1,3.2E1,2.5E1,1.5166667E-1,6.6E0,7.923523E-3,1.2237754E0,4.6E0,1.47E1,8.7546873E-1,1.77E1,-1.1655374E-3,5.0498337E-1,2.991453E-2,1.0647107E0,2.4E1,1.3862944E0,1.8232156E-1,2.1929824E-1,3E1,1.1278196E-1,3E1,3.4334764E-2,2.7E1,1.71E1,1.0526316E-2,1.1279486E-3,4.281943E-3,1.3083328E0,2.5789472E-1,1.2237754E0,4.227273E-1,1.15686275E-1,1.1314021E0,5.592105E-2,3.3E1,3.17E1,4.2E0,7.0914063E-3,2.020202E-2,4.857143E-1,1.24223605E-2,2.521739E-1,1.4586151E0,2.7E1,3.99E1,1.1072795E-2,1.5312688E-2,-3.4608904E-3,-4.023462E-3,-3.1712458E-3,-1.6474946E-3,-2.7175972E-3,-7.207629E-4,-3.5439585E-3,3.908012E-4,-3.0032597E-3,-1.6172983E-3,-1.7639948E-3,7.5501425E-4,-3.622248E-3,7.2710216E-5,-3.531152E-4,3.4271365E-3,-7.679795E-4,-3.736334E-3,3.823051E-3,-9.588905E-4,2.0272767E-3,-1.3934984E-3,3.141731E-3,7.4783005E-3,-2.6899674E-3,-1.0330816E-3,2.4703236E-3,-1.7082645E-3,-6.402503E-4,9.1468694E-4,4.1949665E-3,-2.1183253E-3,3.314888E-3,9.6551385E-3,2.2006776E-4,3.2108151E-3,7.1391314E-3,-3.7968607E-4,5.034278E-3,1.0545477E-2,-2.6884226E-3,2.2043616E-3],"split_indices":[0,0,1,7,1,7,0,1,1,1,5,3,0,6,3,0,7,0,0,8,9,6,0,7,7,5,1,9,1,9,1,0,9,0,0,6,5,6,8,5,6,9,1,0,3,0,9,8,9,5,6,1,0,0,0,0,0,0,0,0,0,0,0,0,0,0,0,0,0,0,0,0,0,0,0,0,0,0,0,0,0,0,0,0,0,0,0,0,0,0,0,0,0,0,0,0,0],"split_type":[0,0,0,0,0,0,0,0,0,0,0,0,0,0,0,0,0,0,0,0,0,0,0,0,0,0,0,0,0,0,0,0,0,0,0,0,0,0,0,0,0,0,0,0,0,0,0,0,0,0,0,0,0,0,0,0,0,0,0,0,0,0,0,0,0,0,0,0,0,0,0,0,0,0,0,0,0,0,0,0,0,0,0,0,0,0,0,0,0,0,0,0,0,0,0,0,0],"sum_hessian":[1.304E3,1.002E3,3.02E2,6.99E2,3.03E2,6.5E1,2.37E2,6.9E2,9E0,1.39E2,1.64E2,6.4E1,1E0,1.01E2,1.36E2,4.92E2,1.98E2,8E0,1E0,1.12E2,2.7E1,4.3E1,1.21E2,5.5E1,9E0,5.4E1,4.7E1,5.1E1,8.5E1,2.96E2,1.96E2,1.58E2,4E1,1E0,7E0,8.8E1,2.4E1,9E0,1.8E1,1.2E1,3.1E1,5E1,7.1E1,5E1,5E0,1E0,8E0,1E1,4.4E1,3.5E1,1.2E1,4.8E1,3E0,5.5E1,3E1,1.37E2,1.59E2,1.53E2,4.3E1,1.36E2,2.2E1,5E0,3.5E1,6.9E1,1.9E1,1.2E1,1.2E1,8E0,1E0,1.3E1,5E0,4E0,8E0,7E0,2.4E1,3.7E1,1.3E1,5.6E1,1.5E1,1.2E1,3.8E1,4E0,1E0,4E0,4E0,8E0,2E0,6E0,3.8E1,1.8E1,1.7E1,1.1E1,1E0,1.6E1,3.2E1,2E0,1E0],"tree_param":{"num_deleted":"0","num_feature":"10","num_nodes":"97","size_leaf_vector":"1"}},{"base_weights":[1.1885278E-3,-1.5779167E-2,6.6701785E-2,-2.9016037E-2,2.2068074E-4,1.2669731E-2,9.530724E-2,-3.2156043E-2,-2.1819621E-2,-1.6699662E-2,1.2470461E-2,-1.507204E-3,4.7153257E-2,6.162695E-2,1.0974908E-1,-3.3800256E-2,-2.5833255E-2,-2.4526091E-2,9.2311035E-4,-1.9993506E-2,-9.5600827E-4,3.9542065E-4,3.3099703E-2,-5.5980715E-3,6.6368915E-2,5.8230055E-3,7.778701E-2,2.3111697E-2,7.51542E-2,9.334219E-2,1.3295671E-1,-3.420904E-2,-7.046263E-3,3.7387558E-3,-2.7303457E-2,-3.2382425E-2,-1.9089684E-2,-1.3585551E-2,2.980856E-2,-2.4222754E-2,-1.0174542E-2,1.7209262E-2,-9.637098E-3,-1.0079648E-2,1.6551306E-2,1.8739212E-2,5.0486848E-2,-7.624753E-3,6.306811E-3,-2.3732335E-5,8.86501E-3,-1.6026517E-2,8.399692E-3,8.842369E-2,2.2201415E-3,2.8370341E-2,-2.788399E-3,8.0827184E-2,2.4722498E-3,4.5538384E-2,9.6789114E-2,1.0264118E-1,1.5032463E-2,-3.6797163E-3,-3.161744E-3,-1.8280944E-3,2.456357E-3,-1.7442558E-3,1.3394724E-3,-8.947832E-4,-3.0584533E-3,-3.5086137E-3,-2.3523702E-3,5.553983E-4,-2.1068125E-3,9.0431963E-4,-2.7161876E-3,-4.116133E-4,3.6148697E-3,-2.4896355E-3,2.6620717E-3,-1.8926746E-3,1.2676012E-3,4.394013E-3,-1.6486878E-4,-2.2900116E-3,9.324937E-4,-1.2251257E-3,2.8879568E-3,3.2447376E-3,1.4967781E-4,-1.4964723E-3,2.6945765E-3,3.2786527E-3,7.1857944E-3,-1.277788E-3,1.3970665E-3,7.627318E-4,-3.700927E-3,3.1781425E-3,9.521562E-3,3.5424556E-3,-3.2094344E-3,3.7077374E-3,9.13023E-4,4.3008807E-3,9.108086E-3,-5.3993985E-4,1.3043598E-3,5.224685E-3,2.6437975E-4,1.0219507E-2,6.786567E-3,8.86595E-4,1.1204563E-2],"categories":[],"categories_nodes":[],"categories_segments":[],"categories_sizes":[],"default_left":[0,0,0,0,0,0,0,0,0,0,0,0,0,0,0,0,0,0,0,0,0,0,0,0,0,0,0,0,0,0,0,0,0,0,0,0,0,0,0,0,0,0,0,0,0,0,0,0,0,0,0,0,0,0,0,0,0,0,0,0,0,0,0,0,0,0,0,0,0,0,0,0,0,0,0,0,0,0,0,0,0,0,0,0,0,0,0,0,0,0,0,0,0,0,0,0,0,0,0,0,0,0,0,0,0,0,0,0,0,0,0,0,0,0,0],"id":4,"left_children":[1,3,5,7,9,11,13,15,17,19,21,23,25,27,29,31,33,35,37,39,41,43,45,47,49,51,53,55,57,59,61,63,65,67,69,71,73,75,77,79,81,83,85,87,89,91,93,95,-1,-1,-1,97,-1,99,101,103,-1,105,107,109,111,113,-1,-1,-1,-1,-1,-1,-1,-1,-1,-1,-1,-1,-1,-1,-1,-1,-1,-1,-1,-1,-1,-1,-1,-1,-1,-1,-1,-1,-1,-1,-1,-1,-1,-1,-1,-1,-1,-1,-1,-1,-1,-1,-1,-1,-1,-1,-1,-1,-1,-1,-1,-1,-1],"loss_changes":[1.480604E0,2.24078E-1,4.2228985E-1,1.2381911E-2,9.9698104E-2,4.700266E-2,8.030319E-2,3.2956302E-3,1.1040531E-2,1.0456029E-2,6.9485515E-2,1.953092E-2,3.4997866E-2,2.7439386E-2,3.4804225E-2,3.203988E-3,3.884565E-3,6.2154755E-3,8.78675E-3,6.6885203E-3,5.8428436E-3,3.0121256E-2,2.4771757E-2,9.665733E-3,5.9573017E-3,2.3550995E-2,1.2664184E-2,5.08177E-3,1.6705453E-2,8.115411E-3,1.0369897E-2,9.1585517E-4,2.5798036E-3,1.2562687E-3,4.72511E-3,7.0753694E-4,4.8463456E-3,4.5466432E-3,1.6544033E-3,4.63555E-3,1.0639535E-2,6.1215153E-3,6.5008877E-3,9.491061E-3,1.6702976E-2,1.644564E-2,1.5044704E-2,7.4119694E-3,0E0,0E0,0E0,5.741829E-3,0E0,2.3598596E-3,4.555105E-3,2.1743393E-3,0E0,1.0818258E-2,4.0328328E-4,1.876167E-3,4.009545E-3,1.7526597E-2,0E0,0E0,0E0,0E0,0E0,0E0,0E0,0E0,0E0,0E0,0E0,0E0,0E0,0E0,0E0,0E0,0E0,0E0,0E0,0E0,0E0,0E0,0E0,0E0,0E0,0E0,0E0,0E0,0E0,0E0,0E0,0E0,0E0,0E0,0E0,0E0,0E0,0E0,0E0,0E0,0E0,0E0,0E0,0E0,0E0,0E0,0E0,0E0,0E0,0E0,0E0,0E0,0E0],"parents":[2147483647,0,0,1,1,2,2,3,3,4,4,5,5,6,6,7,7,8,8,9,9,10,10,11,11,12,12,13,13,14,14,15,15,16,16,17,17,18,18,19,19,20,20,21,21,22,22,23,23,24,24,25,25,26,26,27,27,28,28,29,29,30,30,31,31,32,32,33,33,34,34,35,35,36,36,37,37,38,38,39,39,40,40,41,41,42,42,43,43,44,44,45,45,46,46,47,47,51,51,53,53,54,54,55,55,57,57,58,58,59,59,60,60,61,61],"right_children":[2,4,6,8,10,12,14,16,18,20,22,24,26,28,30,32,34,36,38,40,42,44,46,48,50,52,54,56,58,60,62,64,66,68,70,72,74,76,78,80,82,84,86,88,90,92,94,96,-1,-1,-1,98,-1,100,102,104,-1,106,108,110,112,114,-1,-1,-1,-1,-1,-1,-1,-1,-1,-1,-1,-1,-1,-1,-1,-1,-1,-1,-1,-1,-1,-1,-1,-1,-1,-1,-1,-1,-1,-1,-1,-1,-1,-1,-1,-1,-1,-1,-1,-1,-1,-1,-1,-1,-1,-1,-1,-1,-1,-1,-1,-1,-1],"split_conditions":[3.09E1,2.12E1,2.5E1,1.49E1,2.6E1,2.4E1,2.7826086E-1,1.63E1,2.3870967E-1,5.0498337E-1,2.41E1,1.4350846E0,3.1451613E-1,3.04E1,3E1,9.1629076E-1,1E1,2.5E1,1.89E1,2.46E1,2.7E0,1.6463415E-1,3E1,1.5040774E0,3.52E1,1.3083328E0,1.4350846E0,3.3E1,2.7567568E-1,3.23E1,6.767956E-1,3.482143E-1,4E-1,2.7E1,1.7E1,1.99E1,7.8845733E-1,4.7000363E-1,2.4E1,1.3609766E0,2.5E1,2.547619E-1,2.521739E-1,1.2809339E0,2.031746E-1,2.62E1,2.94E1,6.6E0,6.306811E-3,-2.3732335E-5,8.86501E-3,1.0296195E0,8.399692E-3,2.6E0,3.1E1,1.4350846E0,-2.788399E-3,2.8E0,3.28E1,3.22E1,1.3862944E0,3.17E1,1.5032463E-2,-3.6797163E-3,-3.161744E-3,-1.8280944E-3,2.456357E-3,-1.7442558E-3,1.3394724E-3,-8.947832E-4,-3.0584533E-3,-3.5086137E-3,-2.3523702E-3,5.553983E-4,-2.1068125E-3,9.0431963E-4,-2.7161876E-3,-4.116133E-4,3.6148697E-3,-2.4896355E-3,2.6620717E-3,-1.8926746E-3,1.2676012E-3,4.394013E-3,-1.6486878E-4,-2.2900116E-3,9.324937E-4,-1.2251257E-3,2.8879568E-3,3.2447376E-3,1.4967781E-4,-1.4964723E-3,2.6945765E-3,3.2786527E-3,7.1857944E-3,-1.277788E-3,1.3970665E-3,7.627318E-4,-3.700927E-3,3.1781425E-3,9.521562E-3,3.5424556E-3,-3.2094344E-3,3.7077374E-3,9.13023E-4,4.3008807E-3,9.108086E-3,-5.3993985E-4,1.3043598E-3,5.224685E-3,2.6437975E-4,1.0219507E-2,6.786567E-3,8.86595E-4,1.1204563E-2],"split_indices":[0,2,1,0,1,1,5,2,5,8,0,7,5,2,1,7,0,1,2,0,3,5,1,6,0,6,7,1,5,0,8,8,3,1,2,2,6,7,1,7,1,5,5,7,5,2,2,3,0,0,0,7,0,3,0,6,0,3,0,0,7,0,0,0,0,0,0,0,0,0,0,0,0,0,0,0,0,0,0,0,0,0,0,0,0,0,0,0,0,0,0,0,0,0,0,0,0,0,0,0,0,0,0,0,0,0,0,0,0,0,0,0,0,0,0],"split_type":[0,0,0,0,0,0,0,0,0,0,0,0,0,0,0,0,0,0,0,0,0,0,0,0,0,0,0,0,0,0,0,0,0,0,0,0,0,0,0,0,0,0,0,0,0,0,0,0,0,0,0,0,0,0,0,0,0,0,0,0,0,0,0,0,0,0,0,0,0,0,0,0,0,0,0,0,0,0,0,0,0,0,0,0,0,0,0,0,0,0,0,0,0,0,0,0,0,0,0,0,0,0,0,0,0,0,0,0,0,0,0,0,0,0,0],"sum_hessian":[1.33E3,1.057E3,2.73E2,5.78E2,4.79E2,9.5E1,1.78E2,4E2,1.78E2,2.01E2,2.78E2,6.8E1,2.7E1,5.5E1,1.23E2,3.14E2,8.6E1,1.59E2,1.9E1,1.66E2,3.5E1,1.76E2,1.02E2,6.5E1,3E0,1.2E1,1.5E1,1.5E1,4E1,7.5E1,4.8E1,3.09E2,5E0,4E0,8.2E1,6.3E1,9.6E1,1.3E1,6E0,1.15E2,5.1E1,1.1E1,2.4E1,1.07E2,6.9E1,5.7E1,4.5E1,6.4E1,1E0,1E0,2E0,1E1,2E0,1.3E1,2E0,1.4E1,1E0,3.7E1,3E0,6E0,6.9E1,2E1,2.8E1,1.48E2,1.61E2,4E0,1E0,1E0,3E0,1.3E1,6.9E1,4.6E1,1.7E1,7E0,8.9E1,5E0,8E0,1E0,5E0,1.14E2,1E0,3.7E1,1.4E1,4E0,7E0,1.4E1,1E1,1.02E2,5E0,3.3E1,3.6E1,1.1E1,4.6E1,2.6E1,1.9E1,5.2E1,1.2E1,5E0,5E0,2E0,1.1E1,1E0,1E0,9E0,5E0,9E0,2.8E1,2E0,1E0,5E0,1E0,5.6E1,1.3E1,2E0,1.8E1],"tree_param":{"num_deleted":"0","num_feature":"10","num_nodes":"115","size_leaf_vector":"1"}},{"base_weights":[-3.3175977E-4,-1.5776595E-2,5.4308128E-2,-2.062009E-2,1.1584726E-2,4.4796314E-2,1.01726584E-1,-2.6667723E-2,-1.1507245E-2,7.5434044E-2,8.52786E-3,3.0217124E-2,5.9487242E-2,8.239311E-2,1.1762702E-2,-3.093843E-2,-2.3256272E-2,-1.3121811E-2,2.3218757E-2,2.8978182E-2,1.0303139E-2,1.540291E-2,-1.631407E-2,6.8815467E-3,3.7839692E-2,5.4758485E-2,1.194361E-2,-1.8209716E-3,8.979525E-2,-2.8242242E-2,-3.532054E-2,-2.1539193E-2,-2.941715E-2,-1.6404316E-2,2.622944E-3,3.2699574E-2,-1.3398589E-2,8.0860517E-4,3.3246875E-3,1.2689241E-2,5.1129702E-2,-3.6536556E-2,-1.1398036E-2,2.1516692E-2,-1.930342E-2,5.2900475E-2,2.3528196E-2,3.103415E-2,6.487643E-2,-1.2541563E-5,-2.6060417E-4,9.340993E-2,5.136069E-4,-2.8793525E-3,8.0009317E-4,-6.3255883E-4,-3.7469824E-3,-2.3133967E-3,-6.4880954E-4,-3.484999E-3,-1.6265692E-3,-2.1010693E-3,-7.948793E-4,2.4830396E-3,-4.1928663E-4,-1.2516583E-3,3.7510637E-3,1.3419826E-3,-2.6811336E-3,4.1348524E-3,8.7977265E-4,9.842612E-4,6.325163E-3,-4.022636E-3,-9.043774E-4,-3.181973E-4,-3.1540447E-3,5.0576567E-4,5.371224E-3,1.5793327E-3,-2.392979E-3,6.8216794E-3,3.2147688E-3,6.1613694E-3,1.3665191E-3,3.7229992E-3,-4.9530137E-3,1.0358184E-2,4.7129896E-3,9.664207E-3,1.2767486E-3],"categories":[],"categories_nodes":[],"categories_segments":[],"categories_sizes":[],"default_left":[0,0,0,0,0,0,0,0,0,0,0,0,0,0,0,0,0,0,0,0,0,0,0,0,0,0,0,0,0,0,0,0,0,0,0,0,0,0,0,0,0,0,0,0,0,0,0,0,0,0,0,0,0,0,0,0,0,0,0,0,0,0,0,0,0,0,0,0,0,0,0,0,0,0,0,0,0,0,0,0,0,0,0,0,0,0,0,0,0,0,0],"id":5,"left_children":[1,3,5,7,9,11,13,15,17,19,21,23,25,27,-1,29,31,33,35,37,-1,39,41,43,45,47,-1,49,51,53,55,57,59,61,63,65,67,-1,-1,69,71,73,75,77,79,81,83,85,87,-1,-1,89,-1,-1,-1,-1,-1,-1,-1,-1,-1,-1,-1,-1,-1,-1,-1,-1,-1,-1,-1,-1,-1,-1,-1,-1,-1,-1,-1,-1,-1,-1,-1,-1,-1,-1,-1,-1,-1,-1,-1],"loss_changes":[1.1181859E0,1.3713664E-1,1.2714535E-1,4.8080713E-2,2.98046E-2,5.067703E-2,5.0640404E-3,6.9585145E-3,2.00404E-2,5.9887506E-3,2.5869712E-2,2.1974243E-2,2.776134E-2,1.5747607E-2,0E0,1.7317235E-3,2.5082529E-3,1.7459936E-2,5.9927264E-3,8.7892404E-5,0E0,1.0791386E-2,2.8642332E-3,1.2678412E-2,1.9016325E-2,2.5351346E-2,0E0,3.6665533E-6,6.558642E-3,3.1874552E-3,4.997723E-3,5.514644E-3,3.8630217E-3,1.0699853E-2,9.034456E-3,3.2974966E-3,1.7986378E-3,0E0,0E0,1.2015838E-2,3.381269E-3,2.4485867E-4,4.533395E-3,1.0856404E-2,2.3263772E-3,1.2110516E-2,1.793991E-2,1.9813903E-2,4.938227E-2,0E0,0E0,4.500374E-3,0E0,0E0,0E0,0E0,0E0,0E0,0E0,0E0,0E0,0E0,0E0,0E0,0E0,0E0,0E0,0E0,0E0,0E0,0E0,0E0,0E0,0E0,0E0,0E0,0E0,0E0,0E0,0E0,0E0,0E0,0E0,0E0,0E0,0E0,0E0,0E0,0E0,0E0,0E0],"parents":[2147483647,0,0,1,1,2,2,3,3,4,4,5,5,6,6,7,7,8,8,9,9,10,10,11,11,12,12,13,13,15,15,16,16,17,17,18,18,19,19,21,21,22,22,23,23,24,24,25,25,27,27,28,28,29,29,30,30,31,31,32,32,33,33,34,34,35,35,36,36,39,39,40,40,41,41,42,42,43,43,44,44,45,45,46,46,47,47,48,48,51,51],"right_children":[2,4,6,8,10,12,14,16,18,20,22,24,26,28,-1,30,32,34,36,38,-1,40,42,44,46,48,-1,50,52,54,56,58,60,62,64,66,68,-1,-1,70,72,74,76,78,80,82,84,86,88,-1,-1,90,-1,-1,-1,-1,-1,-1,-1,-1,-1,-1,-1,-1,-1,-1,-1,-1,-1,-1,-1,-1,-1,-1,-1,-1,-1,-1,-1,-1,-1,-1,-1,-1,-1,-1,-1,-1,-1,-1,-1],"split_conditions":[2.94E1,2.41E1,4.46E1,1.99E1,2.7567568E-1,5.858896E-1,4.413793E-1,1.39E1,1.2809339E0,1.254902E-1,5.940594E-2,2.93E1,1.5040774E0,3.44E1,1.1762702E-2,1.1492537E-1,4.5614034E-1,2.77E1,2.32E1,2.61E1,1.0303139E-2,4.9586777E-2,8.139535E-2,3.2E1,1.9E0,3.64E1,1.194361E-2,4.62E1,4.3E-1,1.452514E-1,5.3062826E-1,2.15625E-1,1.81E1,1.6333333E-1,1.89E1,3.939394E-1,2.74E1,8.0860517E-4,3.3246875E-3,1.24223605E-2,1.7638889E-1,1.9E0,1.3076924E-1,2.1E0,1.4375E-1,1.2237754E0,1.5503876E-2,3.6E1,3.88E1,-1.2541563E-5,-2.6060417E-4,3.75E1,5.136069E-4,-2.8793525E-3,8.0009317E-4,-6.3255883E-4,-3.7469824E-3,-2.3133967E-3,-6.4880954E-4,-3.484999E-3,-1.6265692E-3,-2.1010693E-3,-7.948793E-4,2.4830396E-3,-4.1928663E-4,-1.2516583E-3,3.7510637E-3,1.3419826E-3,-2.6811336E-3,4.1348524E-3,8.7977265E-4,9.842612E-4,6.325163E-3,-4.022636E-3,-9.043774E-4,-3.181973E-4,-3.1540447E-3,5.0576567E-4,5.371224E-3,1.5793327E-3,-2.392979E-3,6.8216794E-3,3.2147688E-3,6.1613694E-3,1.3665191E-3,3.7229992E-3,-4.9530137E-3,1.0358184E-2,4.7129896E-3,9.664207E-3,1.2767486E-3],"split_indices":[0,0,0,2,8,8,5,2,7,5,9,2,7,2,0,5,8,2,0,0,0,9,9,0,4,0,0,0,5,9,6,5,2,5,0,8,2,0,0,9,5,4,9,4,5,6,9,0,0,0,0,2,0,0,0,0,0,0,0,0,0,0,0,0,0,0,0,0,0,0,0,0,0,0,0,0,0,0,0,0,0,0,0,0,0,0,0,0,0,0,0],"split_type":[0,0,0,0,0,0,0,0,0,0,0,0,0,0,0,0,0,0,0,0,0,0,0,0,0,0,0,0,0,0,0,0,0,0,0,0,0,0,0,0,0,0,0,0,0,0,0,0,0,0,0,0,0,0,0,0,0,0,0,0,0,0,0,0,0,0,0,0,0,0,0,0,0,0,0,0,0,0,0,0,0,0,0,0,0,0,0,0,0,0,0],"sum_hessian":[1.323E3,1.032E3,2.91E2,8.77E2,1.55E2,2.44E2,4.7E1,5.26E2,3.51E2,6E0,1.49E2,1.24E2,1.2E2,2.4E1,2.3E1,2.3E2,2.96E2,3.36E2,1.5E1,3E0,3E0,1.17E2,3.2E1,3.1E1,9.3E1,1.13E2,7E0,2E0,2.2E1,1.47E2,8.3E1,2.35E2,6.1E1,2.78E2,5.8E1,1.2E1,3E0,1E0,2E0,1.1E2,7E0,5E0,2.7E1,2E1,1.1E1,4.4E1,4.9E1,3.5E1,7.8E1,1E0,1E0,2.1E1,1E0,1.45E2,2E0,6E0,7.7E1,2.12E2,2.3E1,4.2E1,1.9E1,1.79E2,9.9E1,1.3E1,4.5E1,1E0,1.1E1,1E0,2E0,1.2E1,9.8E1,2E0,5E0,4E0,1E0,2E1,7E0,1.4E1,6E0,1E0,1E1,2.4E1,2E1,9E0,4E1,3.3E1,2E0,2.3E1,5.5E1,2E1,1E0],"tree_param":{"num_deleted":"0","num_feature":"10","num_nodes":"91","size_leaf_vector":"1"}},{"base_weights":[3.142225E-4,-1.3663396E-2,4.8633162E-2,-2.0973923E-2,2.9422133E-3,-8.220864E-3,6.712184E-2,-2.772842E-2,-1.622202E-2,-2.582509E-3,3.7655983E-2,-1.1506991E-2,5.2984633E-2,4.8489675E-2,9.2235975E-2,-2.8040448E-2,2.2158143E-3,-2.0828553E-2,-5.84792E-3,-1.5029044E-2,8.05575E-3,-5.726341E-5,5.9208456E-2,2.6105972E-2,-1.470357E-2,-6.1972626E-4,7.4777687E-3,3.2451294E-2,7.135228E-2,7.5675145E-2,1.1352926E-1,-2.8272994E-2,4.0182513E-3,3.1454724E-3,-1.8015396E-3,-1.1944649E-2,-2.4529701E-2,-1.3216913E-2,8.376411E-3,-1.5591248E-2,2.818546E-3,-2.2028807E-4,1.888165E-2,5.9522954E-3,-1.1969489E-2,3.9316114E-2,8.637698E-3,6.4313323E-3,5.6018373E-3,-2.8929592E-3,-1.0043572E-2,4.5058937E-3,4.3648455E-2,3.5612583E-2,9.301656E-2,6.5913536E-2,9.861341E-3,1.9387215E-3,1.1544605E-2,-2.6349751E-3,-3.1145827E-3,-1.3261813E-3,1.928919E-3,2.6670683E-3,-1.360182E-3,-2.836151E-3,-1.804429E-3,-2.1196012E-3,-6.1260804E-4,1.4258013E-3,-2.1343448E-3,-2.2378645E-3,-1.2095178E-3,-1.7864333E-4,6.645103E-3,2.8865673E-3,3.760965E-4,-2.377863E-3,4.3193283E-3,6.764398E-3,9.889421E-4,1.2066026E-3,-1.0127457E-3,-4.3286677E-4,-1.6042521E-3,3.1224075E-3,-1.3606619E-3,2.9173899E-3,7.3389234E-3,4.943685E-3,-1.07324704E-4,3.3934053E-3,9.573369E-3,4.02676E-3,7.5684525E-3],"categories":[],"categories_nodes":[],"categories_segments":[],"categories_sizes":[],"default_left":[0,0,0,0,0,0,0,0,0,0,0,0,0,0,0,0,0,0,0,0,0,0,0,0,0,0,0,0,0,0,0,0,0,0,0,0,0,0,0,0,0,0,0,0,0,0,0,0,0,0,0,0,0,0,0,0,0,0,0,0,0,0,0,0,0,0,0,0,0,0,0,0,0,0,0,0,0,0,0,0,0,0,0,0,0,0,0,0,0,0,0,0,0,0,0],"id":6,"left_children":[1,3,5,7,9,11,13,15,17,19,21,23,25,27,29,31,33,35,37,39,41,43,45,47,49,-1,-1,51,53,55,57,59,61,-1,-1,63,65,67,69,71,-1,73,75,-1,77,79,-1,-1,81,-1,83,85,87,89,91,93,-1,-1,-1,-1,-1,-1,-1,-1,-1,-1,-1,-1,-1,-1,-1,-1,-1,-1,-1,-1,-1,-1,-1,-1,-1,-1,-1,-1,-1,-1,-1,-1,-1,-1,-1,-1,-1,-1,-1],"loss_changes":[9.090556E-1,1.2679887E-1,3.180009E-1,2.2820324E-2,6.146811E-2,1.5694369E-2,1.0221565E-1,2.8464943E-3,2.0331733E-2,3.679849E-2,3.576719E-2,9.040613E-3,5.6224326E-3,4.645288E-2,2.5261581E-2,2.312854E-3,2.9328235E-3,9.439677E-3,1.4051637E-2,3.5492554E-3,1.3443497E-2,1.2777921E-2,1.17364675E-2,4.340179E-3,4.151091E-3,0E0,0E0,2.4836056E-2,3.8498282E-2,6.2631667E-3,4.979849E-3,7.981956E-4,1.047458E-3,0E0,0E0,6.0580755E-3,4.657209E-3,4.849054E-3,8.345131E-3,2.7429387E-3,0E0,9.09857E-3,9.704176E-3,0E0,1.0798452E-2,1.4335759E-2,0E0,0E0,6.3058373E-4,0E0,1.7132945E-3,1.2039255E-2,2.239658E-2,1.1210458E-2,2.0490289E-3,7.727593E-3,0E0,0E0,0E0,0E0,0E0,0E0,0E0,0E0,0E0,0E0,0E0,0E0,0E0,0E0,0E0,0E0,0E0,0E0,0E0,0E0,0E0,0E0,0E0,0E0,0E0,0E0,0E0,0E0,0E0,0E0,0E0,0E0,0E0,0E0,0E0,0E0,0E0,0E0,0E0],"parents":[2147483647,0,0,1,1,2,2,3,3,4,4,5,5,6,6,7,7,8,8,9,9,10,10,11,11,12,12,13,13,14,14,15,15,16,16,17,17,18,18,19,19,20,20,21,21,22,22,23,23,24,24,27,27,28,28,29,29,30,30,31,31,32,32,35,35,36,36,37,37,38,38,39,39,41,41,42,42,44,44,45,45,48,48,50,50,51,51,52,52,53,53,54,54,55,55],"right_children":[2,4,6,8,10,12,14,16,18,20,22,24,26,28,30,32,34,36,38,40,42,44,46,48,50,-1,-1,52,54,56,58,60,62,-1,-1,64,66,68,70,72,-1,74,76,-1,78,80,-1,-1,82,-1,84,86,88,90,92,94,-1,-1,-1,-1,-1,-1,-1,-1,-1,-1,-1,-1,-1,-1,-1,-1,-1,-1,-1,-1,-1,-1,-1,-1,-1,-1,-1,-1,-1,-1,-1,-1,-1,-1,-1,-1,-1,-1,-1],"split_conditions":[3.04E1,2.39E1,2.4E1,1.53E1,2.851852E-1,1.4350846E0,4.4E0,4.4705883E-1,2.9E1,2.6E1,2.78E1,2.6236427E-1,2.3E1,2.9E1,3E1,9.1629076E-1,1.15E1,4.7000363E-1,2.05E1,1.6049382E-1,2.1E0,2.4E1,6.117647E-1,5.4054055E-2,3.16E1,-6.1972626E-4,7.4777687E-3,2.3043478E-1,2.3E0,6.7E0,1.8354431E-1,1.15686275E-1,3.1E1,3.1454724E-3,-1.8015396E-3,1.55E1,4.1968912E-1,1.1269841E-1,3.5E1,1.0986123E0,2.818546E-3,1.4350846E0,2.8E0,5.9522954E-3,3.3E1,2.9E0,8.637698E-3,6.4313323E-3,2.3E1,-2.8929592E-3,3.1304348E-1,3.18E1,3.4013607E-2,3.3E1,3.1E1,1.1939225E0,9.861341E-3,1.9387215E-3,1.1544605E-2,-2.6349751E-3,-3.1145827E-3,-1.3261813E-3,1.928919E-3,2.6670683E-3,-1.360182E-3,-2.836151E-3,-1.804429E-3,-2.1196012E-3,-6.1260804E-4,1.4258013E-3,-2.1343448E-3,-2.2378645E-3,-1.2095178E-3,-1.7864333E-4,6.645103E-3,2.8865673E-3,3.760965E-4,-2.377863E-3,4.3193283E-3,6.764398E-3,9.889421E-4,1.2066026E-3,-1.0127457E-3,-4.3286677E-4,-1.6042521E-3,3.1224075E-3,-1.3606619E-3,2.9173899E-3,7.3389234E-3,4.943685E-3,-1.07324704E-4,3.3934053E-3,9.573369E-3,4.02676E-3,7.5684525E-3],"split_indices":[2,2,1,2,5,7,3,5,1,1,2,7,1,1,1,7,2,7,2,9,3,2,8,9,2,0,0,5,3,3,5,5,1,0,0,2,8,5,1,6,0,6,3,0,1,3,0,0,1,0,5,2,9,2,2,6,0,0,0,0,0,0,0,0,0,0,0,0,0,0,0,0,0,0,0,0,0,0,0,0,0,0,0,0,0,0,0,0,0,0,0,0,0,0,0],"split_type":[0,0,0,0,0,0,0,0,0,0,0,0,0,0,0,0,0,0,0,0,0,0,0,0,0,0,0,0,0,0,0,0,0,0,0,0,0,0,0,0,0,0,0,0,0,0,0,0,0,0,0,0,0,0,0,0,0,0,0,0,0,0,0,0,0,0,0,0,0,0,0,0,0,0,0,0,0,0,0,0,0,0,0,0,0,0,0,0,0,0,0,0,0,0,0],"sum_hessian":[1.344E3,1.043E3,3.01E2,7.24E2,3.19E2,7.4E1,2.27E2,2.97E2,4.27E2,2.76E2,4.3E1,7.1E1,3E0,1.32E2,9.5E1,2.94E2,3E0,2.95E2,1.32E2,1.27E2,1.49E2,1.6E1,2.7E1,5E0,6.6E1,1E0,2E0,7.9E1,5.3E1,5.6E1,3.9E1,2.92E2,2E0,1E0,2E0,8.8E1,2.07E2,8.7E1,4.5E1,1.26E2,1E0,8.5E1,6.4E1,2E0,1.4E1,1.7E1,1E1,1E0,4E0,1.5E1,5.1E1,2.3E1,5.6E1,2.1E1,3.2E1,4.2E1,1.4E1,1E0,3.8E1,1.81E2,1.11E2,1E0,1E0,3E0,8.5E1,1.28E2,7.9E1,4E1,4.7E1,3.8E1,7E0,4.1E1,8.5E1,8.4E1,1E0,3.8E1,2.6E1,1.2E1,2E0,8E0,9E0,3E0,1E0,2.7E1,2.4E1,9E0,1.4E1,3.9E1,1.7E1,1.5E1,6E0,2E0,3E1,1.3E1,2.9E1],"tree_param":{"num_deleted":"0","num_feature":"10","num_nodes":"95","size_leaf_vector":"1"}},{"base_weights":[2.5577992E-4,-1.1656999E-2,4.980638E-2,-2.1561645E-2,1.3533194E-3,-7.282212E-3,6.723073E-2,-2.4110107E-2,-1.4758756E-2,-1.21801775E-2,1.535574E-2,-9.084141E-3,5.0416756E-3,5.4759264E-2,9.924297E-2,-2.4373952E-2,2.2447992E-3,-1.784482E-2,7.693446E-3,-1.5420792E-2,1.1793317E-3,4.8297383E-3,3.086342E-2,-1.3336497E-2,9.036662E-3,3.377242E-2,7.258195E-2,6.983669E-2,1.1321105E-1,-2.6521085E-2,-2.0833055E-2,-2.5622617E-2,-1.2691447E-2,1.4879769E-2,-2.6568368E-3,-1.7988468E-2,-5.342292E-3,-1.0215312E-2,1.3513539E-2,-5.654524E-3,1.586784E-2,4.0989466E-2,1.0596157E-2,-3.2409593E-3,-1.8133093E-2,4.355849E-3,1.9384504E-3,4.685113E-2,1.5644347E-2,-2.0052008E-2,7.531954E-2,5.983798E-3,8.075286E-2,3.8284816E-2,1.19038984E-1,-2.6774898E-3,4.9084885E-4,-2.4116724E-3,-1.4076374E-3,-2.7173136E-3,2.102674E-4,-5.4609776E-4,-2.0635668E-3,2.7451036E-3,4.3843235E-4,2.2184877E-3,-1.86766E-3,-1.6431842E-3,9.1244833E-4,1.7200209E-3,-1.473562E-3,5.6521775E-4,4.0684007E-3,2.237342E-3,-8.585925E-4,2.7506012E-3,-1.2857156E-3,1.8857692E-3,5.1325513E-3,-2.4707848E-4,4.426399E-3,3.6449145E-4,-2.049604E-3,8.930903E-4,-2.113719E-3,-1.0107328E-3,7.719034E-4,5.2017863E-3,-1.1362215E-3,-2.509134E-4,3.3965104E-3,7.4153993E-4,-3.7493412E-3,3.3961434E-3,7.907757E-3,4.0363153E-3,-1.893037E-3,2.7181043E-3,9.029103E-3,7.843929E-3,-1.24644E-4,2.7943314E-3,1.2107615E-2],"categories":[],"categories_nodes":[],"categories_segments":[],"categories_sizes":[],"default_left":[0,0,0,0,0,0,0,0,0,0,0,0,0,0,0,0,0,0,0,0,0,0,0,0,0,0,0,0,0,0,0,0,0,0,0,0,0,0,0,0,0,0,0,0,0,0,0,0,0,0,0,0,0,0,0,0,0,0,0,0,0,0,0,0,0,0,0,0,0,0,0,0,0,0,0,0,0,0,0,0,0,0,0,0,0,0,0,0,0,0,0,0,0,0,0,0,0,0,0,0,0,0,0],"id":7,"left_children":[1,3,5,7,9,11,13,15,17,19,21,23,-1,25,27,29,-1,31,33,35,37,39,41,43,45,47,49,51,53,55,57,59,61,63,-1,65,67,69,71,73,75,77,79,81,83,-1,85,87,89,91,93,95,97,99,101,-1,-1,-1,-1,-1,-1,-1,-1,-1,-1,-1,-1,-1,-1,-1,-1,-1,-1,-1,-1,-1,-1,-1,-1,-1,-1,-1,-1,-1,-1,-1,-1,-1,-1,-1,-1,-1,-1,-1,-1,-1,-1,-1,-1,-1,-1,-1,-1],"loss_changes":[7.8270864E-1,1.377833E-1,2.5613564E-1,1.0167658E-2,8.792633E-2,6.8001277E-3,7.321578E-2,5.9521496E-3,1.1777833E-2,1.0235336E-2,3.7068255E-2,4.743885E-3,0E0,5.1410735E-2,1.427418E-2,2.777487E-3,0E0,5.6069344E-3,5.565876E-3,4.8207827E-3,6.7436085E-3,1.5944239E-2,1.844658E-2,2.314018E-3,2.8560832E-3,1.5389286E-2,2.1037102E-2,1.3457373E-2,1.0725886E-2,2.2772849E-3,3.4322664E-3,2.5504753E-3,5.1143896E-3,2.2545839E-3,0E0,4.5886673E-3,6.567133E-3,3.3516204E-3,4.682775E-3,6.025538E-3,2.2752175E-2,1.2986183E-2,1.4187303E-2,2.0945834E-3,2.8717685E-3,0E0,8.439666E-4,1.2321174E-2,1.0062788E-2,1.715239E-3,8.971244E-3,4.1902214E-3,6.232403E-3,6.4471974E-3,2.5552213E-3,0E0,0E0,0E0,0E0,0E0,0E0,0E0,0E0,0E0,0E0,0E0,0E0,0E0,0E0,0E0,0E0,0E0,0E0,0E0,0E0,0E0,0E0,0E0,0E0,0E0,0E0,0E0,0E0,0E0,0E0,0E0,0E0,0E0,0E0,0E0,0E0,0E0,0E0,0E0,0E0,0E0,0E0,0E0,0E0,0E0,0E0,0E0,0E0],"parents":[2147483647,0,0,1,1,2,2,3,3,4,4,5,5,6,6,7,7,8,8,9,9,10,10,11,11,13,13,14,14,15,15,17,17,18,18,19,19,20,20,21,21,22,22,23,23,24,24,25,25,26,26,27,27,28,28,29,29,30,30,31,31,32,32,33,33,35,35,36,36,37,37,38,38,39,39,40,40,41,41,42,42,43,43,44,44,46,46,47,47,48,48,49,49,50,50,51,51,52,52,53,53,54,54],"right_children":[2,4,6,8,10,12,14,16,18,20,22,24,-1,26,28,30,-1,32,34,36,38,40,42,44,46,48,50,52,54,56,58,60,62,64,-1,66,68,70,72,74,76,78,80,82,84,-1,86,88,90,92,94,96,98,100,102,-1,-1,-1,-1,-1,-1,-1,-1,-1,-1,-1,-1,-1,-1,-1,-1,-1,-1,-1,-1,-1,-1,-1,-1,-1,-1,-1,-1,-1,-1,-1,-1,-1,-1,-1,-1,-1,-1,-1,-1,-1,-1,-1,-1,-1,-1,-1,-1],"split_conditions":[3.09E1,1.81E1,2.4E1,2.9E1,2.7E1,1.5040774E0,3.1E1,1.2237754E0,8.7546873E-1,5.224719E-1,2.41E1,7.27003E-1,5.0416756E-3,4.4E0,3.0454546E-1,1.1E0,2.2447992E-3,1.15E1,1.5833333E-1,1.3083328E0,2.521739E-1,1.6463415E-1,1.2237754E0,2.2E1,5E0,1.2237754E0,2.83E1,3.05E1,3.17E1,4.2586207E-1,2.5E1,1.0647107E0,1.73E1,1.47E1,-2.6568368E-3,1.59E1,2.4E1,9.5551145E-1,2.6E1,1.85E1,4.8913044E-1,1.825E-1,3.2E1,1.3609766E0,2.5E0,4.355849E-3,1.0647107E0,4.3E0,2.547619E-1,3.52E1,3.54E1,3.1E1,2E0,3.1E1,3.3647224E-1,-2.6774898E-3,4.9084885E-4,-2.4116724E-3,-1.4076374E-3,-2.7173136E-3,2.102674E-4,-5.4609776E-4,-2.0635668E-3,2.7451036E-3,4.3843235E-4,2.2184877E-3,-1.86766E-3,-1.6431842E-3,9.1244833E-4,1.7200209E-3,-1.473562E-3,5.6521775E-4,4.0684007E-3,2.237342E-3,-8.585925E-4,2.7506012E-3,-1.2857156E-3,1.8857692E-3,5.1325513E-3,-2.4707848E-4,4.426399E-3,3.6449145E-4,-2.049604E-3,8.930903E-4,-2.113719E-3,-1.0107328E-3,7.719034E-4,5.2017863E-3,-1.1362215E-3,-2.509134E-4,3.3965104E-3,7.4153993E-4,-3.7493412E-3,3.3961434E-3,7.907757E-3,4.0363153E-3,-1.893037E-3,2.7181043E-3,9.029103E-3,7.843929E-3,-1.24644E-4,2.7943314E-3,1.2107615E-2],"split_indices":[0,0,1,1,1,6,1,7,7,8,0,8,0,3,5,3,0,0,5,6,5,5,6,1,3,6,2,2,0,5,1,6,2,0,0,2,1,6,1,0,8,5,1,6,3,0,6,3,5,0,0,0,3,0,7,0,0,0,0,0,0,0,0,0,0,0,0,0,0,0,0,0,0,0,0,0,0,0,0,0,0,0,0,0,0,0,0,0,0,0,0,0,0,0,0,0,0,0,0,0,0,0,0],"split_type":[0,0,0,0,0,0,0,0,0,0,0,0,0,0,0,0,0,0,0,0,0,0,0,0,0,0,0,0,0,0,0,0,0,0,0,0,0,0,0,0,0,0,0,0,0,0,0,0,0,0,0,0,0,0,0,0,0,0,0,0,0,0,0,0,0,0,0,0,0,0,0,0,0,0,0,0,0,0,0,0,0,0,0,0,0,0,0,0,0,0,0,0,0,0,0,0,0,0,0,0,0,0,0],"sum_hessian":[1.324E3,1.068E3,2.56E2,6.06E2,4.62E2,6E1,1.96E2,4.39E2,1.67E2,2.35E2,2.27E2,5.9E1,1E0,1.43E2,5.3E1,4.37E2,2E0,1.47E2,2E1,1.89E2,4.6E1,1.36E2,9.1E1,4.8E1,1.1E1,6.7E1,7.6E1,1.9E1,3.4E1,2.68E2,1.69E2,5.7E1,9E1,1.7E1,3E0,1.5E2,3.9E1,2.4E1,2.2E1,7E1,6.6E1,6E1,3.1E1,1.6E1,3.2E1,1E0,1E1,3.8E1,2.9E1,2E0,7.4E1,3E0,1.6E1,3E0,3.1E1,2.66E2,2E0,1.12E2,5.7E1,5.4E1,3E0,4.8E1,4.2E1,7E0,1E1,2E0,1.48E2,2.2E1,1.7E1,3E0,2.1E1,1.8E1,4E0,6E0,6.4E1,4.7E1,1.9E1,2E1,4E1,2.3E1,8E0,1.2E1,4E0,3E0,2.9E1,3E0,7E0,3.5E1,3E0,1.5E1,1.4E1,1E0,1E0,7E0,6.7E1,1E0,2E0,3E0,1.3E1,1E0,2E0,1E0,3E1],"tree_param":{"num_deleted":"0","num_feature":"10","num_nodes":"103","size_leaf_vector":"1"}},{"base_weights":[6.1927177E-4,-1.0856638E-2,4.52971E-2,-1.5354769E-2,8.303031E-3,2.3179451E-2,8.310766E-2,-2.0039197E-2,-8.4984E-3,-6.806749E-3,2.680844E-2,-2.4500377E-3,3.788043E-2,6.889548E-2,1.06460005E-1,-2.240231E-2,-1.648334E-2,-1.2197396E-2,5.2272156E-3,-1.232655E-2,5.1885676E-3,2.383028E-2,7.326678E-2,-5.823422E-3,6.808325E-3,1.5451178E-2,5.5644073E-2,4.5750797E-2,7.890201E-2,1.0901906E-2,8.4465666E-4,2.7491339E-3,-2.2578564E-2,-1.9558886E-2,-8.046663E-3,-1.3397129E-2,1.7923186E-2,-3.0549578E-3,2.2954123E-2,-2.489443E-2,-6.512556E-3,-1.5403651E-2,1.749737E-2,1.3843562E-2,3.695169E-2,1.9323099E-3,8.192194E-3,-8.7066E-3,8.335552E-3,3.86442E-5,2.411952E-2,5.9475802E-2,-1.3827017E-2,7.404783E-2,3.051142E-2,-6.611232E-4,8.104444E-2,3.9418004E-4,1.8190034E-5,-2.2949928E-3,-1.0701747E-3,-2.0199756E-3,1.8790646E-3,9.443907E-5,-2.0448712E-3,-1.4347401E-3,1.2364602E-3,2.9555757E-3,-2.294892E-3,-2.3095128E-3,1.1135986E-4,3.0404306E-3,-3.9331918E-3,-1.0263347E-3,-2.6495853E-3,2.024511E-3,-9.0580725E-4,8.271555E-4,-2.5700887E-3,-2.8639352E-3,2.8717702E-3,6.744613E-3,9.088274E-4,4.491178E-3,-1.1660716E-3,8.7018666E-4,-1.160796E-3,6.215452E-3,-3.2617972E-4,2.4707168E-3,-3.6968973E-3,-2.0101641E-5,4.0770466E-3,5.311765E-3,8.8190455E-3,-3.5618742E-3,5.309805E-4,2.4263964E-3,8.91086E-3,1.3897892E-3,4.1888845E-3,2.0693094E-3,8.348371E-3],"categories":[],"categories_nodes":[],"categories_segments":[],"categories_sizes":[],"default_left":[0,0,0,0,0,0,0,0,0,0,0,0,0,0,0,0,0,0,0,0,0,0,0,0,0,0,0,0,0,0,0,0,0,0,0,0,0,0,0,0,0,0,0,0,0,0,0,0,0,0,0,0,0,0,0,0,0,0,0,0,0,0,0,0,0,0,0,0,0,0,0,0,0,0,0,0,0,0,0,0,0,0,0,0,0,0,0,0,0,0,0,0,0,0,0,0,0,0,0,0,0,0,0],"id":8,"left_children":[1,3,5,7,9,11,13,15,17,19,21,23,25,27,29,31,33,35,37,39,41,43,45,47,-1,49,51,53,55,-1,-1,57,59,61,63,65,67,69,71,73,75,77,79,81,83,-1,-1,85,87,89,91,93,95,97,99,-1,101,-1,-1,-1,-1,-1,-1,-1,-1,-1,-1,-1,-1,-1,-1,-1,-1,-1,-1,-1,-1,-1,-1,-1,-1,-1,-1,-1,-1,-1,-1,-1,-1,-1,-1,-1,-1,-1,-1,-1,-1,-1,-1,-1,-1,-1,-1],"loss_changes":[6.824077E-1,9.1394976E-2,2.2554195E-1,2.7387097E-2,5.6664236E-2,6.52755E-2,2.585417E-2,3.9078146E-3,1.7833604E-2,7.4796733E-3,1.0844842E-2,1.5624375E-2,4.2967007E-2,1.1444032E-2,8.108735E-3,1.4052689E-3,5.2137263E-3,1.0213841E-2,1.1081422E-2,5.4642297E-3,9.394283E-3,1.0888923E-2,7.5146556E-4,2.6035907E-3,0E0,6.679124E-3,1.706022E-2,7.2277375E-3,8.596897E-3,0E0,0E0,8.468547E-6,1.0819882E-3,4.0907003E-3,6.3752388E-3,6.689254E-3,5.9081977E-3,4.369725E-3,1.2332878E-2,2.9039755E-4,3.8614322E-3,3.6256348E-3,1.2728849E-2,1.23867085E-2,1.484118E-2,0E0,0E0,2.7274378E-3,7.0684664E-3,1.8258942E-2,1.2966914E-2,5.9047192E-3,1.857226E-3,3.0863546E-3,2.442141E-3,0E0,4.6025813E-3,0E0,0E0,0E0,0E0,0E0,0E0,0E0,0E0,0E0,0E0,0E0,0E0,0E0,0E0,0E0,0E0,0E0,0E0,0E0,0E0,0E0,0E0,0E0,0E0,0E0,0E0,0E0,0E0,0E0,0E0,0E0,0E0,0E0,0E0,0E0,0E0,0E0,0E0,0E0,0E0,0E0,0E0,0E0,0E0,0E0,0E0],"parents":[2147483647,0,0,1,1,2,2,3,3,4,4,5,5,6,6,7,7,8,8,9,9,10,10,11,11,12,12,13,13,14,14,15,15,16,16,17,17,18,18,19,19,20,20,21,21,22,22,23,23,25,25,26,26,27,27,28,28,31,31,32,32,33,33,34,34,35,35,36,36,37,37,38,38,39,39,40,40,41,41,42,42,43,43,44,44,47,47,48,48,49,49,50,50,51,51,52,52,53,53,54,54,56,56],"right_children":[2,4,6,8,10,12,14,16,18,20,22,24,26,28,30,32,34,36,38,40,42,44,46,48,-1,50,52,54,56,-1,-1,58,60,62,64,66,68,70,72,74,76,78,80,82,84,-1,-1,86,88,90,92,94,96,98,100,-1,102,-1,-1,-1,-1,-1,-1,-1,-1,-1,-1,-1,-1,-1,-1,-1,-1,-1,-1,-1,-1,-1,-1,-1,-1,-1,-1,-1,-1,-1,-1,-1,-1,-1,-1,-1,-1,-1,-1,-1,-1,-1,-1,-1,-1,-1,-1],"split_conditions":[3.09E1,2.41E1,2.8E1,1.95E1,2.7E1,2.4E1,3.2E1,2.7E1,3.1E1,2.5E1,5.913978E-1,1.4350846E0,2.3E0,3.6E1,3.75E1,2E1,6.931472E-1,1.2809339E0,4.2735043E-1,1.3E0,2.59E1,2.94E1,2.56E1,6.5E0,6.808325E-3,3.3472802E-2,8.813559E-2,4.9491525E-1,3.6220473E-1,1.0901906E-2,8.4465666E-4,1.28E1,1.9E1,1.8128654E-1,4.296875E-1,5.224719E-1,2.28E1,2.02E1,3.6E1,2.44E1,2.28E1,2.64E1,1.5822785E-2,2.7567568E-1,3.3E1,1.9323099E-3,8.192194E-3,2.96E1,3.16E1,3.58E1,4.86631E-1,3.6E0,2.71E1,2.74E1,4.1E0,-6.611232E-4,3.04E1,3.9418004E-4,1.8190034E-5,-2.2949928E-3,-1.0701747E-3,-2.0199756E-3,1.8790646E-3,9.443907E-5,-2.0448712E-3,-1.4347401E-3,1.2364602E-3,2.9555757E-3,-2.294892E-3,-2.3095128E-3,1.1135986E-4,3.0404306E-3,-3.9331918E-3,-1.0263347E-3,-2.6495853E-3,2.024511E-3,-9.0580725E-4,8.271555E-4,-2.5700887E-3,-2.8639352E-3,2.8717702E-3,6.744613E-3,9.088274E-4,4.491178E-3,-1.1660716E-3,8.7018666E-4,-1.160796E-3,6.215452E-3,-3.2617972E-4,2.4707168E-3,-3.6968973E-3,-2.0101641E-5,4.0770466E-3,5.311765E-3,8.8190455E-3,-3.5618742E-3,5.309805E-4,2.4263964E-3,8.91086E-3,1.3897892E-3,4.1888845E-3,2.0693094E-3,8.348371E-3],"split_indices":[0,0,1,2,1,1,1,1,1,1,8,7,4,0,2,1,7,7,8,4,0,2,0,3,0,9,9,8,8,0,0,0,0,9,8,8,0,2,1,0,2,2,9,8,2,0,0,2,2,0,8,4,2,2,3,0,2,0,0,0,0,0,0,0,0,0,0,0,0,0,0,0,0,0,0,0,0,0,0,0,0,0,0,0,0,0,0,0,0,0,0,0,0,0,0,0,0,0,0,0,0,0,0],"split_type":[0,0,0,0,0,0,0,0,0,0,0,0,0,0,0,0,0,0,0,0,0,0,0,0,0,0,0,0,0,0,0,0,0,0,0,0,0,0,0,0,0,0,0,0,0,0,0,0,0,0,0,0,0,0,0,0,0,0,0,0,0,0,0,0,0,0,0,0,0,0,0,0,0,0,0,0,0,0,0,0,0,0,0,0,0,0,0,0,0,0,0,0,0,0,0,0,0,0,0,0,0,0,0],"sum_hessian":[1.329E3,1.058E3,2.71E2,8.57E2,2.01E2,1.72E2,9.9E1,5.08E2,3.49E2,1.11E2,9E1,6.3E1,1.09E2,6.4E1,3.5E1,3.02E2,2.06E2,2.75E2,7.4E1,7.6E1,3.5E1,8.6E1,4E0,6.1E1,2E0,4.9E1,6E1,2.1E1,4.3E1,3.4E1,1E0,2E0,3E2,1.5E2,5.6E1,2.65E2,1E1,5.1E1,2.3E1,2.3E1,5.3E1,1.3E1,2.2E1,5E1,3.6E1,1E0,3E0,5.1E1,1E1,1.8E1,3.1E1,5.7E1,3E0,6E0,1.5E1,1E0,4.2E1,1E0,1E0,2.9E2,1E1,1.48E2,2E0,3.3E1,2.3E1,2.56E2,9E0,8E0,2E0,8E0,4.3E1,2.1E1,2E0,3E0,2E1,4E0,4.9E1,4E0,9E0,4E0,1.8E1,3E0,4.7E1,3.1E1,5E0,7E0,4.4E1,1E0,9E0,1.1E1,7E0,1.3E1,1.8E1,4.9E1,8E0,1E0,2E0,2E0,4E0,7E0,8E0,2E0,4E1],"tree_param":{"num_deleted":"0","num_feature":"10","num_nodes":"103","size_leaf_vector":"1"}},{"base_weights":[2.0777527E-4,-1.0119629E-2,3.724327E-2,-1.7462894E-2,-1.9366079E-3,-5.560734E-3,5.1145755E-2,-2.1638801E-2,-1.4397311E-2,-1.2241085E-2,6.5498683E-3,-8.326616E-3,4.3540925E-2,3.7571184E-2,6.78316E-2,-1.926123E-2,-2.3848884E-2,-1.9681912E-2,-1.0845282E-2,-1.3706109E-2,5.437514E-2,-6.9983774E-3,1.7044583E-2,3.404198E-2,-1.009944E-2,-8.2347024E-4,6.354437E-3,1.8015279E-2,5.364753E-2,5.6877602E-2,9.412427E-2,-2.1103755E-2,-1.3765111E-2,-7.0288306E-4,-2.4084382E-2,-2.0100012E-2,1.6499438E-3,-1.4300608E-2,-6.1913407E-3,-1.6204951E-2,8.693394E-4,6.537729E-3,5.1832723E-4,-9.557582E-3,2.534275E-2,1.2004986E-2,4.650741E-2,5.9046797E-3,-7.983826E-4,-1.237481E-2,8.228268E-3,-1.5657343E-3,2.784699E-2,6.38598E-2,3.6153067E-2,2.5386868E-2,6.1623838E-2,9.561589E-2,2.7671033E-3,-1.5099812E-3,-2.3493632E-3,7.544437E-4,-1.7078776E-3,-2.4293556E-3,-8.316847E-4,-8.4059517E-4,-2.137096E-3,1.7786321E-4,-1.5751023E-3,9.918496E-4,-1.1052963E-3,1.3304678E-3,-1.6922674E-3,1.6230335E-3,-1.2833177E-3,-2.0862555E-3,-4.294835E-4,3.605992E-3,-8.11157E-4,-2.7677387E-3,1.4788344E-3,-1.0130906E-3,6.837996E-3,2.4683305E-4,-1.4705838E-3,2.762285E-3,-2.8404023E-4,2.87801E-3,-1.3599687E-3,5.550587E-3,1.2946513E-3,6.875492E-3,3.0261392E-3,8.49446E-4,6.1229314E-3,-5.5206317E-5,4.7094654E-3,-6.0078996E-6,6.371584E-3,2.7931095E-3,9.720604E-3],"categories":[],"categories_nodes":[],"categories_segments":[],"categories_sizes":[],"default_left":[0,0,0,0,0,0,0,0,0,0,0,0,0,0,0,0,0,0,0,0,0,0,0,0,0,0,0,0,0,0,0,0,0,0,0,0,0,0,0,0,0,0,0,0,0,0,0,0,0,0,0,0,0,0,0,0,0,0,0,0,0,0,0,0,0,0,0,0,0,0,0,0,0,0,0,0,0,0,0,0,0,0,0,0,0,0,0,0,0,0,0,0,0,0,0,0,0,0,0,0,0],"id":9,"left_children":[1,3,5,7,9,11,13,15,17,19,21,23,25,27,29,31,33,35,37,39,41,43,45,47,49,-1,-1,51,53,55,57,59,61,-1,63,65,-1,67,69,71,73,-1,-1,75,77,79,81,-1,-1,83,85,87,89,91,93,95,97,99,-1,-1,-1,-1,-1,-1,-1,-1,-1,-1,-1,-1,-1,-1,-1,-1,-1,-1,-1,-1,-1,-1,-1,-1,-1,-1,-1,-1,-1,-1,-1,-1,-1,-1,-1,-1,-1,-1,-1,-1,-1,-1,-1],"loss_changes":[5.0869346E-1,6.245987E-2,1.7285824E-1,6.7037344E-3,4.3192387E-2,1.0140827E-2,4.705572E-2,7.4920803E-4,5.7745203E-3,2.25088E-2,3.8651414E-2,5.526535E-3,4.666033E-3,3.7703186E-2,2.2583395E-2,8.842051E-4,2.862364E-4,2.2528246E-3,3.0150712E-3,7.990453E-3,2.3672115E-3,1.0091556E-2,2.2159241E-2,3.6239622E-3,2.8958786E-3,0E0,0E0,1.1016948E-2,9.661362E-3,9.047389E-3,3.053248E-5,8.6488575E-4,2.388456E-3,0E0,1.706481E-4,1.6930364E-3,0E0,2.593385E-3,6.6885026E-3,4.1857623E-3,7.1542677E-3,0E0,0E0,6.5143667E-3,3.5193241E-3,1.4988733E-2,2.794689E-2,0E0,0E0,2.1122852E-3,1.7958381E-3,7.695007E-3,1.4942348E-2,4.6625733E-3,1.8206388E-2,6.2198434E-3,7.875428E-3,8.328259E-5,0E0,0E0,0E0,0E0,0E0,0E0,0E0,0E0,0E0,0E0,0E0,0E0,0E0,0E0,0E0,0E0,0E0,0E0,0E0,0E0,0E0,0E0,0E0,0E0,0E0,0E0,0E0,0E0,0E0,0E0,0E0,0E0,0E0,0E0,0E0,0E0,0E0,0E0,0E0,0E0,0E0,0E0,0E0],"parents":[2147483647,0,0,1,1,2,2,3,3,4,4,5,5,6,6,7,7,8,8,9,9,10,10,11,11,12,12,13,13,14,14,15,15,16,16,17,17,18,18,19,19,20,20,21,21,22,22,23,23,24,24,27,27,28,28,29,29,30,30,31,31,32,32,34,34,35,35,37,37,38,38,39,39,40,40,43,43,44,44,45,45,46,46,49,49,50,50,51,51,52,52,53,53,54,54,55,55,56,56,57,57],"right_children":[2,4,6,8,10,12,14,16,18,20,22,24,26,28,30,32,34,36,38,40,42,44,46,48,50,-1,-1,52,54,56,58,60,62,-1,64,66,-1,68,70,72,74,-1,-1,76,78,80,82,-1,-1,84,86,88,90,92,94,96,98,100,-1,-1,-1,-1,-1,-1,-1,-1,-1,-1,-1,-1,-1,-1,-1,-1,-1,-1,-1,-1,-1,-1,-1,-1,-1,-1,-1,-1,-1,-1,-1,-1,-1,-1,-1,-1,-1,-1,-1,-1,-1,-1,-1],"split_conditions":[3.04E1,1.99E1,2.4E1,2.5E1,2.6E1,1.4350846E0,2.9E1,1.1492537E-1,1.39E1,6.30303E-1,1.5581395E-1,1.8232156E-1,2.3E1,3.1451613E-1,6.8838525E-1,3.8059703E-1,2.4509804E-1,1.8128654E-1,1.2463768E-1,5.081967E-1,2.88E1,2.88E1,3.1451613E-1,3.16E1,1.3862944E0,-8.2347024E-4,6.354437E-3,2.175E-1,1.3350011E0,1.6E0,1.17E1,3.4013607E-2,3.855932E-1,-7.0288306E-4,2.5E0,5.3062826E-1,1.6499438E-3,6.612903E-2,1.3617021E-1,8.461539E-2,2.7E0,6.537729E-3,5.1832723E-4,2.8E1,2.98E1,1.010101E-2,1.5625E-2,5.9046797E-3,-7.983826E-4,2.1E1,2.6666668E-1,3.18E1,3.1E0,1.4350846E0,3.53E1,2.8301887E-2,3.05E1,3.7E0,2.7671033E-3,-1.5099812E-3,-2.3493632E-3,7.544437E-4,-1.7078776E-3,-2.4293556E-3,-8.316847E-4,-8.4059517E-4,-2.137096E-3,1.7786321E-4,-1.5751023E-3,9.918496E-4,-1.1052963E-3,1.3304678E-3,-1.6922674E-3,1.6230335E-3,-1.2833177E-3,-2.0862555E-3,-4.294835E-4,3.605992E-3,-8.11157E-4,-2.7677387E-3,1.4788344E-3,-1.0130906E-3,6.837996E-3,2.4683305E-4,-1.4705838E-3,2.762285E-3,-2.8404023E-4,2.87801E-3,-1.3599687E-3,5.550587E-3,1.2946513E-3,6.875492E-3,3.0261392E-3,8.49446E-4,6.1229314E-3,-5.5206317E-5,4.7094654E-3,-6.0078996E-6,6.371584E-3,2.7931095E-3,9.720604E-3],"split_indices":[2,2,1,1,1,7,1,5,2,8,5,7,1,5,8,8,8,9,5,8,2,2,5,2,7,0,0,5,7,3,3,9,8,0,3,6,0,5,5,5,3,0,0,1,2,9,9,0,0,1,5,2,3,6,2,9,2,3,0,0,0,0,0,0,0,0,0,0,0,0,0,0,0,0,0,0,0,0,0,0,0,0,0,0,0,0,0,0,0,0,0,0,0,0,0,0,0,0,0,0,0],"split_type":[0,0,0,0,0,0,0,0,0,0,0,0,0,0,0,0,0,0,0,0,0,0,0,0,0,0,0,0,0,0,0,0,0,0,0,0,0,0,0,0,0,0,0,0,0,0,0,0,0,0,0,0,0,0,0,0,0,0,0,0,0,0,0,0,0,0,0,0,0,0,0,0,0,0,0,0,0,0,0,0,0,0,0,0,0,0,0,0,0,0,0,0,0,0,0,0,0,0,0,0,0],"sum_hessian":[1.328E3,1.039E3,2.89E2,5.47E2,4.92E2,7.1E1,2.18E2,2.29E2,3.18E2,2.22E2,2.7E2,6.8E1,3E0,1.22E2,9.6E1,1.15E2,1.14E2,1.26E2,1.92E2,2.18E2,4E0,1.18E2,1.52E2,2E0,6.6E1,1E0,2E0,5.6E1,6.6E1,7E1,2.6E1,8.4E1,3.1E1,2E0,1.12E2,1.25E2,1E0,1.09E2,8.3E1,1.86E2,3.2E1,3E0,1E0,1.1E2,8E0,1.31E2,2.1E1,1E0,1E0,5.9E1,7E0,1.9E1,3.7E1,4E1,2.6E1,1E1,6E1,2.5E1,1E0,2.6E1,5.8E1,4E0,2.7E1,1.1E2,2E0,1.3E1,1.12E2,9E0,1E2,1.9E1,6.4E1,4E0,1.82E2,1.5E1,1.7E1,3.4E1,7.6E1,6E0,2E0,8E0,1.23E2,6E0,1.5E1,8E0,5.1E1,2E0,5E0,5E0,1.4E1,1.2E1,2.5E1,3.4E1,6E0,1.3E1,1.3E1,5E0,5E0,2E0,5.8E1,1E0,2.4E1],"tree_param":{"num_deleted":"0","num_feature":"10","num_nodes":"101","size_leaf_vector":"1"}},{"base_weights":[3.842249E-4,-9.404515E-3,2.8511327E-2,-1.5012482E-2,-1.1387534E-3,-9.47657E-3,4.3065548E-2,-1.8752573E-2,-1.2198885E-2,-7.7770106E-3,1.3658168E-2,-1.2188254E-2,5.7982937E-3,2.2019342E-2,5.527965E-2,-4.400608E-3,-1.9463688E-2,-1.7785903E-2,-8.658188E-3,-1.0038501E-2,3.839895E-2,8.357723E-3,3.761213E-2,-5.6369933E-3,-1.5542939E-2,-4.9441806E-3,1.8781718E-2,1.0831626E-2,5.000233E-2,4.4508833E-2,7.030197E-2,-9.968052E-3,3.1204359E-3,-2.3718633E-2,-1.8008158E-2,-1.8404096E-2,3.0671463E-3,-4.9754465E-3,-1.468509E-2,1.8740071E-2,-1.1738663E-2,8.8172415E-3,6.2495094E-2,-2.750564E-4,1.5177901E-2,4.2095732E-2,-2.8271761E-3,-1.0758962E-2,2.5157083E-3,-1.844143E-2,-4.1029775E-3,-1.2659088E-2,7.864226E-3,3.479919E-3,1.0312275E-2,5.9717484E-3,5.163461E-2,-1.8099122E-3,5.345035E-2,6.6304654E-2,3.8393773E-2,5.0343182E-2,8.928062E-3,-1.2852277E-3,1.087921E-3,-2.450019E-3,-1.4838869E-4,-1.8281045E-3,4.1858104E-4,-7.520616E-4,-1.9363052E-3,-2.1885615E-4,-1.7845364E-3,-1.7866272E-3,-3.088574E-4,5.5377237E-3,-1.183773E-3,-1.7916535E-3,-7.5830094E-4,-5.609121E-4,1.5709611E-3,1.0731489E-3,6.9333785E-3,2.3480651E-3,-5.14097E-4,2.1249696E-3,-7.0073886E-4,-2.065748E-4,4.685303E-3,-1.7725354E-3,1.6469741E-5,6.004453E-4,-1.7930241E-3,-2.195848E-3,-3.105756E-4,2.6455955E-3,-9.286149E-4,-2.0052863E-3,-3.9489838E-4,2.0867251E-4,9.094484E-4,1.1233573E-3,2.8528945E-4,9.714587E-4,-3.7890957E-3,8.499496E-4,5.7407217E-3,5.8015343E-3,6.3530606E-5,7.100332E-3,-9.135652E-4,-4.2612036E-4,4.3550506E-3,-2.509013E-4,5.571204E-3],"categories":[],"categories_nodes":[],"categories_segments":[],"categories_sizes":[],"default_left":[0,0,0,0,0,0,0,0,0,0,0,0,0,0,0,0,0,0,0,0,0,0,0,0,0,0,0,0,0,0,0,0,0,0,0,0,0,0,0,0,0,0,0,0,0,0,0,0,0,0,0,0,0,0,0,0,0,0,0,0,0,0,0,0,0,0,0,0,0,0,0,0,0,0,0,0,0,0,0,0,0,0,0,0,0,0,0,0,0,0,0,0,0,0,0,0,0,0,0,0,0,0,0,0,0,0,0,0,0,0,0,0,0,0,0],"id":10,"left_children":[1,3,5,7,9,11,13,15,17,19,21,23,25,27,29,31,33,35,37,39,41,43,45,47,49,51,53,55,57,59,61,63,-1,65,67,69,-1,71,73,75,77,79,81,83,85,87,-1,89,91,93,95,97,99,-1,101,103,105,-1,107,109,111,113,-1,-1,-1,-1,-1,-1,-1,-1,-1,-1,-1,-1,-1,-1,-1,-1,-1,-1,-1,-1,-1,-1,-1,-1,-1,-1,-1,-1,-1,-1,-1,-1,-1,-1,-1,-1,-1,-1,-1,-1,-1,-1,-1,-1,-1,-1,-1,-1,-1,-1,-1,-1,-1],"loss_changes":[3.6260095E-1,4.527089E-2,1.8838876E-1,5.895689E-3,3.9003626E-2,4.0056277E-3,6.2019676E-2,2.4453998E-3,6.4729564E-3,2.8998328E-2,1.5302546E-2,1.6925549E-3,2.1849717E-3,2.8260436E-2,2.1950334E-2,2.8880192E-3,1.0344759E-3,4.4288076E-3,4.521408E-3,1.3039179E-2,8.715432E-3,6.009638E-3,7.6888595E-3,1.2380449E-3,1.6817423E-3,9.888951E-4,5.9075444E-4,1.2977584E-2,7.072605E-3,9.849608E-3,1.9369155E-2,8.613608E-4,0E0,9.541735E-4,1.166679E-3,1.1902824E-3,0E0,4.623652E-3,2.8222892E-3,1.7459799E-2,6.231062E-3,7.841399E-4,1.7339103E-3,5.438001E-3,7.827065E-3,4.508663E-3,0E0,1.372692E-3,9.6362963E-4,2.1971278E-3,2.14638E-3,3.0721485E-4,9.4535935E-6,0E0,9.185693E-6,1.03825275E-2,1.255082E-3,0E0,5.990654E-3,7.38357E-3,1.6682602E-2,9.503722E-3,0E0,0E0,0E0,0E0,0E0,0E0,0E0,0E0,0E0,0E0,0E0,0E0,0E0,0E0,0E0,0E0,0E0,0E0,0E0,0E0,0E0,0E0,0E0,0E0,0E0,0E0,0E0,0E0,0E0,0E0,0E0,0E0,0E0,0E0,0E0,0E0,0E0,0E0,0E0,0E0,0E0,0E0,0E0,0E0,0E0,0E0,0E0,0E0,0E0,0E0,0E0,0E0,0E0],"parents":[2147483647,0,0,1,1,2,2,3,3,4,4,5,5,6,6,7,7,8,8,9,9,10,10,11,11,12,12,13,13,14,14,15,15,16,16,17,17,18,18,19,19,20,20,21,21,22,22,23,23,24,24,25,25,26,26,27,27,28,28,29,29,30,30,31,31,33,33,34,34,35,35,37,37,38,38,39,39,40,40,41,41,42,42,43,43,44,44,45,45,47,47,48,48,49,49,50,50,51,51,52,52,54,54,55,55,56,56,58,58,59,59,60,60,61,61],"right_children":[2,4,6,8,10,12,14,16,18,20,22,24,26,28,30,32,34,36,38,40,42,44,46,48,50,52,54,56,58,60,62,64,-1,66,68,70,-1,72,74,76,78,80,82,84,86,88,-1,90,92,94,96,98,100,-1,102,104,106,-1,108,110,112,114,-1,-1,-1,-1,-1,-1,-1,-1,-1,-1,-1,-1,-1,-1,-1,-1,-1,-1,-1,-1,-1,-1,-1,-1,-1,-1,-1,-1,-1,-1,-1,-1,-1,-1,-1,-1,-1,-1,-1,-1,-1,-1,-1,-1,-1,-1,-1,-1,-1,-1,-1,-1,-1],"split_conditions":[2.93E1,2.12E1,2.4E1,1.47E1,2.9E1,3.3E0,5.2567977E-1,4.7000363E-1,2.5E1,5.934718E-1,4.966443E-1,2.2E1,1.2237754E0,3.1E1,2.9E1,2.090909E-1,1.03E1,2E0,9E-1,2.7567568E-1,2.78E1,1.4285715E-1,3.6E1,5.368098E-1,3.44E1,2.5E-2,3.21E1,9.090909E-2,9.063444E-3,1.9E0,2.6E0,1.16E1,3.1204359E-3,9E-1,1.8128654E-1,8.3333336E-2,3.0671463E-3,3.3E1,8.214286E-2,9.531018E-2,1.5316455E-1,2.2E1,2.9310346E-1,2.2E1,2.175E-1,7.8845733E-1,-2.8271761E-3,1.2237754E0,1.2809339E0,4.9586777E-2,1.1E0,3.39E1,3.2E1,3.479919E-3,3.8181818E-1,5.081967E-1,2.98E1,-1.8099122E-3,5E-1,1.410987E0,2.1E0,2.4177215E-1,8.928062E-3,-1.2852277E-3,1.087921E-3,-2.450019E-3,-1.4838869E-4,-1.8281045E-3,4.1858104E-4,-7.520616E-4,-1.9363052E-3,-2.1885615E-4,-1.7845364E-3,-1.7866272E-3,-3.088574E-4,5.5377237E-3,-1.183773E-3,-1.7916535E-3,-7.5830094E-4,-5.609121E-4,1.5709611E-3,1.0731489E-3,6.9333785E-3,2.3480651E-3,-5.14097E-4,2.1249696E-3,-7.0073886E-4,-2.065748E-4,4.685303E-3,-1.7725354E-3,1.6469741E-5,6.004453E-4,-1.7930241E-3,-2.195848E-3,-3.105756E-4,2.6455955E-3,-9.286149E-4,-2.0052863E-3,-3.9489838E-4,2.0867251E-4,9.094484E-4,1.1233573E-3,2.8528945E-4,9.714587E-4,-3.7890957E-3,8.499496E-4,5.7407217E-3,5.8015343E-3,6.3530606E-5,7.100332E-3,-9.135652E-4,-4.2612036E-4,4.3550506E-3,-2.509013E-4,5.571204E-3],"split_indices":[2,2,1,2,1,4,8,6,1,8,8,1,6,1,1,5,2,4,4,8,2,5,1,8,2,9,2,9,9,4,4,2,0,4,9,5,0,1,9,7,5,1,5,2,5,6,0,6,6,9,4,2,2,0,5,8,2,0,8,7,4,5,0,0,0,0,0,0,0,0,0,0,0,0,0,0,0,0,0,0,0,0,0,0,0,0,0,0,0,0,0,0,0,0,0,0,0,0,0,0,0,0,0,0,0,0,0,0,0,0,0,0,0,0,0],"split_type":[0,0,0,0,0,0,0,0,0,0,0,0,0,0,0,0,0,0,0,0,0,0,0,0,0,0,0,0,0,0,0,0,0,0,0,0,0,0,0,0,0,0,0,0,0,0,0,0,0,0,0,0,0,0,0,0,0,0,0,0,0,0,0,0,0,0,0,0,0,0,0,0,0,0,0,0,0,0,0,0,0,0,0,0,0,0,0,0,0,0,0,0,0,0,0,0,0,0,0,0,0,0,0,0,0,0,0,0,0,0,0,0,0,0,0],"sum_hessian":[1.315E3,9.76E2,3.39E2,5.81E2,3.95E2,9.4E1,2.45E2,2.47E2,3.34E2,2.73E2,1.22E2,8E1,1.4E1,9.1E1,1.54E2,1.2E1,2.35E2,1.28E2,2.06E2,2.61E2,1.2E1,1.01E2,2.1E1,2.8E1,5.2E1,8E0,6E0,6.6E1,2.5E1,9.2E1,6.2E1,1.1E1,1E0,5.6E1,1.79E2,1.27E2,1E0,1.29E2,7.7E1,1.4E1,2.47E2,6E0,6E0,4.5E1,5.6E1,2E1,1E0,1.7E1,1.1E1,4.1E1,1.1E1,5E0,3E0,1E0,5E0,6E1,6E0,1E0,2.4E1,1.8E1,7.4E1,3.2E1,3E1,1E1,1E0,5.4E1,2E0,1.77E2,2E0,1.1E1,1.16E2,1.07E2,2.2E1,6E1,1.7E1,6E0,8E0,9.8E1,1.49E2,2E0,4E0,1E0,5E0,7E0,3.8E1,4.4E1,1.2E1,2E0,1.8E1,1E1,7E0,1E1,1E0,3.3E1,8E0,1E0,1E1,2E0,3E0,1E0,2E0,4E0,1E0,5.6E1,4E0,1E0,5E0,2.2E1,2E0,1.7E1,1E0,8E0,6.6E1,3E0,2.9E1],"tree_param":{"num_deleted":"0","num_feature":"10","num_nodes":"115","size_leaf_vector":"1"}},{"base_weights":[1.0229306E-3,-1.0161511E-2,2.362034E-2,-1.4147604E-2,-5.0367634E-3,3.374688E-3,3.757519E-2,-1.6819622E-2,-1.0348759E-2,-1.1387507E-2,1.5398507E-3,-4.276306E-3,2.5589004E-2,2.1487856E-2,5.770754E-2,-2.1362738E-3,-1.755937E-2,-1.4907868E-2,-4.7095334E-3,-1.236465E-2,2.8607715E-3,-1.0402762E-2,8.692586E-3,-1.0634074E-2,5.3395364E-3,-6.861654E-3,3.5983827E-2,-1.1330217E-3,2.430233E-2,4.8212774E-2,7.863014E-2,-1.03728715E-2,3.4267742E-3,-1.3545689E-2,-1.8712591E-2,7.097892E-3,-1.6196132E-2,4.348923E-3,-6.7764074E-3,-1.4710427E-2,-2.0767662E-3,-1.4421927E-2,1.5676423E-3,1.0602579E-2,-3.7357777E-3,1.1357701E-3,-1.2697464E-2,-9.127139E-3,2.0144254E-2,-2.087151E-3,1.273536E-4,5.8653317E-2,2.45699E-2,9.425642E-3,-2.8358942E-2,2.531373E-2,-2.6614373E-3,4.056664E-2,6.282702E-2,4.225923E-2,8.649448E-2,-1.4058488E-3,6.598679E-4,-1.0167699E-3,-1.6922591E-3,-1.8858953E-3,6.011689E-4,-1.0182802E-3,3.3533087E-3,-1.6636566E-3,1.5465176E-3,-3.0991167E-3,-3.059488E-4,-1.6448584E-3,4.21849E-4,-1.3642588E-3,4.0205312E-4,-7.3879765E-4,-2.118225E-3,1.0426942E-3,-9.4345736E-4,8.7554165E-4,6.013428E-3,4.7957766E-4,-1.2662844E-3,1.8761707E-4,-1.3865344E-3,1.3981296E-3,-1.6064954E-3,3.1001994E-3,-1.5306715E-3,6.1652646E-4,-5.9360283E-4,7.223468E-3,2.7908753E-3,2.0557588E-4,4.2112744E-3,2.5944284E-3,-2.2193042E-3,-3.4710038E-3,-1.4772789E-4,1.3809217E-3,3.0444434E-3,4.7872933E-3,2.1704198E-4,6.6034417E-3,-8.678872E-4,1.2154185E-3,5.789142E-3,1.6520839E-3,8.855036E-3],"categories":[],"categories_nodes":[],"categories_segments":[],"categories_sizes":[],"default_left":[0,0,0,0,0,0,0,0,0,0,0,0,0,0,0,0,0,0,0,0,0,0,0,0,0,0,0,0,0,0,0,0,0,0,0,0,0,0,0,0,0,0,0,0,0,0,0,0,0,0,0,0,0,0,0,0,0,0,0,0,0,0,0,0,0,0,0,0,0,0,0,0,0,0,0,0,0,0,0,0,0,0,0,0,0,0,0,0,0,0,0,0,0,0,0,0,0,0,0,0,0,0,0,0,0,0,0,0,0,0,0],"id":11,"left_children":[1,3,5,7,9,11,13,15,17,19,21,23,25,27,29,31,33,35,37,39,-1,41,43,45,47,49,51,53,55,57,59,61,-1,63,65,67,69,-1,71,73,75,77,79,81,-1,83,85,87,89,-1,91,93,95,97,99,101,-1,103,105,107,109,-1,-1,-1,-1,-1,-1,-1,-1,-1,-1,-1,-1,-1,-1,-1,-1,-1,-1,-1,-1,-1,-1,-1,-1,-1,-1,-1,-1,-1,-1,-1,-1,-1,-1,-1,-1,-1,-1,-1,-1,-1,-1,-1,-1,-1,-1,-1,-1,-1,-1],"loss_changes":[3.3284506E-1,1.792556E-2,1.230541E-1,4.850477E-3,1.6181128E-2,3.053255E-2,8.2319915E-2,3.1015947E-3,5.25173E-3,8.05269E-3,1.6406097E-2,8.24891E-3,1.5763583E-2,9.25909E-3,1.885575E-2,4.853133E-3,1.0194033E-3,3.3467691E-3,9.659052E-3,4.6271365E-3,0E0,3.486603E-3,1.0950796E-2,1.9815695E-3,1.1749313E-2,1.1776378E-3,7.615071E-3,5.15428E-3,7.316835E-3,6.5024495E-3,6.0699433E-3,9.059254E-4,0E0,5.694013E-4,8.7691844E-4,3.53919E-3,1.7633196E-3,0E0,8.0955755E-3,5.234912E-3,2.6641E-3,2.4113012E-3,1.9503406E-3,1.0086698E-2,0E0,7.172674E-4,1.2004115E-3,4.7136256E-3,1.0867308E-2,0E0,3.6608858E-4,2.5771074E-3,9.787477E-3,7.3656524E-3,8.0236373E-4,7.0759207E-3,0E0,1.5605994E-2,6.5361336E-3,3.0612387E-3,2.4212003E-3,0E0,0E0,0E0,0E0,0E0,0E0,0E0,0E0,0E0,0E0,0E0,0E0,0E0,0E0,0E0,0E0,0E0,0E0,0E0,0E0,0E0,0E0,0E0,0E0,0E0,0E0,0E0,0E0,0E0,0E0,0E0,0E0,0E0,0E0,0E0,0E0,0E0,0E0,0E0,0E0,0E0,0E0,0E0,0E0,0E0,0E0,0E0,0E0,0E0,0E0],"parents":[2147483647,0,0,1,1,2,2,3,3,4,4,5,5,6,6,7,7,8,8,9,9,10,10,11,11,12,12,13,13,14,14,15,15,16,16,17,17,18,18,19,19,21,21,22,22,23,23,24,24,25,25,26,26,27,27,28,28,29,29,30,30,31,31,33,33,34,34,35,35,36,36,38,38,39,39,40,40,41,41,42,42,43,43,45,45,46,46,47,47,48,48,50,50,51,51,52,52,53,53,54,54,55,55,57,57,58,58,59,59,60,60],"right_children":[2,4,6,8,10,12,14,16,18,20,22,24,26,28,30,32,34,36,38,40,-1,42,44,46,48,50,52,54,56,58,60,62,-1,64,66,68,70,-1,72,74,76,78,80,82,-1,84,86,88,90,-1,92,94,96,98,100,102,-1,104,106,108,110,-1,-1,-1,-1,-1,-1,-1,-1,-1,-1,-1,-1,-1,-1,-1,-1,-1,-1,-1,-1,-1,-1,-1,-1,-1,-1,-1,-1,-1,-1,-1,-1,-1,-1,-1,-1,-1,-1,-1,-1,-1,-1,-1,-1,-1,-1,-1,-1,-1,-1],"split_conditions":[2.77E1,1.95E1,2.6E1,2.7E1,1.5487805E-1,6.472303E-1,3.0454546E-1,5.3062826E-1,1.53E1,1.2809339E0,2.5E1,2.4E1,2.3E1,1.3333334E-2,3.2E1,7.255521E-2,2.2E1,3E-1,1.55E1,7.692308E-2,2.8607715E-3,5.0498337E-1,5.25E-1,2.1E1,2.3870967E-1,3.4133333E-1,3.5945946E-1,1.1631508E0,3.72E1,4.3636363E-2,1.0296195E0,2.6E1,3.4267742E-3,9.324324E-2,1.6E0,5.3062826E-1,1.8128654E-1,4.348923E-3,7.4193734E-1,3.4E1,2.4E1,1.9444445E-1,5.5925924E-1,3.3684212E-1,-3.7357777E-3,4.347826E-2,1.1E0,1.4477612E-1,5.975976E-1,-2.087151E-3,3.36E1,1.2237754E0,2.4E1,1.3157895E-2,3.34E1,2.94E1,-2.6614373E-3,1.3083328E0,1.3862944E0,3.215434E-2,1.0526316E-2,-1.4058488E-3,6.598679E-4,-1.0167699E-3,-1.6922591E-3,-1.8858953E-3,6.011689E-4,-1.0182802E-3,3.3533087E-3,-1.6636566E-3,1.5465176E-3,-3.0991167E-3,-3.059488E-4,-1.6448584E-3,4.21849E-4,-1.3642588E-3,4.0205312E-4,-7.3879765E-4,-2.118225E-3,1.0426942E-3,-9.4345736E-4,8.7554165E-4,6.013428E-3,4.7957766E-4,-1.2662844E-3,1.8761707E-4,-1.3865344E-3,1.3981296E-3,-1.6064954E-3,3.1001994E-3,-1.5306715E-3,6.1652646E-4,-5.9360283E-4,7.223468E-3,2.7908753E-3,2.0557588E-4,4.2112744E-3,2.5944284E-3,-2.2193042E-3,-3.4710038E-3,-1.4772789E-4,1.3809217E-3,3.0444434E-3,4.7872933E-3,2.1704198E-4,6.6034417E-3,-8.678872E-4,1.2154185E-3,5.789142E-3,1.6520839E-3,8.855036E-3],"split_indices":[2,2,1,1,5,8,5,6,2,7,1,1,1,9,1,9,1,4,2,9,0,8,5,1,5,5,5,6,2,9,7,1,0,5,4,7,9,0,6,1,1,5,8,5,0,9,4,5,8,0,2,6,1,9,2,2,0,6,7,9,9,0,0,0,0,0,0,0,0,0,0,0,0,0,0,0,0,0,0,0,0,0,0,0,0,0,0,0,0,0,0,0,0,0,0,0,0,0,0,0,0,0,0,0,0,0,0,0,0,0,0],"split_type":[0,0,0,0,0,0,0,0,0,0,0,0,0,0,0,0,0,0,0,0,0,0,0,0,0,0,0,0,0,0,0,0,0,0,0,0,0,0,0,0,0,0,0,0,0,0,0,0,0,0,0,0,0,0,0,0,0,0,0,0,0,0,0,0,0,0,0,0,0,0,0,0,0,0,0,0,0,0,0,0,0,0,0,0,0,0,0,0,0,0,0,0,0,0,0,0,0,0,0,0,0,0,0,0,0,0,0,0,0,0,0],"sum_hessian":[1.315E3,8.8E2,4.35E2,4.94E2,3.86E2,1.78E2,2.57E2,2.88E2,2.06E2,1.96E2,1.9E2,1.33E2,4.5E1,1.44E2,1.13E2,1.4E1,2.74E2,1.13E2,9.3E1,1.92E2,4E0,7.1E1,1.19E2,8E1,5.3E1,1.1E1,3.4E1,1.6E1,1.28E2,8E1,3.3E1,1.2E1,2E0,6.4E1,2.1E2,6E0,1.07E2,3E0,9E1,1.56E2,3.6E1,5.3E1,1.8E1,1.15E2,4E0,1.2E1,6.8E1,2.7E1,2.6E1,3E0,8E0,1E1,2.4E1,1.2E1,4E0,1.26E2,2E0,5.5E1,2.5E1,7E0,2.6E1,1E1,2E0,3.4E1,3E1,2.09E2,1E0,4E0,2E0,1.06E2,1E0,1.1E1,7.9E1,1.43E2,1.3E1,1.2E1,2.4E1,2.7E1,2.6E1,1E1,8E0,1.12E2,3E0,1E1,2E0,5E0,6.3E1,6E0,2.1E1,2E1,6E0,4E0,4E0,6E0,4E0,1.1E1,1.3E1,8E0,4E0,3E0,1E0,4E1,8.6E1,4.6E1,9E0,2.4E1,1E0,3E0,4E0,1E0,2.5E1],"tree_param":{"num_deleted":"0","num_feature":"10","num_nodes":"111","size_leaf_vector":"1"}},{"base_weights":[5.4878934E-4,-6.8786303E-3,3.1503897E-2,-1.01759555E-2,6.5464233E-3,4.8776716E-3,4.4479046E-2,-1.141013E-2,1.9535914E-3,-6.015292E-3,2.0818418E-2,7.6273642E-3,-2.6851385E-3,3.6082905E-2,6.264994E-2,-1.3875118E-2,-7.1680485E-3,2.7580192E-2,-1.6833044E-3,5.33671E-3,-7.566029E-3,1.372208E-2,4.021498E-2,1.9242323E-3,2.9963182E-2,3.804814E-2,-3.0420976E-2,4.5793362E-2,7.718616E-2,-1.7094279E-2,-1.2436256E-2,-1.1534038E-2,4.3708496E-4,7.659318E-3,5.5546677E-3,-8.54414E-3,4.499635E-3,-1.7454186E-2,-3.688265E-3,9.62657E-3,4.223114E-2,4.965286E-2,4.7988445E-4,1.437615E-2,-4.062461E-3,-8.108088E-4,4.402507E-2,2.9042108E-2,4.5306616E-2,-2.8854646E-4,-3.8637656E-3,1.5716013E-2,5.363851E-2,2.0825334E-3,7.8552915E-3,3.4441604E-4,-1.753989E-3,-4.636149E-4,-1.3364254E-3,-7.72995E-4,-1.8657222E-3,2.652686E-4,-3.12768E-3,2.316471E-3,-9.760903E-4,1.3931914E-3,-1.0384265E-3,-9.457812E-4,1.6248893E-3,1.4106247E-3,-2.0117192E-3,-1.3768302E-3,6.92194E-6,2.8595284E-3,1.3499563E-4,2.625048E-3,6.54423E-3,5.3289547E-3,-1.1540417E-3,-4.705064E-4,7.233188E-4,7.221379E-4,3.5827141E-3,-9.964466E-4,1.2506589E-3,5.4230914E-4,-1.5990156E-3,-9.2663616E-4,5.0280853E-3,3.1435848E-3,-5.010985E-3,2.8655815E-3,5.238476E-3,4.526788E-3,-5.158311E-4,-1.655832E-4,5.648602E-3],"categories":[],"categories_nodes":[],"categories_segments":[],"categories_sizes":[],"default_left":[0,0,0,0,0,0,0,0,0,0,0,0,0,0,0,0,0,0,0,0,0,0,0,0,0,0,0,0,0,0,0,0,0,0,0,0,0,0,0,0,0,0,0,0,0,0,0,0,0,0,0,0,0,0,0,0,0,0,0,0,0,0,0,0,0,0,0,0,0,0,0,0,0,0,0,0,0,0,0,0,0,0,0,0,0,0,0,0,0,0,0,0,0,0,0,0,0],"id":12,"left_children":[1,3,5,7,9,11,13,15,17,19,21,23,-1,25,27,29,31,33,35,-1,37,39,41,43,45,47,49,51,53,55,57,59,61,63,-1,65,67,69,71,73,75,77,79,81,83,85,87,89,91,-1,-1,93,95,-1,-1,-1,-1,-1,-1,-1,-1,-1,-1,-1,-1,-1,-1,-1,-1,-1,-1,-1,-1,-1,-1,-1,-1,-1,-1,-1,-1,-1,-1,-1,-1,-1,-1,-1,-1,-1,-1,-1,-1,-1,-1,-1,-1],"loss_changes":[3.041664E-1,4.7299262E-2,8.822575E-2,1.2851559E-2,3.7953462E-2,7.6206434E-3,2.3980647E-2,8.035839E-3,7.5025284E-3,1.0809551E-2,1.3074975E-2,1.000569E-2,0E0,1.6840965E-2,9.45203E-3,2.0616874E-3,9.567773E-3,5.1457183E-3,3.0502751E-3,0E0,4.1918023E-3,8.233636E-3,9.726565E-3,4.829334E-3,6.9595426E-3,6.332472E-3,7.9351454E-4,5.527973E-3,4.439354E-4,1.4240891E-3,2.4208464E-3,4.8145745E-3,7.5310916E-3,2.1168601E-3,0E0,1.5508707E-3,6.385286E-3,2.8891899E-3,3.0688746E-3,1.032318E-2,1.6204752E-3,5.28834E-3,2.4412578E-4,2.964294E-3,4.427408E-3,6.5447524E-4,4.133094E-3,1.1996038E-2,5.923867E-3,0E0,0E0,4.5516323E-3,3.4000017E-3,0E0,0E0,0E0,0E0,0E0,0E0,0E0,0E0,0E0,0E0,0E0,0E0,0E0,0E0,0E0,0E0,0E0,0E0,0E0,0E0,0E0,0E0,0E0,0E0,0E0,0E0,0E0,0E0,0E0,0E0,0E0,0E0,0E0,0E0,0E0,0E0,0E0,0E0,0E0,0E0,0E0,0E0,0E0,0E0],"parents":[2147483647,0,0,1,1,2,2,3,3,4,4,5,5,6,6,7,7,8,8,9,9,10,10,11,11,13,13,14,14,15,15,16,16,17,17,18,18,20,20,21,21,22,22,23,23,24,24,25,25,26,26,27,27,28,28,29,29,30,30,31,31,32,32,33,33,35,35,36,36,37,37,38,38,39,39,40,40,41,41,42,42,43,43,44,44,45,45,46,46,47,47,48,48,51,51,52,52],"right_children":[2,4,6,8,10,12,14,16,18,20,22,24,-1,26,28,30,32,34,36,-1,38,40,42,44,46,48,50,52,54,56,58,60,62,64,-1,66,68,70,72,74,76,78,80,82,84,86,88,90,92,-1,-1,94,96,-1,-1,-1,-1,-1,-1,-1,-1,-1,-1,-1,-1,-1,-1,-1,-1,-1,-1,-1,-1,-1,-1,-1,-1,-1,-1,-1,-1,-1,-1,-1,-1,-1,-1,-1,-1,-1,-1,-1,-1,-1,-1,-1,-1],"split_conditions":[3.17E1,2.41E1,2.5E1,2.73E1,2.7E1,1.0793651E-1,2.8E0,2.8E1,1.86E1,2.7567568E-1,3.3E1,1.3350011E0,-2.6851385E-3,1.1570248E-1,3E1,3.4042552E-1,1.99E1,1.509434E-1,3.78882E-1,5.33671E-3,1.0986123E0,3.7272727E-1,5.357143E-2,3.24E1,2.3E1,2.8E1,3.47E1,3.4032258E-1,3.37E1,2E1,3.5329342E-1,3.3E1,2.6E1,1.3636364E-2,5.5546677E-3,2.74E1,2.6E1,1.484375E-1,4.074074E-1,2.61E1,3.846154E-2,4E1,1.3783784E-1,6.185567E-1,3.1E0,4.25E1,1.4E0,5.25E-1,2.6666668E-1,-2.8854646E-4,-3.8637656E-3,1.724138E-2,3.73E1,2.0825334E-3,7.8552915E-3,3.4441604E-4,-1.753989E-3,-4.636149E-4,-1.3364254E-3,-7.72995E-4,-1.8657222E-3,2.652686E-4,-3.12768E-3,2.316471E-3,-9.760903E-4,1.3931914E-3,-1.0384265E-3,-9.457812E-4,1.6248893E-3,1.4106247E-3,-2.0117192E-3,-1.3768302E-3,6.92194E-6,2.8595284E-3,1.3499563E-4,2.625048E-3,6.54423E-3,5.3289547E-3,-1.1540417E-3,-4.705064E-4,7.233188E-4,7.221379E-4,3.5827141E-3,-9.964466E-4,1.2506589E-3,5.4230914E-4,-1.5990156E-3,-9.2663616E-4,5.0280853E-3,3.1435848E-3,-5.010985E-3,2.8655815E-3,5.238476E-3,4.526788E-3,-5.158311E-4,-1.655832E-4,5.648602E-3],"split_indices":[0,0,1,2,1,9,4,1,0,8,1,6,0,9,1,8,2,5,8,0,6,5,9,2,1,1,0,5,0,1,8,1,2,9,0,2,1,5,8,0,9,1,5,8,4,0,4,5,5,0,0,9,0,0,0,0,0,0,0,0,0,0,0,0,0,0,0,0,0,0,0,0,0,0,0,0,0,0,0,0,0,0,0,0,0,0,0,0,0,0,0,0,0,0,0,0,0],"split_type":[0,0,0,0,0,0,0,0,0,0,0,0,0,0,0,0,0,0,0,0,0,0,0,0,0,0,0,0,0,0,0,0,0,0,0,0,0,0,0,0,0,0,0,0,0,0,0,0,0,0,0,0,0,0,0,0,0,0,0,0,0,0,0,0,0,0,0,0,0,0,0,0,0,0,0,0,0,0,0,0,0,0,0,0,0,0,0,0,0,0,0,0,0,0,0,0,0],"sum_hessian":[1.321E3,1.066E3,2.55E2,8.56E2,2.1E2,8.4E1,1.71E2,7.77E2,7.9E1,1.12E2,9.8E1,7.8E1,6E0,1.19E2,5.2E1,4.9E2,2.87E2,9E0,7E1,2E0,1.1E2,7.3E1,2.5E1,6.3E1,1.5E1,1.16E2,3E0,2.6E1,2.6E1,1.48E2,3.42E2,1.82E2,1.05E2,6E0,3E0,3.3E1,3.7E1,3E1,8E1,6.5E1,8E0,2E1,5E0,2E1,4.3E1,5E0,1E1,5.4E1,6.2E1,1E0,2E0,6E0,2E1,1E0,2.5E1,3E0,1.45E2,3.7E1,3.05E2,1.2E2,6.2E1,9.9E1,6E0,3E0,3E0,2E0,3.1E1,1.7E1,2E1,2E0,2.8E1,2.1E1,5.9E1,1.9E1,4.6E1,6E0,2E0,1.9E1,1E0,3E0,2E0,1.6E1,4E0,3.2E1,1.1E1,4E0,1E0,1E0,9E0,5.3E1,1E0,2E1,4.2E1,2E0,4E0,1E0,1.9E1],"tree_param":{"num_deleted":"0","num_feature":"10","num_nodes":"97","size_leaf_vector":"1"}},{"base_weights":[4.3528213E-4,-7.599106E-3,2.7766772E-2,-1.2671006E-2,-7.844847E-4,4.73711E-3,3.9200746E-2,-1.2875778E-2,1.3739643E-2,-9.822376E-3,4.5040455E-3,-1.6463716E-3,1.920453E-2,1.5978403E-2,4.350333E-2,-1.4110485E-2,-9.635213E-3,1.6168917E-3,2.011273E-4,-1.1923614E-2,-1.7947487E-4,-1.999716E-3,1.0269275E-2,-3.1096102E-3,5.039017E-3,-1.6798688E-2,3.0405415E-2,3.0501101E-2,-8.710448E-3,3.4398474E-2,5.989546E-2,-1.4271493E-2,2.1074456E-3,-1.2680787E-2,-3.368879E-3,2.4932914E-3,-1.2391716E-2,8.267449E-3,-2.080757E-2,-2.4422387E-2,-9.1609906E-4,1.7317384E-2,-2.1898267E-3,2.2869827E-3,-1.1286178E-2,-3.3401041E-3,-2.9422247E-3,1.2073637E-2,4.7731057E-2,1.4219163E-2,5.518186E-3,1.8594445E-3,-1.5365378E-2,7.83043E-4,3.808834E-2,7.700013E-2,5.389001E-2,-1.34642E-3,-1.9546642E-3,-2.10362E-3,2.4548608E-3,-1.6505783E-3,-3.64533E-4,1.9820745E-3,-7.7377673E-4,-1.4398859E-3,-4.4223695E-4,2.1771123E-4,2.1007156E-3,-1.0789032E-3,-2.4018667E-3,-9.0767536E-4,-3.6742433E-3,-2.8690335E-3,-5.423932E-7,1.1928261E-3,3.4412325E-3,-1.5955666E-3,8.538238E-4,-2.2055535E-4,4.66406E-3,-1.6656605E-3,4.625432E-6,1.0203951E-3,-1.5770792E-3,3.0930627E-3,-3.8087245E-3,5.127771E-3,4.358951E-4,2.5279026E-3,-4.5199162E-5,-4.008194E-3,-5.4192607E-4,5.6247017E-3,-9.3725015E-4,5.165108E-3,3.236444E-3,3.575623E-3,8.579768E-3,1.3005508E-3,5.7390765E-3],"categories":[],"categories_nodes":[],"categories_segments":[],"categories_sizes":[],"default_left":[0,0,0,0,0,0,0,0,0,0,0,0,0,0,0,0,0,0,0,0,0,0,0,0,0,0,0,0,0,0,0,0,0,0,0,0,0,0,0,0,0,0,0,0,0,0,0,0,0,0,0,0,0,0,0,0,0,0,0,0,0,0,0,0,0,0,0,0,0,0,0,0,0,0,0,0,0,0,0,0,0,0,0,0,0,0,0,0,0,0,0,0,0,0,0,0,0,0,0,0,0],"id":13,"left_children":[1,3,5,7,9,11,13,15,17,19,21,23,25,27,29,31,33,-1,-1,35,37,39,41,43,-1,45,47,49,51,53,55,57,59,61,63,-1,65,67,69,71,73,75,77,79,81,83,-1,85,87,89,-1,-1,91,93,95,97,99,-1,-1,-1,-1,-1,-1,-1,-1,-1,-1,-1,-1,-1,-1,-1,-1,-1,-1,-1,-1,-1,-1,-1,-1,-1,-1,-1,-1,-1,-1,-1,-1,-1,-1,-1,-1,-1,-1,-1,-1,-1,-1,-1,-1],"loss_changes":[2.9095057E-1,3.538265E-2,7.907382E-2,3.3515096E-3,2.0979399E-2,9.359222E-3,1.938802E-2,2.1967068E-3,1.09936926E-4,3.28031E-3,1.040684E-2,5.562767E-3,1.3012074E-2,1.2097785E-2,2.3162574E-2,1.1267886E-3,3.0871509E-3,0E0,0E0,2.6035588E-3,5.3993445E-3,3.1606106E-3,1.2946449E-2,3.1146037E-3,0E0,1.2608885E-3,7.046351E-3,7.6542217E-3,2.647969E-3,1.373823E-2,1.9110143E-3,1.5083924E-3,3.113261E-3,3.7414953E-3,5.725576E-3,0E0,2.0477436E-3,1.6612255E-3,3.0396506E-5,8.0085173E-4,3.186801E-3,8.249434E-3,8.110997E-3,8.671058E-3,1.7048512E-3,1.0027338E-3,0E0,1.34745445E-2,1.62239E-3,2.28308E-3,0E0,0E0,2.4869572E-3,7.2863777E-3,6.09152E-3,1.649186E-3,5.9805512E-3,0E0,0E0,0E0,0E0,0E0,0E0,0E0,0E0,0E0,0E0,0E0,0E0,0E0,0E0,0E0,0E0,0E0,0E0,0E0,0E0,0E0,0E0,0E0,0E0,0E0,0E0,0E0,0E0,0E0,0E0,0E0,0E0,0E0,0E0,0E0,0E0,0E0,0E0,0E0,0E0,0E0,0E0,0E0,0E0],"parents":[2147483647,0,0,1,1,2,2,3,3,4,4,5,5,6,6,7,7,8,8,9,9,10,10,11,11,12,12,13,13,14,14,15,15,16,16,19,19,20,20,21,21,22,22,23,23,25,25,26,26,27,27,28,28,29,29,30,30,31,31,32,32,33,33,34,34,36,36,37,37,38,38,39,39,40,40,41,41,42,42,43,43,44,44,45,45,47,47,48,48,49,49,52,52,53,53,54,54,55,55,56,56],"right_children":[2,4,6,8,10,12,14,16,18,20,22,24,26,28,30,32,34,-1,-1,36,38,40,42,44,-1,46,48,50,52,54,56,58,60,62,64,-1,66,68,70,72,74,76,78,80,82,84,-1,86,88,90,-1,-1,92,94,96,98,100,-1,-1,-1,-1,-1,-1,-1,-1,-1,-1,-1,-1,-1,-1,-1,-1,-1,-1,-1,-1,-1,-1,-1,-1,-1,-1,-1,-1,-1,-1,-1,-1,-1,-1,-1,-1,-1,-1,-1,-1,-1,-1,-1,-1],"split_conditions":[2.96E1,1.81E1,2.5E1,2.66E1,2.5E1,2.4E1,2.1929824E-1,2.9E1,1.74E1,5.0498337E-1,1.6333333E-1,1.4350846E0,2.6153848E-1,4.8351648E-1,3E1,4.2586207E-1,6.931472E-1,1.6168917E-3,2.011273E-4,8.412699E-2,5.5925924E-1,2.3417722E-1,4.8913044E-1,3.2741934E-1,5.039017E-3,1.0296195E0,3.35E1,3.1E1,2.98E1,5.121107E-1,3.23E1,1.8450704E-1,1.4E1,8.3333336E-2,8.902439E-2,2.4932914E-3,1.3083328E0,2.521739E-1,2.3E1,2.2463769E-1,7.8125E-3,2.59E1,2.276923E-1,6.472303E-1,4.32E1,3.37E1,-2.9422247E-3,1.2237754E0,3.5E-2,1.2237754E0,5.518186E-3,1.8594445E-3,2.92E1,2.3703703E-1,9.5551145E-1,3.04E1,3.18E1,-1.34642E-3,-1.9546642E-3,-2.10362E-3,2.4548608E-3,-1.6505783E-3,-3.64533E-4,1.9820745E-3,-7.7377673E-4,-1.4398859E-3,-4.4223695E-4,2.1771123E-4,2.1007156E-3,-1.0789032E-3,-2.4018667E-3,-9.0767536E-4,-3.6742433E-3,-2.8690335E-3,-5.423932E-7,1.1928261E-3,3.4412325E-3,-1.5955666E-3,8.538238E-4,-2.2055535E-4,4.66406E-3,-1.6656605E-3,4.625432E-6,1.0203951E-3,-1.5770792E-3,3.0930627E-3,-3.8087245E-3,5.127771E-3,4.358951E-4,2.5279026E-3,-4.5199162E-5,-4.008194E-3,-5.4192607E-4,5.6247017E-3,-9.3725015E-4,5.165108E-3,3.236444E-3,3.575623E-3,8.579768E-3,1.3005508E-3,5.7390765E-3],"split_indices":[0,0,1,2,1,1,5,1,0,8,5,7,5,8,1,5,7,0,0,5,8,8,8,5,0,7,2,1,0,8,2,5,0,9,5,0,6,5,1,8,9,0,5,8,0,0,0,7,9,6,0,0,2,5,7,0,0,0,0,0,0,0,0,0,0,0,0,0,0,0,0,0,0,0,0,0,0,0,0,0,0,0,0,0,0,0,0,0,0,0,0,0,0,0,0,0,0,0,0,0,0],"split_type":[0,0,0,0,0,0,0,0,0,0,0,0,0,0,0,0,0,0,0,0,0,0,0,0,0,0,0,0,0,0,0,0,0,0,0,0,0,0,0,0,0,0,0,0,0,0,0,0,0,0,0,0,0,0,0,0,0,0,0,0,0,0,0,0,0,0,0,0,0,0,0,0,0,0,0,0,0,0,0,0,0,0,0,0,0,0,0,0,0,0,0,0,0,0,0,0,0,0,0,0,0],"sum_hessian":[1.323E3,1.023E3,3E2,5.86E2,4.37E2,1E2,2E2,5.82E2,4E0,1.61E2,2.76E2,7E1,3E1,3.2E1,1.68E2,4.19E2,1.63E2,3E0,1E0,1.32E2,2.9E1,1.3E2,1.46E2,6.9E1,1E0,7E0,2.3E1,2E1,1.2E1,1.1E2,5.8E1,4.15E2,4E0,1.09E2,5.4E1,1E0,1.31E2,2.1E1,8E0,5E0,1.25E2,9.3E1,5.3E1,4.2E1,2.7E1,4E0,3E0,1.2E1,1.1E1,1.3E1,7E0,2E0,1E1,1.1E1,9.9E1,1.2E1,4.6E1,3.63E2,5.2E1,2E0,2E0,7.6E1,3.3E1,8E0,4.6E1,1.04E2,2.7E1,1.5E1,6E0,3E0,5E0,3E0,2E0,3E0,1.22E2,7.2E1,2.1E1,2.3E1,3E1,3.9E1,3E0,1.8E1,9E0,2E0,2E0,9E0,3E0,1E1,1E0,7E0,6E0,2E0,8E0,1E0,1E1,2.7E1,7.2E1,3E0,9E0,4E0,4.2E1],"tree_param":{"num_deleted":"0","num_feature":"10","num_nodes":"101","size_leaf_vector":"1"}},{"base_weights":[-3.724558E-4,-6.5826215E-3,2.0759733E-2,-1.0294433E-2,1.1257215E-3,-1.4483341E-3,2.8332606E-2,-1.0491521E-2,2.6424697E-3,-1.3032041E-3,2.3467164E-2,-2.7105373E-3,4.787066E-3,2.1381052E-2,4.5594648E-2,-1.2048974E-2,-6.827136E-3,-7.363194E-3,2.7439108E-3,3.7372954E-2,-1.7767493E-2,-9.837127E-4,-1.9838254E-3,4.638932E-2,1.6729344E-2,4.6509393E-2,-6.017134E-4,-1.2170711E-2,1.1566877E-3,-2.5528204E-3,-1.3157334E-2,-1.0166839E-2,3.9216196E-3,-1.7478287E-3,9.536228E-3,7.1135634E-3,2.5375504E-2,-7.530283E-3,-3.5731816E-3,-5.0934344E-3,9.0438835E-3,2.3964033E-2,7.763085E-3,9.897793E-3,2.796871E-2,4.869864E-2,2.796293E-2,-1.479755E-3,-1.0872287E-3,3.675256E-5,-1.804903E-3,-2.140698E-3,-5.531929E-4,-1.2688332E-3,-8.794865E-5,1.3091951E-3,-1.7201828E-3,-9.133103E-4,5.4089766E-4,1.1510688E-3,-1.961856E-3,1.2797787E-3,5.259055E-3,-4.3749064E-6,-1.7497747E-3,2.5146161E-3,-6.20115E-4,4.851462E-3,4.644616E-4,3.8456747E-3,-1.6327309E-5,-9.942123E-4,1.6661736E-3,3.346435E-3,-3.0383167E-3,4.150999E-3,6.013452E-3,3.9496315E-3,-8.2692754E-4],"categories":[],"categories_nodes":[],"categories_segments":[],"categories_sizes":[],"default_left":[0,0,0,0,0,0,0,0,0,0,0,0,0,0,0,0,0,0,0,0,0,0,0,0,0,0,0,0,0,0,0,0,0,0,0,0,0,0,0,0,0,0,0,0,0,0,0,0,0,0,0,0,0,0,0,0,0,0,0,0,0,0,0,0,0,0,0,0,0,0,0,0,0,0,0,0,0,0,0],"id":14,"left_children":[1,3,5,7,9,11,13,15,-1,17,19,21,-1,23,25,27,29,31,33,35,37,39,-1,41,43,45,-1,47,-1,49,51,53,55,57,59,-1,61,63,-1,65,67,69,-1,71,73,75,77,-1,-1,-1,-1,-1,-1,-1,-1,-1,-1,-1,-1,-1,-1,-1,-1,-1,-1,-1,-1,-1,-1,-1,-1,-1,-1,-1,-1,-1,-1,-1,-1],"loss_changes":[1.750721E-1,2.9510468E-2,5.099924E-2,5.314119E-3,1.826386E-2,4.9853013E-3,2.6144683E-2,3.872767E-3,0E0,7.475949E-3,1.9586235E-2,2.2578798E-3,0E0,1.8185921E-2,3.301397E-3,1.5351027E-3,5.62138E-3,3.89978E-3,5.599873E-3,8.32155E-3,1.3860699E-3,2.9720194E-3,0E0,1.5654664E-2,1.0395911E-2,1.1962205E-3,0E0,1.48651E-3,0E0,5.708675E-3,5.1657576E-3,2.2838041E-3,5.067931E-3,5.916302E-3,4.4280645E-3,0E0,6.173021E-3,5.2158674E-4,0E0,1.8642747E-3,3.4211571E-3,5.601E-3,0E0,1.19749075E-2,1.7692156E-2,2.0252764E-3,4.087525E-3,0E0,0E0,0E0,0E0,0E0,0E0,0E0,0E0,0E0,0E0,0E0,0E0,0E0,0E0,0E0,0E0,0E0,0E0,0E0,0E0,0E0,0E0,0E0,0E0,0E0,0E0,0E0,0E0,0E0,0E0,0E0,0E0],"parents":[2147483647,0,0,1,1,2,2,3,3,4,4,5,5,6,6,7,7,9,9,10,10,11,11,13,13,14,14,15,15,16,16,17,17,18,18,19,19,20,20,21,21,23,23,24,24,25,25,27,27,29,29,30,30,31,31,32,32,33,33,34,34,36,36,37,37,39,39,40,40,41,41,43,43,44,44,45,45,46,46],"right_children":[2,4,6,8,10,12,14,16,-1,18,20,22,-1,24,26,28,30,32,34,36,38,40,-1,42,44,46,-1,48,-1,50,52,54,56,58,60,-1,62,64,-1,66,68,70,-1,72,74,76,78,-1,-1,-1,-1,-1,-1,-1,-1,-1,-1,-1,-1,-1,-1,-1,-1,-1,-1,-1,-1,-1,-1,-1,-1,-1,-1,-1,-1,-1,-1,-1,-1],"split_conditions":[2.94E1,2.02E1,2.4E1,1.3609766E0,3.3E1,1.6292405E0,4.11E1,2.9E1,2.6424697E-3,2.5E1,5.357143E-2,1.0793651E-1,4.787066E-3,1.0296195E0,1.4816046E0,1.2809339E0,3.3E1,5.0498337E-1,9.932518E-1,8.7546873E-1,3.5E1,4.9586777E-2,-1.9838254E-3,5.975976E-1,2.3E0,1.3862944E0,-6.017134E-4,6E-1,1.1566877E-3,4.5614034E-1,2.631579E-2,1.3083328E0,5.5925924E-1,4.587156E-2,4.4982698E-2,7.1135634E-3,2.4E0,2.6E0,-3.5731816E-3,1.1E0,5.4054055E-2,5.535714E-1,7.763085E-3,2.6E1,1.4586151E0,3.2E0,1.1939225E0,-1.479755E-3,-1.0872287E-3,3.675256E-5,-1.804903E-3,-2.140698E-3,-5.531929E-4,-1.2688332E-3,-8.794865E-5,1.3091951E-3,-1.7201828E-3,-9.133103E-4,5.4089766E-4,1.1510688E-3,-1.961856E-3,1.2797787E-3,5.259055E-3,-4.3749064E-6,-1.7497747E-3,2.5146161E-3,-6.20115E-4,4.851462E-3,4.644616E-4,3.8456747E-3,-1.6327309E-5,-9.942123E-4,1.6661736E-3,3.346435E-3,-3.0383167E-3,4.150999E-3,6.013452E-3,3.9496315E-3,-8.2692754E-4],"split_indices":[0,0,1,7,1,7,0,1,0,1,9,9,0,6,6,7,1,8,7,7,1,9,0,8,4,6,0,4,0,8,9,6,8,9,9,0,3,3,0,4,9,8,0,1,7,4,7,0,0,0,0,0,0,0,0,0,0,0,0,0,0,0,0,0,0,0,0,0,0,0,0,0,0,0,0,0,0,0,0],"split_type":[0,0,0,0,0,0,0,0,0,0,0,0,0,0,0,0,0,0,0,0,0,0,0,0,0,0,0,0,0,0,0,0,0,0,0,0,0,0,0,0,0,0,0,0,0,0,0,0,0,0,0,0,0,0,0,0,0,0,0,0,0,0,0,0,0,0,0,0,0,0,0,0,0,0,0,0,0,0,0],"sum_hessian":[1.332E3,1.03E3,3.02E2,6.95E2,3.35E2,7.7E1,2.25E2,6.92E2,3E0,3.03E2,3.2E1,7.6E1,1E0,1.62E2,6.3E1,4.84E2,2.08E2,1.21E2,1.82E2,2.4E1,8E0,7E1,6E0,2.4E1,1.38E2,6.2E1,1E0,4.82E2,2E0,1.25E2,8.3E1,9.7E1,2.4E1,1.1E2,7.2E1,5E0,1.9E1,6E0,2E0,5E1,2E1,1.5E1,9E0,8.7E1,5.1E1,5.4E1,8E0,1.56E2,3.26E2,1.06E2,1.9E1,3.9E1,4.4E1,7.6E1,2.1E1,1.7E1,7E0,5.4E1,5.6E1,6.8E1,4E0,1.4E1,5E0,4E0,2E0,1E0,4.9E1,1E0,1.9E1,9E0,6E0,2.2E1,6.5E1,4.7E1,4E0,3.6E1,1.8E1,6E0,2E0],"tree_param":{"num_deleted":"0","num_feature":"10","num_nodes":"79","size_leaf_vector":"1"}},{"base_weights":[-1.7043811E-4,-6.392084E-3,2.208118E-2,-8.348812E-3,4.5414967E-3,2.9677046E-3,3.2077298E-2,-8.816565E-3,1.9025633E-2,-1.36602E-3,1.684665E-2,-1.6009914E-3,1.8332513E-2,-7.6041985E-3,3.4336623E-2,-9.550327E-3,1.0651467E-5,2.2996366E-2,-1.8282309E-3,6.043324E-3,-8.750067E-3,-9.7133004E-4,2.2967836E-2,-5.21938E-3,1.3944199E-2,-9.6042E-3,2.8757483E-2,-2.9213957E-3,4.439656E-4,2.4551218E-2,4.182158E-2,-8.881146E-3,-2.2629788E-2,2.0349933E-2,-4.797009E-3,-1.2578553E-3,2.670048E-2,2.5569461E-3,3.969844E-2,-2.0570276E-2,-1.1919953E-3,1.741435E-2,-1.6937383E-2,4.0099878E-2,8.685446E-3,-3.5833067E-3,-3.7291774E-3,-4.2004087E-3,2.6507318E-2,-1.1254615E-3,1.4914573E-5,4.7625517E-3,4.1412666E-2,1.5550916E-3,-6.0938657E-3,3.9315526E-3,3.1358916E-2,1.749433E-2,4.4631753E-2,-9.085281E-4,1.8183915E-3,5.258075E-4,-2.5170406E-3,8.829405E-4,5.5808565E-3,-3.0639651E-3,-2.7168632E-4,5.319033E-4,2.8039014E-3,4.3125092E-5,5.3358003E-3,5.4173893E-3,1.1990174E-3,-1.3661351E-3,-3.9946567E-3,7.247795E-4,-1.2365583E-3,2.7910376E-3,2.5647358E-4,-2.3179818E-3,1.3379827E-3,6.6402005E-3,2.9720708E-3,-1.2916113E-3,1.7593289E-3,-6.2749995E-4,1.846214E-3,-1.7947024E-3,4.887642E-4,5.263667E-4,4.2449506E-3,7.722548E-4,-6.498713E-4,5.3924946E-3,2.1998277E-3,-1.1103852E-3,4.2873994E-4,-5.901651E-4,1.769823E-3,-5.1448954E-4,3.4058203E-3,-4.204867E-3,4.201407E-3,6.283191E-3,4.097936E-3],"categories":[],"categories_nodes":[],"categories_segments":[],"categories_sizes":[],"default_left":[0,0,0,0,0,0,0,0,0,0,0,0,0,0,0,0,0,0,0,0,0,0,0,0,0,0,0,0,0,0,0,0,0,0,0,0,0,0,0,0,0,0,0,0,0,0,0,0,0,0,0,0,0,0,0,0,0,0,0,0,0,0,0,0,0,0,0,0,0,0,0,0,0,0,0,0,0,0,0,0,0,0,0,0,0,0,0,0,0,0,0,0,0,0,0,0,0,0,0,0,0,0,0,0,0],"id":15,"left_children":[1,3,5,7,9,11,13,15,17,19,21,23,25,27,29,31,33,35,-1,37,39,41,43,45,47,49,51,-1,53,55,57,59,61,63,65,-1,67,69,71,73,75,77,79,81,83,85,-1,87,89,-1,-1,91,93,-1,95,97,99,101,103,-1,-1,-1,-1,-1,-1,-1,-1,-1,-1,-1,-1,-1,-1,-1,-1,-1,-1,-1,-1,-1,-1,-1,-1,-1,-1,-1,-1,-1,-1,-1,-1,-1,-1,-1,-1,-1,-1,-1,-1,-1,-1,-1,-1,-1,-1],"loss_changes":[1.8246885E-1,2.2073783E-2,5.4930255E-2,1.1358857E-2,1.1435798E-2,7.0490637E-3,1.7205581E-2,5.5703893E-3,2.6425244E-3,5.9069507E-3,5.5847345E-3,4.4601667E-3,6.9746976E-3,1.9260778E-3,1.2083784E-2,6.7485273E-3,6.6491715E-3,2.180683E-3,0E0,6.2345536E-3,4.7997315E-3,4.404608E-3,8.949801E-3,3.2246304E-3,3.5306343E-3,1.1435803E-4,4.964996E-3,0E0,9.836655E-4,1.1106506E-2,6.0555786E-3,4.3475665E-3,2.8247423E-3,4.8177717E-3,2.8733616E-3,0E0,2.2291671E-4,5.376368E-3,1.3558948E-3,2.2655325E-3,3.295916E-3,1.0194508E-3,1.8241673E-3,2.6673898E-3,4.4605494E-3,3.7949039E-3,0E0,9.622281E-4,2.8245924E-3,0E0,0E0,2.8351974E-4,1.4858451E-3,0E0,4.1167653E-4,2.9472301E-3,6.0872883E-3,1.9286385E-2,3.3413917E-3,0E0,0E0,0E0,0E0,0E0,0E0,0E0,0E0,0E0,0E0,0E0,0E0,0E0,0E0,0E0,0E0,0E0,0E0,0E0,0E0,0E0,0E0,0E0,0E0,0E0,0E0,0E0,0E0,0E0,0E0,0E0,0E0,0E0,0E0,0E0,0E0,0E0,0E0,0E0,0E0,0E0,0E0,0E0,0E0,0E0,0E0],"parents":[2147483647,0,0,1,1,2,2,3,3,4,4,5,5,6,6,7,7,8,8,9,9,10,10,11,11,12,12,13,13,14,14,15,15,16,16,17,17,19,19,20,20,21,21,22,22,23,23,24,24,25,25,26,26,28,28,29,29,30,30,31,31,32,32,33,33,34,34,36,36,37,37,38,38,39,39,40,40,41,41,42,42,43,43,44,44,45,45,47,47,48,48,51,51,52,52,54,54,55,55,56,56,57,57,58,58],"right_children":[2,4,6,8,10,12,14,16,18,20,22,24,26,28,30,32,34,36,-1,38,40,42,44,46,48,50,52,-1,54,56,58,60,62,64,66,-1,68,70,72,74,76,78,80,82,84,86,-1,88,90,-1,-1,92,94,-1,96,98,100,102,104,-1,-1,-1,-1,-1,-1,-1,-1,-1,-1,-1,-1,-1,-1,-1,-1,-1,-1,-1,-1,-1,-1,-1,-1,-1,-1,-1,-1,-1,-1,-1,-1,-1,-1,-1,-1,-1,-1,-1,-1,-1,-1,-1,-1,-1,-1],"split_conditions":[2.94E1,2.41E1,2.5E1,1.2809339E0,2.9E1,6.1E0,2.69E1,2.72E1,2.33E1,2.8E1,1.6393442E-2,1.3350011E0,2.020202E-2,2.5E0,3.0454546E-1,2.56E1,1.91E1,7.142857E-3,-1.8282309E-3,2.77E1,1.1631508E0,3.1E1,2.7522936E-2,6E0,2.2E1,1.2809339E0,2.3E1,-2.9213957E-3,1.1939225E0,1.0986123E0,2.6E1,3.4E0,7.8845733E-1,1.509434E-1,1.010101E-2,-1.2578553E-3,2.3E1,1.4350846E0,2.78E1,2.5964913E-1,3.4013607E-2,2.6E1,3E0,1.8E0,3.1E1,1.410987E0,-3.7291774E-3,4.7000363E-1,1.3609766E0,-1.1254615E-3,1.4914573E-5,3.51E1,4.5E1,1.5550916E-3,2.276923E-1,2.8E1,1.24223605E-2,3.73E1,9.932518E-1,-9.085281E-4,1.8183915E-3,5.258075E-4,-2.5170406E-3,8.829405E-4,5.5808565E-3,-3.0639651E-3,-2.7168632E-4,5.319033E-4,2.8039014E-3,4.3125092E-5,5.3358003E-3,5.4173893E-3,1.1990174E-3,-1.3661351E-3,-3.9946567E-3,7.247795E-4,-1.2365583E-3,2.7910376E-3,2.5647358E-4,-2.3179818E-3,1.3379827E-3,6.6402005E-3,2.9720708E-3,-1.2916113E-3,1.7593289E-3,-6.2749995E-4,1.846214E-3,-1.7947024E-3,4.887642E-4,5.263667E-4,4.2449506E-3,7.722548E-4,-6.498713E-4,5.3924946E-3,2.1998277E-3,-1.1103852E-3,4.2873994E-4,-5.901651E-4,1.769823E-3,-5.1448954E-4,3.4058203E-3,-4.204867E-3,4.201407E-3,6.283191E-3,4.097936E-3],"split_indices":[0,0,1,7,1,3,2,2,0,2,9,6,9,3,5,2,0,9,0,2,6,1,9,3,1,6,1,0,6,6,1,3,6,5,9,0,1,6,2,5,9,0,3,3,1,7,0,7,6,0,0,2,0,0,5,1,9,0,6,0,0,0,0,0,0,0,0,0,0,0,0,0,0,0,0,0,0,0,0,0,0,0,0,0,0,0,0,0,0,0,0,0,0,0,0,0,0,0,0,0,0,0,0,0,0],"split_type":[0,0,0,0,0,0,0,0,0,0,0,0,0,0,0,0,0,0,0,0,0,0,0,0,0,0,0,0,0,0,0,0,0,0,0,0,0,0,0,0,0,0,0,0,0,0,0,0,0,0,0,0,0,0,0,0,0,0,0,0,0,0,0,0,0,0,0,0,0,0,0,0,0,0,0,0,0,0,0,0,0,0,0,0,0,0,0,0,0,0,0,0,0,0,0,0,0,0,0,0,0,0,0,0,0],"sum_hessian":[1.316E3,1.029E3,2.87E2,8.73E2,1.56E2,9.9E1,1.88E2,8.59E2,1.4E1,1.06E2,5E1,7.7E1,2.2E1,1E1,1.78E2,7.93E2,6.6E1,1.3E1,1E0,5.3E1,5.3E1,1.3E1,3.7E1,6.3E1,1.4E1,6E0,1.6E1,2E0,8E0,7.9E1,9.9E1,7.56E2,3.7E1,1.2E1,5.4E1,1E0,1.2E1,4.9E1,4E0,2E1,3.3E1,6E0,7E0,1.6E1,2.1E1,6.1E1,2E0,6E0,8E0,5E0,1E0,6E0,1E1,2E0,6E0,2E1,5.9E1,1.1E1,8.8E1,7.51E2,5E0,3E0,3.4E1,1E1,2E0,3E0,5.1E1,1E0,1.1E1,4.8E1,1E0,2E0,2E0,1.6E1,4E0,1.9E1,1.4E1,3E0,3E0,6E0,1E0,3E0,1.3E1,6E0,1.5E1,5.5E1,6E0,2E0,4E0,4E0,4E0,5E0,1E0,5E0,5E0,4E0,2E0,1.2E1,8E0,4E0,5.5E1,3E0,8E0,1.2E1,7.6E1],"tree_param":{"num_deleted":"0","num_feature":"10","num_nodes":"105","size_leaf_vector":"1"}},{"base_weights":[8.664939E-4,-4.0239953E-3,2.0684512E-2,-6.379133E-3,5.65123E-3,8.831439E-3,3.2292943E-2,-6.8683126E-3,1.8311221E-2,1.306992E-4,1.977783E-2,1.952714E-2,1.6351439E-3,2.3929138E-2,4.302488E-2,-9.136269E-3,-3.8316979E-3,2.1626696E-2,-1.7368194E-3,6.0418762E-2,-1.9069428E-3,2.5432684E-2,-4.489728E-3,-6.1278214E-4,3.2763112E-2,-2.1570519E-2,6.459683E-3,1.7985411E-2,3.557267E-2,-9.9060135E-3,4.5129746E-2,3.0511222E-3,-9.400381E-3,-6.9357813E-3,1.5248016E-3,-1.1949626E-3,2.466176E-2,7.0779803E-3,9.4872975E-4,-4.663503E-3,5.6523564E-3,7.916838E-4,3.2736987E-2,-1.7212635E-2,1.1101953E-2,-6.9779367E-3,2.9774897E-2,-3.0518842E-3,3.5788946E-2,4.0096813E-4,-4.3599285E-2,9.072937E-3,-1.7235769E-3,9.784603E-3,2.909634E-2,4.740787E-2,9.264777E-3,2.4198971E-3,-3.9057992E-3,5.0257325E-2,2.9490195E-2,-5.7422224E-4,2.8414114E-3,-9.670332E-4,2.8166742E-4,-5.374706E-4,-1.7570315E-3,4.5251366E-4,-1.2415281E-3,2.6438553E-3,8.7417365E-4,-2.12191E-3,-2.7768858E-4,2.880615E-3,-1.998943E-4,4.181419E-3,-6.738925E-4,4.318045E-3,1.7910533E-3,-5.9380876E-5,-2.3741405E-3,2.8083527E-3,2.0889328E-4,-2.168214E-3,-2.865765E-4,3.728284E-3,3.6255346E-4,-9.35521E-4,3.9224927E-3,1.1806554E-3,-8.8036945E-4,-5.9867683E-3,2.7005547E-3,2.5859654E-3,2.5296674E-4,2.5291168E-4,3.5335755E-3,-1.4854718E-3,3.6817808E-3,-1.3798677E-3,5.20957E-3,-1.2575199E-3,1.7301228E-3,-5.4431708E-5,5.1573887E-3,3.601497E-3,-1.0788813E-3],"categories":[],"categories_nodes":[],"categories_segments":[],"categories_sizes":[],"default_left":[0,0,0,0,0,0,0,0,0,0,0,0,0,0,0,0,0,0,0,0,0,0,0,0,0,0,0,0,0,0,0,0,0,0,0,0,0,0,0,0,0,0,0,0,0,0,0,0,0,0,0,0,0,0,0,0,0,0,0,0,0,0,0,0,0,0,0,0,0,0,0,0,0,0,0,0,0,0,0,0,0,0,0,0,0,0,0,0,0,0,0,0,0,0,0,0,0,0,0,0,0,0,0,0,0,0,0],"id":16,"left_children":[1,3,5,7,9,11,13,15,17,19,21,23,25,27,29,31,33,35,-1,37,39,41,43,45,47,49,51,53,55,57,59,61,63,65,67,-1,69,-1,-1,71,73,75,77,79,81,83,85,-1,87,89,91,93,-1,95,97,99,101,-1,-1,103,105,-1,-1,-1,-1,-1,-1,-1,-1,-1,-1,-1,-1,-1,-1,-1,-1,-1,-1,-1,-1,-1,-1,-1,-1,-1,-1,-1,-1,-1,-1,-1,-1,-1,-1,-1,-1,-1,-1,-1,-1,-1,-1,-1,-1,-1,-1],"loss_changes":[1.2927733E-1,2.441759E-2,3.6040038E-2,1.0524947E-2,1.6374545E-2,1.0128033E-2,1.0908514E-2,5.784426E-3,2.3866184E-3,1.878773E-2,8.210724E-3,1.4148366E-2,9.095868E-3,4.6890676E-3,6.7975745E-3,1.5833862E-3,6.0461843E-3,1.9251998E-3,0E0,1.9670054E-3,3.1103336E-3,8.613382E-3,2.571552E-3,4.4630575E-3,7.2196126E-3,6.7935484E-3,4.305169E-3,4.5445897E-3,7.3447563E-3,3.9278464E-3,2.9285178E-3,2.6164409E-3,1.5871897E-3,3.7238672E-3,5.6607197E-3,0E0,1.9317959E-4,0E0,0E0,3.34559E-3,7.143845E-3,3.988876E-3,4.955679E-3,7.4540544E-4,8.596669E-4,1.086722E-3,6.501414E-4,0E0,5.175505E-3,9.4381784E-4,9.657151E-3,6.6348244E-3,0E0,5.8429847E-3,8.012986E-3,5.5965856E-3,1.7972093E-3,0E0,0E0,2.7034134E-3,4.593541E-3,0E0,0E0,0E0,0E0,0E0,0E0,0E0,0E0,0E0,0E0,0E0,0E0,0E0,0E0,0E0,0E0,0E0,0E0,0E0,0E0,0E0,0E0,0E0,0E0,0E0,0E0,0E0,0E0,0E0,0E0,0E0,0E0,0E0,0E0,0E0,0E0,0E0,0E0,0E0,0E0,0E0,0E0,0E0,0E0,0E0,0E0],"parents":[2147483647,0,0,1,1,2,2,3,3,4,4,5,5,6,6,7,7,8,8,9,9,10,10,11,11,12,12,13,13,14,14,15,15,16,16,17,17,19,19,20,20,21,21,22,22,23,23,24,24,25,25,26,26,27,27,28,28,29,29,30,30,31,31,32,32,33,33,34,34,36,36,39,39,40,40,41,41,42,42,43,43,44,44,45,45,46,46,48,48,49,49,50,50,51,51,53,53,54,54,55,55,56,56,59,59,60,60],"right_children":[2,4,6,8,10,12,14,16,18,20,22,24,26,28,30,32,34,36,-1,38,40,42,44,46,48,50,52,54,56,58,60,62,64,66,68,-1,70,-1,-1,72,74,76,78,80,82,84,86,-1,88,90,92,94,-1,96,98,100,102,-1,-1,104,106,-1,-1,-1,-1,-1,-1,-1,-1,-1,-1,-1,-1,-1,-1,-1,-1,-1,-1,-1,-1,-1,-1,-1,-1,-1,-1,-1,-1,-1,-1,-1,-1,-1,-1,-1,-1,-1,-1,-1,-1,-1,-1,-1,-1,-1,-1],"split_conditions":[3.09E1,2.41E1,2.7E1,1.2809339E0,3E1,2.5531914E-2,2.5E0,2.7E1,2.33E1,2.7567568E-1,5.357143E-2,2.4E1,2.7972028E-2,3.1E1,2.92E1,4.7000363E-1,7.8845733E-1,7.142857E-3,-1.7368194E-3,2.69E1,5.224719E-1,1.6393442E-2,9.917355E-2,1.410987E0,1.6E0,2.4E1,1.0793651E-1,3.6E1,3.85E1,3.1E1,3.53E1,9.6E0,1.8E0,4.5614034E-1,1.0986123E0,-1.1949626E-3,2.7272727E-2,7.0779803E-3,9.4872975E-4,1.6528925E-2,5.4042554E-1,1.4E0,1.1314021E0,2.49E1,1E0,3.15E1,4.41E1,-3.0518842E-3,7.8845733E-1,5.884146E-1,4.11E1,2.6236427E-1,-1.7235769E-3,3.46E1,1.7E0,1.24223605E-2,1.8E0,2.4198971E-3,-3.9057992E-3,2.6E0,3.4E0,-5.7422224E-4,2.8414114E-3,-9.670332E-4,2.8166742E-4,-5.374706E-4,-1.7570315E-3,4.5251366E-4,-1.2415281E-3,2.6438553E-3,8.7417365E-4,-2.12191E-3,-2.7768858E-4,2.880615E-3,-1.998943E-4,4.181419E-3,-6.738925E-4,4.318045E-3,1.7910533E-3,-5.9380876E-5,-2.3741405E-3,2.8083527E-3,2.0889328E-4,-2.168214E-3,-2.865765E-4,3.728284E-3,3.6255346E-4,-9.35521E-4,3.9224927E-3,1.1806554E-3,-8.8036945E-4,-5.9867683E-3,2.7005547E-3,2.5859654E-3,2.5296674E-4,2.5291168E-4,3.5335755E-3,-1.4854718E-3,3.6817808E-3,-1.3798677E-3,5.20957E-3,-1.2575199E-3,1.7301228E-3,-5.4431708E-5,5.1573887E-3,3.601497E-3,-1.0788813E-3],"split_indices":[0,0,1,7,1,9,4,1,0,8,9,1,9,1,2,6,7,9,0,0,8,9,9,7,4,1,9,0,0,0,2,0,4,8,7,0,9,0,0,9,8,4,6,0,4,2,0,0,6,8,0,7,0,2,4,9,4,0,0,4,4,0,0,0,0,0,0,0,0,0,0,0,0,0,0,0,0,0,0,0,0,0,0,0,0,0,0,0,0,0,0,0,0,0,0,0,0,0,0,0,0,0,0,0,0,0,0],"split_type":[0,0,0,0,0,0,0,0,0,0,0,0,0,0,0,0,0,0,0,0,0,0,0,0,0,0,0,0,0,0,0,0,0,0,0,0,0,0,0,0,0,0,0,0,0,0,0,0,0,0,0,0,0,0,0,0,0,0,0,0,0,0,0,0,0,0,0,0,0,0,0,0,0,0,0,0,0,0,0,0,0,0,0,0,0,0,0,0,0,0,0,0,0,0,0,0,0,0,0,0,0,0,0,0,0,0,0],"sum_hessian":[1.332E3,1.069E3,2.63E2,8.6E2,2.09E2,1.31E2,1.32E2,8.44E2,1.6E1,1.51E2,5.8E1,5.2E1,7.9E1,7.6E1,5.6E1,4.82E2,3.62E2,1.5E1,1E0,4E0,1.47E2,4.7E1,1.1E1,2.1E1,3.1E1,1.3E1,6.6E1,5.2E1,2.4E1,2E0,5.4E1,1E1,4.72E2,2.29E2,1.33E2,1E0,1.4E1,3E0,1E0,1.08E2,3.9E1,1.1E1,3.6E1,6E0,5E0,1.8E1,3E0,1E0,3E1,7E0,6E0,6E1,6E0,3.1E1,2.1E1,1.6E1,8E0,1E0,1E0,3.9E1,1.5E1,8E0,2E0,4.62E2,1E1,2.01E2,2.8E1,1.1E2,2.3E1,1.2E1,2E0,1E1,9.8E1,9E0,3E1,1E0,1E1,2E1,1.6E1,2E0,4E0,1E0,4E0,3E0,1.5E1,2E0,1E0,2E0,2.8E1,3E0,4E0,5E0,1E0,1.6E1,4.4E1,2.5E1,6E0,3E0,1.8E1,1E0,1.5E1,2E0,6E0,1E0,3.8E1,1.3E1,2E0],"tree_param":{"num_deleted":"0","num_feature":"10","num_nodes":"107","size_leaf_vector":"1"}},{"base_weights":[7.787729E-4,-4.1635386E-3,1.8252518E-2,-7.320753E-3,1.3026365E-4,4.4964626E-3,2.829715E-2,-7.4922154E-3,1.9800183E-3,-6.927212E-3,3.8429762E-3,-9.707253E-3,8.363849E-3,1.5329268E-2,3.7631072E-2,-9.95747E-3,-6.0207555E-3,1.4432628E-2,-7.606613E-3,-1.3266748E-2,5.243619E-3,-2.1211915E-2,-4.7205272E-4,2.4924396E-2,2.9529557E-3,-6.2896335E-3,1.9330867E-2,-3.9735376E-3,3.885088E-2,-1.0177857E-2,1.9043481E-3,2.2832039E-3,-6.86282E-3,4.812996E-4,2.6455577E-3,-1.2632763E-2,-5.1923986E-3,-9.272645E-3,-2.892205E-3,-1.4879217E-3,8.752523E-3,-6.2620584E-3,-3.0995805E-3,-1.4322455E-2,5.338286E-3,-7.9107564E-4,4.6744496E-2,-1.3730557E-2,1.2085646E-2,-2.846425E-2,3.044768E-2,3.172273E-2,7.855266E-3,3.375046E-2,5.6544966E-3,-5.90949E-4,-1.172455E-3,-1.5525425E-4,4.3715346E-3,1.3036182E-3,-7.200752E-4,-1.4146065E-3,-1.9644608E-4,-5.739666E-4,2.476716E-3,-2.2267622E-3,-4.3228103E-4,-1.9518469E-3,1.998567E-4,1.4782798E-3,3.7510353E-4,7.393185E-4,-1.0471744E-3,-1.9898526E-4,-1.6908143E-3,-6.647453E-4,8.40018E-4,1.5471461E-3,-7.9309725E-4,2.7221646E-3,6.498421E-3,5.7135255E-4,-3.2193884E-3,7.095157E-6,2.9503407E-3,-3.4964816E-3,-5.97504E-4,3.4897346E-3,6.324511E-4,8.8341767E-4,5.249643E-3,1.0419813E-3,-3.7105095E-3,2.1268276E-3,3.9001484E-3],"categories":[],"categories_nodes":[],"categories_segments":[],"categories_sizes":[],"default_left":[0,0,0,0,0,0,0,0,0,0,0,0,0,0,0,0,0,0,0,0,0,0,0,0,0,0,0,0,0,0,0,0,0,0,0,0,0,0,0,0,0,0,0,0,0,0,0,0,0,0,0,0,0,0,0,0,0,0,0,0,0,0,0,0,0,0,0,0,0,0,0,0,0,0,0,0,0,0,0,0,0,0,0,0,0,0,0,0,0,0,0,0,0,0,0],"id":17,"left_children":[1,3,5,7,9,11,13,15,-1,17,19,21,23,25,27,29,31,33,35,37,39,41,43,45,47,49,51,-1,53,55,-1,57,59,-1,-1,61,63,65,-1,67,69,71,-1,73,75,77,79,81,83,85,87,89,91,93,-1,-1,-1,-1,-1,-1,-1,-1,-1,-1,-1,-1,-1,-1,-1,-1,-1,-1,-1,-1,-1,-1,-1,-1,-1,-1,-1,-1,-1,-1,-1,-1,-1,-1,-1,-1,-1,-1,-1,-1,-1],"loss_changes":[1.1398575E-1,1.3950547E-2,4.0081553E-2,