{"learner":{"attributes":{"best_iteration":"61","best_score":"6086129.953477653"},"feature_names":["FP","PTS","Age","Min","FTA","TOV","PTS_per_gp","log1p_PF","log1p_3PM","PTS_per_min","OREB_per_min","DD2","AST_per_gp","TS%_calc","STL_per_gp","AST","3PM_per_gp","log1p_DREB","FT%","FTM_per_gp","PF_per_min","REB_per_gp","TOV_per_gp","+/-","DREB_per_min","3PA_per_min","BLK_per_gp","3P%","STL","FTM_per_min","DREB_share","log1p_AST_per_min","REB","TOV_per_min","OREB","BLK","FGA_per_min","FG%","W","GP"],"feature_types":["float","float","int","float","float","float","float","float","float","float","float","int","float","float","float","float","float","float","float","float","float","float","float","float","float","float","float","float","float","float","float","float","float","float","float","float","float","float","int","int"],"gradient_booster":{"model":{"gbtree_model_param":{"num_parallel_tree":"1","num_trees":"92"},"iteration_indptr":[0,1,2,3,4,5,6,7,8,9,10,11,12,13,14,15,16,17,18,19,20,21,22,23,24,25,26,27,28,29,30,31,32,33,34,35,36,37,38,39,40,41,42,43,44,45,46,47,48,49,50,51,52,53,54,55,56,57,58,59,60,61,62,63,64,65,66,67,68,69,70,71,72,73,74,75,76,77,78,79,80,81,82,83,84,85,86,87,88,89,90,91,92],"tree_info":[0,0,0,0,0,0,0,0,0,0,0,0,0,0,0,0,0,0,0,0,0,0,0,0,0,0,0,0,0,0,0,0,0,0,0,0,0,0,0,0,0,0,0,0,0,0,0,0,0,0,0,0,0,0,0,0,0,0,0,0,0,0,0,0,0,0,0,0,0,0,0,0,0,0,0,0,0,0,0,0,0,0,0,0,0,0,0,0,0,0,0,0],"trees":[{"base_weights":[1.070759E5,-4.2124125E6,1.4594714E7,-6.7069E6,-6.582764E5,8.805631E6,2.1723752E7,-7.537302E6,-5.550601E6,-2.517951E6,2.353409E6,5.423388E6,1.4916021E7,1.3079802E7,2.494202E7,-7.563756E6,8.0791555E4,-5.69357E6,4.844106E6,-3.206568E6,2.716794E6,2.1271158E6,1.8626896E6,1.8672621E6,1.079596E7,1.0388925E7,2.0838398E7,1.8522748E7,6.375504E6,2.5494456E7,-1.0498845E6,-7.813724E6,-6.129748E6,-5.891093E6,1.0672619E6,1.0775425E5,5.740447E5,-3.556136E6,2.4907142E6,-4.7063815E6,4.3253425E6,1.5014669E5,7.5053945E6,-2.725085E5,5.8015295E6,5.636277E5,1.3788892E7,1.3752431E7,-3.102398E6,2.2436954E7,1.6366706E6,2.3233318E7,-1.1977448E6,2.1747545E6,2.134025E6,-2.750975E5,2.5820734E7,-2.0281492E5,4.533225E4,-7.894221E5,-2.674415E5,-6.3821094E5,4.5601035E4,4.4730734E5,-5.951902E5,-8.409655E4,7.212427E5,-2.6125153E5,-4.830346E5,-4.737733E5,4.0902666E5,1.842175E4,-5.721345E5,1.0354487E6,2.758476E5,9.524951E5,-6.7352164E4,1.36773E4,9.868995E5,9.011003E5,-9.13858E4,-1.780577E5,1.0469498E6,-3.631632E5,8.81324E5,2.0751994E6,9.0475644E5,1.9385144E6,4.1573247E5,3.3038597E5,-4.4895575E5,1.320992E6,2.49165E6,3.5275047E5,-1.0724985E5,2.6667888E6,5.403995E5,4.1533406E5,-3.5738512E5,7.999395E5,-1.25927E5,2.6146828E6,-2.4160903E5],"categories":[],"categories_nodes":[],"categories_segments":[],"categories_sizes":[],"default_left":[0,0,0,0,0,0,0,0,0,0,0,0,0,0,0,0,0,0,0,0,0,0,0,0,0,0,0,0,0,0,0,0,0,0,0,0,0,0,0,0,0,0,0,0,0,0,0,0,0,0,0,0,0,0,0,0,0,0,0,0,0,0,0,0,0,0,0,0,0,0,0,0,0,0,0,0,0,0,0,0,0,0,0,0,0,0,0,0,0,0,0,0,0,0,0,0,0,0,0,0,0,0,0],"id":0,"left_children":[1,3,5,7,9,11,13,15,17,19,21,23,25,27,29,31,-1,33,35,37,39,-1,41,43,45,47,49,51,53,55,57,59,61,63,65,-1,-1,67,69,71,73,75,77,79,81,83,85,87,89,91,93,95,97,-1,99,-1,101,-1,-1,-1,-1,-1,-1,-1,-1,-1,-1,-1,-1,-1,-1,-1,-1,-1,-1,-1,-1,-1,-1,-1,-1,-1,-1,-1,-1,-1,-1,-1,-1,-1,-1,-1,-1,-1,-1,-1,-1,-1,-1,-1,-1,-1,-1],"loss_changes":[8.310405E16,9.065248E15,1.2396238E16,5.3523882E14,2.3750452E15,3.4324648E15,3.457088E15,8.2716775E13,4.0654174E14,9.53152E14,1.4642743E15,2.1005563E15,1.3921825E15,1.3050623E15,1.4339307E15,7.613044E13,0E0,3.42813E14,7.3189095E12,4.7090558E14,3.905134E14,0E0,1.5353495E15,5.740342E14,1.3397141E15,1.6762793E15,7.306534E14,1.9786173E15,1.1923935E15,9.557505E14,5.3310086E12,9.92728E13,9.598192E13,1.8102911E14,9.987637E13,0E0,0E0,2.5069993E14,1.812505E14,3.0836632E13,2.170559E14,9.561879E14,6.430601E14,2.7616368E14,8.6807456E14,4.1270834E14,9.347325E14,1.4867572E15,8.592489E13,1.9706813E14,1.915101E13,8.968998E14,7.841716E13,0E0,3.285203E14,0E0,9.379264E14,0E0,0E0,0E0,0E0,0E0,0E0,0E0,0E0,0E0,0E0,0E0,0E0,0E0,0E0,0E0,0E0,0E0,0E0,0E0,0E0,0E0,0E0,0E0,0E0,0E0,0E0,0E0,0E0,0E0,0E0,0E0,0E0,0E0,0E0,0E0,0E0,0E0,0E0,0E0,0E0,0E0,0E0,0E0,0E0,0E0,0E0],"parents":[2147483647,0,0,1,1,2,2,3,3,4,4,5,5,6,6,7,7,8,8,9,9,10,10,11,11,12,12,13,13,14,14,15,15,17,17,18,18,19,19,20,20,22,22,23,23,24,24,25,25,26,26,27,27,28,28,29,29,30,30,31,31,32,32,33,33,34,34,37,37,38,38,39,39,40,40,41,41,42,42,43,43,44,44,45,45,46,46,47,47,48,48,49,49,50,50,51,51,52,52,54,54,56,56],"right_children":[2,4,6,8,10,12,14,16,18,20,22,24,26,28,30,32,-1,34,36,38,40,-1,42,44,46,48,50,52,54,56,58,60,62,64,66,-1,-1,68,70,72,74,76,78,80,82,84,86,88,90,92,94,96,98,-1,100,-1,102,-1,-1,-1,-1,-1,-1,-1,-1,-1,-1,-1,-1,-1,-1,-1,-1,-1,-1,-1,-1,-1,-1,-1,-1,-1,-1,-1,-1,-1,-1,-1,-1,-1,-1,-1,-1,-1,-1,-1,-1,-1,-1,-1,-1,-1,-1],"split_conditions":[2.94E1,1.84E1,3.73E1,1.37E1,2.41E1,2E0,5.7570976E-1,4E0,1.2527629E0,3.7254903E-2,4.62E1,3.6507938E-2,4.6E0,8.4E-1,8E1,1.64E1,8.0791555E4,2.66E1,1.77E1,3.02E1,1.1E1,2.1271158E6,8.46E1,1.62E1,-5.2E0,1.05758846E-1,7.6E1,1.2987013E-1,1.171875E-2,-5.2E0,3.77E1,9.1629076E-1,9.3939394E-1,1.15E1,1.509434E-1,1.0775425E5,5.740447E5,3E0,7.38E1,1.95E1,3.6E1,1.24223605E-2,9.52381E-2,3.8614836E-2,3.3898305E-3,6.158192E-1,1.0296195E0,7.54717E-2,1.1E1,1.32E1,3.37E1,1.4E0,3.88E1,2.1747545E6,3.99E1,-2.750975E5,1.09E1,-2.0281492E5,4.533225E4,-7.894221E5,-2.674415E5,-6.3821094E5,4.5601035E4,4.4730734E5,-5.951902E5,-8.409655E4,7.212427E5,-2.6125153E5,-4.830346E5,-4.737733E5,4.0902666E5,1.842175E4,-5.721345E5,1.0354487E6,2.758476E5,9.524951E5,-6.7352164E4,1.36773E4,9.868995E5,9.011003E5,-9.13858E4,-1.780577E5,1.0469498E6,-3.631632E5,8.81324E5,2.0751994E6,9.0475644E5,1.9385144E6,4.1573247E5,3.3038597E5,-4.4895575E5,1.320992E6,2.49165E6,3.5275047E5,-1.0724985E5,2.6667888E6,5.403995E5,4.1533406E5,-3.5738512E5,7.999395E5,-1.25927E5,2.6146828E6,-2.4160903E5],"split_indices":[0,0,0,0,0,23,13,11,8,16,18,16,15,30,39,3,0,3,0,3,38,0,18,1,23,31,39,21,10,23,0,8,30,3,6,0,0,11,18,0,39,10,24,31,26,9,7,20,1,1,0,28,0,0,0,0,15,0,0,0,0,0,0,0,0,0,0,0,0,0,0,0,0,0,0,0,0,0,0,0,0,0,0,0,0,0,0,0,0,0,0,0,0,0,0,0,0,0,0,0,0,0,0],"split_type":[0,0,0,0,0,0,0,0,0,0,0,0,0,0,0,0,0,0,0,0,0,0,0,0,0,0,0,0,0,0,0,0,0,0,0,0,0,0,0,0,0,0,0,0,0,0,0,0,0,0,0,0,0,0,0,0,0,0,0,0,0,0,0,0,0,0,0,0,0,0,0,0,0,0,0,0,0,0,0,0,0,0,0,0,0,0,0,0,0,0,0,0,0,0,0,0,0,0,0,0,0,0,0],"sum_hessian":[1.326E3,1.022E3,3.04E2,6E2,4.22E2,1.69E2,1.35E2,3.46E2,2.54E2,2.61E2,1.61E2,1.1E2,5.9E1,3.8E1,9.7E1,3.45E2,1E0,2.51E2,3E0,2.31E2,3E1,3E0,1.58E2,6.7E1,4.3E1,3.5E1,2.4E1,2E1,1.8E1,9.5E1,2E0,2.9E2,5.5E1,2.44E2,7E0,1E0,2E0,2.18E2,1.3E1,5E0,2.5E1,1.22E2,3.6E1,4.4E1,2.3E1,1E1,3.3E1,2.8E1,7E0,2.2E1,2E0,1.6E1,4E0,3E0,1.5E1,1E0,9.4E1,1E0,1E0,2.85E2,5E0,5.3E1,2E0,1E0,2.43E2,6E0,1E0,1.27E2,9.1E1,2E0,1.1E1,1E0,4E0,4E0,2.1E1,9E0,1.13E2,9E0,2.7E1,2E0,4.2E1,9E0,1.4E1,7E0,3E0,1.2E1,2.1E1,1.7E1,1.1E1,1E0,6E0,6E0,1.6E1,1E0,1E0,1.3E1,3E0,1E0,3E0,5E0,1E1,9.3E1,1E0],"tree_param":{"num_deleted":"0","num_feature":"40","num_nodes":"103","size_leaf_vector":"1"}},{"base_weights":[-2.7822066E4,-3.4209788E6,1.5276697E7,-5.614104E6,8.0939406E5,-1.2074154E6,2.0157522E7,-6.733894E6,-4.1258182E6,-3.469168E6,3.9845435E6,-2.2201385E6,1.2513019E7,1.5086416E7,2.5754686E7,-7.05675E6,-4.926609E6,-6.2798305E6,-2.6166585E6,-4.947769E6,-1.0760701E6,1.7394792E6,8.38815E6,1.085059E6,-2.6801638E6,-1.583605E4,1.67896E6,1.1998612E7,1.9418156E7,1.8711744E7,3.0834686E7,-7.103963E6,6.620117E5,-6.114265E6,-2.1470308E6,-6.3852605E6,3.502188E5,-2.7857288E6,1.4161606E6,-5.336243E6,-2.9247602E6,-2.8048088E6,5.051377E6,1.3525841E7,1.1245594E6,6.878287E6,1.8192934E7,9.729616E5,-3.1142695E6,1.3985662E7,4.9726135E6,2.0033766E7,-2.2952858E5,6.153769E6,2.0808534E7,7.526627E5,3.1666378E7,-7.157347E5,-4.6212116E5,1.02366555E5,-3.0648E3,-6.752335E5,-2.811725E5,-3.8958244E5,2.8742572E5,-6.7351006E5,-2.8262603E5,-3.3978816E5,-1.0011581E4,8.618566E3,-5.4746106E5,-1.15327586E5,-3.5173872E5,-5.649631E4,-5.764367E5,-3.2228967E4,1.2269981E6,1.967582E6,3.9944022E5,-4.750034E4,3.3778934E5,5.02528E5,1.10025E6,1.313998E5,2.0138552E6,1.6292609E4,-3.820405E5,1.5115088E6,5.3725094E5,9.3157744E5,-3.094756E5,9.148013E5,2.1365552E6,1.1872728E6,-5.4290844E5,7.052423E5,2.2462742E6,6.781193E5,3.2059942E6],"categories":[],"categories_nodes":[],"categories_segments":[],"categories_sizes":[],"default_left":[0,0,0,0,0,0,0,0,0,0,0,0,0,0,0,0,0,0,0,0,0,0,0,0,0,0,0,0,0,0,0,0,0,0,0,0,0,0,0,0,0,0,0,0,0,0,0,0,0,0,0,0,0,0,0,0,0,0,0,0,0,0,0,0,0,0,0,0,0,0,0,0,0,0,0,0,0,0,0,0,0,0,0,0,0,0,0,0,0,0,0,0,0,0,0,0,0,0,0],"id":1,"left_children":[1,3,5,7,9,11,13,15,17,19,21,23,25,27,29,31,33,35,37,39,41,43,45,-1,47,-1,-1,49,51,53,55,57,59,61,63,65,-1,67,-1,69,71,73,75,77,79,81,83,-1,85,87,89,91,-1,93,95,-1,97,-1,-1,-1,-1,-1,-1,-1,-1,-1,-1,-1,-1,-1,-1,-1,-1,-1,-1,-1,-1,-1,-1,-1,-1,-1,-1,-1,-1,-1,-1,-1,-1,-1,-1,-1,-1,-1,-1,-1,-1,-1,-1],"loss_changes":[6.896421E16,1.0089444E16,1.9414257E16,1.1654802E15,5.067471E15,8.059007E14,4.890834E15,2.0271601E14,9.912994E14,5.5728717E14,2.1010945E15,3.477633E14,2.1941941E14,1.10456466E15,2.5357315E15,1.297005E14,2.014494E14,1.5334053E14,5.614043E14,6.140971E13,6.70919E14,1.02120585E15,9.407433E14,0E0,3.1043282E14,0E0,0E0,7.820765E14,5.806635E14,8.9887545E14,7.1153005E14,1.2120398E13,7.8288244E11,7.584067E13,1.956027E14,1.3784429E14,0E0,3.0051282E14,0E0,6.124516E13,1.4840421E13,3.21562E14,5.4701962E14,3.3173388E14,4.954004E14,4.3380968E14,2.6909742E14,0E0,1.1864381E14,3.7600613E14,5.543982E14,3.6995023E14,0E0,5.2815102E14,5.925122E14,0E0,2.4291047E14,0E0,0E0,0E0,0E0,0E0,0E0,0E0,0E0,0E0,0E0,0E0,0E0,0E0,0E0,0E0,0E0,0E0,0E0,0E0,0E0,0E0,0E0,0E0,0E0,0E0,0E0,0E0,0E0,0E0,0E0,0E0,0E0,0E0,0E0,0E0,0E0,0E0,0E0,0E0,0E0,0E0,0E0],"parents":[2147483647,0,0,1,1,2,2,3,3,4,4,5,5,6,6,7,7,8,8,9,9,10,10,11,11,12,12,13,13,14,14,15,15,16,16,17,17,18,18,19,19,20,20,21,21,22,22,24,24,27,27,28,28,29,29,30,30,31,31,32,32,33,33,34,34,35,35,37,37,39,39,40,40,41,41,42,42,43,43,44,44,45,45,46,46,48,48,49,49,50,50,51,51,53,53,54,54,56,56],"right_children":[2,4,6,8,10,12,14,16,18,20,22,24,26,28,30,32,34,36,38,40,42,44,46,-1,48,-1,-1,50,52,54,56,58,60,62,64,66,-1,68,-1,70,72,74,76,78,80,82,84,-1,86,88,90,92,-1,94,96,-1,98,-1,-1,-1,-1,-1,-1,-1,-1,-1,-1,-1,-1,-1,-1,-1,-1,-1,-1,-1,-1,-1,-1,-1,-1,-1,-1,-1,-1,-1,-1,-1,-1,-1,-1,-1,-1,-1,-1,-1,-1,-1,-1],"split_conditions":[1.66E1,2.38E1,2.4E1,2.7E1,2.6E1,1.4350846E0,2.18E1,1.4350846E0,1.62E1,2.4E1,2.93E1,1.8232156E-1,2.11E1,7.727273E-2,2.8E1,5.6E0,2.5E1,1.0296195E0,1.36E1,3.3E0,2.3043478E-1,4.62E1,1.5E1,1.085059E6,2.85E1,-1.583605E4,1.67896E6,8.4210527E-1,1.08E1,4E0,5.466667E-2,8E1,1.03E1,7.55E1,1.6129032E-2,1.6E0,3.502188E5,2.6984127E-2,1.4161606E6,1.607143E-2,9.2307694E-2,3.1147541E-2,3.04E1,3.6199097E-2,4.6296295E-2,3.1E1,9.5E0,9.729616E5,5.3763443E-1,1.8867925E-2,1.1356467E-1,2.8E0,-2.2952858E5,4.94E-1,3.142857E-2,7.526627E5,7.8125E-3,-7.157347E5,-4.6212116E5,1.02366555E5,-3.0648E3,-6.752335E5,-2.811725E5,-3.8958244E5,2.8742572E5,-6.7351006E5,-2.8262603E5,-3.3978816E5,-1.0011581E4,8.618566E3,-5.4746106E5,-1.15327586E5,-3.5173872E5,-5.649631E4,-5.764367E5,-3.2228967E4,1.2269981E6,1.967582E6,3.9944022E5,-4.750034E4,3.3778934E5,5.02528E5,1.10025E6,1.313998E5,2.0138552E6,1.6292609E4,-3.820405E5,1.5115088E6,5.3725094E5,9.3157744E5,-3.094756E5,9.148013E5,2.1365552E6,1.1872728E6,-5.4290844E5,7.052423E5,2.2462742E6,6.781193E5,3.2059942E6],"split_indices":[1,3,2,2,2,8,1,17,3,2,3,8,1,12,2,23,2,8,1,4,6,18,11,0,3,0,0,30,15,11,21,39,1,18,26,34,0,19,0,12,29,12,3,29,33,2,1,0,13,14,24,4,0,6,22,0,14,0,0,0,0,0,0,0,0,0,0,0,0,0,0,0,0,0,0,0,0,0,0,0,0,0,0,0,0,0,0,0,0,0,0,0,0,0,0,0,0,0,0],"split_type":[0,0,0,0,0,0,0,0,0,0,0,0,0,0,0,0,0,0,0,0,0,0,0,0,0,0,0,0,0,0,0,0,0,0,0,0,0,0,0,0,0,0,0,0,0,0,0,0,0,0,0,0,0,0,0,0,0,0,0,0,0,0,0,0,0,0,0,0,0,0,0,0,0,0,0,0,0,0,0,0,0,0,0,0,0,0,0,0,0,0,0,0,0,0,0,0,0,0,0],"sum_hessian":[1.326E3,1.086E3,2.4E2,7.15E2,3.71E2,5.5E1,1.85E2,4.06E2,3.09E2,1.58E2,2.13E2,5.2E1,3E0,9.9E1,8.6E1,3.42E2,6.4E1,1.26E2,1.83E2,9.7E1,6.1E1,1.42E2,7.1E1,1E0,5.1E1,1E0,2E0,6E1,3.9E1,3.8E1,4.8E1,3.4E2,2E0,4.4E1,2E1,1.25E2,1E0,1.82E2,1E0,8E1,1.7E1,4.8E1,1.3E1,6E0,1.36E2,6.3E1,8E0,1E0,5E1,4.6E1,1.4E1,3.8E1,1E0,6E0,3.2E1,2E0,4.6E1,3.31E2,9E0,1E0,1E0,3.6E1,8E0,1.5E1,5E0,1.13E2,1.2E1,1.48E2,3.4E1,2E0,7.8E1,5E0,1.2E1,2.8E1,2E1,8E0,5E0,3E0,3E0,8E1,5.6E1,4.5E1,1.8E1,1E0,7E0,9E0,4.1E1,4E1,6E0,9E0,5E0,5E0,3.3E1,4E0,2E0,4E0,2.8E1,1E0,4.5E1],"tree_param":{"num_deleted":"0","num_feature":"40","num_nodes":"99","size_leaf_vector":"1"}},{"base_weights":[-2.0205566E5,-3.2622415E6,1.3080216E7,-5.214857E6,4.8736744E5,-1.6075141E6,1.7494996E7,-6.0587195E6,-3.6926485E6,-3.293411E6,3.4438832E6,-2.5444692E6,1.1677498E7,1.4098386E7,2.444687E7,-6.092585E6,4.6072875E5,-4.844038E6,-7.149138E5,-4.6067765E6,-1.156428E6,5.902125E5,6.054283E6,-3.065874E6,1.0843915E5,-1.504425E4,1.5670294E6,1.0552058E7,1.9214956E7,-2.1805212E5,2.4927002E7,-6.532353E6,-5.1481115E6,-3.5029918E6,-6.0228715E6,-1.8481125E6,3.06003E6,-4.730249E6,3.808498E5,-2.5092368E6,2.6517158E6,-2.0135031E6,3.0323635E6,3.6573705E6,8.865721E6,1.6917777E5,-3.3205802E6,-2.2989978E6,2.0965634E5,5.759856E5,1.2157364E7,6.5746445E6,2.1035122E7,2.1369658E6,2.9372614E7,-5.970598E5,-6.923217E5,2.595629E5,-5.381241E5,-4.0866012E5,1.457824E5,-6.307255E5,2.0947567E5,-3.2308584E5,1.25051E5,-7.9172837E3,5.8592294E5,-3.6462762E5,-5.4649956E5,-4.94544E3,-4.1766088E5,-3.156649E5,4.681724E5,-2.781233E5,5.298767E5,5.413069E5,-1.3874431E5,1.8200132E6,2.5726616E5,1.0782754E6,3.3029434E5,-2.0320778E5,-4.7651797E5,-3.9903152E4,-2.6742316E5,4.346501E5,-1.8525848E5,1.3709874E6,7.083177E5,9.016608E5,-5.2595494E5,7.51007E5,2.2171468E6,8.498303E5,2.9910702E6],"categories":[],"categories_nodes":[],"categories_segments":[],"categories_sizes":[],"default_left":[0,0,0,0,0,0,0,0,0,0,0,0,0,0,0,0,0,0,0,0,0,0,0,0,0,0,0,0,0,0,0,0,0,0,0,0,0,0,0,0,0,0,0,0,0,0,0,0,0,0,0,0,0,0,0,0,0,0,0,0,0,0,0,0,0,0,0,0,0,0,0,0,0,0,0,0,0,0,0,0,0,0,0,0,0,0,0,0,0,0,0,0,0,0,0],"id":2,"left_children":[1,3,5,7,9,11,13,15,17,19,21,23,25,27,29,31,-1,33,35,37,39,41,43,45,47,-1,-1,49,51,-1,53,55,57,59,61,63,65,67,-1,69,71,73,75,77,79,-1,81,83,-1,85,87,89,91,-1,93,-1,-1,-1,-1,-1,-1,-1,-1,-1,-1,-1,-1,-1,-1,-1,-1,-1,-1,-1,-1,-1,-1,-1,-1,-1,-1,-1,-1,-1,-1,-1,-1,-1,-1,-1,-1,-1,-1,-1,-1],"loss_changes":[5.361439E16,7.8512357E15,1.604437E16,8.832235E14,4.1248208E15,7.5166585E14,4.14177E15,1.9133757E14,8.673837E14,4.4934834E14,1.538416E15,7.6410555E13,1.9126365E14,2.1560972E15,8.342201E14,1.5369326E14,0E0,2.6820165E14,3.136541E14,1.21920566E14,3.312103E14,6.419724E14,6.9536165E14,6.136072E13,5.268283E13,0E0,0E0,1.2581554E15,1.0580888E15,0E0,3.2119054E14,2.5413321E13,2.8115098E14,2.607335E14,2.3482975E14,2.4397823E14,1.4984721E14,5.892118E13,0E0,1.9255795E14,2.1522605E14,2.8981564E14,5.546676E14,8.996571E14,4.869226E14,0E0,7.221699E13,2.4975528E12,0E0,1.1793581E14,4.385763E14,2.7861258E14,5.251027E14,0E0,1.5380278E13,0E0,0E0,0E0,0E0,0E0,0E0,0E0,0E0,0E0,0E0,0E0,0E0,0E0,0E0,0E0,0E0,0E0,0E0,0E0,0E0,0E0,0E0,0E0,0E0,0E0,0E0,0E0,0E0,0E0,0E0,0E0,0E0,0E0,0E0,0E0,0E0,0E0,0E0,0E0,0E0],"parents":[2147483647,0,0,1,1,2,2,3,3,4,4,5,5,6,6,7,7,8,8,9,9,10,10,11,11,12,12,13,13,14,14,15,15,17,17,18,18,19,19,20,20,21,21,22,22,23,23,24,24,27,27,28,28,30,30,31,31,32,32,33,33,34,34,35,35,36,36,37,37,39,39,40,40,41,41,42,42,43,43,44,44,46,46,47,47,49,49,50,50,51,51,52,52,54,54],"right_children":[2,4,6,8,10,12,14,16,18,20,22,24,26,28,30,32,-1,34,36,38,40,42,44,46,48,-1,-1,50,52,-1,54,56,58,60,62,64,66,68,-1,70,72,74,76,78,80,-1,82,84,-1,86,88,90,92,-1,94,-1,-1,-1,-1,-1,-1,-1,-1,-1,-1,-1,-1,-1,-1,-1,-1,-1,-1,-1,-1,-1,-1,-1,-1,-1,-1,-1,-1,-1,-1,-1,-1,-1,-1,-1,-1,-1,-1,-1,-1],"split_conditions":[3.1E1,2.02E1,2.4E1,2.8E1,2.6E1,1.4350846E0,4.11E1,1.1818182E-1,2.05E1,2.4E1,2.41E1,2.56E1,3.52E1,2.9E1,7.8845733E-1,1.58E1,4.6072875E5,4.368932E-2,2.05E-1,3.5E1,2.3974359E-1,1.6463415E-1,3E1,2.4285715E-2,1.7917595E0,-1.504425E4,1.5670294E6,2.3561645E-1,3.05E1,-2.1805212E5,3E1,3.4334764E-2,9.259259E-3,4.191617E-2,1E0,1.5517241E-2,1.4166667E-1,1.2222222E-1,3.808498E5,2.2E0,4.43E1,1.11E1,9.615385E-3,4.62E1,3.939394E-2,1.6917777E5,5.67383E-1,2.3E1,2.0965634E5,1.2037037E-1,1.3609766E0,4E0,5.9375E-2,2.1369658E6,2.9078948E-1,-5.970598E5,-6.923217E5,2.595629E5,-5.381241E5,-4.0866012E5,1.457824E5,-6.307255E5,2.0947567E5,-3.2308584E5,1.25051E5,-7.9172837E3,5.8592294E5,-3.6462762E5,-5.4649956E5,-4.94544E3,-4.1766088E5,-3.156649E5,4.681724E5,-2.781233E5,5.298767E5,5.413069E5,-1.3874431E5,1.8200132E6,2.5726616E5,1.0782754E6,3.3029434E5,-2.0320778E5,-4.7651797E5,-3.9903152E4,-2.6742316E5,4.346501E5,-1.8525848E5,1.3709874E6,7.083177E5,9.016608E5,-5.2595494E5,7.51007E5,2.2171468E6,8.498303E5,2.9910702E6],"split_indices":[0,0,2,2,2,8,0,14,3,2,0,1,0,2,7,0,0,33,25,3,6,6,2,12,17,0,0,6,3,0,2,10,12,33,28,14,6,24,0,15,37,1,26,18,10,0,13,2,0,21,8,4,21,0,6,0,0,0,0,0,0,0,0,0,0,0,0,0,0,0,0,0,0,0,0,0,0,0,0,0,0,0,0,0,0,0,0,0,0,0,0,0,0,0,0],"split_type":[0,0,0,0,0,0,0,0,0,0,0,0,0,0,0,0,0,0,0,0,0,0,0,0,0,0,0,0,0,0,0,0,0,0,0,0,0,0,0,0,0,0,0,0,0,0,0,0,0,0,0,0,0,0,0,0,0,0,0,0,0,0,0,0,0,0,0,0,0,0,0,0,0,0,0,0,0,0,0,0,0,0,0,0,0,0,0,0,0,0,0,0,0,0,0],"sum_hessian":[1.317E3,1.071E3,2.46E2,7.04E2,3.67E2,5.7E1,1.89E2,4.51E2,2.53E2,1.61E2,2.06E2,5.4E1,3E0,1.29E2,6E1,4.5E2,1E0,1.82E2,7.1E1,9.9E1,6.2E1,9.9E1,1.07E2,4.5E1,9E0,1E0,2E0,7.8E1,5.1E1,1E0,5.9E1,3.03E2,1.47E2,8.7E1,9.5E1,5.5E1,1.6E1,9.8E1,1E0,4.6E1,1.6E1,4.8E1,5.1E1,5.9E1,4.8E1,2E0,4.3E1,4E0,5E0,1.1E1,6.7E1,7E0,4.4E1,3.6E1,2.3E1,1.31E2,1.72E2,4E0,1.43E2,7.8E1,9E0,9.2E1,3E0,3.8E1,1.7E1,8E0,8E0,4.2E1,5.6E1,1.9E1,2.7E1,4E0,1.2E1,4.4E1,4E0,3.3E1,1.8E1,3E0,5.6E1,3.5E1,1.3E1,2.4E1,1.9E1,1E0,3E0,4E0,7E0,5E1,1.7E1,6E0,1E0,4E0,4E1,1E0,2.2E1],"tree_param":{"num_deleted":"0","num_feature":"40","num_nodes":"95","size_leaf_vector":"1"}},{"base_weights":[8.9891914E4,-3.2059975E6,1.0999751E7,-4.1311425E6,1.7308165E6,-1.545314E6,1.4432417E7,-4.9991455E6,-2.191307E6,-1.993737E6,6.3752455E6,-1.9610751E6,1.2739582E6,1.0574629E7,1.9931114E7,-5.661689E6,-3.7404895E6,-4.483623E6,-2.65826E5,1.0741164E6,-2.409955E6,1.0102945E7,4.256783E6,3.9572538E6,-2.4140352E6,6.093641E6,1.3971224E7,1.6533931E7,2.57396E7,-5.699725E6,4.376923E5,-4.787448E6,-2.0578605E6,3.874106E5,-4.5864115E6,-1.3258542E6,3.8064765E6,-3.4912938E6,-6.730625E3,1.258273E7,4.296358E6,2.1921308E6,1.1676782E7,-3.2659275E5,1.054632E6,-1.4951242E6,-3.9750538E6,3.754779E6,1.2729375E7,7.493869E6,1.7129614E7,6.316494E6,1.788077E7,1.6176959E6,2.7619658E6,-5.849241E5,-3.0076128E5,-5.064488E5,6.0614695E4,6.741271E5,-2.3699058E5,-4.6897397E5,3.8031256E5,-3.4850012E5,3.299519E4,4.529863E5,-4.213954E5,-5.6698594E5,-2.4981433E5,-2.5180488E5,3.08464E5,1.3959468E6,1.504803E5,7.1748836E4,5.2163934E5,-1.5982731E5,4.00302E5,-1.389764E5,1.3283039E6,-3.021674E5,1.5789923E5,-2.1023398E5,1.1965308E5,-4.6445006E5,-1.4157789E5,4.5415234E5,-6.034794E5,2.0852202E6,5.770459E5,1.1770599E6,-1.8567482E4,9.6861944E5,1.9306572E6,7.4999356E5,1.4496323E5,6.86976E5,1.859566E6],"categories":[],"categories_nodes":[],"categories_segments":[],"categories_sizes":[],"default_left":[0,0,0,0,0,0,0,0,0,0,0,0,0,0,0,0,0,0,0,0,0,0,0,0,0,0,0,0,0,0,0,0,0,0,0,0,0,0,0,0,0,0,0,0,0,0,0,0,0,0,0,0,0,0,0,0,0,0,0,0,0,0,0,0,0,0,0,0,0,0,0,0,0,0,0,0,0,0,0,0,0,0,0,0,0,0,0,0,0,0,0,0,0,0,0,0,0],"id":3,"left_children":[1,3,5,7,9,11,13,15,17,19,21,23,-1,25,27,29,31,33,35,-1,37,39,41,43,45,47,49,51,53,55,-1,57,59,-1,61,63,65,67,69,71,73,75,77,79,-1,81,83,85,87,89,91,93,95,-1,-1,-1,-1,-1,-1,-1,-1,-1,-1,-1,-1,-1,-1,-1,-1,-1,-1,-1,-1,-1,-1,-1,-1,-1,-1,-1,-1,-1,-1,-1,-1,-1,-1,-1,-1,-1,-1,-1,-1,-1,-1,-1,-1],"loss_changes":[4.696005E16,4.5881224E15,1.3070397E16,1.4118406E15,2.7631597E15,4.1696425E14,4.8378855E15,4.6499463E14,1.1596406E15,4.976297E14,5.1768046E14,1.838028E14,0E0,2.0761185E15,1.4884768E15,1.7004205E14,3.4952363E14,1.2085796E14,6.266597E14,0E0,2.2606342E14,3.0591737E14,6.944296E14,1.4457709E14,8.155747E13,9.299678E14,1.5082744E15,7.6777694E14,1.644586E14,1.3495968E14,0E0,1.8984963E14,2.3563439E14,0E0,1.20993255E14,4.1228965E14,1.9314471E14,1.1565441E14,2.2514289E14,2.3826734E14,2.5891506E13,2.6722996E14,2.283426E14,2.5314026E13,0E0,6.789211E13,3.1117005E13,3.970981E14,7.840903E14,9.2179877E14,6.7180375E14,4.096466E13,3.1306446E14,0E0,0E0,0E0,0E0,0E0,0E0,0E0,0E0,0E0,0E0,0E0,0E0,0E0,0E0,0E0,0E0,0E0,0E0,0E0,0E0,0E0,0E0,0E0,0E0,0E0,0E0,0E0,0E0,0E0,0E0,0E0,0E0,0E0,0E0,0E0,0E0,0E0,0E0,0E0,0E0,0E0,0E0,0E0,0E0],"parents":[2147483647,0,0,1,1,2,2,3,3,4,4,5,5,6,6,7,7,8,8,9,9,10,10,11,11,13,13,14,14,15,15,16,16,17,17,18,18,20,20,21,21,22,22,23,23,24,24,25,25,26,26,27,27,28,28,29,29,31,31,32,32,34,34,35,35,36,36,37,37,38,38,39,39,40,40,41,41,42,42,43,43,45,45,46,46,47,47,48,48,49,49,50,50,51,51,52,52],"right_children":[2,4,6,8,10,12,14,16,18,20,22,24,-1,26,28,30,32,34,36,-1,38,40,42,44,46,48,50,52,54,56,-1,58,60,-1,62,64,66,68,70,72,74,76,78,80,-1,82,84,86,88,90,92,94,96,-1,-1,-1,-1,-1,-1,-1,-1,-1,-1,-1,-1,-1,-1,-1,-1,-1,-1,-1,-1,-1,-1,-1,-1,-1,-1,-1,-1,-1,-1,-1,-1,-1,-1,-1,-1,-1,-1,-1,-1,-1,-1,-1,-1],"split_conditions":[2.94E1,2.4E1,2.4E1,1.79E1,2.7E1,1.4350846E0,4.6E0,2.8E1,2.6E1,7.5E0,2.8E1,1.0362694E-2,1.2739582E6,1.71E1,3E1,7.096774E-2,6.931472E-1,5.909091E-2,3.4782607E-2,1.0741164E6,3E0,1E0,3.4E1,3.44E1,5.7570976E-1,3.1E1,3.71E1,3.54E1,7.3529415E-2,4.4E0,4.376923E5,1E0,3.08E1,3.874106E5,1.3609766E0,1.3E0,9.538461E-2,6.725146E-2,2.4E1,6.0231286E-1,1.4E0,1.4E0,8.9E0,3.1E1,1.054632E6,4.1269843E-2,9E-1,5.6756757E-2,7.54717E-2,2E1,5.9375E-2,2.3E0,6.53051E-2,1.6176959E6,2.7619658E6,-5.849241E5,-3.0076128E5,-5.064488E5,6.0614695E4,6.741271E5,-2.3699058E5,-4.6897397E5,3.8031256E5,-3.4850012E5,3.299519E4,4.529863E5,-4.213954E5,-5.6698594E5,-2.4981433E5,-2.5180488E5,3.08464E5,1.3959468E6,1.504803E5,7.1748836E4,5.2163934E5,-1.5982731E5,4.00302E5,-1.389764E5,1.3283039E6,-3.021674E5,1.5789923E5,-2.1023398E5,1.1965308E5,-4.6445006E5,-1.4157789E5,4.5415234E5,-6.034794E5,2.0852202E6,5.770459E5,1.1770599E6,-1.8567482E4,9.6861944E5,1.9306572E6,7.4999356E5,1.4496323E5,6.86976E5,1.859566E6],"split_indices":[0,0,2,0,2,8,4,2,2,1,38,25,0,1,2,14,8,24,16,0,4,28,2,0,13,2,27,0,21,32,0,28,27,0,8,4,12,20,2,13,5,23,1,0,0,16,35,19,20,1,21,5,31,0,0,0,0,0,0,0,0,0,0,0,0,0,0,0,0,0,0,0,0,0,0,0,0,0,0,0,0,0,0,0,0,0,0,0,0,0,0,0,0,0,0,0,0],"split_type":[0,0,0,0,0,0,0,0,0,0,0,0,0,0,0,0,0,0,0,0,0,0,0,0,0,0,0,0,0,0,0,0,0,0,0,0,0,0,0,0,0,0,0,0,0,0,0,0,0,0,0,0,0,0,0,0,0,0,0,0,0,0,0,0,0,0,0,0,0,0,0,0,0,0,0,0,0,0,0,0,0,0,0,0,0,0,0,0,0,0,0,0,0,0,0,0,0],"sum_hessian":[1.304E3,1.002E3,3.02E2,8.44E2,1.58E2,6.5E1,2.37E2,5.82E2,2.62E2,8.8E1,7E1,6.4E1,1E0,1.41E2,9.6E1,3.79E2,2.03E2,1.19E2,1.43E2,2E0,8.6E1,2.4E1,4.6E1,4E0,6E1,6.2E1,7.9E1,6.3E1,3.3E1,3.78E2,1E0,1.24E2,7.9E1,1E0,1.18E2,1.14E2,2.9E1,5.9E1,2.7E1,1.6E1,8E0,3.7E1,9E0,3E0,1E0,3.9E1,2.1E1,4.7E1,1.5E1,2.7E1,5.2E1,8E0,5.5E1,7E0,2.6E1,3.57E2,2.1E1,1.18E2,6E0,2E0,7.7E1,1.17E2,1E0,4.9E1,6.5E1,2.7E1,2E0,1.7E1,4.2E1,1.5E1,1.2E1,1.4E1,2E0,2E0,6E0,1.2E1,2.5E1,1E0,8E0,1E0,2E0,3.2E1,7E0,1.6E1,5E0,4.4E1,3E0,6E0,9E0,1.7E1,1E1,1.3E1,3.9E1,6E0,2E0,4E0,5.1E1],"tree_param":{"num_deleted":"0","num_feature":"40","num_nodes":"97","size_leaf_vector":"1"}},{"base_weights":[1.9048352E5,-2.5412572E6,1.0737897E7,-4.156496E6,4.6096825E5,7.411244E6,1.4761582E7,-4.9575735E6,-2.835059E6,-7.638052E5,2.8774328E6,4.7131905E6,1.0949974E7,9.305923E6,1.8496758E7,-8.718289E5,-5.013732E6,-3.090659E6,4.6935525E6,9.407983E6,-1.01284206E6,2.5626112E5,4.2488245E6,9.5017056E5,6.643198E6,6.653157E6,1.467198E7,1.8720048E7,6.618749E6,5.8904665E6,1.9980506E7,-3.2679253E5,1.7422248E5,-5.0693485E6,-1.9044678E6,-3.8377572E6,-1.5601024E6,-1.4026011E5,5.630897E6,1.4149985E6,3.4994862E6,3.6221508E4,-2.8166955E6,-4.3490225E6,1.5647346E6,1.2554254E6,6.1394915E6,9.342124E6,-1.022979E6,7.981254E6,1.3975222E6,8.780792E6,-2.1999378E6,3.2299985E6,1.6089911E7,1.9654426E6,4.6881334E5,-5.922249E6,9.296156E6,3.3302784E5,1.2754009E6,6.014747E6,2.081131E7,-5.0947166E5,2.6911856E5,3.633711E5,-5.2791756E5,-1.8154517E5,-4.258141E5,-1.9591073E5,7.009527E5,1.5340061E5,5.997024E5,4.3131906E5,5.29187E4,-8.869305E4,3.320491E5,-3.5567603E5,-8.866628E4,-5.622969E5,3.5582466E5,7.3820594E5,1.0659648E4,5.552059E5,-1.14525766E5,2.388207E5,9.510362E5,-2.8705906E5,1.2358784E6,9.7864044E5,-1.8468105E5,1.4831526E6,6.148788E5,-1.0309668E5,5.489298E5,-2.3422095E5,1.03334544E6,-4.6420875E5,2.6036248E5,7.152857E5,-1.7695261E5,1.6786956E6,-2.0622117E5,-2.0225066E5,-6.885079E5,1.0523854E5,1.2109292E6,-1.9519225E5,1.1804024E5,9.334583E5,6.899953E4,3.8026197E5,2.1332258E6],"categories":[],"categories_nodes":[],"categories_segments":[],"categories_sizes":[],"default_left":[0,0,0,0,0,0,0,0,0,0,0,0,0,0,0,0,0,0,0,0,0,0,0,0,0,0,0,0,0,0,0,0,0,0,0,0,0,0,0,0,0,0,0,0,0,0,0,0,0,0,0,0,0,0,0,0,0,0,0,0,0,0,0,0,0,0,0,0,0,0,0,0,0,0,0,0,0,0,0,0,0,0,0,0,0,0,0,0,0,0,0,0,0,0,0,0,0,0,0,0,0,0,0,0,0,0,0,0,0,0,0,0,0],"id":4,"left_children":[1,3,5,7,9,11,13,15,17,19,21,23,25,27,29,31,33,35,37,39,41,43,45,47,49,51,53,55,57,59,61,-1,-1,63,65,67,69,-1,71,-1,73,75,77,79,81,83,85,87,89,91,93,95,97,99,101,-1,-1,103,105,107,-1,109,111,-1,-1,-1,-1,-1,-1,-1,-1,-1,-1,-1,-1,-1,-1,-1,-1,-1,-1,-1,-1,-1,-1,-1,-1,-1,-1,-1,-1,-1,-1,-1,-1,-1,-1,-1,-1,-1,-1,-1,-1,-1,-1,-1,-1,-1,-1,-1,-1,-1,-1],"loss_changes":[3.837712E16,5.132487E15,3.5582022E15,7.142445E14,1.1002174E15,1.3996391E15,2.3343448E15,9.360344E13,5.1867622E14,6.35217E14,4.4824285E14,6.328014E14,9.419153E14,1.1915608E15,1.229035E15,4.9538128E13,6.3146757E13,2.8445595E14,5.9325645E13,1.1859096E14,4.5805236E14,2.719443E14,4.5637302E14,5.2287274E14,3.9594874E14,6.220742E14,4.9964375E14,5.207943E13,1.4653029E15,3.3904596E14,6.1740584E14,0E0,0E0,9.5018635E13,1.8739061E14,1.3679417E14,3.0437507E14,0E0,2.800369E12,0E0,7.385297E12,4.698546E14,1.2396947E14,1.20742235E14,2.9609934E14,3.4674875E14,6.095419E14,2.5652669E14,2.496065E14,4.86237E14,1.3483812E14,4.732297E14,9.420339E13,1.1071929E14,4.142045E14,0E0,0E0,1.6113191E13,7.989364E14,1.3921306E13,0E0,8.1945694E13,4.505163E14,0E0,0E0,0E0,0E0,0E0,0E0,0E0,0E0,0E0,0E0,0E0,0E0,0E0,0E0,0E0,0E0,0E0,0E0,0E0,0E0,0E0,0E0,0E0,0E0,0E0,0E0,0E0,0E0,0E0,0E0,0E0,0E0,0E0,0E0,0E0,0E0,0E0,0E0,0E0,0E0,0E0,0E0,0E0,0E0,0E0,0E0,0E0,0E0,0E0,0E0],"parents":[2147483647,0,0,1,1,2,2,3,3,4,4,5,5,6,6,7,7,8,8,9,9,10,10,11,11,12,12,13,13,14,14,15,15,16,16,17,17,18,18,19,19,20,20,21,21,22,22,23,23,24,24,25,25,26,26,27,27,28,28,29,29,30,30,33,33,34,34,35,35,36,36,38,38,40,40,41,41,42,42,43,43,44,44,45,45,46,46,47,47,48,48,49,49,50,50,51,51,52,52,53,53,54,54,57,57,58,58,59,59,61,61,62,62],"right_children":[2,4,6,8,10,12,14,16,18,20,22,24,26,28,30,32,34,36,38,40,42,44,46,48,50,52,54,56,58,60,62,-1,-1,64,66,68,70,-1,72,-1,74,76,78,80,82,84,86,88,90,92,94,96,98,100,102,-1,-1,104,106,108,-1,110,112,-1,-1,-1,-1,-1,-1,-1,-1,-1,-1,-1,-1,-1,-1,-1,-1,-1,-1,-1,-1,-1,-1,-1,-1,-1,-1,-1,-1,-1,-1,-1,-1,-1,-1,-1,-1,-1,-1,-1,-1,-1,-1,-1,-1,-1,-1,-1,-1,-1,-1],"split_conditions":[3.09E1,2.02E1,6.438356E-1,1.5E1,1.31E1,1.9E0,5.880881E-1,5.042017E-2,1.2809339E0,4.91E1,5.498673E-1,1.62E1,6.4E-2,4.38E1,2.3E1,7.4193734E-1,2.783505E-1,8E-1,7.142857E-3,3.6199097E-2,5.487805E-2,5.9514128E-2,5.7534248E-2,5.182507E-2,2.1232876E-1,6.015831E-1,1.3350011E0,9.04E1,4E0,1.2237754E0,5.3658538E-2,-3.2679253E5,1.7422248E5,1.01E1,8.329091E-1,1E-2,1.0472973E-1,-1.4026011E5,1.77E1,1.4149985E6,2.2E0,2.48E1,1.2987013E-1,1.56E1,7.205332E-2,8.21E1,6.453852E-2,3.1E1,9E-1,1.8E1,1.3862944E0,6.6019416E-1,6.117647E-1,3.37E1,2.9155654E-1,1.9654426E6,4.6881334E5,1.0296195E0,7.5E1,1.4925373E-2,1.2754009E6,1.3609766E0,9.210526E-3,-5.0947166E5,2.6911856E5,3.633711E5,-5.2791756E5,-1.8154517E5,-4.258141E5,-1.9591073E5,7.009527E5,1.5340061E5,5.997024E5,4.3131906E5,5.29187E4,-8.869305E4,3.320491E5,-3.5567603E5,-8.866628E4,-5.622969E5,3.5582466E5,7.3820594E5,1.0659648E4,5.552059E5,-1.14525766E5,2.388207E5,9.510362E5,-2.8705906E5,1.2358784E6,9.7864044E5,-1.8468105E5,1.4831526E6,6.148788E5,-1.0309668E5,5.489298E5,-2.3422095E5,1.03334544E6,-4.6420875E5,2.6036248E5,7.152857E5,-1.7695261E5,1.6786956E6,-2.0622117E5,-2.0225066E5,-6.885079E5,1.0523854E5,1.2109292E6,-1.9519225E5,1.1804024E5,9.334583E5,6.899953E4,3.8026197E5,2.1332258E6],"split_indices":[0,0,9,0,1,23,13,24,8,18,13,1,12,37,38,7,25,28,10,29,10,31,21,31,25,9,17,18,11,7,21,0,0,1,17,22,10,0,0,0,4,0,21,1,31,18,31,0,4,38,8,30,9,0,31,0,0,8,18,10,0,8,14,0,0,0,0,0,0,0,0,0,0,0,0,0,0,0,0,0,0,0,0,0,0,0,0,0,0,0,0,0,0,0,0,0,0,0,0,0,0,0,0,0,0,0,0,0,0,0,0,0,0],"split_type":[0,0,0,0,0,0,0,0,0,0,0,0,0,0,0,0,0,0,0,0,0,0,0,0,0,0,0,0,0,0,0,0,0,0,0,0,0,0,0,0,0,0,0,0,0,0,0,0,0,0,0,0,0,0,0,0,0,0,0,0,0,0,0,0,0,0,0,0,0,0,0,0,0,0,0,0,0,0,0,0,0,0,0,0,0,0,0,0,0,0,0,0,0,0,0,0,0,0,0,0,0,0,0,0,0,0,0,0,0,0,0,0,0],"sum_hessian":[1.33E3,1.057E3,2.73E2,6.87E2,3.7E2,1.51E2,1.22E2,4.26E2,2.61E2,2.46E2,1.24E2,8.7E1,6.4E1,5.1E1,7.1E1,6E0,4.2E2,2.53E2,8E0,5E0,2.41E2,4.3E1,8.1E1,3E1,5.7E1,3.1E1,3.3E1,1E1,4.1E1,8E0,6.3E1,3E0,3E0,4.12E2,8E0,1.69E2,8.4E1,1E0,7E0,2E0,3E0,1.53E2,8.8E1,9E0,3.4E1,3.2E1,4.9E1,5E0,2.5E1,4.5E1,1.2E1,2.5E1,6E0,4E0,2.9E1,9E0,1E0,7E0,3.4E1,5E0,3E0,4E0,5.9E1,4.11E2,1E0,3E0,5E0,3E1,1.39E2,8.1E1,3E0,1E0,6E0,2E0,1E0,1.2E2,3.3E1,6.3E1,2.5E1,8E0,1E0,6E0,2.8E1,1.1E1,2.1E1,2.4E1,2.5E1,1E0,4E0,1E0,2.4E1,8E0,3.7E1,8E0,4E0,3E0,2.2E1,4E0,2E0,2E0,2E0,2.8E1,1E0,2E0,5E0,9E0,2.5E1,1E0,4E0,2E0,2E0,2E0,5.7E1],"tree_param":{"num_deleted":"0","num_feature":"40","num_nodes":"113","size_leaf_vector":"1"}},{"base_weights":[-4.280413E4,-2.0817181E6,1.0483881E7,-3.1289622E6,2.5018102E6,-9.9829406E5,1.3969379E7,-4.2164755E6,-1.5906019E6,6.341328E4,6.8834775E6,-1.6815652E6,1.0494568E6,1.1127671E7,1.8393608E7,-4.6961955E6,-3.5575695E6,-3.6409835E6,-2.1429777E4,-3.294593E6,1.9759585E6,4.745215E6,1.0884663E7,-3.2708435E6,-3.727908E5,2.2734375E6,1.184936E7,1.1374748E7,2.1632212E7,-4.736962E6,3.8076006E5,-2.7713902E6,-4.838347E6,-3.764841E6,4.219699E5,-4.645633E5,9.064951E6,-3.6535712E6,-6.187837E5,3.9476815E6,-3.9021494E5,7.3024285E6,8.660902E5,6.190154E6,1.5454535E7,2.3464218E6,-4.281276E6,8.952391E5,-1.049738E6,7.442585E6,-6.048643E5,1.0593462E7,1.698857E6,5.546628E6,1.5769296E7,5.639318E6,2.2717838E6,-4.8385766E5,-2.3009848E5,-3.9030138E5,-1.2300273E5,8.3773516E4,-5.0562247E5,-3.9322766E5,-7.1102876E3,-1.4992317E5,2.384518E5,-3.3335294E5,1.2581262E6,-4.834621E5,-2.1860612E5,4.0334184E4,-2.116065E5,5.2631725E5,-8.360316E4,-3.660041E5,2.742487E5,4.477348E5,1.1775081E6,2.626606E5,-5.292882E5,-1.4454842E5,8.4040094E5,5.150631E5,1.7000252E6,2.618435E4,2.954E5,1.2729134E4,-4.8074184E5,-2.829241E5,1.6345427E4,4.104745E4,8.766912E5,5.430952E5,1.1718568E6,6.1194475E5,-9.078351E3,3.4948372E5,1.6567444E6,6.72884E5,1.185376E5],"categories":[],"categories_nodes":[],"categories_segments":[],"categories_sizes":[],"default_left":[0,0,0,0,0,0,0,0,0,0,0,0,0,0,0,0,0,0,0,0,0,0,0,0,0,0,0,0,0,0,0,0,0,0,0,0,0,0,0,0,0,0,0,0,0,0,0,0,0,0,0,0,0,0,0,0,0,0,0,0,0,0,0,0,0,0,0,0,0,0,0,0,0,0,0,0,0,0,0,0,0,0,0,0,0,0,0,0,0,0,0,0,0,0,0,0,0,0,0,0,0],"id":5,"left_children":[1,3,5,7,9,11,13,15,17,19,21,23,-1,25,27,29,31,33,35,37,39,41,43,45,47,49,51,53,55,57,-1,59,61,63,-1,65,67,69,71,73,75,77,79,81,83,85,87,-1,89,91,-1,93,-1,95,97,99,-1,-1,-1,-1,-1,-1,-1,-1,-1,-1,-1,-1,-1,-1,-1,-1,-1,-1,-1,-1,-1,-1,-1,-1,-1,-1,-1,-1,-1,-1,-1,-1,-1,-1,-1,-1,-1,-1,-1,-1,-1,-1,-1,-1,-1],"loss_changes":[2.8438845E16,5.3359085E15,8.618481E15,1.5056749E15,2.2112018E15,4.1813704E14,1.8697603E15,1.5050424E14,1.2096649E15,8.6710336E14,5.814634E14,1.0070098E14,0E0,6.3123134E14,1.1860101E15,1.2307712E14,2.1516202E14,1.7458411E14,8.6587796E14,4.480661E13,4.0276818E14,4.8966285E14,4.406666E14,1.3491477E14,1.8615202E14,4.3218008E14,4.3319255E14,4.7599646E14,6.011043E14,6.3621887E13,0E0,2.446259E14,1.09354565E14,9.929293E13,0E0,6.0788504E14,4.779092E14,6.395891E13,1.1566364E13,3.0016795E14,4.1977323E14,3.2634705E14,2.4160466E14,2.4880655E14,1.0356106E14,4.292692E12,4.4683095E13,0E0,5.875218E13,5.227831E13,0E0,3.9521806E14,0E0,3.6076954E13,5.966166E13,1.143447E13,0E0,0E0,0E0,0E0,0E0,0E0,0E0,0E0,0E0,0E0,0E0,0E0,0E0,0E0,0E0,0E0,0E0,0E0,0E0,0E0,0E0,0E0,0E0,0E0,0E0,0E0,0E0,0E0,0E0,0E0,0E0,0E0,0E0,0E0,0E0,0E0,0E0,0E0,0E0,0E0,0E0,0E0,0E0,0E0,0E0],"parents":[2147483647,0,0,1,1,2,2,3,3,4,4,5,5,6,6,7,7,8,8,9,9,10,10,11,11,13,13,14,14,15,15,16,16,17,17,18,18,19,19,20,20,21,21,22,22,23,23,24,24,25,25,26,26,27,27,28,28,29,29,31,31,32,32,33,33,35,35,36,36,37,37,38,38,39,39,40,40,41,41,42,42,43,43,44,44,45,45,46,46,48,48,49,49,51,51,53,53,54,54,55,55],"right_children":[2,4,6,8,10,12,14,16,18,20,22,24,-1,26,28,30,32,34,36,38,40,42,44,46,48,50,52,54,56,58,-1,60,62,64,-1,66,68,70,72,74,76,78,80,82,84,86,88,-1,90,92,-1,94,-1,96,98,100,-1,-1,-1,-1,-1,-1,-1,-1,-1,-1,-1,-1,-1,-1,-1,-1,-1,-1,-1,-1,-1,-1,-1,-1,-1,-1,-1,-1,-1,-1,-1,-1,-1,-1,-1,-1,-1,-1,-1,-1,-1,-1,-1,-1,-1],"split_conditions":[1.71E1,1.2E1,2.4E1,1.99E1,2.9E1,1.0169491E-1,2.9E1,2.7E1,2.6E1,2.4E1,3.05E1,4.8929664E-1,1.0494568E6,-4.7E0,7.8E-2,2.95E-1,4.8780486E-2,4.6534654E-1,5.7E0,4.4015443E-1,3.69E1,5.9701493E-3,6.666667E-2,3.25E-2,1.8232156E-1,4.45E1,1.6666667E-1,1.5260563E0,1.89E1,1.5260563E0,3.8076006E5,6E-1,5.3333336E-1,1.2426036E-1,4.219699E5,1.6911764E-1,1.25E-1,-6E-1,3.9E0,4.198718E-1,6.498195E-2,6.0869563E-2,3.4E1,3.35E1,5.5223882E-2,2.2E1,5.3763443E-1,8.952391E5,2.020202E-2,1.4E0,-6.048643E5,2.5E1,1.698857E6,2.3E0,3E1,3.3E1,2.2717838E6,-4.8385766E5,-2.3009848E5,-3.9030138E5,-1.2300273E5,8.3773516E4,-5.0562247E5,-3.9322766E5,-7.1102876E3,-1.4992317E5,2.384518E5,-3.3335294E5,1.2581262E6,-4.834621E5,-2.1860612E5,4.0334184E4,-2.116065E5,5.2631725E5,-8.360316E4,-3.660041E5,2.742487E5,4.477348E5,1.1775081E6,2.626606E5,-5.292882E5,-1.4454842E5,8.4040094E5,5.150631E5,1.7000252E6,2.618435E4,2.954E5,1.2729134E4,-4.8074184E5,-2.829241E5,1.6345427E4,4.104745E4,8.766912E5,5.430952E5,1.1718568E6,6.1194475E5,-9.078351E3,3.4948372E5,1.6567444E6,6.72884E5,1.185376E5],"split_indices":[1,1,2,3,2,20,2,2,2,2,3,36,0,23,21,21,33,36,15,36,27,26,29,12,8,37,29,17,1,17,0,5,30,20,0,6,6,23,4,36,20,21,2,27,21,2,13,0,10,5,0,2,0,5,2,2,0,0,0,0,0,0,0,0,0,0,0,0,0,0,0,0,0,0,0,0,0,0,0,0,0,0,0,0,0,0,0,0,0,0,0,0,0,0,0,0,0,0,0,0,0],"split_type":[0,0,0,0,0,0,0,0,0,0,0,0,0,0,0,0,0,0,0,0,0,0,0,0,0,0,0,0,0,0,0,0,0,0,0,0,0,0,0,0,0,0,0,0,0,0,0,0,0,0,0,0,0,0,0,0,0,0,0,0,0,0,0,0,0,0,0,0,0,0,0,0,0,0,0,0,0,0,0,0,0,0,0,0,0,0,0,0,0,0,0,0,0,0,0,0,0,0,0,0,0],"sum_hessian":[1.323E3,1.109E3,2.14E2,9.03E2,2.06E2,5E1,1.64E2,5.28E2,3.75E2,1.33E2,7.3E1,4.8E1,2E0,1.02E2,6.2E1,3.02E2,2.26E2,1.62E2,2.13E2,4.8E1,8.5E1,4.9E1,2.4E1,2.1E1,2.7E1,8E0,9.4E1,2.1E1,4.1E1,3.01E2,1E0,1.42E2,8.4E1,1.6E2,2E0,2.04E2,9E0,4.2E1,6E0,4.6E1,3.9E1,2.9E1,2E1,1.3E1,1.1E1,3E0,1.8E1,1E0,2.6E1,5E0,3E0,7.8E1,1.6E1,1E1,1.1E1,3E0,3.8E1,2.88E2,1.3E1,8.1E1,6.1E1,3E0,8.1E1,1.53E2,7E0,1.5E2,5.4E1,2E0,7E0,2.2E1,2E1,4E0,2E0,3.6E1,1E1,1.9E1,2E1,1.9E1,1E1,1.6E1,4E0,3E0,1E1,2E0,9E0,1E0,2E0,2E0,1.6E1,1E1,1.6E1,1E0,4E0,1.5E1,6.3E1,9E0,1E0,1E0,1E1,2E0,1E0],"tree_param":{"num_deleted":"0","num_feature":"40","num_nodes":"101","size_leaf_vector":"1"}},{"base_weights":[5.9474633E4,-2.3113582E6,8.0492965E6,-3.114904E6,7.0790606E5,5.663343E6,1.2955446E7,-4.335233E6,-2.4136172E6,-5.507127E5,2.4843228E6,4.591113E6,9.817422E6,1.1878445E7,2.2525288E6,-4.3741885E6,3.6172206E5,-2.5265948E6,4.3193875E6,4.036687E6,-9.701302E5,1.2868266E6,1.9840942E6,2.301139E6,7.3329085E6,7.2128385E6,1.9985296E6,9.800298E6,1.7055868E7,-4.1255935E6,-5.3485245E6,-2.6931722E6,-9.0804164E4,5.173688E5,-1.2575095E5,-6.981295E5,9.858093E6,1.2478225E6,-2.1519748E6,7.074579E4,3.895835E6,9.545164E6,1.3133629E6,8.460592E6,-4.991478E6,1.7065232E6,4.585956E6,1.3583087E7,6.456436E6,1.7758886E7,9.17315E3,-4.2211934E5,-8.1359E4,-5.3947156E5,-1.3809166E5,-2.7457447E5,4.275701E5,9.222954E4,-4.972318E5,-1.3859373E5,1.6421076E4,2.336037E5,1.1154598E6,3.9561153E5,-2.4761379E4,-3.6253434E5,-8.684111E4,-2.6232372E5,2.7616525E5,7.4362606E5,-3.3588176E4,1.3144562E6,2.5969745E5,1.2858434E6,7.196924E4,9.611142E5,2.09867E5,-5.418156E5,-1.2157045E5,6.539407E5,-2.4876605E5,7.305655E5,1.6670392E6,-5.2035656E4,7.780846E5,5.498934E5,1.8623474E6],"categories":[],"categories_nodes":[],"categories_segments":[],"categories_sizes":[],"default_left":[0,0,0,0,0,0,0,0,0,0,0,0,0,0,0,0,0,0,0,0,0,0,0,0,0,0,0,0,0,0,0,0,0,0,0,0,0,0,0,0,0,0,0,0,0,0,0,0,0,0,0,0,0,0,0,0,0,0,0,0,0,0,0,0,0,0,0,0,0,0,0,0,0,0,0,0,0,0,0,0,0,0,0,0,0,0,0],"id":6,"left_children":[1,3,5,7,9,11,13,15,17,19,21,23,25,27,-1,29,-1,31,33,35,37,-1,39,41,43,45,-1,47,49,51,53,55,57,-1,-1,59,61,63,65,67,69,71,73,75,77,-1,79,81,83,85,-1,-1,-1,-1,-1,-1,-1,-1,-1,-1,-1,-1,-1,-1,-1,-1,-1,-1,-1,-1,-1,-1,-1,-1,-1,-1,-1,-1,-1,-1,-1,-1,-1,-1,-1,-1,-1],"loss_changes":[2.549631E16,2.520515E15,3.5320286E15,6.9129217E14,4.9101516E14,8.858397E14,7.6310724E14,1.081403E14,4.08748E14,2.5211673E14,4.4715334E14,1.03793737E15,9.681388E14,8.22716E14,0E0,4.987155E13,0E0,2.0871528E14,4.9385077E13,3.100784E14,3.1461706E14,0E0,3.216131E14,6.529229E14,1.0984787E15,8.275771E14,0E0,7.724418E14,2.965224E14,7.287325E13,2.9964108E12,1.8833163E14,1.7273154E14,0E0,0E0,4.3794568E12,2.2704372E13,1.7108291E14,1.4436234E14,3.3346103E14,6.6170924E14,2.4096612E14,5.596252E14,4.9220916E14,4.6904063E12,0E0,4.1698864E14,4.7900267E14,3.551738E14,1.5198654E14,0E0,0E0,0E0,0E0,0E0,0E0,0E0,0E0,0E0,0E0,0E0,0E0,0E0,0E0,0E0,0E0,0E0,0E0,0E0,0E0,0E0,0E0,0E0,0E0,0E0,0E0,0E0,0E0,0E0,0E0,0E0,0E0,0E0,0E0,0E0,0E0,0E0],"parents":[2147483647,0,0,1,1,2,2,3,3,4,4,5,5,6,6,7,7,8,8,9,9,10,10,11,11,12,12,13,13,15,15,17,17,18,18,19,19,20,20,22,22,23,23,24,24,25,25,27,27,28,28,29,29,30,30,31,31,32,32,35,35,36,36,37,37,38,38,39,39,40,40,41,41,42,42,43,43,44,44,46,46,47,47,48,48,49,49],"right_children":[2,4,6,8,10,12,14,16,18,20,22,24,26,28,-1,30,-1,32,34,36,38,-1,40,42,44,46,-1,48,50,52,54,56,58,-1,-1,60,62,64,66,68,70,72,74,76,78,-1,80,82,84,86,-1,-1,-1,-1,-1,-1,-1,-1,-1,-1,-1,-1,-1,-1,-1,-1,-1,-1,-1,-1,-1,-1,-1,-1,-1,-1,-1,-1,-1,-1,-1,-1,-1,-1,-1,-1,-1],"split_conditions":[2.94E1,2.27E1,2.26E1,1.53E1,7.906977E-1,4.7E0,1.5892352E0,6.153846E-2,1.2809339E0,7.7E0,5E-1,3.67E1,2E-2,1.2E-2,2.2525288E6,9.189189E-2,3.6172206E5,2.79E1,2.75E1,1.1392405E-1,1.5040774E0,1.2868266E6,2.59E1,2.4E0,9.0625E-1,4.6774194E-2,1.9985296E6,5.2522254E-1,4.761905E-2,4.46E1,5.0576925E-1,3.2E0,2.6E0,5.173688E5,-1.2575095E5,8.196721E-3,2.29E1,1.3E0,4.4843048E-2,5.2980132E-2,3.9267015E-1,7.4E1,1.2658228E-2,1.9E1,2.02E1,1.7065232E6,6.501548E-2,1E0,4E0,7.1794873E-1,9.17315E3,-4.2211934E5,-8.1359E4,-5.3947156E5,-1.3809166E5,-2.7457447E5,4.275701E5,9.222954E4,-4.972318E5,-1.3859373E5,1.6421076E4,2.336037E5,1.1154598E6,3.9561153E5,-2.4761379E4,-3.6253434E5,-8.684111E4,-2.6232372E5,2.7616525E5,7.4362606E5,-3.3588176E4,1.3144562E6,2.5969745E5,1.2858434E6,7.196924E4,9.611142E5,2.09867E5,-5.418156E5,-1.2157045E5,6.539407E5,-2.4876605E5,7.305655E5,1.6670392E6,-5.2035656E4,7.780846E5,5.498934E5,1.8623474E6],"split_indices":[0,0,1,3,30,4,8,14,8,1,28,27,14,26,0,21,0,3,3,21,17,0,0,4,30,19,0,36,26,27,6,4,15,0,0,26,0,5,33,29,36,39,10,11,1,0,10,28,11,30,0,0,0,0,0,0,0,0,0,0,0,0,0,0,0,0,0,0,0,0,0,0,0,0,0,0,0,0,0,0,0,0,0,0,0,0,0],"split_type":[0,0,0,0,0,0,0,0,0,0,0,0,0,0,0,0,0,0,0,0,0,0,0,0,0,0,0,0,0,0,0,0,0,0,0,0,0,0,0,0,0,0,0,0,0,0,0,0,0,0,0,0,0,0,0,0,0,0,0,0,0,0,0,0,0,0,0,0,0,0,0,0,0,0,0,0,0,0,0,0,0,0,0,0,0,0,0],"sum_hessian":[1.344E3,1.037E3,3.07E2,8.19E2,2.18E2,2.08E2,9.9E1,2.97E2,5.22E2,1.28E2,9E1,1.67E2,4.1E1,9.1E1,8E0,2.96E2,1E0,5.14E2,8E0,1E1,1.18E2,3E0,8.7E1,9.2E1,7.5E1,3.4E1,7E0,6.7E1,2.4E1,2.4E2,5.6E1,4.81E2,3.3E1,7E0,1E0,6E0,4E0,4.1E1,7.7E1,4.4E1,4.3E1,1E1,8.2E1,6.9E1,6E0,6E0,2.8E1,3E1,3.7E1,2.3E1,1E0,2.33E2,7E0,5.5E1,1E0,4.78E2,3E0,2.8E1,5E0,3E0,3E0,1E0,3E0,1.4E1,2.7E1,3.5E1,4.2E1,2.2E1,2.2E1,2.3E1,2E1,6E0,4E0,3E0,7.9E1,5.8E1,1.1E1,5E0,1E0,2.2E1,6E0,1.1E1,1.9E1,6E0,3.1E1,2E0,2.1E1],"tree_param":{"num_deleted":"0","num_feature":"40","num_nodes":"87","size_leaf_vector":"1"}},{"base_weights":[6.706865E4,-1.6958656E6,9.026995E6,-3.3764032E6,3.3955716E5,-1.5524398E6,1.2184878E7,-3.8008342E6,-2.2447005E6,-2.200793E6,2.9295548E6,-2.1862692E6,9.317588E5,8.694143E6,1.5185708E7,-3.841654E6,3.4258112E5,-2.7661672E6,1.5372882E6,-3.2800775E6,-9.4883075E5,8.3513275E5,5.4428845E6,1.922026E6,-2.5941628E6,9.36333E6,-3.2163408E6,5.730949E6,1.630997E7,-3.8805472E6,3.0913788E5,-4.2828895E6,-2.0832954E6,2.6382258E6,-3.8012528E5,-1.7245154E6,-3.5651465E6,-2.3957735E6,1.76094E6,-8.1292775E5,2.5691202E6,1.6274482E6,8.2353995E6,2.655455E4,2.2697598E5,-3.5496885E6,-8.1155025E5,1.0697651E6,1.0603723E7,-8.184137E5,2.8235688E5,1.122677E6,2.26667E6,1.2303225E7,1.8153794E7,-4.2551956E5,-3.2693022E5,-4.6149816E5,1.9047272E5,-1.2876093E5,-3.1390584E5,4.738071E5,1.19285E3,-3.4154056E5,-1.6110727E4,-3.7843822E5,-1.8658989E5,-3.1482166E5,9.743683E4,4.6946634E5,-2.829516E5,4.580397E4,-3.1698297E5,5.698362E5,8.038721E4,3.275943E5,-1.9773186E5,9.00835E5,-2.8416822E5,-8.7463E4,-4.0705497E5,-1.9425569E5,4.0962867E4,4.9286647E5,-2.9674284E5,1.1710221E6,-3.9536695E4,3.82945E4,3.320316E5,8.029863E5,1.6003026E6,3.456421E5,1.8374204E6],"categories":[],"categories_nodes":[],"categories_segments":[],"categories_sizes":[],"default_left":[0,0,0,0,0,0,0,0,0,0,0,0,0,0,0,0,0,0,0,0,0,0,0,0,0,0,0,0,0,0,0,0,0,0,0,0,0,0,0,0,0,0,0,0,0,0,0,0,0,0,0,0,0,0,0,0,0,0,0,0,0,0,0,0,0,0,0,0,0,0,0,0,0,0,0,0,0,0,0,0,0,0,0,0,0,0,0,0,0,0,0,0,0],"id":7,"left_children":[1,3,5,7,9,11,13,15,17,19,21,23,-1,25,27,29,-1,31,33,35,37,39,41,43,45,47,49,51,53,55,-1,57,59,61,-1,63,65,67,69,71,73,75,77,-1,-1,79,81,83,85,-1,-1,-1,87,89,91,-1,-1,-1,-1,-1,-1,-1,-1,-1,-1,-1,-1,-1,-1,-1,-1,-1,-1,-1,-1,-1,-1,-1,-1,-1,-1,-1,-1,-1,-1,-1,-1,-1,-1,-1,-1,-1,-1],"loss_changes":[2.0944694E16,3.791176E15,7.301993E15,2.8302868E14,3.3093566E15,3.7174767E14,1.6277905E15,1.4295638E14,3.355788E14,3.4009846E14,1.3061834E15,8.709766E13,0E0,6.677434E14,8.5256604E14,1.3010261E14,0E0,1.4436499E14,1.3345397E14,5.4160074E13,4.7080395E14,3.9359563E14,1.190574E15,2.2773456E12,7.376918E13,7.7048975E14,1.7313364E14,1.8398224E14,3.602812E14,8.593263E13,0E0,1.0125889E14,8.332394E13,9.921018E13,0E0,6.0251433E13,3.5407845E13,2.0086297E14,5.789031E14,2.1413563E14,3.6551974E14,2.9765707E14,5.821321E14,0E0,0E0,3.6846457E13,2.427547E13,1.8599582E14,8.078812E14,0E0,0E0,0E0,1.4606735E13,3.141943E14,1.0494323E14,0E0,0E0,0E0,0E0,0E0,0E0,0E0,0E0,0E0,0E0,0E0,0E0,0E0,0E0,0E0,0E0,0E0,0E0,0E0,0E0,0E0,0E0,0E0,0E0,0E0,0E0,0E0,0E0,0E0,0E0,0E0,0E0,0E0,0E0,0E0,0E0,0E0,0E0],"parents":[2147483647,0,0,1,1,2,2,3,3,4,4,5,5,6,6,7,7,8,8,9,9,10,10,11,11,13,13,14,14,15,15,17,17,18,18,19,19,20,20,21,21,22,22,23,23,24,24,25,25,26,26,27,27,28,28,29,29,31,31,32,32,33,33,35,35,36,36,37,37,38,38,39,39,40,40,41,41,42,42,45,45,46,46,47,47,48,48,52,52,53,53,54,54],"right_children":[2,4,6,8,10,12,14,16,18,20,22,24,-1,26,28,30,-1,32,34,36,38,40,42,44,46,48,50,52,54,56,-1,58,60,62,-1,64,66,68,70,72,74,76,78,-1,-1,80,82,84,86,-1,-1,-1,88,90,92,-1,-1,-1,-1,-1,-1,-1,-1,-1,-1,-1,-1,-1,-1,-1,-1,-1,-1,-1,-1,-1,-1,-1,-1,-1,-1,-1,-1,-1,-1,-1,-1,-1,-1,-1,-1,-1,-1],"split_conditions":[1.71E1,1.81E1,2.4E1,2.9E1,2.7E1,1.0169491E-1,2.8E1,1.2237754E0,8.7546873E-1,2.4E1,2.41E1,3.888889E-2,9.317588E5,4.08E1,1.3862944E0,7.096774E-2,3.4258112E5,9.1629076E-1,1.5833333E-1,3.3E0,1.27E1,1.6463415E-1,3E1,2.4E0,8.3333336E-2,-4.2E0,3.64E1,1.1631508E0,3.328767E-1,1.1E0,3.0913788E5,4.69E1,4.8780486E-2,9.259259E-2,-3.8012528E5,2.3529412E-2,3.23E1,1.7857144E-2,8.04E1,3E0,6.930693E-2,8.880309E-2,4.6268657E-1,2.655455E4,2.2697598E5,5.3953207E-1,6E-1,4.45E1,7.8E1,-8.184137E5,2.8235688E5,1.122677E6,3.4133333E-1,2.3E0,-4.6E0,-4.2551956E5,-3.2693022E5,-4.6149816E5,1.9047272E5,-1.2876093E5,-3.1390584E5,4.738071E5,1.19285E3,-3.4154056E5,-1.6110727E4,-3.7843822E5,-1.8658989E5,-3.1482166E5,9.743683E4,4.6946634E5,-2.829516E5,4.580397E4,-3.1698297E5,5.698362E5,8.038721E4,3.275943E5,-1.9773186E5,9.00835E5,-2.8416822E5,-8.7463E4,-4.0705497E5,-1.9425569E5,4.0962867E4,4.9286647E5,-2.9674284E5,1.1710221E6,-3.9536695E4,3.82945E4,3.320316E5,8.029863E5,1.6003026E6,3.456421E5,1.8374204E6],"split_indices":[1,0,2,2,2,20,2,8,8,2,0,12,0,27,17,14,0,17,6,32,1,6,2,4,33,23,0,8,6,4,0,27,33,24,0,10,0,26,18,11,20,20,36,0,0,13,35,37,39,0,0,0,6,23,23,0,0,0,0,0,0,0,0,0,0,0,0,0,0,0,0,0,0,0,0,0,0,0,0,0,0,0,0,0,0,0,0,0,0,0,0,0,0],"split_type":[0,0,0,0,0,0,0,0,0,0,0,0,0,0,0,0,0,0,0,0,0,0,0,0,0,0,0,0,0,0,0,0,0,0,0,0,0,0,0,0,0,0,0,0,0,0,0,0,0,0,0,0,0,0,0,0,0,0,0,0,0,0,0,0,0,0,0,0,0,0,0,0,0,0,0,0,0,0,0,0,0,0,0,0,0,0,0,0,0,0,0,0,0],"sum_hessian":[1.324E3,1.107E3,2.17E2,6.06E2,5.01E2,5E1,1.67E2,4.39E2,1.67E2,2.53E2,2.48E2,4.8E1,2E0,7.9E1,8.8E1,4.37E2,2E0,1.47E2,2E1,1.35E2,1.18E2,1.36E2,1.12E2,4E0,4.4E1,7.5E1,4E0,1E1,7.8E1,4.35E2,2E0,4.4E1,1.03E2,1.7E1,3E0,2.2E1,1.13E2,7.7E1,4.1E1,7E1,6.6E1,4.8E1,6.4E1,1E0,3E0,2.8E1,1.6E1,1E1,6.5E1,2E0,2E0,3E0,7E0,2.7E1,5.1E1,2.66E2,1.69E2,4.2E1,2E0,6E1,4.3E1,9E0,8E0,1E1,1.2E1,9.9E1,1.4E1,6.3E1,1.4E1,2.5E1,1.6E1,4.6E1,2.4E1,2.3E1,4.3E1,3.3E1,1.5E1,6E1,4E0,5E0,2.3E1,8E0,8E0,5E0,5E0,5.9E1,6E0,3E0,4E0,1.4E1,1.3E1,1E0,5E1],"tree_param":{"num_deleted":"0","num_feature":"40","num_nodes":"93","size_leaf_vector":"1"}},{"base_weights":[1.1257372E5,-1.7424599E6,7.3345145E6,-2.426566E6,1.1719241E6,3.4007172E6,1.4066639E7,-3.1331452E6,-1.3920649E6,-1.558825E6,4.519968E6,-1.2093744E6,6.052037E6,1.1536341E7,1.8244492E7,-3.2011575E6,1.000994E6,-2.0906864E6,5.3280525E5,-2.5459268E6,5.957766E5,6.0554745E6,8.488114E5,-1.7671139E6,1.0720368E6,3.9405812E6,1.0859355E7,8.781765E6,1.4457287E7,1.8530034E7,4.125284E5,-2.9765002E6,-4.167552E6,-3.639847E5,7.712007E5,5.2104E6,-2.3159582E6,-6.693819E5,2.882961E6,-3.4197805E6,-8.0102075E5,3.9240788E6,-1.9684429E6,7.919766E6,1.8609832E6,4.6604995E6,-9.0888875E5,-2.0205139E6,6.845145E5,2.8530702E6,9.684136E5,1.1757702E7,1.406919E6,6.1471935E6,1.2482721E7,1.9130361E5,1.4823881E7,1.882822E7,4.195833E5,-3.437371E5,-2.2853088E5,-4.52298E5,1.2981144E4,9.4904305E4,9.234496E5,-3.0757428E5,-1.3825686E5,-1.6207286E5,2.0001872E5,5.498819E5,-7.657222E3,-4.3086816E5,-1.695911E5,2.3465688E5,-2.2498253E5,-3.317681E5,5.85046E5,-3.9618403E5,1.766058E5,8.68308E5,-1.8841436E5,3.3412703E5,-3.5441894E5,-3.09123E5,7.316884E5,-4.4672566E5,2.5990676E4,-2.9333606E5,-6.788603E4,3.7891806E5,-2.2570523E5,3.1199535E4,1.2564109E6,2.2469728E5,-5.56621E4,8.154419E5,2.7223584E5,2.243492E5,1.3097779E6,1.5369786E6,4.9694425E5,5.3728394E5,1.9073146E6],"categories":[],"categories_nodes":[],"categories_segments":[],"categories_sizes":[],"default_left":[0,0,0,0,0,0,0,0,0,0,0,0,0,0,0,0,0,0,0,0,0,0,0,0,0,0,0,0,0,0,0,0,0,0,0,0,0,0,0,0,0,0,0,0,0,0,0,0,0,0,0,0,0,0,0,0,0,0,0,0,0,0,0,0,0,0,0,0,0,0,0,0,0,0,0,0,0,0,0,0,0,0,0,0,0,0,0,0,0,0,0,0,0,0,0,0,0,0,0,0,0,0,0],"id":8,"left_children":[1,3,5,7,9,11,13,15,17,19,21,23,25,27,29,31,33,35,37,39,41,43,45,47,-1,49,51,53,55,57,-1,59,61,-1,-1,63,65,67,69,71,73,75,77,79,81,83,85,87,-1,89,-1,91,93,95,97,-1,99,101,-1,-1,-1,-1,-1,-1,-1,-1,-1,-1,-1,-1,-1,-1,-1,-1,-1,-1,-1,-1,-1,-1,-1,-1,-1,-1,-1,-1,-1,-1,-1,-1,-1,-1,-1,-1,-1,-1,-1,-1,-1,-1,-1,-1,-1],"loss_changes":[1.7830715E16,2.1142229E15,7.1554885E15,6.227998E14,1.8538647E15,2.1218682E15,8.466476E14,1.4632041E14,4.7177833E14,2.3971966E14,5.078348E14,4.4478017E14,1.07375605E15,3.9602712E14,6.8695854E13,9.636672E13,3.083732E14,4.3476283E14,2.6751056E14,1.1466969E14,3.149662E14,4.857259E14,1.918304E14,1.4913621E14,0E0,4.5957237E14,2.6367932E14,2.7428198E14,1.0960059E14,7.05996E13,0E0,1.22750165E14,1.4110806E14,0E0,0E0,1.2842095E14,1.7304128E14,1.6324194E14,2.4815598E14,7.084273E13,1.284059E14,2.4261626E14,1.6332806E14,3.456324E14,1.7986744E14,2.0794228E14,8.434115E13,7.271683E13,0E0,3.290561E14,0E0,2.7297738E14,7.848628E12,1.3591223E14,5.878307E13,0E0,7.962869E13,9.572408E12,0E0,0E0,0E0,0E0,0E0,0E0,0E0,0E0,0E0,0E0,0E0,0E0,0E0,0E0,0E0,0E0,0E0,0E0,0E0,0E0,0E0,0E0,0E0,0E0,0E0,0E0,0E0,0E0,0E0,0E0,0E0,0E0,0E0,0E0,0E0,0E0,0E0,0E0,0E0,0E0,0E0,0E0,0E0,0E0,0E0],"parents":[2147483647,0,0,1,1,2,2,3,3,4,4,5,5,6,6,7,7,8,8,9,9,10,10,11,11,12,12,13,13,14,14,15,15,16,16,17,17,18,18,19,19,20,20,21,21,22,22,23,23,25,25,26,26,27,27,28,28,29,29,31,31,32,32,35,35,36,36,37,37,38,38,39,39,40,40,41,41,42,42,43,43,44,44,45,45,46,46,47,47,49,49,51,51,52,52,53,53,54,54,56,56,57,57],"right_children":[2,4,6,8,10,12,14,16,18,20,22,24,26,28,30,32,34,36,38,40,42,44,46,48,-1,50,52,54,56,58,-1,60,62,-1,-1,64,66,68,70,72,74,76,78,80,82,84,86,88,-1,90,-1,92,94,96,98,-1,100,102,-1,-1,-1,-1,-1,-1,-1,-1,-1,-1,-1,-1,-1,-1,-1,-1,-1,-1,-1,-1,-1,-1,-1,-1,-1,-1,-1,-1,-1,-1,-1,-1,-1,-1,-1,-1,-1,-1,-1,-1,-1,-1,-1,-1,-1],"split_conditions":[3.09E1,2.41E1,2.8E1,1.95E1,2.7E1,2.4E1,3.2E1,9.268293E-1,3E1,2.5E1,6.0562015E-1,1.4350846E0,5.6E0,3.4E0,3.75E1,1.7457627E-1,1.47E1,6.2322944E-2,1.6190477E-1,5E-1,8E-1,1.1E0,6.626506E-2,1.4816046E0,1.0720368E6,4.11E1,1.410987E0,7.021277E-2,2.74E1,1.04E1,4.125284E5,2.7E1,9E-1,-3.639847E5,7.712007E5,1.59E1,1.5487805E-1,1.0647107E0,5.9701493E-3,5.7291668E-2,7.042254E-2,1.5503876E-2,5.954715E-1,2.0281482E0,1E1,1.4816046E0,6.1E1,6.8E1,6.845145E5,4.6E0,9.684136E5,7.619048E-2,2.7E1,1.1538462E-2,1E0,1.9130361E5,9.8265894E-2,1.6333333E-1,4.195833E5,-3.437371E5,-2.2853088E5,-4.52298E5,1.2981144E4,9.4904305E4,9.234496E5,-3.0757428E5,-1.3825686E5,-1.6207286E5,2.0001872E5,5.498819E5,-7.657222E3,-4.3086816E5,-1.695911E5,2.3465688E5,-2.2498253E5,-3.317681E5,5.85046E5,-3.9618403E5,1.766058E5,8.68308E5,-1.8841436E5,3.3412703E5,-3.5441894E5,-3.09123E5,7.316884E5,-4.4672566E5,2.5990676E4,-2.9333606E5,-6.788603E4,3.7891806E5,-2.2570523E5,3.1199535E4,1.2564109E6,2.2469728E5,-5.56621E4,8.154419E5,2.7223584E5,2.243492E5,1.3097779E6,1.5369786E6,4.9694425E5,5.3728394E5,1.9073146E6],"split_indices":[0,0,2,3,2,2,2,30,2,2,13,8,15,23,3,6,3,24,6,9,28,28,20,7,0,0,7,19,3,15,0,2,28,0,0,0,6,8,26,33,29,10,13,17,11,17,39,39,0,23,0,29,2,14,11,0,33,6,0,0,0,0,0,0,0,0,0,0,0,0,0,0,0,0,0,0,0,0,0,0,0,0,0,0,0,0,0,0,0,0,0,0,0,0,0,0,0,0,0,0,0,0,0],"split_type":[0,0,0,0,0,0,0,0,0,0,0,0,0,0,0,0,0,0,0,0,0,0,0,0,0,0,0,0,0,0,0,0,0,0,0,0,0,0,0,0,0,0,0,0,0,0,0,0,0,0,0,0,0,0,0,0,0,0,0,0,0,0,0,0,0,0,0,0,0,0,0,0,0,0,0,0,0,0,0,0,0,0,0,0,0,0,0,0,0,0,0,0,0,0,0,0,0,0,0,0,0,0,0],"sum_hessian":[1.329E3,1.058E3,2.71E2,8.57E2,2.01E2,1.72E2,9.9E1,5.08E2,3.49E2,1.11E2,9E1,6.3E1,1.09E2,6.4E1,3.5E1,5E2,8E0,2.56E2,9.3E1,7.6E1,3.5E1,6.3E1,2.7E1,6.1E1,2E0,7.7E1,3.2E1,3.5E1,2.9E1,3.4E1,1E0,4.09E2,9.1E1,5E0,3E0,7E0,2.49E2,6.2E1,3.1E1,5E1,2.6E1,1.5E1,2E1,4.3E1,2E1,8E0,1.9E1,6E1,1E0,6.6E1,1.1E1,2.9E1,3E0,2.2E1,1.3E1,1E0,2.8E1,3.3E1,1E0,2.43E2,1.66E2,8.4E1,7E0,4E0,3E0,1.36E2,1.13E2,4.6E1,1.6E1,1.6E1,1.5E1,3.2E1,1.8E1,8E0,1.8E1,3E0,1.2E1,1.3E1,7E0,4E1,3E0,1.6E1,4E0,2E0,6E0,4E0,1.5E1,3.5E1,2.5E1,5.6E1,1E1,2E0,2.7E1,2E0,1E0,1.3E1,9E0,1E0,1.2E1,2.6E1,2E0,1E0,3.2E1],"tree_param":{"num_deleted":"0","num_feature":"40","num_nodes":"103","size_leaf_vector":"1"}},{"base_weights":[5.9387062E4,-1.5009176E6,6.6051205E6,-2.4724375E6,5.1580484E5,2.689735E5,9.697954E6,-3.1194385E6,-1.3442688E6,-1.524375E6,2.9761742E6,-1.230974E6,3.9180865E6,6.3779485E6,1.2024579E7,6.982392E5,-3.156659E6,-6.3834044E5,-2.717658E6,-1.6925439E6,9.6344494E5,4.693741E6,7.8124956E5,-1.7573245E6,6.708853E6,-3.521378E6,9.112488E6,3.6032015E6,9.45477E6,4.8429045E6,1.3137376E7,-3.3405955E6,-1.6527598E6,-1.2536102E6,2.0844611E6,-4.427282E6,-1.9539469E6,-2.2844645E6,5.842703E5,-7.4509625E5,6.2810145E6,6.997277E4,8.475086E5,6.502888E5,-2.0163262E6,-1.5908086E5,1.0005676E6,-6.020276E5,6.813546E5,1.0447926E7,-4.791823E5,4.8837065E6,-3.131137E6,5.841074E6,1.1413673E7,8.85159E5,1.2581364E6,1.0721145E7,1.5648014E7,-3.364113E5,9.556185E4,-2.1268636E5,2.336513E5,-5.8572633E4,-3.1872788E5,4.810229E5,-1.5071427E5,-4.6976816E5,1.30155055E5,3.2920387E4,-2.5423816E5,3.793776E5,-2.475667E5,2.2788855E5,-1.4086667E5,-1.8852125E5,4.571701E5,1.6423231E5,8.276227E5,7.029529E4,-5.365567E5,-3.1416472E5,-6.496125E4,-5.0405027E4,2.7114872E5,2.479007E5,1.0870228E6,6.316667E5,-1.5458069E5,-6.0039444E5,5.2445402E4,9.51329E4,7.088157E5,3.736364E5,1.202516E6,2.620144E5,-4.6148497E5,7.4309894E5,1.3319242E6,1.06889E5,1.599443E6],"categories":[],"categories_nodes":[],"categories_segments":[],"categories_sizes":[],"default_left":[0,0,0,0,0,0,0,0,0,0,0,0,0,0,0,0,0,0,0,0,0,0,0,0,0,0,0,0,0,0,0,0,0,0,0,0,0,0,0,0,0,0,0,0,0,0,0,0,0,0,0,0,0,0,0,0,0,0,0,0,0,0,0,0,0,0,0,0,0,0,0,0,0,0,0,0,0,0,0,0,0,0,0,0,0,0,0,0,0,0,0,0,0,0,0,0,0,0,0,0,0],"id":9,"left_children":[1,3,5,7,9,11,13,15,17,19,21,23,25,27,29,-1,31,33,35,37,-1,39,41,43,45,47,49,51,53,55,57,59,61,63,65,67,69,71,73,75,77,79,-1,-1,81,-1,-1,-1,83,85,-1,87,89,91,93,95,-1,97,99,-1,-1,-1,-1,-1,-1,-1,-1,-1,-1,-1,-1,-1,-1,-1,-1,-1,-1,-1,-1,-1,-1,-1,-1,-1,-1,-1,-1,-1,-1,-1,-1,-1,-1,-1,-1,-1,-1,-1,-1,-1,-1],"loss_changes":[1.3583441E16,2.1055484E15,5.0141327E15,5.250031E14,1.7613953E15,4.7006867E14,1.2519067E15,1.9499876E14,2.5615604E14,3.7660773E14,5.9575196E14,2.6671673E14,9.981777E14,5.891627E14,7.355518E14,0E0,1.2144825E14,2.9913367E14,1.0885856E14,2.5739648E14,0E0,7.730097E14,3.8795074E14,1.371977E14,1.2536718E14,1.1962613E14,3.285897E14,3.6022575E14,1.7401409E14,4.4826624E14,3.5393537E14,4.443788E13,1.0331854E14,1.8539567E14,3.3031567E14,4.793925E13,8.681998E13,1.8488029E14,1.3830063E14,1.3591573E14,6.250149E14,2.3085057E14,0E0,0E0,8.562465E13,0E0,0E0,0E0,1.3399369E13,2.0166616E13,0E0,3.2301442E14,7.666145E13,7.862763E13,5.3655684E13,1.1705833E14,0E0,3.0278768E14,1.8492196E14,0E0,0E0,0E0,0E0,0E0,0E0,0E0,0E0,0E0,0E0,0E0,0E0,0E0,0E0,0E0,0E0,0E0,0E0,0E0,0E0,0E0,0E0,0E0,0E0,0E0,0E0,0E0,0E0,0E0,0E0,0E0,0E0,0E0,0E0,0E0,0E0,0E0,0E0,0E0,0E0,0E0,0E0],"parents":[2147483647,0,0,1,1,2,2,3,3,4,4,5,5,6,6,7,7,8,8,9,9,10,10,11,11,12,12,13,13,14,14,16,16,17,17,18,18,19,19,21,21,22,22,23,23,24,24,25,25,26,26,27,27,28,28,29,29,30,30,31,31,32,32,33,33,34,34,35,35,36,36,37,37,38,38,39,39,40,40,41,41,44,44,48,48,49,49,51,51,52,52,53,53,54,54,55,55,57,57,58,58],"right_children":[2,4,6,8,10,12,14,16,18,20,22,24,26,28,30,-1,32,34,36,38,-1,40,42,44,46,48,50,52,54,56,58,60,62,64,66,68,70,72,74,76,78,80,-1,-1,82,-1,-1,-1,84,86,-1,88,90,92,94,96,-1,98,100,-1,-1,-1,-1,-1,-1,-1,-1,-1,-1,-1,-1,-1,-1,-1,-1,-1,-1,-1,-1,-1,-1,-1,-1,-1,-1,-1,-1,-1,-1,-1,-1,-1,-1,-1,-1,-1,-1,-1,-1,-1,-1],"split_conditions":[3.1E1,2.02E1,2.5E1,2.8E1,2.7E1,2.4E1,2.8E1,5.042017E-2,3.3E1,2.0456716E-1,7.936508E-2,1.4350846E0,3.7931036E-2,4.7E0,2.2413793E-1,6.982392E5,1.410987E0,1.81E1,1.8E1,5.224719E-1,9.6344494E5,1.6216217E-2,5.7E0,1.1E0,3.52E1,7.446808E-2,1.4350846E0,8.68E1,3.5185184E-2,6.4178514E-1,1.3883644E-1,2.7380952E-1,3.815029E-1,5E-2,1.95E1,1.58E1,2.3584906E-2,9E-1,2.8E1,1.6292405E0,1.8018018E-2,1.7954762E-1,8.475086E5,6.502888E5,9E-1,-1.5908086E5,1.0005676E6,-6.020276E5,3.54E1,1.31E1,-4.791823E5,9.540636E-2,2.6E1,5.6764704E-1,4E0,3.3E1,1.2581364E6,2.3E0,-4.7E0,-3.364113E5,9.556185E4,-2.1268636E5,2.336513E5,-5.8572633E4,-3.1872788E5,4.810229E5,-1.5071427E5,-4.6976816E5,1.30155055E5,3.2920387E4,-2.5423816E5,3.793776E5,-2.475667E5,2.2788855E5,-1.4086667E5,-1.8852125E5,4.571701E5,1.6423231E5,8.276227E5,7.029529E4,-5.365567E5,-3.1416472E5,-6.496125E4,-5.0405027E4,2.7114872E5,2.479007E5,1.0870228E6,6.316667E5,-1.5458069E5,-6.0039444E5,5.2445402E4,9.51329E4,7.088157E5,3.736364E5,1.202516E6,2.620144E5,-4.6148497E5,7.4309894E5,1.3319242E6,1.06889E5,1.599443E6],"split_indices":[0,0,2,2,2,2,2,24,2,31,20,8,22,15,6,0,17,0,38,9,0,19,15,15,0,20,8,18,16,13,31,21,36,33,0,0,29,4,38,17,10,31,0,0,23,0,0,0,0,1,0,20,2,9,11,2,0,23,23,0,0,0,0,0,0,0,0,0,0,0,0,0,0,0,0,0,0,0,0,0,0,0,0,0,0,0,0,0,0,0,0,0,0,0,0,0,0,0,0,0,0],"split_type":[0,0,0,0,0,0,0,0,0,0,0,0,0,0,0,0,0,0,0,0,0,0,0,0,0,0,0,0,0,0,0,0,0,0,0,0,0,0,0,0,0,0,0,0,0,0,0,0,0,0,0,0,0,0,0,0,0,0,0,0,0,0,0,0,0,0,0,0,0,0,0,0,0,0,0,0,0,0,0,0,0,0,0,0,0,0,0,0,0,0,0,0,0,0,0,0,0,0,0,0,0],"sum_hessian":[1.328E3,1.073E3,2.55E2,7.24E2,3.49E2,8.4E1,1.71E2,4.59E2,2.65E2,1.91E2,1.58E2,6E1,2.4E1,7.2E1,9.9E1,1E0,4.58E2,1.76E2,8.9E1,1.89E2,2E0,8.8E1,7E1,5.7E1,3E0,1E1,1.4E1,3.9E1,3.3E1,1.4E1,8.5E1,4.07E2,5.1E1,1.44E2,3.2E1,2.6E1,6.3E1,1.5E2,3.9E1,2E1,6.8E1,6.5E1,5E0,1E0,5.6E1,1E0,2E0,6E0,4E0,1.3E1,1E0,3.3E1,6E0,1.3E1,2E1,1E1,4E0,4.6E1,3.9E1,4.05E2,2E0,4.6E1,5E0,1.08E2,3.6E1,1.8E1,1.4E1,2.5E1,1E0,1.3E1,5E1,4E0,1.46E2,2.1E1,1.8E1,1.7E1,3E0,2.1E1,4.7E1,5.9E1,6E0,3E1,2.6E1,3E0,1E0,1E0,1.2E1,2.7E1,6E0,3E0,3E0,3E0,1E1,2E0,1.8E1,8E0,2E0,2.2E1,2.4E1,1E0,3.8E1],"tree_param":{"num_deleted":"0","num_feature":"40","num_nodes":"101","size_leaf_vector":"1"}},{"base_weights":[9.347031E4,-1.3281521E6,6.220974E6,-2.3512498E6,-1.9244203E4,4.4084685E6,8.997054E6,-2.4134205E6,3.2602848E6,-4.4047362E5,2.435154E6,4.0318666E5,5.3495255E6,3.8403222E6,1.0286591E7,-2.9468615E6,-2.0252165E6,6.137117E5,-4.3161806E5,-1.2096671E6,8.326055E5,-5.7625194E5,5.376984E6,-4.5938434E5,8.3194544E5,3.5841002E6,7.5389745E6,1.6427084E4,8.044964E6,4.7225545E6,1.1556558E7,-2.984926E6,3.227519E5,-2.2045255E6,-2.5226081E5,7.845E4,-2.0399861E5,-1.4044922E6,5.782025E6,-7.0715075E5,1.7901908E6,-1.0937955E6,5.308812E5,1.1199302E7,2.6000848E6,-1.6326374E6,5.264107E6,2.4005965E6,1.0445063E7,8.873173E6,3.8156792E6,3.6240242E6,-4.195174E6,9.805878E6,6.6753734E4,-5.581745E5,6.5932935E6,1.1764907E7,-5.76356E4,-3.0198434E5,2.8023797E5,-2.2686592E5,2.2255038E5,-1.3743811E5,6.3064894E5,-9.043129E4,-3.800495E5,1.5480906E5,1.0911241E6,-1.715635E5,1.3451755E5,7.0207206E5,1.0124011E5,4.7664126E3,-3.0953222E5,1.2203275E6,5.79787E4,-2.7203884E5,3.7430506E5,2.4442367E5,-2.114364E5,1.561479E5,5.7993944E5,5.000803E5,6.951874E4,1.2658418E6,1.061097E5,1.2108787E5,9.714268E5,2.746849E4,8.3291456E5,6.5849675E5,1.12265336E5,-1.4841877E5,-5.17962E5,4.2608402E4,1.108498E6,2.331848E5,1.0521619E6,8.354585E5,1.2998191E6],"categories":[],"categories_nodes":[],"categories_segments":[],"categories_sizes":[],"default_left":[0,0,0,0,0,0,0,0,0,0,0,0,0,0,0,0,0,0,0,0,0,0,0,0,0,0,0,0,0,0,0,0,0,0,0,0,0,0,0,0,0,0,0,0,0,0,0,0,0,0,0,0,0,0,0,0,0,0,0,0,0,0,0,0,0,0,0,0,0,0,0,0,0,0,0,0,0,0,0,0,0,0,0,0,0,0,0,0,0,0,0,0,0,0,0,0,0,0,0,0,0],"id":10,"left_children":[1,3,5,7,9,11,13,15,17,19,21,23,25,27,29,31,33,-1,35,37,39,41,43,45,-1,47,49,51,53,55,57,59,-1,61,63,-1,-1,65,67,69,71,73,-1,75,77,79,81,83,85,87,89,91,93,95,-1,-1,97,99,-1,-1,-1,-1,-1,-1,-1,-1,-1,-1,-1,-1,-1,-1,-1,-1,-1,-1,-1,-1,-1,-1,-1,-1,-1,-1,-1,-1,-1,-1,-1,-1,-1,-1,-1,-1,-1,-1,-1,-1,-1,-1,-1],"loss_changes":[1.1471934E16,1.4314958E15,1.2081883E15,2.17193E14,4.8698906E14,5.7076116E14,6.055254E14,1.1703974E14,7.699576E13,3.9466334E14,6.143725E14,2.0867211E14,4.4841257E14,3.3750813E14,4.895173E14,6.7919808E13,1.0975749E14,0E0,9.424231E12,3.5002242E14,2.2538203E14,1.1240896E14,5.3676045E14,1.9661726E14,0E0,5.4332376E14,2.3439408E14,1.9752852E14,1.23364346E14,3.4522853E14,1.6350887E14,5.837612E13,0E0,9.4545115E13,2.5153785E14,0E0,0E0,2.9017883E14,1.3512576E14,1.2442241E14,3.7530793E14,7.554137E13,0E0,1.1020349E14,1.6221048E14,5.2302535E13,8.5421195E11,2.6702288E14,1.9426855E14,2.3958106E14,2.5342661E14,4.445229E13,8.3253915E12,9.125859E13,0E0,0E0,2.0982996E14,1.4796484E14,0E0,0E0,0E0,0E0,0E0,0E0,0E0,0E0,0E0,0E0,0E0,0E0,0E0,0E0,0E0,0E0,0E0,0E0,0E0,0E0,0E0,0E0,0E0,0E0,0E0,0E0,0E0,0E0,0E0,0E0,0E0,0E0,0E0,0E0,0E0,0E0,0E0,0E0,0E0,0E0,0E0,0E0,0E0],"parents":[2147483647,0,0,1,1,2,2,3,3,4,4,5,5,6,6,7,7,8,8,9,9,10,10,11,11,12,12,13,13,14,14,15,15,16,16,18,18,19,19,20,20,21,21,22,22,23,23,25,25,26,26,27,27,28,28,29,29,30,30,31,31,33,33,34,34,37,37,38,38,39,39,40,40,41,41,43,43,44,44,45,45,46,46,47,47,48,48,49,49,50,50,51,51,52,52,53,53,56,56,57,57],"right_children":[2,4,6,8,10,12,14,16,18,20,22,24,26,28,30,32,34,-1,36,38,40,42,44,46,-1,48,50,52,54,56,58,60,-1,62,64,-1,-1,66,68,70,72,74,-1,76,78,80,82,84,86,88,90,92,94,96,-1,-1,98,100,-1,-1,-1,-1,-1,-1,-1,-1,-1,-1,-1,-1,-1,-1,-1,-1,-1,-1,-1,-1,-1,-1,-1,-1,-1,-1,-1,-1,-1,-1,-1,-1,-1,-1,-1,-1,-1,-1,-1,-1,-1,-1,-1],"split_conditions":[3.1E1,1.83E1,2.6E0,2.66E1,2.7125E-1,3.8429752E-1,5.7612634E-1,1.47E1,2.6E0,9.932518E-1,5.5266577E-1,2.2300143E0,5.771396E-1,2.173913E-2,3.18E1,7.096774E-2,1.5E0,6.137117E5,1.3174604E-1,2.0456716E-1,1.6883116E-2,9.0909094E-1,5.8119947E-1,1.462585E-1,8.3194544E5,1.0169491E-1,2.1232876E-1,8.26E1,3.6E1,4E0,6E1,2.6E0,3.227519E5,9.444444E-1,9E-1,7.845E4,-2.0399861E5,8.2608694E-1,1.1081081E-1,3.5099337E-1,7.3913044E-1,1.7948718E-1,5.308812E5,3.92E1,3.3994336E-2,1.632653E-2,3.18E1,6.593407E-2,4.5E1,2.4342105E-1,1.4350846E0,1.5686159E0,1.3083328E0,2.39E1,6.6753734E4,-5.581745E5,7.82E1,1.2083333E-1,-5.76356E4,-3.0198434E5,2.8023797E5,-2.2686592E5,2.2255038E5,-1.3743811E5,6.3064894E5,-9.043129E4,-3.800495E5,1.5480906E5,1.0911241E6,-1.715635E5,1.3451755E5,7.0207206E5,1.0124011E5,4.7664126E3,-3.0953222E5,1.2203275E6,5.79787E4,-2.7203884E5,3.7430506E5,2.4442367E5,-2.114364E5,1.561479E5,5.7993944E5,5.000803E5,6.951874E4,1.2658418E6,1.061097E5,1.2108787E5,9.714268E5,2.746849E4,8.3291456E5,6.5849675E5,1.12265336E5,-1.4841877E5,-5.17962E5,4.2608402E4,1.108498E6,2.331848E5,1.0521619E6,8.354585E5,1.2998191E6],"split_indices":[0,0,23,3,6,36,13,3,32,8,13,17,13,14,3,14,34,0,6,31,19,30,13,25,0,33,25,18,3,11,11,34,0,30,28,0,0,30,12,36,30,25,0,27,33,22,0,33,0,6,8,17,8,3,0,0,18,24,0,0,0,0,0,0,0,0,0,0,0,0,0,0,0,0,0,0,0,0,0,0,0,0,0,0,0,0,0,0,0,0,0,0,0,0,0,0,0,0,0,0,0],"split_type":[0,0,0,0,0,0,0,0,0,0,0,0,0,0,0,0,0,0,0,0,0,0,0,0,0,0,0,0,0,0,0,0,0,0,0,0,0,0,0,0,0,0,0,0,0,0,0,0,0,0,0,0,0,0,0,0,0,0,0,0,0,0,0,0,0,0,0,0,0,0,0,0,0,0,0,0,0,0,0,0,0,0,0,0,0,0,0,0,0,0,0,0,0,0,0,0,0,0,0,0,0],"sum_hessian":[1.315E3,1.068E3,2.47E2,5.99E2,4.69E2,1.51E2,9.6E1,5.93E2,6E0,4.01E2,6.8E1,2.9E1,1.22E2,2E1,7.6E1,2.47E2,3.46E2,3E0,3E0,2.5E2,1.51E2,3.4E1,3.4E1,2.7E1,2E0,6.9E1,5.3E1,1.1E1,9E0,1.5E1,6.1E1,2.46E2,1E0,3.14E2,3.2E1,2E0,1E0,2.44E2,6E0,5.8E1,9.3E1,3.2E1,2E0,1E1,2.4E1,2.3E1,4E0,6E1,9E0,3.8E1,1.5E1,6E0,5E0,7E0,2E0,2E0,1.3E1,6E1,1E0,2.45E2,1E0,3.1E2,4E0,2.8E1,4E0,2.03E2,4.1E1,4E0,2E0,3.9E1,1.9E1,1.1E1,8.2E1,2.1E1,1.1E1,9E0,1E0,4E0,2E1,2E0,2.1E1,1E0,3E0,2.3E1,3.7E1,7E0,2E0,4E0,3.4E1,9E0,6E0,2E0,4E0,2E0,3E0,1E0,6E0,7E0,6E0,1.8E1,4.2E1],"tree_param":{"num_deleted":"0","num_feature":"40","num_nodes":"101","size_leaf_vector":"1"}},{"base_weights":[1.9259875E5,-1.2120261E6,5.058138E6,-2.162609E6,-2.2700596E4,-1.580846E6,7.2882995E6,-2.1976705E6,8.85861E5,-8.0330644E5,3.9430798E6,-1.9572448E6,5.589544E6,4.441857E6,9.47913E6,-2.2398745E6,4.3024966E5,-1.7780479E6,2.8357938E5,2.651123E6,6.7487595E6,-2.1959878E6,4.2658425E6,-1.5460275E5,8.48341E5,2.1547942E6,6.343046E6,7.793843E6,1.4499903E7,-2.5870338E6,-1.4468909E6,-1.8917811E6,6.358941E5,1.5201184E6,-8.2710744E5,-1.3262275E6,3.7243868E6,9.216904E6,-2.0941414E5,-3.092841E6,-1.0967028E6,7.4710055E4,5.651663E5,8.555302E6,7.866184E5,5.0498778E5,7.860038E6,4.1983045E6,9.469833E6,2.8919968E6,1.5225754E6,-2.7774725E5,-6.8993086E4,2.0099025E4,-1.9727394E5,-2.9444928E5,-1.4051153E5,4.7228484E5,5.355454E3,9.374018E4,-1.9495523E5,1.14197836E5,-3.2523716E5,1.1767579E6,3.0280378E5,1.0127423E6,1.592007E5,2.4908436E5,-2.8573184E5,2.770894E5,-3.3262097E5,7.231481E5,-1.5829423E5,1.7837173E5,1.2261509E6,-2.1801883E5,3.433414E5,-4.286904E5,2.5786078E5,1.0131248E6,3.9240672E5,6.914823E5,1.394622E5,-1.08263805E5,9.654518E5,3.32237E4,4.005758E5],"categories":[],"categories_nodes":[],"categories_segments":[],"categories_sizes":[],"default_left":[0,0,0,0,0,0,0,0,0,0,0,0,0,0,0,0,0,0,0,0,0,0,0,0,0,0,0,0,0,0,0,0,0,0,0,0,0,0,0,0,0,0,0,0,0,0,0,0,0,0,0,0,0,0,0,0,0,0,0,0,0,0,0,0,0,0,0,0,0,0,0,0,0,0,0,0,0,0,0,0,0,0,0,0,0,0,0],"id":11,"left_children":[1,3,5,7,9,11,13,15,-1,17,19,21,23,25,27,29,-1,31,33,35,37,39,41,-1,-1,43,45,47,49,51,53,55,-1,57,59,61,63,65,67,69,71,-1,-1,73,75,77,79,81,83,85,-1,-1,-1,-1,-1,-1,-1,-1,-1,-1,-1,-1,-1,-1,-1,-1,-1,-1,-1,-1,-1,-1,-1,-1,-1,-1,-1,-1,-1,-1,-1,-1,-1,-1,-1,-1,-1],"loss_changes":[9.000013E15,1.1553756E15,4.3792925E15,2.389548E14,1.4117163E15,2.1335955E14,1.3360688E15,1.6518337E14,0E0,4.041481E14,2.5396934E14,1.1633947E14,9.571314E13,4.124496E14,9.362084E14,1.5152108E14,0E0,1.9804443E14,2.4984407E14,2.3118292E14,3.9692712E14,6.5620926E13,1.0406672E13,0E0,0E0,3.9609312E14,4.654138E14,5.327209E14,2.0873541E14,1.39344845E14,1.5117372E14,9.7814055E13,0E0,4.0368978E14,1.9196168E14,6.076357E13,1.9960384E14,1.01901455E14,5.71673E13,6.121617E13,1.4508027E14,0E0,0E0,1.7890411E14,3.1373417E14,1.3029299E14,3.357E14,2.3407659E14,1.3518034E14,7.222025E12,0E0,0E0,0E0,0E0,0E0,0E0,0E0,0E0,0E0,0E0,0E0,0E0,0E0,0E0,0E0,0E0,0E0,0E0,0E0,0E0,0E0,0E0,0E0,0E0,0E0,0E0,0E0,0E0,0E0,0E0,0E0,0E0,0E0,0E0,0E0,0E0,0E0],"parents":[2147483647,0,0,1,1,2,2,3,3,4,4,5,5,6,6,7,7,9,9,10,10,11,11,12,12,13,13,14,14,15,15,17,17,18,18,19,19,20,20,21,21,22,22,25,25,26,26,27,27,28,28,29,29,30,30,31,31,33,33,34,34,35,35,36,36,37,37,38,38,39,39,40,40,43,43,44,44,45,45,46,46,47,47,48,48,49,49],"right_children":[2,4,6,8,10,12,14,16,-1,18,20,22,24,26,28,30,-1,32,34,36,38,40,42,-1,-1,44,46,48,50,52,54,56,-1,58,60,62,64,66,68,70,72,-1,-1,74,76,78,80,82,84,86,-1,-1,-1,-1,-1,-1,-1,-1,-1,-1,-1,-1,-1,-1,-1,-1,-1,-1,-1,-1,-1,-1,-1,-1,-1,-1,-1,-1,-1,-1,-1,-1,-1,-1,-1,-1,-1],"split_conditions":[2.94E1,2.7E1,2.4E1,2.0456716E-1,2.4E1,1.4350846E0,3.1304348E-1,7.1E0,8.85861E5,1.59E1,3.3E1,5.6E0,3.52E1,3.8E1,3.2E1,3.5714287E-1,4.3024966E5,9.3939394E-1,6.1728396E-3,1.6E0,5.357143E-2,4.85E-1,3.44E1,-1.5460275E5,8.48341E5,5.458819E-2,3.07E1,5E0,5.28169E-2,5.9E0,7.2727275E-1,3.9E1,6.358941E5,3.2E1,1.410987E0,5.796371E-1,1.8E0,1.2809339E0,8E0,1.4473684E-2,1.8232156E-1,7.4710055E4,5.651663E5,1.4E0,1.3888889E-2,2.5E1,7.6E1,1.980198E-1,2.5490196E-2,4.06E1,1.5225754E6,-2.7774725E5,-6.8993086E4,2.0099025E4,-1.9727394E5,-2.9444928E5,-1.4051153E5,4.7228484E5,5.355454E3,9.374018E4,-1.9495523E5,1.14197836E5,-3.2523716E5,1.1767579E6,3.0280378E5,1.0127423E6,1.592007E5,2.4908436E5,-2.8573184E5,2.770894E5,-3.3262097E5,7.231481E5,-1.5829423E5,1.7837173E5,1.2261509E6,-2.1801883E5,3.433414E5,-4.286904E5,2.5786078E5,1.0131248E6,3.9240672E5,6.914823E5,1.394622E5,-1.08263805E5,9.654518E5,3.32237E4,4.005758E5],"split_indices":[0,2,2,31,0,8,6,23,0,0,2,23,0,38,2,36,0,30,26,4,10,36,0,0,0,31,3,11,25,32,30,39,0,38,17,13,4,8,11,22,8,0,0,5,14,2,39,25,22,0,0,0,0,0,0,0,0,0,0,0,0,0,0,0,0,0,0,0,0,0,0,0,0,0,0,0,0,0,0,0,0,0,0,0,0,0,0],"split_type":[0,0,0,0,0,0,0,0,0,0,0,0,0,0,0,0,0,0,0,0,0,0,0,0,0,0,0,0,0,0,0,0,0,0,0,0,0,0,0,0,0,0,0,0,0,0,0,0,0,0,0,0,0,0,0,0,0,0,0,0,0,0,0,0,0,0,0,0,0,0,0,0,0,0,0,0,0,0,0,0,0,0,0,0,0,0,0],"sum_hessian":[1.315E3,1.021E3,2.94E2,5.67E2,4.54E2,7.4E1,2.2E2,5.66E2,1E0,3.8E2,7.4E1,7.1E1,3E0,9.7E1,1.23E2,5.63E2,3E0,2E2,1.8E2,5.2E1,2.2E1,6.9E1,2E0,1E0,2E0,4.5E1,5.2E1,9.4E1,2.9E1,3.9E2,1.73E2,1.98E2,2E0,8.5E1,9.5E1,1.1E1,4.1E1,1.6E1,6E0,3.7E1,3.2E1,1E0,1E0,7E0,3.8E1,1.1E1,4.1E1,3.1E1,6.3E1,2E0,2.7E1,3.54E2,3.6E1,4.2E1,1.31E2,6.1E1,1.37E2,2.6E1,5.9E1,3.7E1,5.8E1,5E0,6E0,2E0,3.9E1,1.4E1,2E0,3E0,3E0,1E0,3.6E1,1E0,3.1E1,3E0,4E0,1.8E1,2E1,3E0,8E0,2.5E1,1.6E1,1.5E1,1.6E1,1E0,6.2E1,1E0,1E0],"tree_param":{"num_deleted":"0","num_feature":"40","num_nodes":"87","size_leaf_vector":"1"}},{"base_weights":[1.0328899E5,-1.0780788E6,5.0267895E6,-2.0079899E6,6.7632445E4,-8.998404E4,7.526202E6,-2.3400982E6,-1.168785E6,-8.3665856E5,3.4181652E6,1.4428466E6,-1.620722E6,5.28733E6,9.976203E6,-1.2782548E6,-2.4830058E6,-1.72647E6,2.1125398E6,-1.7713679E6,4.071076E5,2.2993495E6,6.600114E6,-7.597125E5,6.5841145E6,4.0991898E6,-2.312487E6,-1.7076271E6,5.883475E6,7.9062225E6,1.289879E7,-1.8616112E6,4.381137E5,-2.1499008E6,-2.8794122E6,5.335408E6,-1.913238E6,-6.6959556E5,4.732172E6,-1.3093601E6,-2.8726032E6,-6.3593325E5,1.8736489E6,1.2352351E6,4.743999E6,1.5705009E6,8.0304725E6,1.2062985E6,-3.5746738E6,-1.365723E6,8.1536965E6,-2.4515666E4,6.856499E5,-2.819067E6,9.435472E5,7.334628E5,-6.020598E5,7.31055E6,3.161778E6,-1.5770147E5,8.3342115E6,1.3236152E7,1.220285E5,-2.74734E5,-6.756311E4,-9.072402E4,1.0669793E5,-2.2580142E5,7.946454E4,-3.085705E5,-1.6499239E5,7.37001E5,2.200537E5,-2.1574823E5,2.4475405E5,2.3378808E5,-1.8056266E5,8.415961E5,1.3778092E5,-3.3554074E4,-2.3043916E5,-3.0519125E5,4.122285E5,-1.502098E5,1.8840586E5,2.6982434E5,-3.8318297E5,2.5428361E5,-2.4212228E5,7.3509975E5,2.5430003E5,-1.1716073E5,5.6171806E5,4.6196456E5,9.5117144E5,-7.545101E4,3.996724E5,-1.4894766E5,-4.6917375E5,-2.581263E5,5.326785E4,3.9731672E5,9.974975E5,7.0974555E4,-7.46519E4,-1.8853955E5,-4.0182122E5,-1.14194E4,1.1779343E5,-1.834125E5,2.475788E5,1.0893035E5,7.910889E5,8.5405044E5,5.7318527E4,5.5826356E5,9.663056E5,1.270065E5,1.3592686E6],"categories":[],"categories_nodes":[],"categories_segments":[],"categories_sizes":[],"default_left":[0,0,0,0,0,0,0,0,0,0,0,0,0,0,0,0,0,0,0,0,0,0,0,0,0,0,0,0,0,0,0,0,0,0,0,0,0,0,0,0,0,0,0,0,0,0,0,0,0,0,0,0,0,0,0,0,0,0,0,0,0,0,0,0,0,0,0,0,0,0,0,0,0,0,0,0,0,0,0,0,0,0,0,0,0,0,0,0,0,0,0,0,0,0,0,0,0,0,0,0,0,0,0,0,0,0,0,0,0,0,0,0,0,0,0,0,0,0,0],"id":12,"left_children":[1,3,5,7,9,11,13,15,17,19,21,23,25,27,29,31,33,35,37,39,41,43,45,47,49,51,53,55,57,59,61,63,65,67,69,71,73,75,77,79,81,83,85,87,89,91,93,95,97,99,101,103,-1,105,107,109,-1,111,113,-1,115,117,-1,-1,-1,-1,-1,-1,-1,-1,-1,-1,-1,-1,-1,-1,-1,-1,-1,-1,-1,-1,-1,-1,-1,-1,-1,-1,-1,-1,-1,-1,-1,-1,-1,-1,-1,-1,-1,-1,-1,-1,-1,-1,-1,-1,-1,-1,-1,-1,-1,-1,-1,-1,-1,-1,-1,-1,-1],"loss_changes":[7.6947856E15,1.1369278E15,3.274643E15,1.614234E14,1.4541613E15,2.0177922E14,8.9071287E14,6.0710973E13,3.129081E14,4.401688E14,3.4794564E14,4.9193173E14,1.7962322E14,3.9368744E14,3.8804493E14,5.2880837E13,4.2665937E13,2.0145303E14,1.8537297E14,1.06135084E14,2.5052652E14,1.944468E14,1.7443607E14,1.7587371E14,1.733487E14,5.7019734E13,6.698812E13,8.864268E13,3.0703137E14,2.1607954E14,1.0992432E14,3.9111633E13,1.2812661E13,6.705511E13,3.7012283E13,9.29488E12,1.5652411E14,4.863696E13,1.4904234E14,1.4844979E14,9.1598466E13,2.1237192E14,3.3025916E14,2.6912206E14,1.1328047E14,8.425617E13,5.710441E13,1.0697388E14,2.3292648E13,8.297732E12,4.4120723E13,2.1202555E12,0E0,3.0490745E13,1.6220375E12,3.138234E13,0E0,1.967997E14,4.2672792E14,0E0,1.2156261E14,1.1499184E14,0E0,0E0,0E0,0E0,0E0,0E0,0E0,0E0,0E0,0E0,0E0,0E0,0E0,0E0,0E0,0E0,0E0,0E0,0E0,0E0,0E0,0E0,0E0,0E0,0E0,0E0,0E0,0E0,0E0,0E0,0E0,0E0,0E0,0E0,0E0,0E0,0E0,0E0,0E0,0E0,0E0,0E0,0E0,0E0,0E0,0E0,0E0,0E0,0E0,0E0,0E0,0E0,0E0,0E0,0E0,0E0,0E0],"parents":[2147483647,0,0,1,1,2,2,3,3,4,4,5,5,6,6,7,7,8,8,9,9,10,10,11,11,12,12,13,13,14,14,15,15,16,16,17,17,18,18,19,19,20,20,21,21,22,22,23,23,24,24,25,25,26,26,27,27,28,28,29,29,30,30,31,31,32,32,33,33,34,34,35,35,36,36,37,37,38,38,39,39,40,40,41,41,42,42,43,43,44,44,45,45,46,46,47,47,48,48,49,49,50,50,51,51,53,53,54,54,55,55,57,57,58,58,60,60,61,61],"right_children":[2,4,6,8,10,12,14,16,18,20,22,24,26,28,30,32,34,36,38,40,42,44,46,48,50,52,54,56,58,60,62,64,66,68,70,72,74,76,78,80,82,84,86,88,90,92,94,96,98,100,102,104,-1,106,108,110,-1,112,114,-1,116,118,-1,-1,-1,-1,-1,-1,-1,-1,-1,-1,-1,-1,-1,-1,-1,-1,-1,-1,-1,-1,-1,-1,-1,-1,-1,-1,-1,-1,-1,-1,-1,-1,-1,-1,-1,-1,-1,-1,-1,-1,-1,-1,-1,-1,-1,-1,-1,-1,-1,-1,-1,-1,-1,-1,-1,-1,-1],"split_conditions":[3.17E1,2.7E1,2.5E1,2.5E1,2.4E1,1.4E1,2.9E1,2.1E1,1.609438E0,2E1,3.3E1,5.7522124E-1,2.878788E-2,7.1153843E-1,2.7E0,2.8E1,6.4615384E-2,6.481481E-2,2.59E1,3.3E1,1.4E0,3.2258064E-2,1.3783784E-1,5.56872E-1,2.3E1,3E1,8.5294116E-1,3.7E1,2.039801E-1,8.196721E-3,1.21710524E-1,2.04E1,3.846154E-2,2.4242423E-2,5E-1,1.76E1,3.4E0,1.9379845E-1,8.264463E-2,4.2735044E-2,1E0,2.0807454E-1,2.32E1,1.1E0,8.163265E-2,2.84E1,7.916667E-1,4.5E0,3.58E1,3.97E1,3.1E1,3.44E1,6.856499E5,9E0,3.97E1,2.93E1,-6.020598E5,4.8351648E-1,1.4586151E0,-1.5770147E5,1E0,6E-1,1.220285E5,-2.74734E5,-6.756311E4,-9.072402E4,1.0669793E5,-2.2580142E5,7.946454E4,-3.085705E5,-1.6499239E5,7.37001E5,2.200537E5,-2.1574823E5,2.4475405E5,2.3378808E5,-1.8056266E5,8.415961E5,1.3778092E5,-3.3554074E4,-2.3043916E5,-3.0519125E5,4.122285E5,-1.502098E5,1.8840586E5,2.6982434E5,-3.8318297E5,2.5428361E5,-2.4212228E5,7.3509975E5,2.5430003E5,-1.1716073E5,5.6171806E5,4.6196456E5,9.5117144E5,-7.545101E4,3.996724E5,-1.4894766E5,-4.6917375E5,-2.581263E5,5.326785E4,3.9731672E5,9.974975E5,7.0974555E4,-7.46519E4,-1.8853955E5,-4.0182122E5,-1.14194E4,1.1779343E5,-1.834125E5,2.475788E5,1.0893035E5,7.910889E5,8.5405044E5,5.7318527E4,5.5826356E5,9.663056E5,1.270065E5,1.3592686E6],"split_indices":[0,2,2,2,0,11,2,2,17,3,2,13,12,30,5,38,21,24,0,2,4,22,6,13,2,3,30,0,25,14,33,3,33,14,9,0,23,24,10,33,28,25,0,28,29,0,30,15,27,0,38,0,0,32,0,3,0,9,17,0,23,28,0,0,0,0,0,0,0,0,0,0,0,0,0,0,0,0,0,0,0,0,0,0,0,0,0,0,0,0,0,0,0,0,0,0,0,0,0,0,0,0,0,0,0,0,0,0,0,0,0,0,0,0,0,0,0,0,0],"split_type":[0,0,0,0,0,0,0,0,0,0,0,0,0,0,0,0,0,0,0,0,0,0,0,0,0,0,0,0,0,0,0,0,0,0,0,0,0,0,0,0,0,0,0,0,0,0,0,0,0,0,0,0,0,0,0,0,0,0,0,0,0,0,0,0,0,0,0,0,0,0,0,0,0,0,0,0,0,0,0,0,0,0,0,0,0,0,0,0,0,0,0,0,0,0,0,0,0,0,0,0,0,0,0,0,0,0,0,0,0,0,0,0,0,0,0,0,0,0,0],"sum_hessian":[1.321E3,1.066E3,2.55E2,5.88E2,4.78E2,8.4E1,1.71E2,4.2E2,1.68E2,3.77E2,1.01E2,4.2E1,4.2E1,9.1E1,8E1,5.1E1,3.69E2,1.44E2,2.4E1,2.15E2,1.62E2,7.6E1,2.5E1,3E1,1.2E1,4E0,3.8E1,7E0,8.4E1,4.9E1,3.1E1,3.8E1,1.3E1,2.04E2,1.65E2,3E0,1.41E2,1.2E1,1.2E1,1.53E2,6.2E1,9.5E1,6.7E1,5.4E1,2.2E1,6E0,1.9E1,1.8E1,1.2E1,2E0,1E1,2E0,2E0,3.3E1,5E0,5E0,2E0,5.4E1,3E1,2E0,4.7E1,3E1,1E0,2.1E1,1.7E1,4E0,9E0,1.97E2,7E0,1.4E2,2.5E1,1E0,2E0,1.34E2,7E0,3E0,9E0,5E0,7E0,7.8E1,7.5E1,6.1E1,1E0,7.1E1,2.4E1,5.9E1,8E0,4E1,1.4E1,9E0,1.3E1,4E0,2E0,7E0,1.2E1,1.1E1,7E0,5E0,7E0,1E0,1E0,4E0,6E0,1E0,1E0,2E1,1.3E1,1E0,4E0,2E0,3E0,5E0,4.9E1,9E0,2.1E1,1.7E1,3E1,1E0,2.9E1],"tree_param":{"num_deleted":"0","num_feature":"40","num_nodes":"119","size_leaf_vector":"1"}},{"base_weights":[7.564962E4,-1.0065288E6,5.2546535E6,-1.5125942E6,1.1741704E6,-8.7639175E5,7.016225E6,-1.5700709E6,5.961972E6,-2.9237875E4,4.123008E6,-1.17875E6,7.2719394E5,4.4633225E6,8.410281E6,-1.868245E6,-5.605891E5,-3.3652616E5,8.077388E6,-1.8504825E6,9.7654544E5,5.982019E5,6.297936E6,4.068603E6,-1.5914721E6,1.809318E6,6.686489E6,4.7913105E6,1.037722E7,-1.9111256E6,4.320031E5,-1.3574782E6,5.844976E5,2.651996E5,1.0127085E6,-3.098252E6,-1.2764089E6,1.3963672E6,-3.2368842E6,-1.3106868E6,3.925315E6,8.0846865E6,2.3774205E6,6.7425805E4,4.9752984E5,4.3728522E5,-2.2064348E6,4.6413075E6,-7.9592656E5,7.796763E6,3.1311275E6,2.862722E6,8.444008E6,1.825494E5,1.0592402E7,-1.9410605E5,3.6181472E5,-1.5499373E5,4.611316E5,-1.5910298E5,1.7605217E5,-9.84952E4,-3.3297984E5,-1.7453347E5,2.111167E4,1.9800892E5,-2.123574E5,-5.654391E5,1.1985968E5,-6.692527E5,4.4608594E4,4.444325E4,5.5916844E5,3.55407E5,1.0007678E6,7.40108E5,7.912026E4,6.371158E5,-6.81354E4,-3.7036402E4,-3.072934E5,-7.582338E4,8.3252494E5,4.048778E5,-4.5920975E5,5.057179E5,9.468646E5,-3.337441E5,5.1654497E5,1.5388019E5,4.3737925E5,1.1751274E6,2.0757755E5,1.153372E6,7.4091244E5],"categories":[],"categories_nodes":[],"categories_segments":[],"categories_sizes":[],"default_left":[0,0,0,0,0,0,0,0,0,0,0,0,0,0,0,0,0,0,0,0,0,0,0,0,0,0,0,0,0,0,0,0,0,0,0,0,0,0,0,0,0,0,0,0,0,0,0,0,0,0,0,0,0,0,0,0,0,0,0,0,0,0,0,0,0,0,0,0,0,0,0,0,0,0,0,0,0,0,0,0,0,0,0,0,0,0,0,0,0,0,0,0,0,0,0],"id":13,"left_children":[1,3,5,7,9,11,13,15,17,19,21,23,-1,25,27,29,31,-1,33,35,37,39,41,43,45,47,49,51,53,55,-1,57,59,-1,-1,61,63,65,67,69,71,73,75,-1,-1,77,79,81,83,85,87,89,91,-1,93,-1,-1,-1,-1,-1,-1,-1,-1,-1,-1,-1,-1,-1,-1,-1,-1,-1,-1,-1,-1,-1,-1,-1,-1,-1,-1,-1,-1,-1,-1,-1,-1,-1,-1,-1,-1,-1,-1,-1,-1],"loss_changes":[7.425788E15,1.2112958E15,2.4794116E15,3.9171645E14,7.346922E14,1.3668497E14,5.959455E14,2.65038E14,1.652994E14,2.7291016E14,4.5620458E14,1.169257E14,0E0,3.7142112E14,7.6176506E14,1.8923009E14,1.860324E14,0E0,3.9865484E13,3.4009866E13,1.7433333E14,1.5757098E14,2.3996372E14,8.955917E12,6.0850107E13,2.3241291E14,1.1374724E14,2.7169822E14,1.14996676E14,1.1924359E14,0E0,1.4499697E14,2.1771275E14,0E0,0E0,4.549545E12,2.6874953E13,1.8501553E14,1.0328257E14,1.5426016E14,4.971877E13,1.8224043E14,9.773629E13,0E0,0E0,8.399537E13,5.7727196E13,3.046865E14,3.3124492E14,7.120224E13,1.488309E14,5.1285148E13,2.7046704E14,0E0,1.27295314E14,0E0,0E0,0E0,0E0,0E0,0E0,0E0,0E0,0E0,0E0,0E0,0E0,0E0,0E0,0E0,0E0,0E0,0E0,0E0,0E0,0E0,0E0,0E0,0E0,0E0,0E0,0E0,0E0,0E0,0E0,0E0,0E0,0E0,0E0,0E0,0E0,0E0,0E0,0E0,0E0],"parents":[2147483647,0,0,1,1,2,2,3,3,4,4,5,5,6,6,7,7,8,8,9,9,10,10,11,11,13,13,14,14,15,15,16,16,18,18,19,19,20,20,21,21,22,22,23,23,24,24,25,25,26,26,27,27,28,28,29,29,31,31,32,32,35,35,36,36,37,37,38,38,39,39,40,40,41,41,42,42,45,45,46,46,47,47,48,48,49,49,50,50,51,51,52,52,54,54],"right_children":[2,4,6,8,10,12,14,16,18,20,22,24,-1,26,28,30,32,-1,34,36,38,40,42,44,46,48,50,52,54,56,-1,58,60,-1,-1,62,64,66,68,70,72,74,76,-1,-1,78,80,82,84,86,88,90,92,-1,94,-1,-1,-1,-1,-1,-1,-1,-1,-1,-1,-1,-1,-1,-1,-1,-1,-1,-1,-1,-1,-1,-1,-1,-1,-1,-1,-1,-1,-1,-1,-1,-1,-1,-1,-1,-1,-1,-1,-1,-1],"split_conditions":[1.7E1,2.77E1,2.4E1,5.7E0,3E1,1.4350846E0,2.7E1,9.3E0,8E-1,2.4E1,2.92E1,2.1E0,7.2719394E5,1.12676054E-1,7.8E-2,4.5E0,2.7E1,-3.3652616E5,1.5675676E-1,2.7522936E-2,4.3939393E-2,4.44E1,7.5E1,1.74E1,7.46E1,6.055046E-1,3.84E1,6.472303E-1,2.2413793E-1,9.3939394E-1,4.320031E5,1.2809339E0,1.8691588E-2,2.651996E5,1.0127085E6,9.803922E-3,1E0,3.27E1,1.6E0,9.932518E-1,1.6666668E-2,2E0,2.4E-1,6.7425805E4,4.9752984E5,3.16E1,2.2E1,-3E-1,5.194805E-3,2.7659575E-2,6.626506E-2,4.57E1,3.5945946E-1,1.825494E5,3.5E1,-1.9410605E5,3.6181472E5,-1.5499373E5,4.611316E5,-1.5910298E5,1.7605217E5,-9.84952E4,-3.3297984E5,-1.7453347E5,2.111167E4,1.9800892E5,-2.123574E5,-5.654391E5,1.1985968E5,-6.692527E5,4.4608594E4,4.444325E4,5.5916844E5,3.55407E5,1.0007678E6,7.40108E5,7.912026E4,6.371158E5,-6.81354E4,-3.7036402E4,-3.072934E5,-7.582338E4,8.3252494E5,4.048778E5,-4.5920975E5,5.057179E5,9.468646E5,-3.337441E5,5.1654497E5,1.5388019E5,4.3737925E5,1.1751274E6,2.0757755E5,1.153372E6,7.4091244E5],"split_indices":[1,3,2,15,2,8,2,1,4,2,3,15,0,29,21,34,2,0,6,10,16,37,39,1,18,9,27,9,6,30,0,8,10,0,0,19,23,3,5,8,19,11,36,0,0,3,2,23,26,16,20,37,6,0,3,0,0,0,0,0,0,0,0,0,0,0,0,0,0,0,0,0,0,0,0,0,0,0,0,0,0,0,0,0,0,0,0,0,0,0,0,0,0,0,0],"split_type":[0,0,0,0,0,0,0,0,0,0,0,0,0,0,0,0,0,0,0,0,0,0,0,0,0,0,0,0,0,0,0,0,0,0,0,0,0,0,0,0,0,0,0,0,0,0,0,0,0,0,0,0,0,0,0,0,0,0,0,0,0,0,0,0,0,0,0,0,0,0,0,0,0,0,0,0,0,0,0,0,0,0,0,0,0,0,0,0,0,0,0,0,0,0,0],"sum_hessian":[1.323E3,1.095E3,2.28E2,8.89E2,2.06E2,5.1E1,1.77E2,8.83E2,6E0,1.47E2,5.9E1,5E1,1E0,6.4E1,1.13E2,6.81E2,2.02E2,1E0,5E0,5.2E1,9.5E1,2.3E1,3.6E1,3E0,4.7E1,3E1,3.4E1,4.1E1,7.2E1,6.77E2,4E0,1.19E2,8.3E1,2E0,3E0,1.5E1,3.7E1,8.7E1,8E0,1.5E1,8E0,2.4E1,1.2E1,1E0,2E0,1.1E1,3.6E1,1.4E1,1.6E1,2.5E1,9E0,2.8E1,1.3E1,2E0,7E1,6.74E2,3E0,1.16E2,3E0,2.9E1,5.4E1,2E0,1.3E1,2.8E1,9E0,7.5E1,1.2E1,5E0,3E0,3E0,1.2E1,3E0,5E0,8E0,1.6E1,2E0,1E1,1E0,1E1,1.2E1,2.4E1,6E0,8E0,7E0,9E0,1.1E1,1.4E1,2E0,7E0,1.6E1,1.2E1,8E0,5E0,5.2E1,1.8E1],"tree_param":{"num_deleted":"0","num_feature":"40","num_nodes":"95","size_leaf_vector":"1"}},{"base_weights":[-3.6743277E4,-1.3826758E6,2.7544458E6,-1.861494E6,-5.6956E5,-1.2332722E6,4.0469195E6,-1.9030364E6,6.5689625E5,-1.5869994E6,8.076103E5,-1.375253E6,6.908342E5,1.5552654E6,5.458171E6,-2.1942218E6,-1.1274092E6,-8.160114E5,-2.3416265E6,-6.288929E5,1.9467176E6,3.6923642E6,-1.5082106E6,1.773868E6,-5.2276785E6,4.156957E6,8.407699E6,-2.3837228E6,-6.469914E5,2.7559588E6,-1.301117E6,-1.3138572E6,4.1977985E6,-2.4619815E6,4.6062284E5,-2.5579792E6,1.0425781E6,3.3590378E6,-7.96128E5,9.1698055E4,4.621566E5,-2.0866486E6,-6.391092E5,1.1793596E6,5.2016025E6,-6.302007E5,-1.0023475E5,3.532311E6,7.371036E6,9.500945E5,9.034215E6,-2.1461053E5,-2.9571306E5,3.6460447E5,-1.0312973E5,-1.313083E5,6.1360106E5,-1.8541131E5,-2.8367734E4,-1.5716147E5,2.513723E5,4.1261668E4,5.220334E5,2.2102625E5,-2.6364656E5,7.122845E3,-3.8761447E5,3.638295E5,-4.6989562E4,1.8906583E5,7.314477E5,5.836873E4,-5.018958E5,8.932258E3,-2.610668E5,6.0526E5,-9.4254516E4,3.0265794E5,-3.1417017E3,6.512832E5,7.52086E4,6.129911E5,2.327268E5,-1.88772E3,8.927801E5,3.754549E5,-1.39077E5,8.5657836E4,9.624103E5],"categories":[],"categories_nodes":[],"categories_segments":[],"categories_sizes":[],"default_left":[0,0,0,0,0,0,0,0,0,0,0,0,0,0,0,0,0,0,0,0,0,0,0,0,0,0,0,0,0,0,0,0,0,0,0,0,0,0,0,0,0,0,0,0,0,0,0,0,0,0,0,0,0,0,0,0,0,0,0,0,0,0,0,0,0,0,0,0,0,0,0,0,0,0,0,0,0,0,0,0,0,0,0,0,0,0,0,0,0],"id":14,"left_children":[1,3,5,7,9,11,13,15,-1,17,19,21,-1,23,25,27,29,31,33,35,37,39,41,43,45,47,49,51,53,55,57,59,61,63,-1,65,67,69,71,-1,-1,73,75,77,79,-1,-1,81,83,85,87,-1,-1,-1,-1,-1,-1,-1,-1,-1,-1,-1,-1,-1,-1,-1,-1,-1,-1,-1,-1,-1,-1,-1,-1,-1,-1,-1,-1,-1,-1,-1,-1,-1,-1,-1,-1,-1,-1],"loss_changes":[5.011559E15,3.493411E14,2.241836E15,2.1072586E14,4.7067943E14,1.3318759E14,1.144874E15,1.2490624E14,0E0,1.1037828E14,2.3521966E14,7.698942E13,0E0,1.8720554E14,7.6718424E14,1.1837735E14,1.08818936E14,2.4763745E14,9.245273E13,2.0902928E14,3.125763E14,3.4987877E12,5.094942E13,2.3229002E14,1.1840755E13,2.6908963E14,2.8577155E14,4.3249515E13,7.965275E13,1.04332096E14,8.387004E13,9.175688E13,3.2680373E13,8.408949E13,0E0,1.04248E14,1.3911799E14,2.939993E14,1.6607783E14,0E0,0E0,7.092875E13,9.301656E13,2.259887E14,9.4285504E13,0E0,0E0,3.7701156E14,2.6476863E14,4.46108E13,2.7154233E14,0E0,0E0,0E0,0E0,0E0,0E0,0E0,0E0,0E0,0E0,0E0,0E0,0E0,0E0,0E0,0E0,0E0,0E0,0E0,0E0,0E0,0E0,0E0,0E0,0E0,0E0,0E0,0E0,0E0,0E0,0E0,0E0,0E0,0E0,0E0,0E0,0E0,0E0],"parents":[2147483647,0,0,1,1,2,2,3,3,4,4,5,5,6,6,7,7,9,9,10,10,11,11,13,13,14,14,15,15,16,16,17,17,18,18,19,19,20,20,21,21,22,22,23,23,24,24,25,25,26,26,27,27,28,28,29,29,30,30,31,31,32,32,33,33,35,35,36,36,37,37,38,38,41,41,42,42,43,43,44,44,47,47,48,48,49,49,50,50],"right_children":[2,4,6,8,10,12,14,16,-1,18,20,22,-1,24,26,28,30,32,34,36,38,40,42,44,46,48,50,52,54,56,58,60,62,64,-1,66,68,70,72,-1,-1,74,76,78,80,-1,-1,82,84,86,88,-1,-1,-1,-1,-1,-1,-1,-1,-1,-1,-1,-1,-1,-1,-1,-1,-1,-1,-1,-1,-1,-1,-1,-1,-1,-1,-1,-1,-1,-1,-1,-1,-1,-1,-1,-1,-1,-1],"split_conditions":[2.77E1,2.8E1,2.4E1,2.423077E-1,2E1,1.6292405E0,2.3448277E-1,3.554817E-1,6.5689625E5,4.330709E-2,1.6666668E-2,1.594203E-2,6.908342E5,4.5774648E-1,3E1,5.9E0,3.6842105E-1,4.191617E-2,9.189189E-1,1.5337424E-1,1.6E0,1.23E1,9E-1,5.9210528E-2,1.66E1,1.7261274E-1,9.302326E-3,7.3E0,5.3333336E-1,6E-1,3.1E1,1.8266253E-1,1.1940299E-2,5.3333336E-1,4.6062284E5,7.17E1,9.7765364E-2,3.3E1,1.0980392E-1,9.1698055E4,4.621566E5,2.1E1,9.615385E-3,2E0,5.9659094E-1,-6.302007E5,-1.0023475E5,7.777778E-1,1.1904762E-2,9.932518E-1,8.6330935E-2,-2.1461053E5,-2.9571306E5,3.6460447E5,-1.0312973E5,-1.313083E5,6.1360106E5,-1.8541131E5,-2.8367734E4,-1.5716147E5,2.513723E5,4.1261668E4,5.220334E5,2.2102625E5,-2.6364656E5,7.122845E3,-3.8761447E5,3.638295E5,-4.6989562E4,1.8906583E5,7.314477E5,5.836873E4,-5.018958E5,8.932258E3,-2.610668E5,6.0526E5,-9.4254516E4,3.0265794E5,-3.1417017E3,6.512832E5,7.52086E4,6.129911E5,2.327268E5,-1.88772E3,8.927801E5,3.754549E5,-1.39077E5,8.5657836E4,9.624103E5],"split_indices":[3,2,2,12,3,8,6,36,0,33,22,12,0,36,2,32,9,33,30,25,5,1,23,33,1,31,14,1,30,5,38,24,22,30,0,18,24,2,12,0,0,2,25,15,13,0,0,30,14,7,24,0,0,0,0,0,0,0,0,0,0,0,0,0,0,0,0,0,0,0,0,0,0,0,0,0,0,0,0,0,0,0,0,0,0,0,0,0,0],"split_type":[0,0,0,0,0,0,0,0,0,0,0,0,0,0,0,0,0,0,0,0,0,0,0,0,0,0,0,0,0,0,0,0,0,0,0,0,0,0,0,0,0,0,0,0,0,0,0,0,0,0,0,0,0,0,0,0,0,0,0,0,0,0,0,0,0,0,0,0,0,0,0,0,0,0,0,0,0,0,0,0,0,0,0,0,0,0,0,0,0],"sum_hessian":[1.332E3,8.99E2,4.33E2,5.65E2,3.34E2,1.06E2,3.27E2,5.63E2,2E0,1.92E2,1.42E2,1.05E2,1E0,1.19E2,2.08E2,4.08E2,1.55E2,9.6E1,9.6E1,6.3E1,7.9E1,2E0,1.03E2,1.16E2,3E0,1.46E2,6.2E1,3.63E2,4.5E1,6E0,1.49E2,8.8E1,8E0,9.5E1,1E0,2.9E1,3.4E1,5.2E1,2.7E1,1E0,1E0,6.1E1,4.2E1,1E2,1.6E1,2E0,1E0,1.24E2,2.2E1,5E0,5.7E1,2.6E2,1.03E2,3E0,4.2E1,3E0,3E0,9.6E1,5.3E1,8.3E1,5E0,2E0,6E0,3E0,9.2E1,1E1,1.9E1,1.2E1,2.2E1,3.9E1,1.3E1,2.1E1,6E0,1.2E1,4.9E1,1E0,4.1E1,3.9E1,6.1E1,1.2E1,4E0,3.8E1,8.6E1,4E0,1.8E1,2E0,3E0,4E0,5.3E1],"tree_param":{"num_deleted":"0","num_feature":"40","num_nodes":"89","size_leaf_vector":"1"}},{"base_weights":[-1.204752E4,-8.4134256E5,4.1496295E6,-1.299915E6,9.357974E5,-5.0383144E5,5.829161E6,-1.4400156E6,2.1182481E5,-9.415808E4,3.6617145E6,-8.044456E5,5.3757825E5,4.6431135E6,8.445369E6,-2.0837312E6,-1.2537855E6,8.171239E5,-1.18176086E5,9.451868E6,-3.900337E5,7.322873E6,2.229075E6,-1.7515774E6,9.0261725E5,1.308483E6,5.3900565E6,4.0794578E6,9.460232E6,-2.376192E6,-1.5387426E6,6.2265656E5,-1.3597944E6,2.7311644E5,-4.533129E6,1.0414965E6,2.79974E5,-2.718061E6,5.789825E4,3.8771208E6,9.347188E6,8.005118E5,5.437183E6,-2.0270641E6,1.027954E5,-3.247536E5,4.02517E6,-3.7797912E6,3.934997E6,1.6223709E6,6.222434E6,-7.66406E5,5.2414725E5,9.99147E6,3.8495225E6,1.2267112E4,-2.4919442E5,6.629611E4,-1.8593847E5,-1.67562E5,1.7946855E5,-1.8501875E5,-1.0182386E5,-1.5045839E5,1.4094211E5,-4.611435E4,-5.255297E5,-9.886423E4,-3.57548E5,-1.1840799E5,7.7101336E4,4.4809E5,-1.7466701E4,5.260436E5,1.1194949E6,9.857765E3,7.7869944E5,5.9148475E5,1.714132E5,-1.5528147E5,-3.9814262E5,5.7713094E4,-3.17469E5,8.208597E5,-1.186925E4,2.6908772E5,-6.3851606E5,-3.001173E5,5.9191375E5,-1.7162917E5,3.4347266E5,7.961991E5,4.5012722E5,-1.159687E5,1.0078E3,6.5740794E5,1.1712015E6,4.51134E5,6.01126E4],"categories":[],"categories_nodes":[],"categories_segments":[],"categories_sizes":[],"default_left":[0,0,0,0,0,0,0,0,0,0,0,0,0,0,0,0,0,0,0,0,0,0,0,0,0,0,0,0,0,0,0,0,0,0,0,0,0,0,0,0,0,0,0,0,0,0,0,0,0,0,0,0,0,0,0,0,0,0,0,0,0,0,0,0,0,0,0,0,0,0,0,0,0,0,0,0,0,0,0,0,0,0,0,0,0,0,0,0,0,0,0,0,0,0,0,0,0,0,0],"id":15,"left_children":[1,3,5,7,9,11,13,15,17,19,21,23,-1,25,27,29,31,-1,33,35,37,39,41,43,45,47,49,51,53,55,57,59,61,63,65,-1,-1,67,69,71,73,75,77,79,-1,81,83,85,87,89,91,93,-1,95,97,-1,-1,-1,-1,-1,-1,-1,-1,-1,-1,-1,-1,-1,-1,-1,-1,-1,-1,-1,-1,-1,-1,-1,-1,-1,-1,-1,-1,-1,-1,-1,-1,-1,-1,-1,-1,-1,-1,-1,-1,-1,-1,-1,-1],"loss_changes":[4.548798E15,8.968436E14,1.7145609E15,1.8541441E14,6.348563E14,1.0860677E14,4.6036144E14,9.3290985E13,1.9796167E14,4.6971853E14,3.088741E14,9.373938E13,0E0,2.7440546E14,1.785171E14,2.4714651E13,1.24773565E14,0E0,1.2734835E14,2.8740378E12,1.6804781E14,8.233976E13,2.0646483E14,3.0415499E13,8.179032E13,3.0889083E14,2.784293E14,6.5957712E13,7.778159E13,3.3280024E13,4.7120002E13,9.459119E13,9.693902E13,1.394812E14,1.5220517E13,0E0,0E0,3.5018865E13,1.2136451E14,2.035375E13,1.6623134E13,1.6106606E14,1.4758313E13,2.5330677E13,0E0,4.2957223E13,1.04987565E14,1.5204954E14,2.2419939E14,1.1481018E14,1.887155E14,9.278166E11,0E0,1.2879614E14,8.037352E12,0E0,0E0,0E0,0E0,0E0,0E0,0E0,0E0,0E0,0E0,0E0,0E0,0E0,0E0,0E0,0E0,0E0,0E0,0E0,0E0,0E0,0E0,0E0,0E0,0E0,0E0,0E0,0E0,0E0,0E0,0E0,0E0,0E0,0E0,0E0,0E0,0E0,0E0,0E0,0E0,0E0,0E0,0E0,0E0],"parents":[2147483647,0,0,1,1,2,2,3,3,4,4,5,5,6,6,7,7,8,8,9,9,10,10,11,11,13,13,14,14,15,15,16,16,18,18,19,19,20,20,21,21,22,22,23,23,24,24,25,25,26,26,27,27,28,28,29,29,30,30,31,31,32,32,33,33,34,34,37,37,38,38,39,39,40,40,41,41,42,42,43,43,45,45,46,46,47,47,48,48,49,49,50,50,51,51,53,53,54,54],"right_children":[2,4,6,8,10,12,14,16,18,20,22,24,-1,26,28,30,32,-1,34,36,38,40,42,44,46,48,50,52,54,56,58,60,62,64,66,-1,-1,68,70,72,74,76,78,80,-1,82,84,86,88,90,92,94,-1,96,98,-1,-1,-1,-1,-1,-1,-1,-1,-1,-1,-1,-1,-1,-1,-1,-1,-1,-1,-1,-1,-1,-1,-1,-1,-1,-1,-1,-1,-1,-1,-1,-1,-1,-1,-1,-1,-1,-1,-1,-1,-1,-1,-1,-1],"split_conditions":[1.71E1,2.41E1,2.4E1,2.72E1,3E1,1.0169491E-1,2.9E0,4.4E0,9.5551145E-1,2.7567568E-1,4.330709E-2,7E1,5.3757825E5,2.6E1,8.571429E-2,2.3E1,8E-2,8.171239E5,4.5E0,2.69E1,3.8674034E-2,2.4358975E-2,9.166667E-2,2.3343849E-1,6.909621E-1,3E0,-1.2E0,4.285714E-3,4.6E1,1.6666667E-1,3.8E1,3.4E1,2.5E1,2.6E1,2E1,1.0414965E6,2.79974E5,2.3728814E-2,2.4E1,3.19E1,2.7E0,3.77E1,1.725E-1,2.7E1,1.027954E5,2.5E0,5.1E0,1.1320755E-2,2.6153848E-1,3.5E0,1.2193706E-1,3.17E1,5.2414725E5,2.7E1,3.4E1,1.2267112E4,-2.4919442E5,6.629611E4,-1.8593847E5,-1.67562E5,1.7946855E5,-1.8501875E5,-1.0182386E5,-1.5045839E5,1.4094211E5,-4.611435E4,-5.255297E5,-9.886423E4,-3.57548E5,-1.1840799E5,7.7101336E4,4.4809E5,-1.7466701E4,5.260436E5,1.1194949E6,9.857765E3,7.7869944E5,5.9148475E5,1.714132E5,-1.5528147E5,-3.9814262E5,5.7713094E4,-3.17469E5,8.208597E5,-1.186925E4,2.6908772E5,-6.3851606E5,-3.001173E5,5.9191375E5,-1.7162917E5,3.4347266E5,7.961991E5,4.5012722E5,-1.159687E5,1.0078E3,6.5740794E5,1.1712015E6,4.51134E5,6.01126E4],"split_indices":[1,0,2,3,2,20,5,1,17,9,33,39,0,2,12,38,6,0,15,0,33,12,12,24,9,11,23,26,38,9,39,38,2,2,0,0,0,12,2,3,23,0,12,11,0,23,15,14,6,4,31,0,0,2,2,0,0,0,0,0,0,0,0,0,0,0,0,0,0,0,0,0,0,0,0,0,0,0,0,0,0,0,0,0,0,0,0,0,0,0,0,0,0,0,0,0,0,0,0],"split_type":[0,0,0,0,0,0,0,0,0,0,0,0,0,0,0,0,0,0,0,0,0,0,0,0,0,0,0,0,0,0,0,0,0,0,0,0,0,0,0,0,0,0,0,0,0,0,0,0,0,0,0,0,0,0,0,0,0,0,0,0,0,0,0,0,0,0,0,0,0,0,0,0,0,0,0,0,0,0,0,0,0,0,0,0,0,0,0,0,0,0,0,0,0,0,0,0,0,0,0],"sum_hessian":[1.316E3,1.098E3,2.18E2,8.73E2,2.25E2,5.8E1,1.6E2,7.99E2,7.4E1,1.64E2,6.1E1,5.6E1,2E0,1.12E2,4.8E1,1.77E2,6.22E2,2E0,7.2E1,4E0,1.6E2,1.6E1,4.5E1,3.6E1,2E1,2.1E1,9.1E1,1E1,3.8E1,1.13E2,6.4E1,3.3E1,5.89E2,6.7E1,5E0,3E0,1E0,2.5E1,1.35E2,7E0,9E0,3.2E1,1.3E1,3.3E1,3E0,1.5E1,5E0,7E0,1.4E1,1.7E1,7.4E1,2E0,8E0,3.4E1,4E0,5E0,1.08E2,8E0,5.6E1,1.1E1,2.2E1,2.4E2,3.49E2,2.6E1,4.1E1,1E0,4E0,9E0,1.6E1,4.9E1,8.6E1,6E0,1E0,4E0,5E0,3E1,2E0,1.1E1,2E0,2.8E1,5E0,1.2E1,3E0,2E0,3E0,2E0,5E0,3E0,1.1E1,6E0,1.1E1,3.5E1,3.9E1,1E0,1E0,1.3E1,2.1E1,3E0,1E0],"tree_param":{"num_deleted":"0","num_feature":"40","num_nodes":"99","size_leaf_vector":"1"}},{"base_weights":[1.3104887E5,-7.269731E5,3.1394805E6,-1.0430509E6,7.4570856E5,-7.8482006E5,4.2910655E6,-1.1318089E6,3.3987718E6,1.7939417E5,5.9584195E6,-1.2563708E6,2.9088565E6,3.4000325E6,7.3342785E6,-1.4996191E6,-6.3343906E5,-2.8205628E5,4.416054E6,-1.1029319E6,1.1869764E6,2.4341662E6,7.979838E6,-1.5204772E6,1.4180179E6,6.371262E5,6.928448E5,2.2942218E6,4.86851E6,3.686275E6,8.2453225E6,-1.9220028E5,-1.5767798E6,-3.452364E5,-2.3227618E6,7.616263E4,4.919687E6,-3.5303085E6,-3.1704222E5,1.4448228E6,-7.115969E5,4.2348525E5,5.06784E5,1.03418555E5,8.570985E6,-8.516774E5,-2.5945875E6,5.33954E5,-4.341946E5,1.4659833E5,-1.5864236E5,2.5491075E6,-4.715199E5,2.72697E6,6.5372095E6,4.547555E6,8.26826E5,5.7397215E6,9.676568E6,2.1949361E5,-8.065749E4,-1.6316698E5,2.6880646E4,-7.9151086E4,1.1493027E5,1.8718214E5,-3.0168484E5,9.463608E4,5.171934E5,-2.45601E5,-4.8676334E5,-1.7506675E5,3.8951992E4,1.7528361E4,2.9520053E5,9.94152E4,-7.21344E4,9.687486E5,4.4743606E5,-2.5873338E5,-1.7729814E4,-3.6748547E5,-1.4781494E5,8.2809836E4,-2.7416834E5,-1.4244311E5,3.0014134E5,-1.8408201E4,3.4613075E5,2.4742338E5,7.72957E5,7.47437E4,4.92914E5,-5.5991E3,1.139762E5,7.0635606E5,-3.2864652E4,4.7919884E5,1.0709774E6],"categories":[],"categories_nodes":[],"categories_segments":[],"categories_sizes":[],"default_left":[0,0,0,0,0,0,0,0,0,0,0,0,0,0,0,0,0,0,0,0,0,0,0,0,0,0,0,0,0,0,0,0,0,0,0,0,0,0,0,0,0,0,0,0,0,0,0,0,0,0,0,0,0,0,0,0,0,0,0,0,0,0,0,0,0,0,0,0,0,0,0,0,0,0,0,0,0,0,0,0,0,0,0,0,0,0,0,0,0,0,0,0,0,0,0,0,0,0,0],"id":16,"left_children":[1,3,5,7,9,11,13,15,17,19,21,23,25,27,29,31,33,-1,35,37,39,41,43,45,47,-1,49,51,53,55,57,59,61,63,65,-1,67,69,71,73,-1,-1,75,-1,77,79,81,-1,83,-1,-1,85,-1,87,89,91,93,95,97,-1,-1,-1,-1,-1,-1,-1,-1,-1,-1,-1,-1,-1,-1,-1,-1,-1,-1,-1,-1,-1,-1,-1,-1,-1,-1,-1,-1,-1,-1,-1,-1,-1,-1,-1,-1,-1,-1,-1,-1],"loss_changes":[3.4431558E15,4.83948E14,1.3410407E15,3.4092806E14,5.4210513E14,1.2209401E14,5.960204E14,1.5284339E14,1.2001165E14,2.1708134E14,1.0880763E14,4.5241776E13,5.6967536E13,2.7950117E14,1.3910352E14,4.832167E13,1.734966E14,0E0,2.3860422E13,1.4004686E14,2.1152435E14,2.5618733E13,3.630093E13,3.8018673E13,4.589935E13,0E0,1.2898808E13,1.978261E14,2.5376586E14,2.579341E13,8.790456E13,4.283507E13,4.653208E13,2.0567088E14,1.5704004E14,0E0,8.1348694E12,1.3905393E13,5.84198E13,1.7551787E14,0E0,0E0,3.709877E12,0E0,2.3935719E12,4.1678933E13,1.9895094E13,0E0,1.6834018E13,0E0,0E0,1.85798E14,0E0,7.545647E13,1.843455E14,9.366401E12,1.1688773E12,1.3889169E14,6.980154E13,0E0,0E0,0E0,0E0,0E0,0E0,0E0,0E0,0E0,0E0,0E0,0E0,0E0,0E0,0E0,0E0,0E0,0E0,0E0,0E0,0E0,0E0,0E0,0E0,0E0,0E0,0E0,0E0,0E0,0E0,0E0,0E0,0E0,0E0,0E0,0E0,0E0,0E0,0E0,0E0],"parents":[2147483647,0,0,1,1,2,2,3,3,4,4,5,5,6,6,7,7,8,8,9,9,10,10,11,11,12,12,13,13,14,14,15,15,16,16,18,18,19,19,20,20,21,21,22,22,23,23,24,24,26,26,27,27,28,28,29,29,30,30,31,31,32,32,33,33,34,34,36,36,37,37,38,38,39,39,42,42,44,44,45,45,46,46,48,48,51,51,53,53,54,54,55,55,56,56,57,57,58,58],"right_children":[2,4,6,8,10,12,14,16,18,20,22,24,26,28,30,32,34,-1,36,38,40,42,44,46,48,-1,50,52,54,56,58,60,62,64,66,-1,68,70,72,74,-1,-1,76,-1,78,80,82,-1,84,-1,-1,86,-1,88,90,92,94,96,98,-1,-1,-1,-1,-1,-1,-1,-1,-1,-1,-1,-1,-1,-1,-1,-1,-1,-1,-1,-1,-1,-1,-1,-1,-1,-1,-1,-1,-1,-1,-1,-1,-1,-1,-1,-1,-1,-1,-1,-1],"split_conditions":[3.04E1,2.41E1,2.4E1,1.2809339E0,1.1081081E-1,2.4324325E-1,8.4033616E-2,2.7E1,1.1314021E0,2.6E1,4.41E1,5.55E1,7.6923077E-3,2.9E1,5.1E0,5.5E-2,8.648649E-1,-2.8205628E5,4.054054E-2,7.473309E-2,9.259259E-2,2.86E1,2.4E1,3.1304348E-1,1.6486586E0,6.371262E5,5.297297E-1,4.3E1,7.2916664E-2,3.4E0,2.42E1,4.4451762E-2,6.2E0,8.7546873E-1,4E1,7.616263E4,2.3E1,1.1631508E0,1.9E1,7.906977E-1,-7.115969E5,4.2348525E5,3.1E1,1.03418555E5,8.8709675E-2,3.16E1,2.26E1,5.33954E5,3.32E1,1.4659833E5,-1.5864236E5,1.8E1,-4.715199E5,5.3658538E-2,3.076923E-2,2.7125E-1,2.42E1,4.15E1,1.09195404E-1,2.1949361E5,-8.065749E4,-1.6316698E5,2.6880646E4,-7.9151086E4,1.1493027E5,1.8718214E5,-3.0168484E5,9.463608E4,5.171934E5,-2.45601E5,-4.8676334E5,-1.7506675E5,3.8951992E4,1.7528361E4,2.9520053E5,9.94152E4,-7.21344E4,9.687486E5,4.4743606E5,-2.5873338E5,-1.7729814E4,-3.6748547E5,-1.4781494E5,8.2809836E4,-2.7416834E5,-1.4244311E5,3.0014134E5,-1.8408201E4,3.4613075E5,2.4742338E5,7.72957E5,7.47437E4,4.92914E5,-5.5991E3,1.139762E5,7.0635606E5,-3.2864652E4,4.7919884E5,1.0709774E6],"split_indices":[3,0,2,8,12,25,33,2,17,2,37,37,26,2,15,20,30,0,20,20,33,3,2,6,17,0,6,11,21,5,1,31,32,8,37,0,2,8,38,30,0,0,2,0,33,3,1,0,3,0,0,38,0,21,19,6,1,0,25,0,0,0,0,0,0,0,0,0,0,0,0,0,0,0,0,0,0,0,0,0,0,0,0,0,0,0,0,0,0,0,0,0,0,0,0,0,0,0,0],"split_type":[0,0,0,0,0,0,0,0,0,0,0,0,0,0,0,0,0,0,0,0,0,0,0,0,0,0,0,0,0,0,0,0,0,0,0,0,0,0,0,0,0,0,0,0,0,0,0,0,0,0,0,0,0,0,0,0,0,0,0,0,0,0,0,0,0,0,0,0,0,0,0,0,0,0,0,0,0,0,0,0,0,0,0,0,0,0,0,0,0,0,0,0,0,0,0,0,0,0,0],"sum_hessian":[1.332E3,1.037E3,2.95E2,8.54E2,1.83E2,6.7E1,2.28E2,8.38E2,1.6E1,1.66E2,1.7E1,6E1,7E0,1.78E2,5E1,4.81E2,3.57E2,2E0,1.4E1,7.3E1,9.3E1,7E0,1E1,5.5E1,5E0,2E0,5E0,1.03E2,7.5E1,1.1E1,3.9E1,2.7E1,4.54E2,3.06E2,5.1E1,2E0,1.2E1,1.7E1,5.6E1,9.1E1,2E0,3E0,4E0,1E0,9E0,3.5E1,2E1,1E0,4E0,4E0,1E0,1E2,3E0,3.4E1,4.1E1,8E0,3E0,1.6E1,2.3E1,5E0,2.2E1,4.41E2,1.3E1,2.36E2,7E1,7E0,4.4E1,1E0,1.1E1,1.1E1,6E0,1.8E1,3.8E1,5E1,4.1E1,3E0,1E0,6E0,3E0,9E0,2.6E1,9E0,1.1E1,3E0,1E0,1E1,9E1,7E0,2.7E1,1E1,3.1E1,1E0,7E0,1E0,2E0,1.3E1,3E0,5E0,1.8E1],"tree_param":{"num_deleted":"0","num_feature":"40","num_nodes":"99","size_leaf_vector":"1"}},{"base_weights":[1.18776625E5,-6.706922E5,2.9099952E6,-1.4397806E6,-1.7124983E5,4.0035962E5,4.745024E6,-1.1083116E6,-1.8647698E6,-9.49164E5,7.0779356E5,-7.812097E5,1.8968958E6,4.0388542E6,1.0070311E6,-1.251485E6,2.3466098E5,-9.498041E5,-2.1014888E6,-1.5337031E6,-4.0306328E5,-1.6631938E5,1.4716139E6,-1.6001379E6,1.5011839E6,3.9236E5,5.5396795E6,2.2864258E6,5.5848795E6,-9.824456E5,-2.127815E6,-7.1031744E5,2.4960855E6,-1.729039E6,1.1200489E6,-2.244155E6,-5.460954E5,-1.2206541E6,-3.1753412E6,-7.016439E5,3.3257472E6,-8.3193644E5,1.4287244E6,-7.770659E5,2.1230962E6,-8.413723E5,-2.4503072E6,-6.7707944E5,5.332075E6,2.1971622E6,-2.7621212E6,-4.439506E5,6.5009255E6,3.056622E6,-2.2625375E6,6.9217785E6,2.902608E6,-1.4350448E5,-3.2603734E4,-2.4580255E5,1.2035998E5,1.3734898E5,-2.3063316E5,6.580734E3,3.4550356E5,-2.3707316E5,1.0189552E5,-4.2155063E3,3.1644447E5,-2.6298975E5,-1.4294511E5,-1.7600836E5,7.459064E4,3.3193697E5,-1.3131872E5,-9.241693E4,-3.330914E5,3.8515025E5,-9.027431E4,-4.3048586E4,6.6068744E5,2.1691816E5,-1.4439739E5,-4.5858098E4,4.120131E5,4.4258522E5,-1.5657386E5,3.028158E5,2.6119004E4,5.6134613E4,-1.402472E5,-7.1441914E4,-2.9892466E5,9.4067375E4,-1.2564727E5,6.9518825E5,8.5503805E4,3.7844447E5,-1.22153164E5,-7.295761E5,-4.502739E4,7.009372E5,-3.08661E4,3.505626E5,-9.720705E4,6.192279E4,-7.4604344E5,8.241037E4,7.4127494E5,-2.665098E5,4.2288525E5],"categories":[],"categories_nodes":[],"categories_segments":[],"categories_sizes":[],"default_left":[0,0,0,0,0,0,0,0,0,0,0,0,0,0,0,0,0,0,0,0,0,0,0,0,0,0,0,0,0,0,0,0,0,0,0,0,0,0,0,0,0,0,0,0,0,0,0,0,0,0,0,0,0,0,0,0,0,0,0,0,0,0,0,0,0,0,0,0,0,0,0,0,0,0,0,0,0,0,0,0,0,0,0,0,0,0,0,0,0,0,0,0,0,0,0,0,0,0,0,0,0,0,0,0,0,0,0,0,0,0,0],"id":17,"left_children":[1,3,5,7,9,11,13,15,17,19,21,23,25,27,-1,29,31,33,35,37,39,41,43,45,47,49,51,53,55,57,59,61,63,65,67,69,71,73,75,77,79,81,83,85,87,89,91,93,95,97,99,-1,101,103,105,107,109,-1,-1,-1,-1,-1,-1,-1,-1,-1,-1,-1,-1,-1,-1,-1,-1,-1,-1,-1,-1,-1,-1,-1,-1,-1,-1,-1,-1,-1,-1,-1,-1,-1,-1,-1,-1,-1,-1,-1,-1,-1,-1,-1,-1,-1,-1,-1,-1,-1,-1,-1,-1,-1,-1],"loss_changes":[2.9084743E15,3.9500814E14,1.3382291E15,5.498585E13,4.2805946E14,2.2074625E14,5.911008E14,4.4517604E13,3.612376E13,1.0536196E14,1.9653834E14,1.3324025E14,2.9926487E14,3.936257E14,0E0,4.6949093E13,5.0923955E13,6.3226868E13,2.96189E13,7.83501E13,1.9494313E14,1.4770161E14,2.316509E14,3.1482496E13,1.6215936E14,2.337974E14,1.8234012E14,2.591745E14,2.6319694E14,4.736359E13,5.5761745E13,5.9706073E13,1.6086234E13,5.178995E13,2.6269442E13,3.6152485E13,2.170303E13,6.149279E13,5.677192E12,1.5089403E14,1.6306496E14,1.8313828E14,2.1014913E14,1.5465208E14,2.0479612E14,2.3612155E13,2.0317343E13,1.3367032E13,4.4819427E13,1.4571005E14,1.5393116E14,0E0,5.4098133E13,1.1555952E14,1.6939E14,1.4956767E14,2.1802623E14,0E0,0E0,0E0,0E0,0E0,0E0,0E0,0E0,0E0,0E0,0E0,0E0,0E0,0E0,0E0,0E0,0E0,0E0,0E0,0E0,0E0,0E0,0E0,0E0,0E0,0E0,0E0,0E0,0E0,0E0,0E0,0E0,0E0,0E0,0E0,0E0,0E0,0E0,0E0,0E0,0E0,0E0,0E0,0E0,0E0,0E0,0E0,0E0,0E0,0E0,0E0,0E0,0E0,0E0],"parents":[2147483647,0,0,1,1,2,2,3,3,4,4,5,5,6,6,7,7,8,8,9,9,10,10,11,11,12,12,13,13,15,15,16,16,17,17,18,18,19,19,20,20,21,21,22,22,23,23,24,24,25,25,26,26,27,27,28,28,29,29,30,30,31,31,32,32,33,33,34,34,35,35,36,36,37,37,38,38,39,39,40,40,41,41,42,42,43,43,44,44,45,45,46,46,47,47,48,48,49,49,50,50,52,52,53,53,54,54,55,55,56,56],"right_children":[2,4,6,8,10,12,14,16,18,20,22,24,26,28,-1,30,32,34,36,38,40,42,44,46,48,50,52,54,56,58,60,62,64,66,68,70,72,74,76,78,80,82,84,86,88,90,92,94,96,98,100,-1,102,104,106,108,110,-1,-1,-1,-1,-1,-1,-1,-1,-1,-1,-1,-1,-1,-1,-1,-1,-1,-1,-1,-1,-1,-1,-1,-1,-1,-1,-1,-1,-1,-1,-1,-1,-1,-1,-1,-1,-1,-1,-1,-1,-1,-1,-1,-1,-1,-1,-1,-1,-1,-1,-1,-1,-1,-1],"split_conditions":[2.94E1,2.5E1,2.6E1,3.4E0,1.81E1,2.4E1,6.153846E-2,1.1631508E0,1.5E1,5E-1,1.6463415E-1,4.1E1,1E-1,5.913978E-1,1.0070311E6,2.4E1,3.529412E-1,5.1E1,8E1,8.74E1,8.813559E-2,8.19E1,3.2E0,7.82E1,2.3E1,3.8E1,7.8845733E-1,4.5454547E-1,1.9753087E-1,3E-1,8.8235295E-1,3.0232558E-1,1.6949153E-2,4.797048E-1,1.7E0,2.5396826E-2,4.918033E-3,6.410257E-2,9.063444E-3,6.849315E-3,1.4E1,1E-2,1.4E0,7.631579E-1,1.0138889E-1,9.6E-2,2.2E1,1E0,1.3E1,6.8E1,4E0,-4.439506E5,1.3862944E0,1.4586151E0,1.3E1,3.54E1,3.5E0,-1.4350448E5,-3.2603734E4,-2.4580255E5,1.2035998E5,1.3734898E5,-2.3063316E5,6.580734E3,3.4550356E5,-2.3707316E5,1.0189552E5,-4.2155063E3,3.1644447E5,-2.6298975E5,-1.4294511E5,-1.7600836E5,7.459064E4,3.3193697E5,-1.3131872E5,-9.241693E4,-3.330914E5,3.8515025E5,-9.027431E4,-4.3048586E4,6.6068744E5,2.1691816E5,-1.4439739E5,-4.5858098E4,4.120131E5,4.4258522E5,-1.5657386E5,3.028158E5,2.6119004E4,5.6134613E4,-1.402472E5,-7.1441914E4,-2.9892466E5,9.4067375E4,-1.2564727E5,6.9518825E5,8.5503805E4,3.7844447E5,-1.22153164E5,-7.295761E5,-4.502739E4,7.009372E5,-3.08661E4,3.505626E5,-9.720705E4,6.192279E4,-7.4604344E5,8.241037E4,7.4127494E5,-2.665098E5,4.2288525E5],"split_indices":[0,2,2,32,0,2,16,7,38,28,6,38,12,9,0,2,36,39,39,18,10,18,32,18,2,38,7,36,25,35,30,9,10,9,34,19,26,24,10,14,0,22,4,30,21,21,2,23,11,39,11,0,7,7,11,0,15,0,0,0,0,0,0,0,0,0,0,0,0,0,0,0,0,0,0,0,0,0,0,0,0,0,0,0,0,0,0,0,0,0,0,0,0,0,0,0,0,0,0,0,0,0,0,0,0,0,0,0,0,0,0],"split_type":[0,0,0,0,0,0,0,0,0,0,0,0,0,0,0,0,0,0,0,0,0,0,0,0,0,0,0,0,0,0,0,0,0,0,0,0,0,0,0,0,0,0,0,0,0,0,0,0,0,0,0,0,0,0,0,0,0,0,0,0,0,0,0,0,0,0,0,0,0,0,0,0,0,0,0,0,0,0,0,0,0,0,0,0,0,0,0,0,0,0,0,0,0,0,0,0,0,0,0,0,0,0,0,0,0,0,0,0,0,0,0],"sum_hessian":[1.318E3,1.028E3,2.9E2,4.04E2,6.24E2,1.23E2,1.67E2,2.29E2,1.75E2,3.31E2,2.93E2,6.9E1,5.4E1,1.49E2,1.8E1,2.07E2,2.2E1,3.7E1,1.38E2,1.59E2,1.72E2,1.37E2,1.56E2,5.1E1,1.8E1,3.9E1,1.5E1,7.1E1,7.8E1,1.6E2,4.7E1,1.6E1,6E0,2.7E1,1E1,1.26E2,1.2E1,1.35E2,2.4E1,1.6E2,1.2E1,9.7E1,4E1,3.5E1,1.21E2,2.8E1,2.3E1,1.2E1,6E0,2.5E1,1.4E1,1E0,1.4E1,6.1E1,1E1,5.1E1,2.7E1,9.4E1,6.6E1,4.3E1,4E0,7E0,9E0,2E0,4E0,2.2E1,5E0,7E0,3E0,8.4E1,4.2E1,6E0,6E0,2E0,1.33E2,2E0,2.2E1,6E0,1.54E2,6E0,6E0,1.6E1,8.1E1,2.4E1,1.6E1,4E0,3.1E1,8.1E1,4E1,8E0,2E1,6E0,1.7E1,3E0,9E0,4E0,2E0,1.7E1,8E0,4E0,1E1,1.3E1,1E0,5.5E1,6E0,7E0,3E0,4E0,4.7E1,5E0,2.2E1],"tree_param":{"num_deleted":"0","num_feature":"40","num_nodes":"111","size_leaf_vector":"1"}},{"base_weights":[3.1485383E4,-5.767966E5,3.0755172E6,-9.004409E5,5.458456E5,2.6556618E6,8.2626965E6,-9.5832975E5,4.086998E6,1.1546747E5,2.0116808E6,9.049463E5,3.4438948E6,8.994562E6,-1.35764E5,-1.1569542E6,-2.8482397E5,6.773202E6,4.61539E4,7.525131E5,-2.1349395E3,3.4831468E6,3.0221178E5,4.2562105E6,-9.846358E4,2.2879435E6,4.9662965E6,1.0839121E6,4.421202E6,-1.1061354E6,-4.313993E6,3.1871622E5,-1.0154373E6,